tree
version=v4
num_class=1
num_tree_per_iteration=1
label_index=0
max_feature_idx=30
objective=binary sigmoid:1
feature_names=Column_0 Column_1 Column_2 Column_3 Column_4 Column_5 Column_6 Column_7 Column_8 Column_9 Column_10 Column_11 Column_12 Column_13 Column_14 Column_15 Column_16 Column_17 Column_18 Column_19 Column_20 Column_21 Column_22 Column_23 Column_24 Column_25 Column_26 Column_27 Column_28 Column_29 Column_30
feature_infos=[-0.97706537832924534:1.006122413549368] [-1.0193918456795643:0.98561197737584616] [-0.97235796687593379:0.98630938619064845] [-0.98315926506404416:1.0228519493789299] [0:1] [0:1] [-1:0] [-1:1] [-1:0.66666666666666663] [0:1] [-0.75:0.75] [-0.97706537832924534:1.006122413549368] [-0.98315926506404416:1.0228519493789299] [-0.91666666666666663:1] [-1:1] [-0.75:0.75] [-0.75:0.75] [-0.5:0.5] [-0.58815944512122764:2099.9383545399942] [-0.59167426814784829:1062.4239126176603] [-0.59665085275188789:1801.3510721865121] [-0.81477140412701488:2.0363993158371625] [-0.86674485053378414:2.3558657904739047] [-0.77777777777777779:2.7777777777777777] [-0.8666666666666667:2.6000000000000001] [-1.0039058141529218:0.99396014683515321] none none none none none
tree_sizes=13795

Tree=0
num_leaves=132
num_cat=0
split_feature=23 10 19 3 23 2 14 2 15 20 19 15 2 21 21 19 7 21 0 18 3 14 14 1 2 19 19 1 2 13 2 22 14 22 23 1 3 14 21 20 19 20 22 21 13 23 8 14 24 7 0 2 4 21 18 14 2 18 1 2 13 3 18 20 3 22 2 13 25 10 4 24 1 8 9 2 19 18 0 0 21 24 3 19 17 2 25 25 2 20 20 18 20 14 13 7 21 2 3 1 3 23 2 22 8 1 20 14 7 2 10 13 24 2 10 3 13 2 2 2 1 25 0 0 0 0 0 0 0 0 0
split_gain=12.1941 9.60991 14.1765 12.6657 9.08054 12.7449 13.2355 8.87247 8.8333 9.12458 8.59947 7.9593 12.6178 8.79067 21.0997 12.0111 19.889 11.1854 8.70582 8.01664 7.80683 9.7088 7.18131 8.94583 7.00399 6.92669 9.34917 6.65509 9.78999 12.6812 9.82797 6.37962 8.7506 6.42747 6.03077 16.5699 21.3203 9.02068 9.31736 7.18255 6.92694 10.9256 8.35616 6.81618 5.71254 6.01801 11.5807 10.31 7.98314 14.0339 5.67479 10.6134 5.59802 5.19971 12.0551 5.18864 5.01386 10.6303 15.489 7.14775 5.70236 5.98671 5.7128 4.88698 11.3013 4.71126 6.14248 5.23481 4.70616 6.56489 11.2818 8.30036 5.14368 7.9478 13.301 4.58889 5.6823 9.52859 4.60853 10.5369 5.03603 4.46807 3.61931 3.28096 7.35661 3.24957 3.07124 7.16623 2.86897 2.81807 3.25848 2.86897 2.70269 2.70269 2.69298 5.17659 3.47453 2.54486 3.6574 2.47145 2.16053 1.9308 5.32931 1.91849 1.85198 3.79253 1.82675 2.56867 1.78891 1.54154 1.50446 1.48856 1.47847 1.22646 0.591309 0.502081 0.482298 0.455092 0.433469 0.420419 0.411806 0.33347 1.77636e-15 1.77636e-15 1.77636e-15 8.88178e-16 8.88178e-16 8.88178e-16 8.88178e-16 8.88178e-16 8.88178e-16
threshold=-0.38888888888888878 0.37500000000000006 -0.55367517062391491 -0.90934648995362355 1.3888888888888891 0.56407385520567788 -0.29999999999999993 0.23299898486974799 -0.62499999999999989 -0.23176278711514925 -0.25985190141550113 0.62500000000000011 0.17302543362909481 0.36466833753624189 -0.16884251691632612 -0.070765666430908633 1.0000000180025095e-35 -0.41027030327616282 0.98656422135528443 0.73924705214312969 0.12464161308114141 0.16666666666666671 -0.36666666666666664 0.75888432492406921 -0.85639817621937431 -0.52330493780418441 -0.51970407574533739 0.52102994682402148 -0.44481165539170925 -0.45833333333333331 -0.72158030226403802 0.76763304593677295 0.90000000000000013 0.74125640974347717 0.27777777777777785 0.9092020530780397 0.066850044338854317 0.30000000000000004 -0.64900158407419373 -0.57471421597187278 0.25000934245648093 -0.50930655001767611 0.66761354164582898 -0.72571092084752509 -0.12499999999999999 0.94444444444444453 -0.49999999999999994 0.63333333333333341 -0.29999999999999993 -1.0000000180025095e-35 -0.14991505603821351 0.43579677791798604 1.0000000180025095e-35 -0.64200835621947372 -0.26647003005593872 0.16666666666666671 0.51363394940080476 -0.21824835002353241 0.21797728941158293 0.59843119513360732 -0.20833333333333329 0.72288040453495905 -0.0061294769649508007 -0.45667582983752492 -0.034992314096744435 1.2663944401101583 -0.098633199182834877 -0.79166666666666663 -0.61672444268892279 -0.62499999999999989 1.0000000180025095e-35 -0.7666666666666665 -0.24735123520574209 -1.0000000180025095e-35 1.0000000180025095e-35 -0.54163892829454852 -0.37493214439287764 0.049476147575664091 -0.33418566641948172 -0.43168595783307323 0.84623110358104647 -0.099999999999999992 0.67696873797117252 -0.12622493063303411 1.0000000180025095e-35 -0.63754028962147669 0.20623497800313448 0.59174317921572228 -0.14334070540387764 -0.017190870939003355 0.060808719624777692 -0.1120379284422847 -0.21751713940346143 -1.0000000180025095e-35 -1.0000000180025095e-35 1.0000000180025095e-35 -0.013395498478039393 -0.51459117804201471 -0.16836418986364102 -0.36654165303096997 0.68455276474210469 -1.0000000180025095e-35 -0.40498132978780582 -0.41484626617855935 -0.49999999999999994 -0.56555857925207997 1.6166707605867952 0.30000000000000004 -1.0000000180025095e-35 -0.0080920102724163917 0.62500000000000011 -0.62499999999999989 -0.69999999999999984 -0.45006247517833164 0.37500000000000006 -0.79783038217733615 0.87500000000000011 -0.12689407422182289 -0.10925991929444541 -0.64939017361005957 0.50560930996269771 -0.84998384314615671 0.33553881753044978 0.50675806719625427 0.27650214405999918 -0.17021133065646174 0.32375826808562358 -0.40087399276302244 -0.041189761090457147 -0.18636978028655252 -0.071574154218552691
decision_type=2 2 2 2 2 2 2 2 2 2 2 2 2 2 2 2 2 2 2 2 2 2 2 2 2 2 2 2 2 2 2 2 2 2 2 2 2 2 2 2 2 2 2 2 2 2 2 2 2 2 2 2 2 2 2 2 2 2 2 2 2 2 2 2 2 2 2 2 2 2 2 2 2 2 2 2 2 2 2 2 2 2 2 2 2 2 2 2 2 2 2 2 2 2 2 2 2 2 2 2 2 2 2 2 2 2 2 2 2 2 2 2 2 2 2 2 2 2 2 2 2 2 2 2 2 2 2 2 2 2 2
left_child=1 22 -3 -4 11 7 -7 8 -6 -10 -11 18 44 14 17 16 -15 19 25 55 21 -12 23 68 -5 63 -27 65 29 -29 -31 33 56 34 35 37 88 39 -39 -28 42 -42 52 -43 83 46 119 48 49 -48 51 -30 -36 54 -26 -14 60 58 -58 -59 61 62 -33 64 -2 67 -67 -24 103 70 -70 -71 73 74 -73 126 77 92 79 80 99 -17 -61 118 111 -50 -75 -88 -37 121 91 -91 -77 -56 120 96 -96 98 -65 -78 112 102 -62 109 105 -92 -106 -108 -16 -1 115 -85 -80 -107 -103 -99 -114 -52 -13 -46 -74 -69 125 -117 -119 -25 127 -55 -110 -115 -121
right_child=4 2 3 24 5 6 -8 -9 9 10 20 12 13 15 108 81 -18 -19 -20 -21 -22 -23 27 122 53 26 31 28 50 30 -32 32 -34 -35 40 36 -38 38 -40 -41 41 43 -44 -45 45 -47 47 -49 85 -51 117 -53 -54 75 93 -57 57 59 -60 82 101 -63 -64 97 -66 66 -68 89 69 71 -72 72 94 86 -76 76 78 -79 100 -81 -82 -83 -84 84 -86 -87 87 -89 -90 90 104 -93 -94 -95 95 -97 -98 110 -100 -101 -102 114 -104 -105 106 113 107 -109 128 -111 -112 -113 116 129 -116 123 -118 124 -120 130 -122 -123 -124 -125 -126 -127 -128 -129 -130 -131 -132
leaf_value=-2.2056985041819281 -2.131169741527466 -2.1137731072739041 -2.1092801748737076 -2.1622388038747355 -2.1197037780421639 -2.234363412895183 -2.0587908470264975 -2.2916932303216928 -2.2916932303216928 -2.1082378145568619 -2.1082378145568619 -2.2916932303216928 -2.2743205583742654 -1.9640942735987807 -2.2425533868132561 -2.2643933172614501 -2.1919892000147194 -2.0846688896148526 -2.1483686867554188 -2.1092801748737076 -2.2916932303216928 -2.2643933172614501 -2.212068483895985 -2.2916932303216928 -2.091038869328909 -2.1197037780421639 -2.16429363604056 -2.2916932303216928 -2.276993277135408 -2.2097934911409647 -2.0459940127795089 -2.285026972481401 -2.1622388038747355 -2.1533109123956349 -2.2468166609075952 -2.1770335954686737 -2.0346974970304426 -2.1426357050127676 -2.2191944339652117 -2.2411706639439708 -2.16429363604056 -2.1938130542276517 -2.1373437218657054 -2.2653951489333854 -2.2630283216084379 -2.1527118547422752 -2.0623739606156541 -2.1005938388999938 -2.2097934911409647 -2.241108097298302 -2.2630283216084379 -2.1373437218657054 -2.221114405412167 -2.2916932303216928 -2.2056985041819281 -2.1770335954686737 -2.0571621590314262 -2.167063192437976 -2.2630283216084379 -2.285323250607636 -2.2021153905927715 -2.1688436215506006 -2.2261734389771104 -2.2916932303216928 -2.276993277135408 -2.1483686867554188 -2.2712182955265106 -2.2731997408292703 -2.2475933707628393 -2.127893751960237 -2.0940042047130389 -2.0946219829180661 -2.2916932303216928 -2.2916932303216928 -2.2656342224005521 -2.2056985041819281 -2.2302684259361465 -2.1218271046135162 -2.2395752144794114 -2.1311697415274655 -2.1770335954686737 -2.1593936516451322 -2.2056985041819281 -2.234363412895183 -2.1642936360405605 -2.2916932303216928 -2.1483686867554188 -2.2916932303216928 -2.2656342224005521 -2.2656342224005521 -2.1961435346108433 -2.1770335954686737 -2.2916932303216928 -2.2916932303216928 -2.2439183824662678 -2.2916932303216928 -2.1483686867554184 -2.2630283216084379 -2.204829870584557 -2.2916932303216928 -2.2279934331811266 -2.2916932303216928 -2.2916932303216928 -2.2916932303216928 -2.2916932303216928 -2.2439183824662678 -2.2916932303216928 -2.2097934911409647 -2.2916932303216928 -2.2687613033510887 -2.2418412151682059 -2.2916932303216928 -2.2916932303216928 -2.2916932303216928 -2.2715775049088824 -2.2916932303216928 -2.2630283216084379 -2.2916932303216928 -2.2630283216084379 -2.2916932303216928 -2.2630283216084379 -2.2916932303216928 -2.2916932303216928 -2.2916932303216928 -2.2916932303216928 -2.2916932303216928 -2.2916932303216928 -2.2916932303216928 -2.2916932303216928 -2.2916932303216924 -2.2916932303216928
leaf_weight=1.7442929744720461 2.1803662180900574 2.5292248129844657 1.9187222719192494 2.7036541104316703 2.6164394617080715 1.7442929744720457 2.7908687591552725 3.4885859489440909 3.3141566514968899 2.1803662180900591 2.1803662180900538 5.4073082208633423 2.8780834078788793 1.8315076231956484 3.0525127053260803 1.831507623195648 2.0059369206428528 3.1397273540496826 2.7908687591552725 1.9187222719192503 2.5292248129844666 1.831507623195648 3.1397273540496817 2.965298056602478 1.7442929744720457 1.7442929744720448 3.1397273540496817 1.7442929744720457 3.4013713002204904 1.831507623195648 1.8315076231956511 7.5004597902298036 2.7036541104316703 2.5292248129844657 44.566685497760773 1.7442929744720461 2.5292248129844666 4.3607324361801139 44.82832944393158 94.017391324043274 3.1397273540496817 3.5758005976676932 2.2675808668136588 47.531983554363251 1.7442929744720457 2.8780834078788748 1.7442929744720457 2.0931515693664542 1.8315076231956489 2.9652980566024789 1.7442929744720457 2.2675808668136597 40.380382359027863 2.0059369206428528 1.7442929744720459 2.6164394617080688 1.9187222719192516 2.0059369206428501 1.7442929744720457 7.8493183851242048 2.7908687591552734 2.4420101642608634 9.1575381159782356 2.0931515693664551 3.4013713002204922 1.7442929744720457 2.4420101642608634 2.7036541104316738 2.2675808668136588 1.8315076231956506 2.5292248129844666 2.7908687591552734 4.4479470849037206 2.6164394617080742 1.9187222719192503 1.7442929744720461 2.4420101642608634 2.354795515537262 1.918722271919244 2.1803662180900547 1.7442929744720457 2.2675808668136588 1.7442929744720457 1.7442929744720457 2.354795515537262 3.5758005976676941 1.7442929744720461 1.7442929744720457 1.9187222719192494 1.9187222719192507 2.0931515693664551 1.7442929744720483 1.9187222719192458 1.9187222719192496 2.0931515693664586 2.6164394617080688 1.7442929744720372 1.7442929744720519 2.8780834078788819 4.9712349772453299 2.3547955155372629 13.779914498329171 4.099088490009307 3.4885859489440909 13.518270552158354 2.0931515693664551 2.0059369206428523 1.831507623195648 2.7036541104316711 2.1803662180900574 2.0059369206428519 3.2269420027732831 9.2447527647018521 2.0059369206428532 4.9712349772453299 7.5876744389533908 1.7442929744720466 2.3547955155372584 1.7442929744720457 2.0931515693664551 1.7442929744720457 24.768960237503052 2.0059369206428528 4.7095910310745239 4.3607324361801147 1.7442929744720448 2.0059369206428528 2.0059369206428519 2.0059369206428537 1.7442929744720519 2.7036541104316738
leaf_count=20 25 29 22 31 30 20 32 40 38 25 25 62 33 21 35 21 23 36 32 22 29 21 36 34 20 20 36 20 39 21 21 86 31 29 511 20 29 50 514 1078 36 41 26 545 20 33 20 24 21 34 20 26 463 23 20 30 22 23 20 90 32 28 105 24 39 20 28 31 26 21 29 32 51 30 22 20 28 27 22 25 20 26 20 20 27 41 20 20 22 22 24 20 22 22 24 30 20 20 33 57 27 158 47 40 155 24 23 21 31 25 23 37 106 23 57 87 20 27 20 24 20 284 23 54 50 20 23 23 23 20 31
internal_value=-2.23635 -2.24749 -2.22919 -2.23519 -2.23217 -2.20129 -2.12632 -2.22003 -2.20297 -2.22107 -2.19423 -2.23371 -2.21712 -2.19075 -2.20979 -2.14679 -2.08322 -2.16377 -2.23636 -2.19727 -2.2229 -2.17953 -2.25483 -2.23855 -2.24035 -2.237 -2.23518 -2.26348 -2.23795 -2.18073 -2.12789 -2.23574 -2.25023 -2.23268 -2.23336 -2.22646 -2.14635 -2.22985 -2.21241 -2.23869 -2.2408 -2.25483 -2.23207 -2.26039 -2.2363 -2.22003 -2.23036 -2.2016 -2.2225 -2.17491 -2.25984 -2.22113 -2.2346 -2.24515 -2.19923 -2.22799 -2.2542 -2.22945 -2.15519 -2.2529 -2.26264 -2.24196 -2.25267 -2.26162 -2.22003 -2.2713 -2.22003 -2.27491 -2.22903 -2.22024 -2.16661 -2.23041 -2.23841 -2.2131 -2.16429 -2.25158 -2.24417 -2.2003 -2.2541 -2.22995 -2.25347 -2.20631 -2.27085 -2.26061 -2.23709 -2.26395 -2.25074 -2.22003 -2.22344 -2.2784 -2.26752 -2.22344 -2.25074 -2.25074 -2.26006 -2.23746 -2.20049 -2.27266 -2.2414 -2.27146 -2.27204 -2.27804 -2.25541 -2.26471 -2.2739 -2.25389 -2.28305 -2.2526 -2.27237 -2.24073 -2.28235 -2.27158 -2.28007 -2.27458 -2.28636 -2.28813 -2.28714 -2.28578 -2.2847 -2.28405 -2.28362 -2.28987 -2.29169 -2.29169 -2.29169 -2.29169 -2.29169 -2.29169 -2.29169 -2.29169 -2.29169
internal_weight=654.11 178.703 51.195 48.6658 475.407 22.6758 4.53516 18.1406 14.6521 12.0356 8.72146 452.731 62.3585 26.2516 18.3151 7.93653 3.83744 10.553 390.373 7.41325 6.5411 4.01187 127.508 44.2178 46.7471 387.582 360.981 83.29 19.5361 5.40731 3.66302 359.237 62.7073 296.53 294.001 152.538 6.19224 146.346 49.1891 97.1571 141.462 54.2475 87.2146 51.1078 36.1069 21.6292 18.7511 12.2101 10.1169 4.70959 14.1288 5.66895 84.9471 44.0434 5.40731 5.49452 60.0037 15.2626 3.66302 11.5995 44.7411 19.1 16.658 26.6005 5.58174 63.7539 4.1863 59.5676 37.5023 30.0891 4.79681 25.2922 23.4607 10.8146 4.70959 38.6361 32.6183 6.01781 26.6005 11.3379 9.15754 4.09909 9.59361 14.4776 7.32603 5.40731 6.10503 3.48859 3.66302 56.4279 28.9553 3.66302 3.66302 3.66302 12.6461 6.45388 3.83744 21.0187 4.97123 7.41325 15.2626 25.6411 6.88996 7.41325 25.2922 7.93653 17.3557 3.83744 7.7621 3.92466 16.0475 4.97123 12.9078 5.84338 18.7511 14.0416 10.989 8.45982 7.1516 6.5411 6.19224 27.4726 6.71553 12.2973 6.71553 4.70959 6.01781 4.01187 4.70959 3.75023 4.79681
internal_count=7500 2049 587 558 5451 260 52 208 168 138 100 5191 715 301 210 91 44 121 4476 85 75 46 1462 507 536 4444 4139 955 224 62 42 4119 719 3400 3371 1749 71 1678 564 1114 1622 622 1000 586 414 248 215 140 116 54 162 65 974 505 62 63 688 175 42 133 513 219 191 305 64 731 48 683 430 345 55 290 269 124 54 443 374 69 305 130 105 47 110 166 84 62 70 40 42 647 332 42 42 42 145 74 44 241 57 85 175 294 79 85 290 91 199 44 89 45 184 57 148 67 215 161 126 97 82 75 71 315 77 141 77 54 69 46 54 43 55
is_linear=0
shrinkage=1


end of trees

feature_importances:
Column_2=20
Column_0=13
Column_3=9
Column_14=9
Column_1=8
Column_19=8
Column_20=8
Column_21=8
Column_13=7
Column_18=6
Column_22=5
Column_23=5
Column_7=4
Column_10=4
Column_24=4
Column_25=4
Column_8=3
Column_4=2
Column_15=2
Column_9=1
Column_17=1

parameters:
[boosting: gbdt]
[objective: binary]
[metric: binary_logloss]
[tree_learner: serial]
[device_type: cpu]
[data_sample_strategy: bagging]
[data: ]
[valid: ]
[num_iterations: 500]
[learning_rate: 0.05]
[num_leaves: 512]
[num_threads: 32]
[seed: 42]
[deterministic: 0]
[force_col_wise: 0]
[force_row_wise: 0]
[histogram_pool_size: -1]
[max_depth: 12]
[min_data_in_leaf: 20]
[min_sum_hessian_in_leaf: 0.001]
[bagging_fraction: 1]
[pos_bagging_fraction: 1]
[neg_bagging_fraction: 1]
[bagging_freq: 0]
[bagging_seed: 400]
[bagging_by_query: 0]
[feature_fraction: 1]
[feature_fraction_bynode: 1]
[feature_fraction_seed: 30056]
[extra_trees: 0]
[extra_seed: 12879]
[early_stopping_round: 0]
[early_stopping_min_delta: 0]
[first_metric_only: 0]
[max_delta_step: 0]
[lambda_l1: 0]
[lambda_l2: 0]
[linear_lambda: 0]
[min_gain_to_split: 0]
[drop_rate: 0.1]
[max_drop: 50]
[skip_drop: 0.5]
[xgboost_dart_mode: 0]
[uniform_drop: 0]
[drop_seed: 17869]
[top_rate: 0.2]
[other_rate: 0.1]
[min_data_per_group: 100]
[max_cat_threshold: 32]
[cat_l2: 10]
[cat_smooth: 10]
[max_cat_to_onehot: 4]
[top_k: 20]
[monotone_constraints: ]
[monotone_constraints_method: basic]
[monotone_penalty: 0]
[feature_contri: ]
[forcedsplits_filename: ]
[refit_decay_rate: 0.9]
[cegb_tradeoff: 1]
[cegb_penalty_split: 0]
[cegb_penalty_feature_lazy: ]
[cegb_penalty_feature_coupled: ]
[path_smooth: 0]
[interaction_constraints: ]
[verbosity: -1]
[saved_feature_importance_type: 0]
[use_quantized_grad: 0]
[num_grad_quant_bins: 4]
[quant_train_renew_leaf: 0]
[stochastic_rounding: 1]
[linear_tree: 0]
[max_bin: 255]
[max_bin_by_feature: ]
[min_data_in_bin: 3]
[bin_construct_sample_cnt: 200000]
[data_random_seed: 175]
[is_enable_sparse: 1]
[enable_bundle: 1]
[use_missing: 1]
[zero_as_missing: 0]
[feature_pre_filter: 1]
[pre_partition: 0]
[two_round: 0]
[header: 0]
[label_column: ]
[weight_column: ]
[group_column: ]
[ignore_column: ]
[categorical_feature: ]
[forcedbins_filename: ]
[precise_float_parser: 0]
[parser_config_file: ]
[objective_seed: 16083]
[num_class: 1]
[is_unbalance: 0]
[scale_pos_weight: 1]
[sigmoid: 1]
[boost_from_average: 1]
[reg_sqrt: 0]
[alpha: 0.9]
[fair_c: 1]
[poisson_max_delta_step: 0.7]
[tweedie_variance_power: 1.5]
[lambdarank_truncation_level: 30]
[lambdarank_norm: 1]
[label_gain: ]
[lambdarank_position_bias_regularization: 0]
[eval_at: ]
[multi_error_top_k: 1]
[auc_mu_weights: ]
[num_machines: 1]
[local_listen_port: 12400]
[time_out: 120]
[machine_list_filename: ]
[machines: ]
[gpu_platform_id: -1]
[gpu_device_id: -1]
[gpu_use_dp: 0]
[num_gpu: 1]

end of parameters

pandas_categorical:null
