tree
version=v4
num_class=1
num_tree_per_iteration=1
label_index=0
max_feature_idx=65
objective=binary sigmoid:1
feature_names=Column_0 Column_1 Column_2 Column_3 Column_4 Column_5 Column_6 Column_7 Column_8 Column_9 Column_10 Column_11 Column_12 Column_13 Column_14 Column_15 Column_16 Column_17 Column_18 Column_19 Column_20 Column_21 Column_22 Column_23 Column_24 Column_25 Column_26 Column_27 Column_28 Column_29 Column_30 Column_31 Column_32 Column_33 Column_34 Column_35 Column_36 Column_37 Column_38 Column_39 Column_40 Column_41 Column_42 Column_43 Column_44 Column_45 Column_46 Column_47 Column_48 Column_49 Column_50 Column_51 Column_52 Column_53 Column_54 Column_55 Column_56 Column_57 Column_58 Column_59 Column_60 Column_61 Column_62 Column_63 Column_64 Column_65
feature_infos=[-0.97706537832924534:1.006122413549368] [-0.75:0.75] [0:1] [-1.0193918456795643:0.98561197737584616] [-0.97235796687593379:0.98630938619064845] [-0.98315926506404416:1.0228519493789299] none [0:1] [0:1] [-1:0] [-1:1] [-1:0.66666666666666663] [-0.97706537832924534:1.006122413549368] [0:1] [-0.75:0.75] [-1:0.66666666666666663] [-0.91666666666666663:1] [-1:1] [-0.75:0.75] none [-0.75:0.75] [0:1] [0:1] none none [-6.6599862242101047:0.64207011607384523] [-0.97706537832924545:1.0061224135493678] [-0.97706537832924534:1.006122413549368] [-0.97706537832924534:1.006122413549368] none none none [-0.70785754339294638:0.65961210165541639] [-0.69491525423728817:1.1355932203389831] [-0.99641353703867774:1.0321169824233971] [-0.66447062751935071:1064.5243979003037] [-1.6419285780376809:1.6728369998601522] [-0.6644313675297745:1064.4560509747278] none none none [-1:2] [-1:0] [-1.4539498452178439:1.2610756872338171] [-0.66666666666666663:0.33333333333333331] [-0.97706537832924534:1.006122413549368] [-0.58815944512122764:2099.9383545399942] [-0.59167426814784829:1062.4239126176603] [-0.59665085275188789:1801.3510721865121] [-0.81477140412701488:2.0363993158371625] [-0.86674485053378414:2.3558657904739047] [-0.77777777777777779:2.7777777777777777] [-0.8666666666666667:2.6000000000000001] [-1.0039058141529218:0.99396014683515321] none none none none none [-0.55432687994882246:0.63927865562548269] [-291.58124281768073:7.3034671994451213e-07] none none none none none
tree_sizes=20371 22374 23444 21754 21868 24343 24118 19348 24742 24243 24025 20602 28023 25848 27146 23860 24769 21264 20353 26705 19765

Tree=0
num_leaves=189
num_cat=0
split_feature=7 7 32 32 41 41 1 32 33 33 11 11 51 32 32 42 41 50 44 32 49 47 48 44 17 32 0 20 17 10 48 20 47 4 5 51 11 18 18 2 2 47 5 36 44 53 49 52 60 47 52 11 11 3 11 35 59 60 50 0 20 16 53 43 43 34 60 5 36 2 49 59 16 47 18 50 18 51 20 52 53 2 2 50 60 43 18 43 49 35 35 9 18 50 35 50 50 16 36 18 17 35 18 59 18 8 10 5 3 48 41 51 60 16 32 46 53 5 20 16 51 43 36 36 8 46 46 11 51 51 48 3 51 10 52 49 17 16 3 35 52 50 53 16 53 49 51 59 53 18 41 46 17 2 3 4 3 3 43 52 18 48 52 32 49 5 3 16 48 50 51 51 4 46 46 4 0 17 0 0 0 0 0 2 8 9 0 0
split_gain=206.421 899.531 97.8337 132.747 78.1522 90.2112 78.2704 163.047 60.6961 145.477 68.4873 73.9087 50.2881 48.6243 135.619 41.9529 56.3996 38.649 37.6219 31.9206 30.7716 28.5915 28.3137 27.8756 26.935 24.4425 27.0672 30.64 30.6431 25.94 26.6931 25.2996 22.6144 22.5254 20.9746 19.77 19.6251 21.6773 19.5886 20.0495 51.8222 19.0232 18.1832 17.711 17.6411 17.3524 17.2007 17.0914 18.3024 17.0703 16.9039 16.546 26.58 17.9613 17.4123 16.3624 29.485 16.3336 22.4053 16.2624 17.4591 15.9275 15.8909 20.0167 15.8687 15.5124 26.6067 15.4412 15.3648 15.2363 15.0178 14.5463 14.4857 19.5982 14.4509 13.99 13.9805 13.808 13.7073 15.2389 13.622 13.516 22.358 15.9499 16.0457 14.6361 13.8974 14.539 13.3894 13.27 12.3282 12.2049 14.4497 14.8504 12.7425 12.0747 11.8331 12.5919 11.8106 11.6411 11.312 11.0325 12.9576 10.9579 10.9311 19.2087 10.7632 10.6389 10.5646 10.4898 10.3998 10.3764 11.2814 10.0237 9.74999 9.46734 10.5991 19.4434 9.09815 8.98355 8.97641 10.4706 10.3814 13.7648 8.92302 8.90431 8.18939 10.6747 8.1356 16.3186 9.03197 7.92794 7.75525 7.5038 7.49631 7.44914 7.36395 6.97422 6.86244 7.53933 6.61598 6.57422 6.50304 6.40287 6.25857 7.97752 6.10707 5.7751 5.14452 9.62967 5.10189 5.07555 4.99256 4.95751 8.49996 7.11741 4.88017 13.8814 4.81424 4.78957 4.68435 4.45522 4.29547 4.27123 4.08407 4.04061 3.95287 3.94002 3.78776 3.01833 2.42839 1.88376 3.11681 1.25678 1.17316 1.12466 1.09065 1.09065 0.965214 0.823562 2.27374e-13 2.84217e-14 1.42109e-14 1.42109e-14 1.42109e-14 1.42109e-14 7.10543e-15 7.10543e-15
threshold=1.0000000180025095e-35 0.99834842692648851 0.58043105918622373 0.13821127044274381 0.0058077426298731591 0.99570679143270768 0.49901975185291414 -0.36986992926060519 -0.43790405246577285 -1.0000000180025095e-35 -0.99779790256865108 -0.66710828297906843 -0.2165107660005369 -0.36986992926060519 0.11239486890180236 -1.0000000180025095e-35 -0.99712066975093905 -0.4010405024142551 -1.0000000180025095e-35 -1.0000000180025095e-35 0.13792183783487869 -0.050025946455185814 -0.32786902386379363 -0.33240137917704943 -0.3371658675214676 0.58043105918622373 -0.49593583444731854 -0.48509221007821662 -0.73353576780627783 0.9992811250394279 -0.061473372708275041 0.24985343144266667 0.57138959299013903 -0.73924645441189873 0.65100579190398122 -0.39753145699622655 -0.3343249893425268 0.74942099712442478 -0.55253388206880738 0.99970686288533339 0.02725285059553301 -0.26192277080363108 -0.36578977611764268 0.024318194243226173 0.33202633580388546 -0.6716083780012424 -0.19559421030357091 -0.40018099707254545 -2.9605775264053948e-05 0.039667525439573713 0.79898962552782404 0.049417824015057107 0.330766491918217 0.66577768958205119 -1.0000000180025095e-35 0.97498059600866183 -0.1934739531618952 7.3034671977966819e-07 -0.66178976041395776 -0.23524195736907458 0.7480464074037172 0.72701910891165411 0.50863673898680095 -0.39026483012612723 0.27549336194426888 0.20920462634336404 -1.0000000180025095e-35 0.92043346185829755 1.3462114199258683 0.99970686288533339 -0.6899741508849967 -0.098916241048501594 0.16596995442364335 0.37170169847605922 -0.20803129780820365 -0.70229111118470999 0.24993781061582096 -1.0000000180025095e-35 -0.7050125158376187 0.66529226164879851 0.74281511320807547 0.30688749550752381 0.99970686288533339 0.66684764016594977 -0.028626397499642683 0.66209972870468248 -0.47923697896300799 -0.3369898107828353 0.076373852739353501 -0.13338118603717136 1.1670357168643384 -0.034247451873618544 0.65640904794507826 1.0450924203324736 2.7176146576783542 0.21231087505917975 -0.06994288743523569 0.33113675218581701 -0.68764605302461523 0.66218474608234257 0.66480933045317814 -0.2849626490428861 -1.0000000180025095e-35 0.088050370398882763 -0.25024856520635147 0.99896705526666885 -1.0000000180025095e-35 0.85578957035725545 0.65841687441881025 -0.038590982944874695 -0.068697868618037936 0.0062643128584034405 7.3034671977966819e-07 -0.16740686117225548 -0.37627127431908042 0.012788387654903052 -0.089211980838191041 -0.15653045830867965 -1.0000000180025095e-35 0.57936140453306406 -0.22231993459377775 -0.31695860452235902 0.29849636417485931 0.033143447677368855 0.99896705526666885 0.069513334073815838 -0.072234975080763472 -0.66710828297906843 0.22207501678475494 0.88413195274929879 0.50231710995309076 0.54587881659070125 0.33279801836287987 0.9992811250394279 1.0000556655738937 0.32866349620736618 -0.6031493741546653 0.41655082680455197 0.28308184714627954 0.3294489333642891 0.15616764964979254 -0.032275433928797614 0.31363363982020226 0.33113675218581701 -0.51795178638358796 0.87525678916512895 0.88413195274929879 -1.0000000180025095e-35 0.0095567113622691217 -1.0000000180025095e-35 1.9962185625109292 -0.31153682759379347 -0.2735944644289387 0.99970686288533339 -0.18778380488296212 -0.085287667547404591 -0.53917104983194886 -0.64354716310820526 -0.44465237768599392 -0.60076993312614357 0.49945124741718944 -0.16243329390251107 -0.33348336950689694 -0.37088152552045034 0.03084347564266612 0.87860990289615293 0.84506027841713394 -0.33419590034396512 0.68758052602046482 1.2155290830649415 0.44175354790859017 -0.44587600848036391 0.11978667835895146 3.480602742846473 2.3941236290832806 0.649655208637686 -0.092908109234214567 0.46432955645200452 0.66445552874725811 0.12850074527475969 0.7091210205686439 0.6902682061333657 -0.19111500856983768 0.99970686288533339 0.96783362421173502 -0.039424852320645791 0.82191430208304939 0.20609662034637308
decision_type=2 2 2 2 2 2 2 2 2 2 2 2 2 2 2 2 2 2 2 2 2 2 2 2 2 2 2 2 2 2 2 2 2 2 2 2 2 2 2 2 2 2 2 2 2 2 2 2 2 2 2 2 2 2 2 2 2 2 2 2 2 2 2 2 2 2 2 2 2 2 2 2 2 2 2 2 2 2 2 2 2 2 2 2 2 2 2 2 2 2 2 2 2 2 2 2 2 2 2 2 2 2 2 2 2 2 2 2 2 2 2 2 2 2 2 2 2 2 2 2 2 2 2 2 2 2 2 2 2 2 2 2 2 2 2 2 2 2 2 2 2 2 2 2 2 2 2 2 2 2 2 2 2 2 2 2 2 2 2 2 2 2 2 2 2 2 2 2 2 2 2 2 2 2 2 2 2 2 2 2 2 2 2 2 2 2 2 2
left_child=8 180 3 4 21 182 7 12 25 184 64 -12 50 38 183 16 24 20 23 -8 109 44 120 -19 32 26 33 98 178 30 31 49 45 -1 78 47 43 -38 158 40 46 88 128 -26 55 -16 101 48 -24 77 59 54 -53 106 62 56 137 58 -43 103 -61 126 63 -17 134 66 -58 81 74 -63 -60 -57 113 150 159 163 -20 140 133 89 -64 83 -83 84 142 86 143 -88 -32 -80 148 107 93 94 162 96 97 -31 -28 144 166 102 -40 -7 -86 -106 -54 136 -46 -14 -66 114 -113 167 -48 116 117 -100 164 124 186 -122 123 141 -112 -101 -23 -128 152 130 -130 -49 -126 -21 156 -118 -76 -3 175 -140 -30 -123 -44 -84 -77 -146 -87 -124 -33 -150 -74 -103 -37 154 -129 -156 157 -11 -13 -27 -81 -22 -93 -41 -67 171 169 -36 -52 -35 -94 172 -161 -158 -138 -56 -155 -160 -29 -55 -2 -9 -6 -15 -10 -182 -4 -117
right_child=1 2 22 -5 5 6 19 181 9 10 11 13 17 14 15 51 -18 18 76 34 161 61 35 -25 36 68 27 28 29 95 41 90 -34 100 72 42 37 -39 39 75 -42 57 67 -45 108 -47 111 131 -50 -51 168 52 53 179 138 71 65 -59 70 60 -62 69 80 -65 110 118 -68 -69 -70 -71 -72 -73 73 -75 91 99 -78 -79 79 160 -82 82 85 -85 104 146 87 -89 -90 -91 -92 92 170 -95 -96 -97 -98 -99 115 125 -102 151 -104 -105 105 -107 -108 -109 -110 -111 119 112 -114 -115 -116 187 135 -119 -120 -121 121 122 147 -125 132 -127 127 153 129 -131 -132 -133 -134 -135 -136 -137 174 -139 139 -141 -142 -143 -144 -145 145 -147 -148 -149 149 -151 -152 -153 -154 176 155 -157 173 -159 177 165 -162 -163 -164 -165 -166 -167 -168 -169 -170 -171 -172 -173 -174 -175 -176 -177 -178 -179 -180 -181 185 -183 -184 -185 -186 -187 -188 -189
leaf_value=0.010516721459810301 0.10000001905616247 -0.099999980943837566 -0.099999980943837538 0.10000001905616247 0.10000001905616245 -0.024179701169132466 0.10000001905616247 0.10000001905616247 0.10000001905616247 -0.099999980943837524 0.10000001905616247 -0.035466646777548301 0.02709008093653506 0.10000001905616247 -0.099999980943837108 0.0052828043444097042 0.10000001905616247 0.032093146790638266 0.0122145299455055 -0.09999998094383751 -0.045930398321622358 -0.099999980943837538 0.02501847013383399 0.10000001905616247 0.070222762798204233 -0.035466646777548329 0.0077118921079456096 -0.099999980943837566 0.022718072698131902 -0.099999980943837469 0.020018913145626809 -0.099999980943837455 -0.072593411976719535 -0.099999980943837524 -0.039377291363867646 -0.039377291363867646 -0.078193969117081721 0.032093146790638266 0.040016550733712526 -0.022311376507159888 0.10000001905616247 -0.099999980943837538 -0.099999980943837566 -0.053474300505177 -0.099999980943837538 0.069771394427694922 -0.063121782917740052 -0.09999998094383751 -0.099999980943837538 -0.075601305611228367 -0.099999980943837538 0.10000001905616247 0.01347153249861653 -0.099999980943837538 -0.09999998094383751 0.012378950603365571 0.068431538329871894 -0.015643431675440422 -0.099999980943837538 0.0041088874349300211 -0.073675194183430881 -0.079992894265534964 0.047480703220003292 -0.065505987323116452 -0.099999980943837455 0.035939490251601425 -0.083465085584029722 -0.083044720914366377 0.033350846457701921 0.02501847013383399 0.072813799920229114 -0.099999980943837566 0.020018913145626798 -0.072593411976719535 -0.032185728688612004 -0.099999980943837538 -0.035466646777548329 -0.026989032728306273 -0.055451939451095306 -0.091376043506128476 -0.039833047093016952 0.10000001905616247 -0.067202303751438555 -0.099999980943837538 0.048951156572517709 -0.099999980943837566 -0.022633241604397683 0.049674709859268626 -0.080575602671323673 -0.014606331605040263 0.00073912458796874375 -0.047353134664432986 0.0025837906986857341 0.047074164614639154 0.02501847013383399 -0.099999980943837538 0.035939490251601411 0.0052828043444097033 0.035152405402641987 -0.060383516353406858 -0.021549841103508424 -0.04116010519586779 -0.065505987323116424 -0.083667547183280358 -0.09999998094383751 0.019421944541235449 -0.027779652643003337 0.0096085609254407765 -0.0058627196442071301 -0.027134066793280995 0.040861486671769962 0.034732353941139216 -0.028553333084316505 -0.099999980943837538 -0.003826481638842149 -0.099999980943837538 -0.09999998094383751 -0.082602424925833279 0.005282804344409699 -0.077264777231429174 -0.099999980943837538 -0.012068498042799533 -0.09999998094383758 0.049547581019818251 -0.077264777231429146 0.022467688046663225 1.9701174095523723e-05 -0.099999980943837538 0.029429762233872097 -0.099999980943837538 -0.055042443124709697 -0.036990867233176968 0.0081276795771445271 -0.023058269216556286 -0.024509783969836128 -0.019981085366811847 -0.09999998094383751 -0.013024111446520817 -0.013024111446520822 -0.09999998094383751 0.082863330648763653 -0.099999980943837441 -0.01664751159034027 0.01430501324183467 -0.063624631439651358 0.0020605092241341998 -0.013024111446520817 -0.028553333084316495 0.0096085609254407747 -0.099999980943837566 0.072598161550545853 -0.099999980943837538 -0.099999980943837538 -0.099999980943837538 0.011130568870990957 -0.065505987323116396 -0.099999980943837524 0.025018470133834 -0.099999980943837538 -0.099999980943837455 -0.04116010519586781 -0.099999980943837538 -0.09999998094383751 0.040016550733712533 0.087238765264533946 -0.035466646777548329 -0.035466646777548329 0.021230935996556941 -0.038444747573714931 -0.057881631230187663 0.048951156572517703 -0.099999980943837538 -0.035466646777548322 -0.067202303751438555 -0.067202303751438555 -0.067202303751438555 -0.067202303751438555 -0.067202303751438555 -0.067202303751438541 -0.067202303751438541 0.10000001905616247 0.10000001905616247 0.10000001905616247 0.10000001905616245 0.10000001905616245 0.10000001905616245 -0.099999980943837538 -0.099999980943837538
leaf_weight=9.8054087162017805 211.31398022174835 6.0119539499282819 11.698937416076658 32.509843111038208 12.462106525897982 18.580251514911655 4.8764764666557303 36.844488859176636 18.964075148105621 6.1744391918182373 15.713090837001799 5.0376822352409389 19.611457169055939 19.505905866622925 1.6248524188995421 15.439296662807463 17.338582992553711 97.62484484910965 44.422442078590393 12.673848867416384 6.0125936865806606 17.060950398445129 9.5348132252693159 17.880413711071014 7.6393653154373151 5.0376822352409354 7.0425198674201956 6.9868654012680036 8.8304972648620694 6.3369244337081945 8.1261813044548017 9.7491145133972221 3.9540207982063285 24.535271525382999 5.3626527190208426 5.3626527190208426 19.878214240074161 5.7426379323005667 5.4176674485206604 5.5795129537582397 9.7529529333114606 2.1123081445693961 5.8494687080383283 4.6583367586135864 8.4492325782775861 20.42580258846283 11.753952145576475 18.198347091674808 4.2246162891387931 4.4414765238761893 8.6117178201675397 5.4183071851730338 33.425261676311493 4.5495867729187003 12.51136362552643 4.8214617371559143 5.1470719575881958 8.9923427700996381 1.2998819351196278 58.289981842041016 8.2330120801925641 5.4163879752159092 11.756511092185976 28.274351298809052 4.3871015310287502 5.5801526904106131 6.5537846684455854 6.3912994265556327 4.875836730003356 9.5348132252693176 38.251201570034027 7.1493506431579572 8.126181304454807 3.9540207982063285 6.391939163208014 9.5866292715072614 23.509183764457703 7.4212256073951712 26.758248865604401 12.565738618373873 7.204365372657775 6.5019686222076407 6.608159661293028 6.0119539499282828 10.185393929481505 4.3871015310287458 9.8047689795493991 23.892367660999305 5.5788732171058646 77.410144865512848 7.5299755930900565 6.1750789284706178 6.3382039070129377 3.6840650439262381 3.4672048091888419 7.4743211269378653 5.5801526904106149 5.1464322209358215 8.0180710554122907 5.4707629680633527 8.288026809692381 5.5251379609107998 6.2831891775131243 13.270054578781126 4.8745572566986093 10.889070153236389 30.009872913360596 3.9546605348587027 4.6046015024185172 16.359193384647369 7.6931005716323897 20.911978840827942 10.617195188999178 4.2246162891387931 16.901663839817051 8.4492325782775861 10.236570239067079 6.228814184665679 7.2050051093101564 4.7664470076560965 9.4241440296173078 4.9295719861984244 7.4743211269378627 5.7970129251480094 4.7664470076560974 7.9636960625648499 6.5006891489028922 6.33692443370819 9.2098427414894122 5.6869834661483756 4.8208220005035392 6.8793948888778678 6.0132334232330322 4.2252560257911673 5.7419981956481925 4.0627707839012137 15.598583221435549 3.7378003001213074 7.475600600242613 3.7371605634689331 9.4817177057266218 3.7371605634689358 3.900285542011261 3.79217529296875 35.749312162399292 5.3089174628257743 3.7378003001213074 4.5502265095710772 3.9546605348587036 4.0621310472488386 10.673489391803741 10.88651120662689 9.2616587877273542 10.88651120662689 5.8507481813430751 6.2831891775131279 25.185212492942814 3.467204809188841 10.88651120662689 4.2246162891387966 7.3668506145477286 10.399055480957029 10.399055480957033 5.4176674485206586 12.732702016830443 3.3584548234939566 3.3584548234939566 5.3632924556732169 3.5209400653839102 5.1457924842834464 5.0926969647407532 24.047815799713135 3.3584548234939575 3.304079830646514 3.304079830646514 3.304079830646514 3.304079830646514 3.304079830646514 3.3040798306465149 3.3040798306465149 19.505905866622925 10.836614370346068 11.378445088863371 12.462106525897982 10.836614370346071 10.836614370346071 4.0621310472488394 3.412190079689025
leaf_count=37 390 37 72 60 23 84 9 68 35 38 29 24 67 36 10 60 32 323 166 78 30 105 33 33 19 24 27 43 31 39 29 60 22 151 26 26 113 19 17 25 18 13 36 24 52 51 63 112 26 25 53 10 124 28 77 18 13 39 8 228 46 31 35 153 27 18 38 37 16 33 93 44 29 22 30 59 112 34 139 75 35 12 36 37 30 27 44 70 32 334 30 31 25 11 12 46 18 20 26 29 37 27 34 77 30 39 138 15 19 75 24 68 49 26 69 52 63 36 28 27 58 21 46 17 27 28 26 39 31 35 25 33 23 19 26 18 96 16 32 23 21 23 17 14 192 21 16 21 15 25 26 67 57 67 22 34 155 12 67 26 36 64 64 17 27 16 16 19 17 27 15 148 16 18 18 18 18 18 18 18 36 20 21 23 20 20 25 21
internal_value=2.0009e-08 0.0133544 -0.00740174 0.00110021 -0.00321786 0.00468548 0.00075127 0.0133151 -0.0175489 -0.00764159 -0.0133779 -0.00667815 0.00138056 -0.0102296 0.00308051 -0.00942929 0.0200189 0.0144232 0.0252399 -0.0262136 -0.023456 -0.0364188 -0.0359192 0.0426052 -0.00167522 -0.0336446 -0.0251152 -0.0168932 -0.00610997 -0.000167916 0.00942278 -0.0159964 0.0375169 -0.057614 -0.0296577 -0.0265541 -0.0285533 -0.0534743 -0.0295793 -0.0242618 -0.00937274 0.0313309 -0.0178627 0.0233666 -0.0142019 0.0572614 -0.0214536 -0.058146 -0.0133665 0.0149205 -0.0264523 -0.0238095 -0.00676005 -0.0148744 -0.038389 -0.00255384 0.0107461 0.0454702 0.0586605 -0.0195846 -0.00551782 -0.0588912 -0.0239227 -0.040504 -0.0590781 0.0310222 -0.0166475 -0.00768833 -0.0534051 -0.0130241 0.0671341 -0.0547373 0.00346795 0.0285895 -0.0574557 -0.043707 -0.00428656 0.0305442 -0.0385157 -0.0327629 0.014305 -0.00289294 0.0125655 -0.0246568 -0.0119684 0.00167945 0.0130415 0.0286355 -0.0209298 -0.0250985 -0.0528766 -0.042793 -0.0229397 -0.0451898 -0.0621501 -0.0470045 -0.0237909 -0.052816 -0.0520404 -0.0526485 -0.0737787 -0.0537432 -0.0166475 -0.0489646 0.00857906 -0.0175067 -0.00604356 -0.0666557 -0.0667941 0.00242933 -0.0293938 -0.00637102 0.0134214 -0.0347653 -0.0281482 -0.0624545 -0.0468537 -0.0163306 0.0528804 -0.0160647 -0.068543 -0.0547373 -0.0386335 -0.0100929 -0.000273554 -0.0112709 -0.0710885 -0.0584933 -0.0495119 -0.0285533 0.000405801 -0.0827151 -0.0296303 -0.0807624 -0.07777 -0.0772648 -0.0785792 -0.0666557 -0.0719344 -0.0420128 0.0538601 -0.0499852 -0.0666557 -0.0374831 -0.0636246 -0.0551314 -0.0599874 -0.0729638 -0.0756013 -0.0459304 0.0498707 -0.080191 -0.07777 -0.0701392 -0.053065 -0.0285533 -0.0857902 -0.0550424 -0.0774569 -0.0810487 -0.0728168 -0.080191 -0.0803852 0.00839395 0.0716072 -0.0876115 -0.0868804 -0.00907137 -0.0821364 -0.0926979 0.0232414 -0.0931481 -0.0714189 -0.0961962 -0.0942671 -0.0931481 -0.0923635 -0.0923635 -0.0894697 -0.0862018 0.1 0.1 0.1 0.1 0.1 0.1 -0.1 -0.1
internal_weight=2202 1250.44 1008.78 777.105 744.595 601.428 577.587 394.006 951.56 589.008 559.207 487.708 346.325 471.995 279.64 247.672 81.2618 235.819 183.437 183.581 52.3823 143.167 231.679 115.505 63.9232 362.552 253.243 202.111 154.66 144.369 119.832 55.4708 26.0047 51.133 178.704 180.006 37.9186 25.6209 192.355 173.127 98.0502 64.3608 141.168 12.2977 71.9931 22.0507 88.2973 38.8372 13.7594 30.1749 110.506 166.41 76.7071 71.2888 89.7027 58.9393 46.9685 50.6557 41.6634 98.3733 66.523 71.1743 62.6745 43.7136 71.4993 37.2187 11.7009 106.826 109.308 14.9512 39.5511 11.9708 37.7043 22.7537 104.433 75.0765 67.9316 25.7334 141 124.101 18.9609 100.435 58.7243 41.7107 35.6988 52.2224 44.0975 33.6971 13.7051 104.168 25.2959 64.4056 35.1563 23.7254 20.0413 24.5378 17.0635 11.4834 47.4502 64.0793 41.3275 28.1125 11.7009 31.8503 25.949 15.7636 63.4351 29.2493 13.0538 35.9707 27.6263 60.1848 31.5292 14.9506 28.6556 40.4076 28.5462 14.2469 25.5179 23.2392 51.6735 35.9124 26.4883 14.4637 18.4728 13.4345 56.2231 39.1621 34.342 19.7176 14.0307 25.0777 10.7797 16.8991 43.8729 14.2993 25.2946 9.74975 27.0282 11.2128 18.3122 8.66673 9.74975 10.4003 50.6449 41.0582 8.1249 12.0245 17.7659 8.01679 18.7997 16.4116 14.6243 32.6615 18.4709 12.1339 38.1309 9.64164 19.2283 40.027 19.9326 16.4116 16.5741 10.9972 18.3129 34.9893 33.0395 10.7259 12.1327 29.6811 11.4309 31.6309 7.58307 28.4893 18.9027 15.8154 14.1906 14.1906 10.2909 7.85367 241.657 47.6811 23.8406 31.968 29.8007 30.3425 15.7611 11.8614
internal_count=8808 4642 4196 3090 3030 2345 2301 1463 4166 2453 2398 2021 1375 1992 1100 1041 290 870 634 838 236 685 1106 356 258 1713 1150 882 639 578 455 241 83 268 829 823 175 132 892 783 412 214 619 43 310 61 394 204 59 111 505 751 318 308 433 239 177 153 114 435 274 375 283 213 377 124 51 445 563 64 101 62 148 77 547 371 278 86 681 584 70 408 219 189 152 207 164 114 61 473 130 317 158 118 107 123 77 59 243 329 231 145 51 161 99 69 262 159 71 142 128 249 117 71 132 216 143 62 73 101 283 186 128 61 74 57 311 206 174 91 56 145 50 97 249 81 144 53 150 55 52 44 53 50 272 213 43 67 100 40 55 94 83 180 95 56 223 50 109 230 111 94 95 42 45 206 194 45 70 178 40 190 42 173 114 95 85 85 61 46 446 88 44 59 55 56 97 73
is_linear=0
shrinkage=1


Tree=1
num_leaves=206
num_cat=0
split_feature=7 7 32 32 41 41 1 32 33 33 11 11 51 32 32 42 41 50 44 32 44 49 47 48 17 32 34 20 17 20 20 50 4 10 5 48 51 52 11 18 18 2 2 20 18 20 44 36 5 36 3 44 16 44 49 52 0 43 53 35 59 0 16 43 34 60 36 2 5 49 47 51 59 49 18 50 20 10 16 4 0 51 49 11 9 18 50 35 36 18 46 17 2 2 60 16 35 18 5 3 41 3 3 46 4 46 53 5 43 48 51 20 41 51 43 36 36 46 46 11 52 16 47 49 10 52 49 52 43 16 46 20 47 5 50 52 59 47 52 46 3 51 2 3 43 3 3 43 43 49 52 4 32 5 49 10 53 48 46 47 51 47 20 51 5 50 49 3 3 5 43 17 3 52 48 53 50 52 11 3 35 11 5 0 17 3 0 0 51 34 4 0 0 0 0 0 0 0 0 0 0 0 0 0 0
split_gain=186.553 813.994 88.4276 120.111 70.6382 81.6342 70.694 147.575 54.861 131.6 61.9231 66.8604 45.4108 43.9268 122.702 37.8994 51.0443 35.1821 33.2624 28.8599 26.7838 26.1737 25.8482 25.6273 24.3403 22.0986 24.4974 27.7072 27.7209 23.1859 33.5758 21.4727 20.3954 20.1186 18.9386 18.1155 24.0204 20.1477 17.735 19.5993 17.7246 18.1136 46.8687 17.0521 17.0066 16.9469 18.2911 16.0024 15.9673 21.6433 20.3655 16.1214 19.9263 15.9494 15.5555 15.3027 14.7968 23.8037 16.4926 14.7901 26.6491 14.4971 14.4187 14.3728 14.0138 24.051 13.8916 13.7711 13.7269 13.3357 13.4362 13.3197 13.1741 13.1075 13.0884 12.6453 12.423 14.6289 14.4832 14.4264 12.1785 11.7061 11.5452 11.1549 11.041 13.0592 13.423 11.5278 10.6894 10.5286 10.3449 10.2699 10.1726 15.7423 14.559 10.052 9.98698 11.7054 9.62991 9.57771 9.41901 9.38509 13.7339 11.3584 8.8453 8.58632 9.59268 17.5745 8.31032 9.39141 13.1545 8.23347 8.18697 8.14284 9.49244 9.3903 12.4346 8.04281 7.43631 9.6637 7.38775 8.41091 9.65151 6.95064 6.81158 6.80375 6.76006 6.71269 6.40699 6.32482 6.11672 6.001 11.2672 10.9932 5.95901 5.90648 5.24275 5.03683 4.77154 4.61246 4.59161 6.25525 4.49765 7.70816 6.52413 4.42528 12.5673 4.39127 4.371 4.05416 3.90523 3.87504 3.85613 3.77419 3.70551 3.69576 3.60299 3.44178 3.39698 3.07668 2.19371 1.1764 1.11908 1.10725 1.0826 1.0826 1.07999 1.04287 1.03406 0.955447 0.910681 0.00568223 0.00501676 0.00796167 0.00459773 0.0043283 0.00312261 0.00287761 0.00273987 0.00207662 0.00174047 0.00173386 0.00119924 0.00101563 0.00101563 0.000646756 0.000642209 0.00056898 0.000194405 0.00016098 0.000110895 1.13687e-13 2.84217e-14 2.84217e-14 2.84217e-14 1.42109e-14 1.42109e-14 7.10543e-15 7.10543e-15 7.10543e-15 7.10543e-15 7.10543e-15 7.10543e-15 7.10543e-15 3.55271e-15
threshold=1.0000000180025095e-35 0.99834842692648851 0.58043105918622373 0.13821127044274381 0.0058077426298731591 0.99570679143270768 0.49901975185291414 -0.36986992926060519 -0.43790405246577285 -1.0000000180025095e-35 -0.99779790256865108 -0.66710828297906843 -0.2165107660005369 -0.36986992926060519 0.11239486890180236 -1.0000000180025095e-35 -0.99712066975093905 -0.50778754659358394 -1.0000000180025095e-35 -1.0000000180025095e-35 -0.33240137917704943 0.13792183783487869 -0.050025946455185814 -0.32786902386379363 -0.3371658675214676 0.58043105918622373 -0.49004427688350849 -0.48509221007821662 -0.73353576780627783 0.7480464074037172 0.52218117751295423 0.30372583293527017 -0.73924645441189873 0.9992811250394279 0.65100579190398122 -0.31355774956846422 -0.39753145699622655 -0.73629452756139602 -0.3343249893425268 0.74942099712442478 -0.55253388206880738 0.99970686288533339 0.02725285059553301 0.49938806330569774 0.24993781061582096 0.49938806330569774 0.33202633580388546 0.024318194243226173 0.56389989205107482 -1.1583627780737624 0.69076395801715662 -0.63935918602787079 -0.33419590034396512 0.33202633580388546 -0.19559421030357091 0.79898962552782404 0.68367746551224129 0.61717084754585938 -0.064084889755723198 0.97498059600866183 -0.1934739531618952 0.18231826332380158 0.72701910891165411 0.27549336194426888 0.20920462634336404 5.3771542267414187e-07 1.3462114199258683 0.99970686288533339 -0.36578977611764268 -0.23074704152913342 0.37170169847605922 0.33279801836287987 -0.098916241048501594 1.0657331133269279 -0.20803129780820365 -0.70229111118470999 -0.7050125158376187 -1.0000000180025095e-35 0.022666441298329485 -0.18487574399673523 -0.11860711163326589 -0.3332097948279284 0.8476333987690966 0.049417824015057107 -0.034247451873618544 0.65640904794507826 1.0450924203324736 2.7176146576783542 -0.68764605302461523 0.66218474608234257 -0.33216752981107361 0.66480933045317814 0.30688749550752381 0.99970686288533339 -0.028626397499642683 0.57936140453306406 -0.2849626490428861 -1.0000000180025095e-35 0.85578957035725545 0.65841687441881025 -0.068697868618037936 0.090378233251324408 0.58458625172756162 -0.32711216899593826 0.12718082492684088 0.012788387654903052 -0.089211980838191041 -0.15653045830867965 0.83431295008365869 0.15206978197521928 0.44175354790859017 -1.0000000180025095e-35 1.0531116469194526 -0.22231993459377775 -0.31695860452235902 0.29849636417485931 0.033143447677368855 0.069513334073815838 -0.072234975080763472 -0.66710828297906843 0.064795545356434558 -0.41717028672851136 -0.084476661914553719 -0.40400179149449295 0.9992811250394279 1.0000556655738937 0.32866349620736618 -0.13448104195191421 0.37788895175188347 0.41655082680455197 1.1994639955287822 0.56364203668808854 0.13591679656054292 -0.066200140728210496 -0.032275433928797614 0.33217766189621034 -1.0000000180025095e-35 0.28953507347034962 0.93579232589405514 -0.31153682759379347 0.25660727651534126 -0.11126556426059743 0.99970686288533339 -0.18778380488296212 0.30711618695651582 -0.53917104983194886 -0.64354716310820526 -0.029296049621289014 -0.44465237768599392 -0.26361043987010163 -0.33348336950689694 0.73604599779597357 -0.37088152552045034 -0.56723416357991896 0.03084347564266612 -1.0000000180025095e-35 0.33965970209732238 0.68758052602046482 0.33316418411443588 1.7748188449958702 0.44175354790859017 2.7799654977970185 -0.5044503162085554 0.77717408009830213 0.54208527613796809 0.73573394278986348 1.0146132072624574 -0.87766967255289108 0.51447248374339694 0.19881572350621729 0.40726675382391792 -0.533409591511809 0.54587881659070125 -0.40018099707254545 -0.073750646122116695 -0.41077486513298195 1.1516733681409914 -0.53445406043447496 0.330766491918217 0.70669774878937519 2.0684307486087232 -1.0000000180025095e-35 0.49945072013626363 -0.37265126845516067 0.26664254265788595 0.2354556867703759 -0.33288834089253383 0.27607159597923658 -0.33889858809993406 -0.58525841792009536 -0.20125146839892974 0.67390794306646484 0.6902682061333657 0.32154302876686186 0.83136751098071227 0.46107481605066325 -0.19111500856983768 0.11425892903645037 0.089928002242024657 0.22625996076457017 0.043134171777771742 -0.35352164024930116 0.22625996076457017 -0.67294962637057387 0.17027382957141127
decision_type=2 2 2 2 2 2 2 2 2 2 2 2 2 2 2 2 2 2 2 2 2 2 2 2 2 2 2 2 2 2 2 2 2 2 2 2 2 2 2 2 2 2 2 2 2 2 2 2 2 2 2 2 2 2 2 2 2 2 2 2 2 2 2 2 2 2 2 2 2 2 2 2 2 2 2 2 2 2 2 2 2 2 2 2 2 2 2 2 2 2 2 2 2 2 2 2 2 2 2 2 2 2 2 2 2 2 2 2 2 2 2 2 2 2 2 2 2 2 2 2 2 2 2 2 2 2 2 2 2 2 2 2 2 2 2 2 2 2 2 2 2 2 2 2 2 2 2 2 2 2 2 2 2 2 2 2 2 2 2 2 2 2 2 2 2 2 2 2 2 2 2 2 2 2 2 2 2 2 2 2 2 2 2 2 2 2 2 2 2 2 2 2 2 2 2 2 2 2 2 2 2 2 2 2 2
left_child=8 191 3 4 22 196 7 12 25 -10 63 -12 55 40 -15 16 24 21 20 -8 -19 61 53 113 31 26 32 88 169 30 33 81 -1 45 76 -25 37 -37 47 -40 148 42 54 68 -20 46 71 -26 50 -50 51 52 -17 59 96 56 58 -58 -7 60 129 -14 118 125 65 -62 74 -64 120 155 112 -30 -61 82 140 152 124 78 -78 -79 -31 -16 92 -53 98 86 87 150 -28 131 -47 153 94 -94 -70 137 97 -42 123 -55 -65 103 -103 -56 159 106 107 -90 109 110 -102 154 -71 197 199 116 134 -91 -24 -120 121 -38 -123 -76 -21 145 -108 -48 147 -3 138 133 -133 -77 -116 174 -117 185 172 -98 167 -142 143 -121 -145 146 -11 -106 -13 -52 -86 178 -43 -34 -66 -36 180 -57 -92 163 -87 189 -155 175 183 184 171 -27 -23 187 -143 -125 173 -39 -82 -45 179 -169 -51 190 -122 -151 188 -144 204 -35 -173 -29 -179 -147 -164 -2 193 -9 -193 -5 -6 -4 -107 -115 -152 -175 -188 -192 -150
right_child=1 2 23 195 5 6 19 192 9 10 11 13 17 14 15 48 -18 18 44 34 -22 168 62 35 38 66 27 28 29 80 -32 -33 91 95 69 36 43 130 39 -41 41 75 -44 104 -46 90 127 -49 49 151 149 83 -54 99 101 157 57 -59 -60 72 64 -63 67 100 111 -67 -68 -69 73 70 -72 -73 -74 -75 84 89 77 79 -80 -81 135 -83 -84 -85 85 160 -88 -89 105 117 158 -93 93 -95 -96 -97 139 -99 -100 -101 108 102 -104 -105 128 198 126 -109 -110 -111 -112 -113 -114 114 115 136 -118 -119 119 142 156 122 -124 166 -126 -127 -128 -129 -130 -131 -132 132 -134 -135 -136 -137 -138 -139 -140 -141 141 170 164 144 -146 161 -148 -149 165 181 200 -153 -154 162 -156 -157 -158 -159 -160 -161 -162 -163 176 -165 -166 -167 -168 177 -170 -171 -172 186 -174 201 -176 -177 -178 182 -180 -181 -182 -183 -184 -185 -186 -187 202 -189 -190 -191 203 194 -194 -195 -196 -197 -198 -199 -200 -201 -202 -203 -204 -205 -206
leaf_value=0.0099911470719456375 0.095241870533539677 -0.095241870794158509 -0.095241870794158495 0.095241870533539677 0.095241870533539663 -0.010505721252217323 0.095241870533539677 0.095241870533539677 0.095241870533539677 -0.095241870794158481 0.095241870533539677 -0.033704119109339369 -0.031928636374142443 0.095241870533539677 -0.013003751959508715 0.0090581284241276414 0.095241870533539677 0.028880068788404507 0.01314576563144907 -0.095241870794158467 0.095241870533539677 -0.096009768624147188 -0.095241870794158495 0.067224998714351378 0.066795327530634482 -0.066733813380503049 0.0073263880948325243 -0.095241870794158523 0.042525055214594862 0.010536495199951212 0.09699170229769466 -0.071680851322294792 -0.05055360126684947 -0.09524187079415844 -0.016430031019550935 0.046671565293788117 0.03435901225206104 -0.097699839250477594 -0.074399892578145305 0.030496461631976092 0.038031193105306213 -0.021198508020217079 0.095241870533539677 -0.099012007742738717 -0.037451375906178724 0.011476032848142704 0.002749450579724276 -0.050837562507857495 0.0061455356540890196 -0.097540281303149179 -0.041602008107073186 -0.016398478030690649 -0.077952152493153848 -0.095241870794158495 -0.082884666819191766 -0.095241870794158495 -0.036148158881484309 0.070183163722832245 -0.058004562985673705 0.011760445031835624 0.065087417560815417 0.041926626182252888 -0.07611703518820398 -0.095241870794158412 0.034153713854724398 -0.079432452563954647 0.03169225423006912 0.023771312927795666 -0.073679127281589638 0.006970522722912216 -0.037307576780799476 -0.007995204853498061 -0.095241870794158509 -0.077194301912927227 -0.030435056039840886 -0.04520676861032117 -0.045772178110503908 -0.076743788102367413 0.0067275154805760407 -0.028954305918849156 -0.097236459113233975 0.074499007726567798 0.066476747285456148 0.01758741043762382 -0.045011158259614902 0.0024545857478782333 0.044745652534641668 0.023771312927795673 0.033405268041211203 -0.057417584836767989 -0.099213520863818933 -0.020474787063493653 0.095241870533539677 0.0036637323187935188 0.0012421688998028766 0.0060574263380088148 -0.039118974304248204 -0.062298656561326493 0.0091283274978977477 -0.0055696526509480936 -0.097052109302918479 0.040340112082981189 -0.030318198553436322 -0.0093105749711226791 -0.033598056437079651 -0.095241870794158509 -0.095241870794158467 -0.07860860408094128 -0.075453299961918407 0.033479542874394252 0.024722319554591907 0.0050186840838729978 0.070819078549458472 -0.095241870794158523 -0.011465516922669686 -0.095241870794158523 0.047099584884245052 0.021347024955650343 1.8696453310955662e-05 -0.095241870794158495 -0.097959755810157742 0.00026243282625820909 -0.096547526768462011 -0.097720414701992386 -0.021908339261661344 -0.02328787393844851 -0.018983979457350728 -0.068079090306535389 -0.073140170249392622 -0.012373459062170447 -0.034798863246978833 0.020565964146144533 -0.096826242811948487 -0.096735123742547058 -0.095241870794158412 -0.029564117323500644 -0.027131311900524813 -0.031262426440431285 -0.032288579229312379 -0.095241870794158495 -0.022167408676136032 -0.095731827618562748 -0.095241870794158495 -0.055289154510918197 0.020640908034927581 -0.095619365761706751 0.023771312927795676 0.03299807665258335 -0.095241870794158523 -0.097244023874558758 -0.095241870794158454 -0.041961138930426467 0.038031193105306227 -0.06585674534526692 0.083037361948834987 -0.076734108332804155 -0.033321359518316121 -0.036536260330716719 -0.035040789227596944 -0.034820875252816526 0.046531928824174451 -0.063534004216580467 -0.09557194168623806 -0.063855240790504864 -0.062846519084763755 -0.062846519084763755 -0.065086237453293602 -0.097128337278273733 -0.06354697341173253 -0.062999365623556694 -0.063021438761623444 -0.096072018385094868 -0.097687916875488404 -0.095241870794158356 -0.09948016718055841 -0.096769828859494283 -0.09715013834880229 -0.09569509290706496 -0.09890687884819821 -0.096679645852670637 -0.096322080400901011 -0.095764487259508521 -0.096374369007740185 -0.096298205192539538 -0.09629820519253951 -0.096153547018288016 -0.095241870794158759 -0.096147424316269881 -0.095241870794158578 -0.095241870794158481 -0.095241870794158467 0.095241870533539677 0.095241870533539677 0.095241870533539677 0.095241870533539677 0.095241870533539677 0.095241870533539677 -0.095241870794158495 -0.095241870794158481 -0.095241870794158481 -0.095241870794158481 -0.095241870794158523 -0.095241870794158481 -0.095241870794158329 -0.095241870794158467
leaf_weight=9.8051380068063718 204.30083835124969 5.996949151158331 4.0519926697015753 21.078657925128937 12.431003391742708 47.602077946066856 4.8643056750297538 25.942963600158691 29.726312458515167 6.1590288579463959 15.673873841762541 5.036098480224612 15.976910680532457 31.888226091861725 4.9224563241005006 10.99062465131283 17.295309066772461 103.06761603057384 49.619586616754532 12.64221712946892 17.8357874751091 9.5684603303670865 17.01836921274662 5.1435226052999488 7.6299548149108869 3.6236559748649624 7.0424152612686148 3.7278332561254484 49.682432278990746 5.8431158810853985 9.7424909472465497 3.9485849291086188 7.1369965672492937 4.8623912036418933 5.2502517998218536 3.6823483854532233 4.8721701651811591 4.380333334207541 19.847859755158428 5.7411596775054923 5.4154992699623108 5.5788186639547348 9.7286113500595075 3.4087186157703382 24.96238861978054 5.8468367755413047 6.3338785618543625 4.6550084054470062 9.2573776096105593 9.4133421927690524 5.8436507284641266 48.767451643943787 16.396370589733124 8.4281447529792768 6.7138289511203793 8.5902244597673398 10.235830128192903 10.834538072347639 29.663533955812454 4.8212770521640778 5.1410508751869184 11.375077232718466 5.4077325165271732 4.376152083277705 5.5783511400222769 6.5423836559057236 4.8744812011718741 9.5333216190338135 9.5165539830923098 9.0985603630542791 7.1970786899328223 17.692964598536491 7.1315070986747724 5.0855594128370276 6.544845759868628 22.994708806276314 20.680847391486168 25.281016170978546 36.012646362185478 42.072470486164093 5.5158634632825851 17.099536538124084 7.0922576636075965 47.818062916398048 6.1716187596321168 6.3381934463977796 3.6820248663425437 3.4666624069213858 8.0155943632125837 5.4657790362834913 5.3559983372688276 8.2870647013187391 5.4047840833663932 35.619877114892006 20.350240334868431 6.1711867153644553 5.5227985382080105 6.2764537334442156 3.9545691609382621 4.6045618951320639 4.5435663759708458 18.522288858890537 10.938468605279921 23.989972621202469 5.0310211777687064 7.1315070986747724 10.211021527647974 6.2182012647390357 4.6002284884452811 9.7456441223621351 4.3322663307189941 7.204955041408545 11.202051997184753 3.5657535493373853 4.9293925017118445 7.4556665122508967 5.793456405401229 7.9626911878585815 6.5006891489028922 6.321108564734458 3.245974048972128 5.4663330018520346 4.8665398806333569 3.7344566732645097 4.2246945500373831 5.7411361038684836 4.0623654127120963 7.0893764048814756 4.4355169087648383 3.7376419603824615 6.870495229959487 5.5200999379158002 3.2458587735891342 18.824103504419334 3.7278332561254528 4.7068041115999213 4.5492991805076617 4.8682476282119742 3.3541565537452689 10.859340354800223 7.2493692636489895 5.9990758746862394 7.6177462190389624 7.6315143853425997 4.4955060929059982 3.2427052408456829 3.4666624069213849 4.8728144764900199 4.2140723764896375 3.7338762134313583 5.6727897375822085 3.8437526524066916 5.415499269962309 3.6214443147182456 12.708506748080252 4.9230137467384321 3.3547834903001785 3.5196394324302664 3.3533252477645874 3.3548702597618094 5.0896475315093994 3.2992410808801642 3.2419472187757519 3.2987344712018958 3.2972410917282096 3.2972410917282096 3.4608822017908087 3.8952297717332902 3.2988192588090888 3.2976855337619781 3.2973698377609253 3.2440385669469878 4.7080710977315894 3.5657535493373915 3.8959088623523694 5.8397795110940969 3.7338475733995429 3.2426574975252178 6.008850932121276 3.4072183817625037 3.2435249835252762 4.2160723656415922 3.8931030482053748 3.244705229997634 3.2447052299976349 3.2427047044038773 3.5657535493373764 3.2442607879638672 8.7523041665553958 21.880760416388515 6.807347685098649 22.159614741802216 10.809568166732786 10.809568166732786 14.592917025089262 11.350046575069426 11.350046575069426 11.669738888740538 4.7003114968538284 5.8348694443702698 4.7003114968538284 9.7247824072837794 4.7003114968538284 5.0244709104299625 3.403673842549324
leaf_count=37 378 37 25 39 23 202 9 48 55 38 29 24 75 59 21 42 32 345 184 78 33 59 105 13 19 20 27 23 152 22 18 22 37 30 23 11 16 27 113 19 17 25 18 21 121 22 25 24 36 58 29 214 94 52 39 53 49 27 157 18 13 35 31 27 18 38 16 33 54 35 35 74 44 29 31 116 104 144 140 196 34 40 18 173 31 25 11 12 26 29 33 37 10 140 81 24 27 34 15 19 28 58 51 101 24 44 63 36 26 32 15 28 27 22 21 46 17 28 26 39 20 22 30 23 19 26 18 39 25 16 33 20 20 116 23 22 21 23 16 67 33 37 47 40 16 20 12 16 26 23 35 19 17 20 27 28 16 17 16 16 15 18 20 18 18 18 19 24 18 18 18 20 29 22 24 36 23 20 37 21 20 26 24 20 20 20 22 20 54 135 42 41 20 20 27 21 21 72 29 36 29 60 29 31 21
internal_value=4.51547e-08 0.0127043 -0.00703953 0.0010463 -0.00305992 0.00445503 0.000714302 0.0126592 -0.0166934 -0.00726865 -0.0127243 -0.00635138 0.00131204 -0.00972868 0.00293015 -0.00896681 0.0190472 0.0137088 0.0224709 -0.0249213 0.0386698 -0.0288791 -0.0346489 -0.0341709 -0.00159367 -0.0320061 -0.0238912 -0.0160645 -0.00580501 -0.000152516 0.00788383 0.0356885 -0.0548293 0.000301845 -0.0281944 -0.0252579 -0.0279817 -0.0641907 -0.0271584 -0.0508653 -0.0281281 -0.0230696 -0.00891189 -0.0184856 -0.00378896 0.00969299 0.0186397 0.022222 -0.0226361 -0.0566867 -0.0155862 -0.00917376 -0.0430342 -0.0135111 -0.0203952 -0.0251441 -0.0186129 0.0185282 -0.0287413 -0.0024298 0.0102216 -0.00121389 -0.0560327 -0.0562145 0.0295062 -0.0158395 -0.0508091 -0.0123821 -0.00920225 0.00329724 0.0213922 0.0292583 -0.0520814 0.000581015 -0.0546656 -0.0415609 -0.0366131 -0.0311388 -0.0124235 -0.046892 -0.0501709 0.05494 0.00565298 0.000427434 -0.0407053 -0.0218157 -0.0429902 -0.0591333 -0.0495124 -0.050069 -0.0399688 -0.0702333 -0.000432062 0.0157287 -0.0226302 -0.0464735 -0.0511278 -0.0158277 -0.0634216 -0.0635599 -0.0279542 -0.00605468 0.0141054 -0.0253986 -0.0516752 -0.0594353 -0.0445739 -0.0155293 -0.0152737 -0.00040702 -0.0376144 0.0502892 0.0422027 -0.0652393 -0.0520843 -0.0367488 -0.00959778 -0.0107125 -0.0676526 -0.0556469 -0.0416458 -0.019797 -0.0453328 -0.074784 -0.0768739 -0.0740253 -0.073538 -0.034658 -0.0231986 -0.0634242 -0.0767118 -0.0605168 -0.022902 -0.0684015 -0.0475399 -0.0752952 -0.0694313 -0.0714615 -0.0879022 -0.0763215 -0.0771424 -0.0569816 -0.0667444 -0.0504757 -0.0271418 -0.0816811 -0.0523796 -0.000831903 -0.0737112 -0.0732191 -0.0765045 -0.0868779 0.00797642 -0.0827389 0.0681256 -0.0456122 -0.0753924 -0.0781795 -0.0745053 -0.0773533 0.0220854 -0.0916044 -0.0916298 -0.0887255 -0.0879403 -0.0879403 -0.0903013 -0.0913936 -0.0876872 -0.0851747 -0.0841297 -0.0960257 -0.0962376 -0.0958512 -0.0981652 -0.0975962 -0.0958313 -0.0959105 -0.0980727 -0.0955648 -0.0971412 -0.0964594 -0.0956119 -0.0955574 -0.0955574 -0.0956066 -0.0954758 -0.0956632 -0.0953644 -0.0952906 -0.0953129 0.0952419 0.0952419 0.0952419 0.0952419 0.0952419 0.0952419 -0.0952419 -0.0952419 -0.0952419 -0.0952419 -0.0952419 -0.0952419 -0.0952419 -0.0952419
internal_weight=2199.1 1248.76 1007.7 776.335 743.906 600.943 577.162 393.713 950.349 588.276 558.549 487.162 346.15 471.488 279.318 247.429 81.1399 235.705 195.485 183.449 120.903 40.2193 142.963 231.368 63.8446 362.074 252.92 201.855 154.473 144.204 124.242 25.9706 51.0655 114.499 178.585 179.79 174.646 36.2859 37.874 25.589 192.171 172.975 97.9673 138.36 74.582 95.3548 80.7987 12.285 166.289 28.5233 137.766 123.973 27.387 71.8953 88.2387 110.446 98.336 21.0704 77.2656 58.8626 46.9098 27.352 71.0679 71.3874 37.1752 11.6834 109.153 14.9411 108.119 37.671 27.4977 67.3754 11.9528 83.0693 104.279 75.0076 140.914 124.047 56.6935 67.3535 19.9617 22.022 77.9837 96.5855 64.3261 35.1212 23.6934 20.0114 47.3814 64.0132 14.5562 41.2603 70.8915 41.0247 29.8668 19.1445 28.0741 11.692 29.2049 13.0327 27.5979 60.1646 29.4608 30.7038 30.2415 40.339 28.5072 14.2338 23.2217 18.6215 8.87583 25.4918 20.3006 51.578 35.8563 26.4556 14.4507 13.4285 56.1269 39.1085 25.0493 15.205 10.3329 25.2503 16.8669 43.7895 14.2734 13.4233 14.3394 9.73459 32.6036 50.5848 8.76596 41.8188 8.65723 14.1186 12.005 12.9733 25.7331 16.3821 39.9528 16.5458 32.6078 18.4481 12.127 38.0484 9.62569 9.90384 19.1958 13.7936 16.5447 19.2659 10.9943 32.9733 18.2869 10.1733 9.84428 12.1099 8.70932 15.9021 11.4278 28.4227 25.8363 12.5472 14.1597 14.1597 18.7054 23.407 12.8673 10.2698 9.29645 15.2446 22.3789 17.6709 9.41177 9.2485 22.2148 19.7833 15.4222 18.481 6.4895 7.94995 15.8881 10.8625 10.8625 8.1051 11.5101 6.97209 11.995 25.1235 15.0738 241.053 47.5621 36.7525 36.7525 32.4287 23.781 15.7217 11.8318 9.40062 10.3731 13.2905 8.26607 11.8318 7.61775
internal_count=8808 4642 4196 3090 3030 2345 2301 1463 4166 2453 2398 2021 1375 1992 1100 1041 290 870 683 838 378 187 685 1106 258 1713 1150 882 639 578 476 83 268 458 829 823 810 198 175 132 892 783 412 612 305 361 290 43 751 150 601 523 136 310 394 505 435 76 359 239 177 110 375 377 124 51 563 64 456 148 97 226 62 332 547 371 681 584 244 340 102 61 303 387 317 158 118 107 243 329 71 231 285 150 135 97 145 51 159 71 128 249 109 140 156 216 143 62 101 75 43 73 62 283 186 128 61 57 311 206 124 68 52 144 97 249 81 64 65 53 187 272 40 232 44 80 67 73 154 94 230 88 180 95 56 223 50 40 109 78 95 114 42 194 45 51 56 70 49 91 40 173 157 75 85 85 113 142 77 61 55 94 138 109 58 57 137 122 95 114 40 49 98 67 67 50 71 43 74 155 93 446 88 68 68 60 44 97 73 58 64 82 51 73 47
is_linear=0
shrinkage=0.05


Tree=2
num_leaves=216
num_cat=0
split_feature=7 7 32 32 41 41 1 32 33 33 11 11 51 32 32 42 41 50 44 32 49 47 48 44 17 32 34 25 43 43 50 18 16 34 5 48 51 52 18 2 2 11 18 52 60 20 3 3 35 50 0 5 48 43 2 52 4 44 52 35 59 17 36 49 35 52 0 20 5 16 43 36 10 47 47 18 10 36 46 2 16 47 18 32 51 16 50 20 52 50 51 9 18 4 0 17 59 60 51 18 50 17 52 16 5 41 3 16 33 3 44 35 16 51 43 9 36 11 46 11 48 17 44 0 16 10 52 16 0 49 18 48 51 1 4 18 48 3 50 53 10 53 50 50 52 51 46 3 3 46 48 49 53 5 16 32 5 4 33 43 48 3 49 3 51 51 47 5 35 3 35 4 60 53 50 34 47 48 47 5 4 20 17 0 43 20 20 52 53 49 47 60 52 3 43 35 17 47 35 3 52 49 50 4 47 35 25 0 0 0 0 0 0 0 0
split_gain=168.969 740.214 80.0681 109.188 64.0236 74.2377 63.9276 134.283 49.6734 119.552 56.1746 60.7439 41.0417 39.7544 111.521 34.2762 46.4407 31.8565 30.8194 26.1756 25.5805 23.4384 23.3586 23.0916 22.0357 20.0727 22.2275 29.635 29.4247 25.3657 19.4298 18.2111 17.58 17.2029 17.1201 16.3864 21.8271 18.279 16.1152 16.3992 42.5515 16.0659 17.7794 15.6725 15.6528 15.4941 16.3541 16.0181 19.1726 15.4726 16.1065 24.467 21.8813 20.5149 15.3865 14.7505 14.6479 17.3339 19.4846 16.4209 22.1615 14.5114 14.489 14.1491 13.9395 13.9343 13.5503 15.6548 13.142 13.1233 13.1125 13.1043 12.9922 12.7676 13.1003 12.8083 15.2505 12.5979 12.5248 12.4806 12.2633 16.6791 11.9224 11.8796 12.0716 11.6337 11.4608 11.3493 13.6893 12.3751 10.6212 10.0239 11.8333 12.644 12.068 10.0232 9.94627 9.70024 9.57744 9.55815 9.25005 9.07038 12.3967 8.80644 8.7587 8.58815 8.27188 7.87715 7.99612 8.43163 7.81639 7.52357 7.49687 7.45597 8.67669 8.81879 7.55662 7.42658 6.83096 8.79535 6.65327 6.60995 6.51748 9.30292 6.25063 6.24888 6.23886 5.94341 7.91466 5.92795 5.85417 5.81623 5.79047 9.64732 5.77974 5.71465 8.1009 5.64592 5.11146 4.59944 4.5105 4.4305 4.36235 6.68551 4.34013 4.18724 4.17765 4.0473 11.443 4.03467 3.98354 3.8418 3.80183 3.5903 3.52007 3.4836 3.35577 3.33638 3.22696 3.22327 3.1663 3.01476 2.24414 2.21719 1.98517 1.5861 2.97096 1.50289 1.29305 2.64022 1.14932 1.14751 1.12352 1.12164 1.11936 1.0902 1.05395 0.982493 0.829575 0.798685 0.0389828 0.0121863 0.0121442 0.0121193 0.00986142 0.00947975 0.00664582 0.00458981 0.00448626 0.00376235 0.00286603 0.00245331 0.00211457 0.00123463 0.00100808 0.000851004 0.000835569 0.000616057 0.000406666 0.000305144 0.000297258 0.000204909 0.000126431 7.65984e-05 5.47912e-05 3.96963e-07 7.99104e-08 1.13687e-13 1.42109e-14 1.42109e-14 1.42109e-14 7.10543e-15 7.10543e-15 7.10543e-15 3.55271e-15
threshold=1.0000000180025095e-35 0.99834842692648851 0.58043105918622373 0.13821127044274381 0.0058077426298731591 0.99570679143270768 0.49901975185291414 -0.36986992926060519 -0.43790405246577285 -1.0000000180025095e-35 -0.99779790256865108 -0.66710828297906843 -0.2165107660005369 -0.36986992926060519 0.11239486890180236 -1.0000000180025095e-35 -0.99712066975093905 -0.4010405024142551 -1.0000000180025095e-35 -1.0000000180025095e-35 0.13792183783487869 -0.050025946455185814 -0.32786902386379363 -0.33240137917704943 -0.3371658675214676 0.58043105918622373 -0.42043955950420098 -0.20808789365683844 0.33623957980420888 -0.15396877724473565 0.30372583293527017 -1.0000000180025095e-35 -0.44735163756123747 -0.9099721274048751 0.65100579190398122 -0.31355774956846422 -0.39753145699622655 -0.73629452756139602 -0.55253388206880738 0.99970686288533339 0.02725285059553301 -0.3343249893425268 0.74942099712442478 -0.26693966828835453 7.3034671977966819e-07 0.24985343144266667 -0.77100050597562786 -0.78772196914310499 1.5292037736556205 1.2902321844139049 -0.69081981561688832 0.49945072013626363 3.8293651543770442 -0.42414479943579392 0.99970686288533339 -0.27969857601043735 0.93017931571825996 0.33202633580388546 0.59971489958049806 1.1393917611613962 -0.1934739531618952 -0.30945596110593371 0.024318194243226173 -0.019919890904522414 0.1216395107106681 0.79898962552782404 -0.23524195736907458 0.7480464074037172 -0.48348307673586371 0.72701910891165411 0.27549336194426888 0.70635267017989634 0.55183664460632886 0.55795574643138701 -0.41085253103877378 -0.47923697896300799 -1.0000000180025095e-35 1.3462114199258683 2.0909849585724753 0.99970686288533339 0.16596995442364335 0.37170169847605922 -0.20803129780820365 -0.41622911057329698 -0.11126556426059743 -1.0000000180025095e-35 -0.70229111118470999 -0.7050125158376187 0.66529226164879851 -0.23482012228076876 -0.3332097948279284 -0.034247451873618544 0.65640904794507826 -0.024793757005397415 0.64314127369214258 -0.87012902683826276 0.4450051129440023 7.3034668682171648e-07 0.22207501678475494 0.66218474608234257 0.13745545398131517 0.37189331621495952 -0.13448104195191421 -0.16740686117225548 0.85578957035725545 -0.068697868618037936 0.43627236756217819 0.57936140453306406 0.15206781620831145 0.53640593708281636 0.33202633580388546 5.3486229762715691 0.082934107466841891 -0.22231993459377775 -0.31695860452235902 -1.0000000180025095e-35 0.29849636417485931 -0.3343249893425268 -0.072234975080763472 -0.66710828297906843 0.56932235057616187 -0.6031493741546653 -1.0000000180025095e-35 0.6902682061333657 0.41655082680455197 0.9992811250394279 1.0000556655738937 -0.25055707176153613 0.6902682061333657 0.92720558611533943 -1.0000000180025095e-35 1.4732149044088114 -0.33889858809993406 -1.0000000180025095e-35 0.89109184744462566 0.24993781061582096 0.031273216116498567 0.39159018617588348 1.1100800509445417 0.41138996094286101 -1.0000000180025095e-35 0.21577924486280162 -0.33895336387490355 -0.51694768624535004 -0.60076993312614357 -0.11126556426059743 -0.31153682759379347 -0.53917104983194886 -0.64354716310820526 1.0714233863536162 -0.16243329390251107 0.80762910820776546 -0.6716083780012424 0.87860990289615293 -0.33419590034396512 -0.37088152552045034 0.5344621047079483 0.34752660540248653 0.55765748433199158 -0.022742479726911492 0.68758052602046482 0.65841687441881025 -0.51459458488376641 -0.37968488285241503 0.44175354790859017 -0.44587600848036391 0.34107830156318869 -0.26513982422040638 -0.34215676442496451 0.082694542991082962 1.8926136809155618 0.30818921546674577 7.3034589445797648e-07 0.82960642960489384 0.83345919435609173 0.51413355245685 0.22882890836289704 0.30850568646434595 0.0342801173277546 0.32390612730822743 -0.65390564569610088 -0.25090214177343045 -0.40076679995794368 0.44428097726477972 -0.17892218307374444 -0.25090214177343045 0.49938806330569774 0.7330079058887039 0.17322310152388204 -0.34213756670201634 0.10543500213835272 -0.00010641392393625456 -0.20000621394936835 0.34361349803572899 0.021650998315400617 -0.31549081823186625 -0.533409591511809 1.517338668096283 -0.23572509321196658 -0.70198214464356889 -0.40018099707254545 0.60861997449479144 -0.26329959257703345 0.28082960415784741 -0.40154227577744894 -0.31106728642088138 -0.52035804411594022 0.83136751098071227 0.47093105075712016 -0.19111500856983768 0.30845694643198168 0.15043920414843001 0.55201124980469107 0.59047684474347473 0.65657292656129507
decision_type=2 2 2 2 2 2 2 2 2 2 2 2 2 2 2 2 2 2 2 2 2 2 2 2 2 2 2 2 2 2 2 2 2 2 2 2 2 2 2 2 2 2 2 2 2 2 2 2 2 2 2 2 2 2 2 2 2 2 2 2 2 2 2 2 2 2 2 2 2 2 2 2 2 2 2 2 2 2 2 2 2 2 2 2 2 2 2 2 2 2 2 2 2 2 2 2 2 2 2 2 2 2 2 2 2 2 2 2 2 2 2 2 2 2 2 2 2 2 2 2 2 2 2 2 2 2 2 2 2 2 2 2 2 2 2 2 2 2 2 2 2 2 2 2 2 2 2 2 2 2 2 2 2 2 2 2 2 2 2 2 2 2 2 2 2 2 2 2 2 2 2 2 2 2 2 2 2 2 2 2 2 2 2 2 2 2 2 2 2 2 2 2 2 2 2 2 2 2 2 2 2 2 2 2 2 2 2 2 2 2 2 2 2 2 2
left_child=8 207 3 4 21 209 7 12 25 -10 70 -12 65 38 210 16 24 20 23 -8 96 56 113 -19 30 26 33 44 29 31 90 43 106 -1 87 -24 37 -37 146 40 63 62 -43 -29 54 47 -47 157 73 50 52 53 159 -52 61 85 57 58 59 60 124 -28 -26 64 72 66 95 -68 -20 118 126 98 -40 74 130 -75 -77 82 129 -71 103 139 144 84 -65 -34 155 125 89 -89 -16 104 93 94 117 -7 -14 -85 -45 135 -62 138 -103 154 121 -72 -31 108 -107 -110 -76 132 -101 -4 -115 116 -116 -93 212 -120 -56 -84 163 -124 -3 211 147 128 145 152 -49 149 133 -33 177 136 -88 -61 168 -82 -53 -90 143 -121 -27 -30 -13 148 -11 187 -22 -137 -48 165 -36 -41 188 -38 172 -17 -67 214 -154 -57 -94 166 -146 -63 180 -170 -66 185 -144 197 189 184 183 181 -50 -104 -35 -129 -183 -95 -148 -134 -184 191 -117 -123 -51 192 -39 199 -195 -191 -182 206 -186 -167 -198 -197 -193 -202 -201 -206 -149 -2 -5 -6 -15 -21 -23 -208 -59
right_child=1 2 22 208 5 6 19 -9 9 10 11 13 17 14 15 49 -18 18 68 34 150 69 35 -25 41 77 27 28 127 32 -32 111 55 101 80 36 45 131 39 86 -42 42 -44 71 -46 46 78 48 178 190 51 140 -54 -55 120 122 -58 161 -60 137 100 167 -64 83 170 160 67 -69 -70 79 105 -73 -74 75 110 76 -78 -79 -80 -81 81 -83 91 97 -86 -87 99 88 141 -91 -92 92 164 176 -96 -97 -98 -99 -100 112 -102 102 179 -105 -106 107 -108 -109 109 -111 -112 -113 -114 114 115 156 -118 -119 119 142 -122 174 123 -125 -126 -127 -128 134 -130 -131 -132 -133 171 -135 -136 151 -138 -139 -140 -141 -142 -143 158 -145 153 -147 175 173 -150 -151 -152 -153 162 -155 -156 -157 -158 -159 -160 -161 -162 -163 -164 -165 -166 193 -168 -169 169 -171 -172 -173 -174 -175 -176 -177 -178 -179 -180 -181 196 182 186 -185 198 -187 -188 -189 -190 195 -192 202 -194 194 -196 201 200 -199 -200 204 203 -203 -204 -205 205 -207 213 -209 -210 -211 -212 -213 -214 -215 -216
leaf_value=0.0098030613267342595 0.091131786847391608 -0.091788470093945931 -0.09113178194381398 0.091131786847391608 0.091131786847391594 0.024693004045528925 0.091131786847391608 0.091131786847391608 0.091131786847391608 -0.091131781943813966 0.091131786847391608 -0.032797324821632383 0.016441117596465261 0.091131786847391594 -0.012352578412995467 0.024430770280686118 0.091131786847391608 0.029072415600962371 -0.052628058702899563 -0.091131781943813939 -0.040901007363168811 -0.091131781943813939 0.063992334721273664 0.091131786847391608 0.06368048920633966 -0.030209580419191581 -0.035656751504810777 -0.07756467419640195 -0.028846343846628791 -0.095848962893045259 -0.068236195782029704 -0.095320012689633665 0.019661388245043914 -0.097452614765331028 -0.036680830881415591 0.044371581615079016 -0.096978964425448344 -0.093325102709242144 -0.048654158811670734 -0.020145775735586152 0.091131786847391608 -0.070990721671888288 0.028993044469833109 0.062662707123771186 -0.042679684797668677 0.019758629613380818 -0.039456087957906442 0.0058598964025417689 -0.095386951957041832 -0.096174440355868696 0.016189836852499567 -0.049877862279389951 -0.061413450648499658 -0.029623305815277081 -0.046127019433728045 0.045829837669000201 0.06845013436006353 -0.091131781943813994 -0.096782415892659637 -0.09272082724050433 0.0065678685112230979 0.052317706482678229 -0.048394854349619619 -0.096277073159007923 -0.094165710117093682 -0.09113178194381398 0.0042492882526181932 -0.069479335213542201 0.0060655269427505503 -0.072644026706404893 -0.091131781943813897 -0.055339699597481855 0.025206189611320068 -0.094536650535313849 0.044241167941654141 0.043390901911365722 -0.048975408225943644 0.030131664771200967 0.012943376267304333 0.022592883879192581 0.024966564818774375 -0.067205274427857079 -0.027397988484509792 0.038943216392915092 -0.0082358506222390687 -0.07389656791874509 -0.023086452664129342 -0.048657262482462556 -0.086046863101858634 -0.011049145710284461 0.071026614708273622 7.5627387476802569e-05 0.0023318690173973057 -0.092475759568740046 0.053047618556229352 -0.055944106419328635 -0.046305219685435967 -0.0198585254557028 -0.018470569810887561 0.02000668591291457 0.060445687034615982 0.0067255971386864337 -0.09618871251121984 -0.093415094650580247 0.0086724848363403176 -0.053958175776937595 -0.0005291095292286244 -0.071971509073760362 -0.01438953411456965 0.065432826434082658 -0.012120128553165693 0.00044416783465853243 -0.056467802916848012 -0.09113178194381398 0.017672224596104926 -0.095008500090904016 -0.050225466506685551 -0.092777901665931931 1.7761218041612578e-05 -0.072118246172828679 0.027741128848757513 -0.093471835458875163 -0.017971515520507159 0.071733096495363718 -0.0039842129262768851 -0.020820859069592055 -0.022133011346592638 -0.092736875580294975 0.015239595031770359 -0.019367241721310855 -0.072574683033057974 -0.032321216330649993 -0.09364743197443115 0.0050787755578273431 -0.02789562299171619 -0.093545260977104097 -0.072437556812384785 -0.012898953594545083 -0.030700639930388508 0.075180930570755311 -0.093921945457629066 -0.037346319536601592 -0.093035564473279819 0.014765580467141659 -0.093216192771410494 -0.094088213481320834 -0.095076977098899548 -0.091123246276488545 0.022592883879192591 -0.034398364449285068 -0.092153839010677849 -0.034801080826981926 -0.059115229516486484 -0.030732613061049793 0.020629254711772488 0.036171152318087603 -0.031973550461667929 -0.032544533050451789 -0.045488872789937441 0.069199074471645111 -0.034746258778514949 -0.034896191200283998 -0.095108351741861122 0.083207338293236163 0.044281382008942521 -0.091712586950072561 -0.030067348060430744 0.082639513698316694 -0.095017706990460568 -0.038615635451100361 -0.059782024498264724 -0.062475843538471833 -0.060442840511355338 -0.060147858846021043 -0.059811460309906223 -0.059761306915868666 -0.06017958572879667 -0.064722084642726205 -0.0605481204518196 -0.062718022788776431 -0.092245208390464253 -0.093148204473776308 -0.098065666703742671 -0.096707429662602887 -0.092158371233793709 -0.09641399747841059 -0.095053417023948136 -0.093828542881188831 -0.092372436240879402 -0.092251059278245506 -0.098276289774289982 -0.091478356257870791 -0.091776197389571434 -0.09150594072760837 -0.09268716540077683 -0.091127058163309765 -0.091808590754865693 -0.091871207712641539 -0.091407903914358907 -0.091350229951101383 -0.091122542479191132 -0.091624440746288421 -0.091093013574508927 -0.091441833919676307 -0.091099498524658207 -0.091120485668242088 -0.091131781943813925 0.091131786847391608 0.091131786847391608 0.091131786847391608 0.091131786847391608 -0.091131781943813953 -0.09113178194381398 -0.09113178194381398 -0.091131781943813953
leaf_weight=10.104874312877653 224.87720441818237 4.9923734813928515 15.611816599965094 21.467990875244141 12.344094753265383 4.4874698072671917 4.8302979469299308 47.229579925537109 29.518487453460693 6.1159693896770477 15.564293384552 5.3344716876745251 27.773185670375824 20.931291103363041 4.9228365123272004 6.9260401278734269 17.174392700195312 97.534164488315582 11.477463960647581 7.0816487669944781 5.9930922091007259 12.714778468012812 5.1334023624658576 17.711092472076416 7.6036216467618924 5.0220495760440818 3.505701318383216 5.8757851868867901 4.6929491162300101 4.6908637136220914 3.9406825751066199 4.3666242361068726 9.1240735203027707 3.5626727938652065 5.3568392395973197 3.6796149462461463 5.0232663154602033 3.5530268251895905 15.920411407947542 5.5768731385469437 9.6605958938598615 19.762946635484699 5.7370175123214713 11.134309023618703 7.8347986340522757 9.1296861320734006 5.6727461963891974 5.1412051022052765 3.5610878318548194 3.2409187257289878 35.505371317267418 11.775540918111803 5.9503148943185797 78.378841176629066 6.3198492527008039 6.647429212927821 5.1380978375673285 4.9893434494733793 5.4941500127315512 5.1578650921583158 15.043511852622041 5.6165712177753475 4.6456880569458008 5.3519494682550457 9.3738738894462568 8.5301678329706174 58.268454730510712 8.2147157639265043 56.415798723697662 5.3835216760635349 4.3455571979284313 5.126323550939559 9.5106954425573331 4.8539471924304989 34.977471113204956 8.907302618026737 8.9683146327733958 4.8706832826137534 5.8401214331388465 9.5291408598423004 10.913776814937597 3.9413713514804831 6.3753395676612916 19.387218490242965 14.286883294582362 5.2258368134498587 18.134087800979614 31.272643312811852 12.360268056392671 72.781397864222527 17.040087029337883 4.4255396425724021 6.3381636291742307 3.2260870337486267 4.9183499664068231 27.286519855260849 8.1746827363967878 10.989084333181379 5.4022225439548484 8.1158227920532209 16.934011042118073 9.2446151226758975 3.8889351189136496 4.2025141716003409 3.954313412308692 4.9688815623521867 4.4212281107902527 4.7473169118165961 7.6226883083581907 5.8450638353824615 7.4643022119998923 4.2657209932804099 5.2958799302577964 9.3349006474018079 9.1316143572330493 3.2315539717674273 7.4338496029376975 4.1944010555744162 6.5006891489028922 5.0594614446163177 5.888671875 3.2332520335912767 6.9081110060215014 4.9692438840866089 3.4122905135154724 4.2231208682060233 5.7387197613716117 5.4822351187467637 4.802193120121955 5.5620852559804908 4.4278729110956174 6.8572516590356818 4.8429179489612642 5.2930621057748848 4.6990826725959769 13.417604804039003 15.35743999481201 3.883052334189415 5.0148001611232749 7.8333962261676779 11.479630947113035 7.5061464309692374 13.555488988757142 3.9369798749685234 4.2000643461942699 5.1671390235424033 3.2382200509309769 3.2188661843538346 3.4651421308517438 3.5127712637186042 10.318673372268675 3.511611968278884 5.935918956995013 3.3496842980384818 5.3605633825063697 5.4094255864620191 3.342799499630928 3.3479951471090317 6.6262138485908499 9.5845969319343549 3.5159958600997916 3.3583451509475699 16.013553589582447 9.8415064960718137 5.081106960773468 3.2229646593332353 3.3466206192970276 15.001450493931772 4.5273525565862673 3.8302467465400696 3.28109586238861 3.2919827401638022 3.2848583310842505 3.285476714372634 3.2830835431814185 3.28133700788021 3.2815429121255875 3.2938110828399649 3.2848991751670837 3.2902758866548538 4.3519710004329673 3.389816522598271 4.2174998968839619 3.5580402314662933 3.3871978968381882 8.5858963578939385 3.2360405176877975 3.234187737107276 3.2245823740959167 3.2263652980327651 3.246587336063385 3.2210341095924413 5.8013131320476585 3.8653580993413916 3.3905564546585083 5.794011160731305 3.5456495732069007 3.2238190919160834 3.8648861497640592 3.2202845960855528 4.5064049661159506 3.2223330736160278 6.2763359993696195 3.2209739238023758 3.379618793725971 6.7595743387937439 13.036671593785291 14.490893840789793 10.733995437622069 11.270695209503172 10.733995437622069 5.4721831381320953 4.1846106350421897 5.4721831381320944 3.218931257724762
leaf_count=39 419 31 97 40 23 16 9 88 55 38 29 26 101 39 21 24 32 323 59 44 30 79 13 33 19 24 17 34 22 29 22 27 33 22 26 11 31 22 82 25 18 113 19 29 39 33 28 20 22 20 130 61 32 369 32 20 13 31 34 32 58 16 24 33 58 53 228 46 219 31 27 27 33 30 106 27 46 16 22 33 37 22 30 61 60 30 84 160 74 313 40 18 25 20 14 145 41 49 24 29 44 36 24 26 15 26 18 27 33 15 32 17 28 58 33 20 39 26 26 29 20 20 31 12 14 19 26 34 18 25 25 33 30 21 22 83 88 17 24 18 71 37 84 15 26 32 20 20 12 17 64 17 32 16 19 17 16 16 34 24 17 16 99 21 15 20 16 32 28 19 18 18 18 18 18 18 18 18 18 18 27 21 26 22 21 53 20 20 20 20 20 20 36 24 21 36 22 20 24 20 28 20 39 20 21 42 81 27 20 21 20 34 26 34 20
internal_value=5.72568e-07 0.0121143 -0.00670632 0.000997204 -0.00291412 0.00424246 0.000680601 0.0120518 -0.0159096 -0.00692708 -0.0121245 -0.00605025 0.00124794 -0.00926665 0.00279233 -0.00853664 0.0181677 0.0130409 0.0228666 -0.0237171 -0.021392 -0.0330528 -0.032562 0.0386098 -0.00151893 -0.0305018 -0.0227607 -0.0145517 -0.0252146 -0.0119881 0.033995 -0.0346476 0.0134504 -0.049596 -0.0268283 -0.0240527 -0.0266465 -0.0612431 -0.0267921 -0.0219684 -0.00848478 -0.0258886 -0.0484962 -0.00513892 0.021419 -0.0175947 -0.0404844 -0.00534186 0.00141652 -0.0215324 -0.0184556 -0.0248838 0.0207927 -0.0153403 0.0352414 0.0269 -0.0128876 -0.0191737 -0.00745689 0.00247304 0.0161099 0.0583889 0.0211747 -0.0194081 -0.0423702 -0.0239195 -0.0176971 -0.00486068 -0.00385672 -0.053459 -0.0536385 0.0145057 -0.021032 0.00875222 0.0224136 -0.0225084 -0.00294988 -0.0484594 -0.0545782 -0.011788 0.00313848 0.0262917 -0.0521447 -0.00192264 -0.0322287 -0.0144098 -0.0395867 -0.0348385 -0.0296134 -0.022352 0.0523377 -0.0388051 -0.0207872 -0.0410021 -0.00944774 -0.0445557 0.00217236 0.0176708 0.0361578 -0.0477053 0.0350994 -0.0618495 -0.0315551 -0.0320704 -0.0604989 -0.0266271 -0.0495993 -0.0145364 0.000252775 0.0202537 0.0343288 -0.0611641 -0.0101908 -0.0623101 -0.0497059 -0.0350382 -0.0127973 -0.0451062 -0.0645831 -0.0530684 -0.0104974 -0.0713814 0.0477978 0.0195591 -0.05614 -0.073433 -0.0707107 -0.062543 -0.0373992 -0.0664613 -0.0304339 -0.0732169 -0.0711261 -0.0403061 -0.0777028 -0.057684 -0.0457163 -0.0584375 -0.0771304 0.0459483 -0.0716197 -0.0676463 -0.0636988 -0.0340966 -0.0736563 -0.0630361 -0.0703635 -0.0780821 -0.0500017 -0.0841718 -0.0733231 -0.08136 -0.0759443 -0.079938 -0.00801583 0.00758351 -0.0726374 -0.0712091 -0.0750475 0.0504192 -0.0746742 -0.0748039 -0.0853745 0.0681388 0.0209977 -0.0851896 -0.0652125 0.0743795 -0.0855833 -0.0691689 -0.0852509 -0.088931 -0.0866781 -0.0876101 -0.0863293 -0.0849149 -0.0834426 -0.0896323 -0.0786703 -0.0808489 -0.0927329 -0.0946581 -0.0956294 -0.0946951 -0.0927828 -0.0954163 -0.0967579 -0.0920883 -0.0936919 -0.0919548 -0.0972263 -0.0917898 -0.0923645 -0.0915139 -0.0920579 -0.0915542 -0.0916567 -0.0912262 -0.0917584 -0.0912759 -0.0914296 -0.0913048 -0.0912237 -0.0912556 -0.0911706 -0.0911135 -0.0911305 0.0911318 0.0911318 0.0911318 0.0911318 -0.0911318 -0.0911318 -0.0911318 -0.0911318
internal_weight=2191.77 1244.34 1004.97 774.282 742.08 599.682 576.067 392.931 947.425 586.436 556.918 485.831 345.701 470.267 278.58 246.915 80.8273 235.398 183.139 183.136 52.2596 142.398 230.692 115.245 63.6529 360.989 252.25 193.161 148.994 110.013 25.9036 58.1848 51.8283 59.0888 178.306 179.381 174.247 36.1355 191.687 172.581 97.7618 37.7493 25.5 27.5386 44.167 138.112 48.1541 89.9577 81.5864 166.088 159.6 137.139 22.461 113.884 36.3322 42.7162 71.622 66.4839 54.9173 49.4231 40.3822 24.1237 12.2493 88.1012 38.0861 110.303 98.2572 66.4832 67.8933 70.7757 71.0864 21.6629 25.4311 74.7404 52.0109 22.7296 17.8756 108.739 39.0244 14.9127 37.6085 22.6885 103.869 50.0151 19.6388 14.3499 74.8187 140.697 123.92 104.054 21.9629 64.1119 35.0232 23.604 13.5383 31.774 35.9479 30.3763 16.5365 63.8324 31.9775 48.9839 16.4238 14.9199 29.0887 27.5295 9.11209 23.184 18.4366 13.4678 42.4418 30.6462 13.4117 51.3111 35.6993 26.3644 16.5655 8.61994 55.8631 38.9637 12.2085 25.1344 28.3663 11.8774 8.40466 16.777 43.5568 38.9808 14.6623 33.1843 9.56908 32.4559 26.3805 9.65969 24.3185 50.4207 33.4915 9.04092 32.5601 18.7472 23.2552 19.8664 32.463 8.99644 39.7568 9.86009 19.1061 37.8181 9.58111 25.5987 16.3118 16.9292 27.6222 34.7347 10.7174 10.9863 9.79894 8.37126 23.4666 16.5106 12.0462 11.5666 21.9495 16.4889 11.4193 31.385 7.54668 20.618 27.5453 8.3576 12.655 16.7208 16.8403 28.237 18.759 13.7716 10.0657 19.6194 6.84599 7.17921 19.1877 16.3256 10.8434 6.78413 10.4903 13.4288 7.45354 22.0859 6.45614 15.476 6.48751 18.8517 9.35434 23.8384 7.25591 12.2427 15.625 24.9515 7.25208 16.5824 11.273 9.01634 9.49737 7.72738 13.3595 10.1392 21.7277 239.368 32.202 23.6148 31.6653 12.5538 16.8994 18.5089 8.20827
internal_count=8808 4642 4196 3090 3030 2345 2301 1463 4166 2453 2398 2021 1375 1992 1100 1041 290 870 634 838 236 685 1106 356 258 1713 1150 843 687 474 83 280 194 307 829 823 810 198 892 783 412 175 132 114 156 612 239 373 326 751 711 631 80 499 117 147 310 297 230 196 147 65 43 394 191 505 435 274 278 375 377 80 115 286 183 103 73 563 206 64 148 77 547 203 93 63 371 681 584 473 61 317 158 118 58 161 142 110 53 329 102 268 78 71 159 128 47 101 74 48 138 166 57 283 186 128 72 44 311 206 52 144 84 43 45 97 249 213 72 184 45 187 149 48 141 272 172 49 190 55 132 111 180 44 230 54 109 223 50 154 94 100 159 206 45 42 56 47 136 48 70 67 131 41 40 190 42 48 166 47 76 101 102 173 114 83 60 119 40 42 119 101 67 42 65 83 46 137 40 96 40 117 58 148 45 76 97 155 45 103 70 56 59 48 83 63 135 446 60 44 59 78 105 115 51
is_linear=0
shrinkage=0.05


Tree=3
num_leaves=200
num_cat=0
split_feature=7 7 32 32 20 20 41 41 1 32 33 33 11 11 32 32 51 42 41 10 0 32 48 17 53 0 2 2 59 47 43 43 47 10 10 46 17 53 51 48 51 52 18 46 59 49 11 35 11 18 3 51 4 5 20 36 5 5 50 0 5 48 43 4 48 36 50 20 3 60 18 53 51 2 43 18 3 4 50 4 43 3 48 50 60 60 11 11 35 4 47 51 0 43 36 51 47 52 42 53 2 50 8 3 49 3 48 51 43 9 36 17 10 43 47 43 50 53 20 52 48 17 4 35 1 48 59 3 10 18 43 50 3 17 48 46 3 3 50 51 4 51 17 43 0 17 52 5 17 50 3 0 50 1 16 4 35 5 9 16 43 60 2 5 46 49 53 17 50 43 43 60 51 4 60 36 53 46 43 49 51 32 3 17 47 52 46 52 60 50 46 35 0 1 2 0 8 0 0
split_gain=153.305 675.991 72.6079 99.6612 59.3278 66.2327 62.5882 57.8752 47.3572 113.268 45.0304 109.003 51.0987 55.3906 36.0215 101.757 34.7944 31.0306 42.4417 27.2641 22.5193 22.4735 21.3572 19.9897 19.071 21.7862 27.8135 48.25 32.2095 21.429 23.4257 19.1788 18.4517 18.3803 25.2074 18.3137 18.2477 15.992 15.3538 14.8466 19.9294 16.6376 14.7016 15.4503 16.9746 15.0099 15.3223 22.9105 14.5843 16.1746 14.4735 21.9004 14.294 14.2858 14.252 14.1388 14.1087 18.1885 14.0665 14.5599 22.2878 19.7783 18.5345 13.9713 13.6773 13.1423 12.6865 12.5387 15.4928 16.6375 13.6323 14.1291 12.0894 12.0758 12.0437 11.9498 11.9228 11.4711 11.3977 11.2469 12.1442 10.0593 9.6669 9.9842 9.57478 9.33475 9.20691 9.18305 9.02104 9.02073 8.47718 8.32232 8.20228 11.4694 10.7059 17.5631 9.40158 10.0158 7.87769 7.72833 7.45475 7.45 7.39017 7.32578 10.9705 7.31644 7.27962 6.90894 8.01106 8.03856 6.84577 6.81606 6.78154 10.5146 6.07356 6.0411 5.95265 5.79839 9.21854 5.77126 5.37637 4.83047 4.75776 4.73288 4.6576 4.46439 4.32235 4.2872 4.17035 4.11338 4.02673 3.9731 3.8947 3.86293 3.74519 3.74387 3.7291 10.4711 3.62304 3.5765 3.32241 3.2195 2.92031 2.9189 2.8598 2.51946 2.05723 2.03689 1.12494 0.995537 0.895594 0.890142 0.879156 0.0561137 0.0196694 0.0185523 0.0184051 0.0177404 0.0160744 0.0157539 0.0144668 0.0140075 0.0133551 0.0131756 0.0118683 0.0118483 0.0106801 0.00942403 0.00936482 0.00871546 0.00859155 0.00826989 0.00791124 0.00769947 0.00763815 0.00742028 0.00701649 0.00696175 0.00555887 0.00473871 0.00422713 0.00392304 0.00349727 0.00318869 0.00212352 0.00211054 0.00186278 0.00090825 0.000287658 7.56627e-05 1.07149e-05 1.15044e-07 1.13687e-13 1.13687e-13 2.84217e-14 1.42109e-14 1.42109e-14 7.10543e-15 3.55271e-15
threshold=1.0000000180025095e-35 0.99834842692648851 0.58043105918622373 0.13821127044274381 -0.7495977170494651 -0.5044503162085554 0.0058077426298731591 0.99570679143270768 0.49901975185291414 -0.36986992926060519 -0.43790405246577285 -1.0000000180025095e-35 -0.99779790256865108 -0.66710828297906843 -0.36986992926060519 0.11239486890180236 -0.43066830848473203 -1.0000000180025095e-35 -0.99712066975093905 0.9992811250394279 0.68367746551224129 -1.0000000180025095e-35 -0.32786902386379363 -0.3371658675214676 0.5862747830381061 0.62565382049418805 0.99970686288533339 0.031637024019740452 -0.31894337168196213 9.1764254488284696 0.75658062334379728 0.39248091170206578 0.57138959299013903 -1.0000000180025095e-35 -0.48289200496114598 0.33316418411443588 0.67179714683026648 -0.18197296600845173 0.094141220418194158 -0.31355774956846422 -0.39753145699622655 -0.73629452756139602 -0.55253388206880738 -0.49702922089966312 -0.098916241048501594 -0.042005689191588806 -1.0000000180025095e-35 -0.19065433152223343 -0.3343249893425268 0.74942099712442478 0.42923864755746671 0.22207501678475494 0.94596892243366504 -0.36578977611764268 -1.0000000180025095e-35 -0.31242281450172649 0.4521288421361141 -0.027550156221946089 1.2902321844139049 -0.69081981561688832 0.49945072013626363 3.8293651543770442 -0.42414479943579392 -0.33036206770293813 0.35614853107726924 0.024318194243226173 1.1100800509445417 0.24985343144266667 -0.65114631286190761 -17.120138885999225 0.25027796163716104 -0.4716892432917435 0.11069879778334367 0.40904426748250083 0.27549336194426888 -0.28006252320980923 0.064565529136314567 0.10405802367816615 0.60209162682456829 0.6354911688585041 -0.65091783240162482 0.79210877463466145 0.44737305535531974 0.57174828462261751 5.6101062034370711e-07 -0.052615831224273706 -1.0000000180025095e-35 -0.093790144183770616 -0.39889851509773028 -0.51989018002188259 -0.24165641227105067 -0.28922311022067976 -0.053946484064016739 0.13493777603065676 0.33885878913179907 0.66077683581463764 1.6309138079966481 0.13324066144364155 -0.067661247979377101 -0.039665097155477093 0.99970686288533339 0.7661738222948965 0.99896705526666885 -0.21274020698162241 -0.23634458466864236 -1.0000000180025095e-35 2.036974110271411 -0.22231993459377775 -0.31695860452235902 -1.0000000180025095e-35 0.29849636417485931 0.7329847296631179 0.49816695802837102 0.33623957980420888 -0.40154227577744894 -0.49489734451839079 -0.56707642347983234 -0.524170751653244 -1.0000000180025095e-35 1.0000556655738937 1.4732149044088114 -1.0000000180025095e-35 0.62076655820825943 1.0114452549557045 -1.0000000180025095e-35 0.040567228879102399 0.4450051129440023 -0.26743941332175369 -1.0000000180025095e-35 0.49945124741718944 -0.44465237768599392 0.72293737955683601 -0.073260566194931084 0.59937789201152725 0.50231710995309076 1.0714233863536162 -0.53917104983194886 -0.64354716310820526 0.16756277159572633 0.77717408009830213 0.57622941453712251 0.11069879778334367 -0.40076679995794368 -0.022742479726911492 -0.19111500856983768 -0.67601288422622785 -0.26693966828835453 -0.39271126447787791 0.7945193161348918 0.73573394278986348 0.28308184714627954 0.5605051499601944 -0.13708182466809363 0.24668682131953554 0.24921385933812365 -0.56229432710868943 2.2391539606039559 0.80869943214055773 -1.0000000180025095e-35 -0.083416188402117161 0.30116081186559124 7.3031849154218841e-07 0.99970686288533339 -0.48348307673586371 0.028009488107656948 0.14708097307214249 0.043998568250052793 0.59937789201152725 -0.35196159821827472 0.89684299073085605 0.056228916267439755 7.3032214912008037e-07 0.66077683581463764 -0.64655135278492726 -0.038588718369329957 -0.35006166389858634 0.092491390425640543 1.9178327021328045 0.1754408037573211 -1.0000000180025095e-35 0.22207501678475494 0.58043105918622373 0.54587881659070125 -0.2735944644289387 0.10543500213835272 -0.40018099707254545 -0.245735598462653 0.45986798386730415 7.3034553836574527e-07 0.70694052691592202 -0.41254652306368406 -0.24162997345671836 0.84610866923281691 0.7295881935845826 0.89372919632175629 0.30845694643198168 0.96783362421173502 0.80949983507230805 0.68367746551224129
decision_type=2 2 2 2 2 2 2 2 2 2 2 2 2 2 2 2 2 2 2 2 2 2 2 2 2 2 2 2 2 2 2 2 2 2 2 2 2 2 2 2 2 2 2 2 2 2 2 2 2 2 2 2 2 2 2 2 2 2 2 2 2 2 2 2 2 2 2 2 2 2 2 2 2 2 2 2 2 2 2 2 2 2 2 2 2 2 2 2 2 2 2 2 2 2 2 2 2 2 2 2 2 2 2 2 2 2 2 2 2 2 2 2 2 2 2 2 2 2 2 2 2 2 2 2 2 2 2 2 2 2 2 2 2 2 2 2 2 2 2 2 2 2 2 2 2 2 2 2 2 2 2 2 2 2 2 2 2 2 2 2 2 2 2 2 2 2 2 2 2 2 2 2 2 2 2 2 2 2 2 2 2 2 2 2 2 2 2 2 2 2 2 2 2 2 2 2 2 2 2
left_child=10 192 3 4 92 -6 52 -8 9 16 24 196 74 -14 42 195 20 18 23 -18 -9 -10 107 32 25 26 27 28 38 78 105 35 85 34 -23 36 37 63 55 -24 41 -41 130 131 139 56 54 -48 65 -50 117 86 66 112 -47 87 57 -46 59 61 62 143 -61 -28 -35 -25 79 70 -69 -70 71 77 73 -27 119 -40 88 141 156 80 127 -82 83 -72 144 -17 -52 -1 -77 -80 114 -92 96 94 129 158 123 -98 -76 -73 122 -91 -102 -74 -105 -31 -101 197 198 110 -110 164 113 115 -65 -42 -90 118 126 136 135 -75 -100 153 -38 152 -30 -7 -62 -94 -15 179 -71 183 161 182 137 -13 -136 178 176 -55 -103 -19 -57 -33 -58 -119 177 186 -117 166 -95 165 -68 -149 157 167 -96 -144 -155 174 -134 -147 -81 -3 -39 175 -146 172 -53 -157 173 -165 -37 -26 -111 189 -45 -44 -161 -177 185 -114 -60 -43 -132 -187 -188 190 -138 -192 193 -2 -5 -16 -12 -4 -109
right_child=1 2 22 194 5 6 7 8 21 -11 11 12 13 14 15 17 19 58 -20 -21 -22 33 39 48 29 72 31 -29 50 30 -32 145 -34 64 -36 134 124 151 75 40 53 120 43 44 45 46 47 -49 49 -51 51 170 -54 67 -56 84 146 -59 184 60 128 -63 -64 90 -66 -67 154 68 69 132 82 99 103 121 98 76 -78 -79 89 111 81 -83 -84 -85 -86 -87 -88 -89 116 101 91 -93 93 125 95 -97 97 -99 100 106 102 142 -104 104 -106 -107 -108 108 109 140 -112 -113 133 -115 -116 150 -118 147 -120 -121 -122 -123 -124 -125 -126 -127 -128 -129 -130 -131 149 -133 162 -135 138 -137 148 -139 -140 -141 -142 -143 159 -145 168 163 -148 155 -150 -151 -152 -153 -154 160 -156 171 -158 -159 -160 180 -162 -163 -164 169 -166 -167 -168 -169 -170 -171 -172 -173 -174 -175 -176 181 -178 -179 -180 -181 -182 -183 -184 -185 -186 187 188 -189 -190 -191 191 -193 -194 -195 -196 -197 -198 -199 -200
leaf_value=-0.031107615108482312 0.087549100083949435 -0.098963347928926471 -0.087549096011871594 0.087549100083949435 0.094481442309161223 -0.024939903041452355 0.087549100083949435 -0.04928406822679457 0.087549100083949435 0.087549100083949435 0.087549100083949435 -0.08754909601187158 0.087549100083949435 -0.028878008855448712 0.087549100083949408 0.076594150692036456 0.017928274411115549 0.023216344330581253 0.087549100083949435 -0.029555400595401002 0.023087580906908132 -0.012640439414138125 0.061040109640432771 0.060829828434442727 -0.088616382440906666 -0.028522867826960591 -0.092576574355182184 0.093323690715478899 -0.045161397943625829 -0.0032275489645531724 0.086031278778253978 -0.054943415728501643 -0.067341271458903118 -0.026848860216329595 0.099555946053004551 -0.09247365183177983 0.0036542240729553845 -0.093036235139390383 -0.040485942630113625 0.04222701616569377 -0.010877108563779967 -0.089101171193725084 -0.091890490062899316 -0.0940623075631392 -0.043822432591806251 0.056506930230675725 0.020518830243237911 -0.047386347563175023 -0.067902689963418042 0.027574935303117411 0.059746710219456878 -0.093118343716138988 0.048510112511258287 0.074655883562694342 -0.0092551015567604866 -0.041025565230258867 -0.053495250672549649 0.016281830896794552 -0.091948921468003667 0.015380599221356482 -0.047519916125664544 -0.058482871216722181 -0.028172599858420501 -0.090433079285461557 -0.073737097383457836 -0.046121625212786982 -0.089856819820604839 0.02162238853752723 0.015596745383601391 -0.045054631395154893 -0.041779823093596263 -0.080339613029827187 -0.072081442864054171 0.074372773199757755 -0.087549096011871524 -0.094484858590587806 -0.019629722386729141 -0.038979615566214987 0.0014928199842257949 -0.088648285869959528 -0.010492976213041405 -0.075757297119877359 0.070033981550042923 0.056543290142481578 0.012901068804285843 0.0096581775932404954 -0.018325246606654959 0.048692853878199757 0.012547316786232332 -0.0086887200451715163 -0.039733969531582848 0.030176324950109037 -0.0023991402183507812 -0.065467442609675838 -0.090710438705476404 0.026898496652979487 -0.00037335170373044676 -0.092553572439993417 -0.020166691557371323 -0.0030401311539597596 0.048162589035328801 -0.045063427593677777 -0.024626165204232442 0.03535791129010734 -0.056002407364401111 -0.092256150101446749 -0.073108055596364088 -0.087549096011871608 0.016792206997577844 -0.092121248624738444 -0.047905865324702666 -0.014941992056136451 -0.092226298068375345 0.020153576156248285 -0.00027057556942234901 -0.09294074236382055 0.075781560007291249 -0.057238148983732522 -0.09189664728514714 -0.021040393624981116 -0.030761850319307438 0.023890584433355688 -0.094256627881248417 -0.028802675588399398 0.065300917545261919 -0.024875399052194047 0.023870121942201894 -0.082123021949135025 -0.08998945352286121 0.052188212732969586 -0.089497688750578813 -0.02916291324242867 -0.091018290771084795 -0.028264955223890744 -0.029349369851461533 -0.032735840220936674 -0.087636952616542266 0.021478171838525361 -0.090294530852598198 -0.032411241231909235 -0.028886534254273951 0.025766598309966856 -0.095488191005098311 0.065835053929065232 -0.09025203848461967 -0.095027661540773231 -0.093497348966587943 -0.09419443565588341 -0.057863110164242983 -0.056940366523490452 -0.059507411082169559 -0.06131458133230884 -0.096598525588393408 -0.089868222590713434 -0.094411863136379892 -0.089281117661154902 -0.095205971654192992 -0.094593316629839108 -0.09534919831797653 -0.092798502443360284 -0.093645807358600619 -0.094749632484968385 -0.094305550225352905 -0.093227149038656684 -0.091850236894330653 -0.094902322970714756 -0.089597680986976666 -0.092846841385424567 -0.093534407651294227 -0.093511988729544221 -0.089543935157116478 -0.091940066572165233 -0.088999455291293064 -0.090400407580452355 -0.089608172984816645 -0.091737254402831148 -0.0888136227281561 -0.090108159810280308 -0.091460917086360616 -0.094263970371166142 -0.090405355180546154 -0.089689838905768496 -0.089631895816396689 -0.090337712994157549 -0.093762847623071577 -0.087522973414773095 -0.08775373817854612 -0.088444047885605184 -0.088373355139171161 -0.087827293156499509 -0.087538034156822389 -0.087548902851858929 0.087549100083949435 0.087549100083949435 0.087549100083949394 0.087549100083949435 0.087549100083949394 -0.087549096011871594 -0.087549096011871566
leaf_weight=6.6590579599142075 214.47225880622864 4.0539788305759492 11.303122609853743 19.642261326313019 18.817753255367279 4.6739200353622445 21.234877109527588 44.700525552034378 4.7778473496437064 45.124113857746124 18.580517470836639 6.0495585799217224 15.395285904407499 5.0138966292142895 20.704005181789402 13.296731323003772 206.67827229201794 6.9239642173051896 16.98790168762207 35.409604370594025 14.151715084910391 67.69472636282444 5.1130841374397269 7.5629507303237897 5.7478868216276213 6.3371880203485516 5.3062260746955827 9.6779946684837324 4.5973036140203458 4.7313162982463828 5.1992182135581961 5.7301989793777492 3.9270377308130255 60.695445775985718 5.4060214161872855 4.5094458609819403 6.4558070600032806 5.474711209535597 5.9645578116178504 3.6733145862817755 5.0638122856616965 3.8372171521186891 3.5451530665159217 4.1974082589149457 29.908196747303009 18.949737131595612 23.232835471630093 26.692160934209827 19.631841123104099 5.7306132316589347 6.8637752979993829 3.5377513319253913 5.0680771023035041 6.049714535474779 14.576210513710974 3.9707596898078945 5.5830086022615433 21.734108194708824 3.2208239436149588 35.504780277609825 11.742652207612993 5.936378374695777 78.2961216121912 4.1678514778614044 20.91143262386322 4.6312848031520844 5.7563837915658933 9.8295746892690641 6.6972676515579215 6.6148051172494915 5.6617190986871737 6.5304062366485622 5.2022456973791149 10.297470480203634 4.2983705699443844 0.96657314896584168 7.0441383570432654 5.3432976603507987 7.4853795319795635 5.2652249038219434 65.069654762744904 6.4932775050401679 11.169094845652578 4.7464305311441422 3.9344623982906333 8.5629241168498993 8.394997626543045 7.8607554882764834 4.791232153773314 4.8887884467840221 5.8122839480638513 15.908711522817619 8.9842713326215762 3.6003516763448706 4.164690434932707 5.1593852639198303 9.1542362570762617 4.3456741273403159 5.5556988567113876 17.004612207412723 6.486154779791832 4.449184969067578 7.5417192280292511 7.9738486111164102 5.5890394002199146 4.5050543248653403 4.74023213982582 5.8903596699237806 9.1297047734260577 3.2179440408945101 7.4048276692628852 4.0211429148912421 3.8669940382242194 7.3873652070760718 3.384598270058631 5.1608981639146823 16.673023328185078 6.0616573095321646 5.7821480482816687 5.7349839210510245 6.8449220508337012 8.7780912518501228 3.5522881299257278 3.3276537954807273 5.8317263424396497 4.5059614628553382 4.4747144430875778 10.973045364022251 11.384489223361014 5.6035336703062049 3.2040421962738037 3.3403399288654319 6.5873301178216952 3.3316656798124304 6.6645151674747449 3.5067612379789344 4.2997012287378373 3.4627918004989606 3.8457310199737549 3.4960051476955405 3.3252992928028107 7.5951051712036133 3.8741660416126278 9.5708905011415464 3.8469792455434817 3.5545397251844468 7.5748938024044019 3.2236502468585995 3.5636553466320029 3.2632752507925025 3.2736016362905502 3.275103196501731 6.1277369558811179 6.0787676721811277 4.028647854924202 10.713026553392412 3.2213285267353049 3.2242935597896567 3.3858439028263092 3.5429014116525552 4.3467545658349991 3.390037700533866 5.8191372901201248 4.6724154800176674 6.4260295182466507 3.2248097360134125 3.8435963988304138 3.7060568034648886 4.9939059764146769 4.8344551622867575 3.2033810615539551 4.0222112238407126 3.5166944265365592 4.9727515876293111 4.8021275401115444 5.6300516873598134 3.1955176442861557 3.2091806530952445 4.0207736194133759 5.1693765372037879 3.8507821261882782 4.0032556653022766 4.4866133481264105 5.2958745360374442 3.2330121248960495 9.8693519532680529 3.8234850317239744 3.6723104566335669 3.6721209734678268 3.346452832221984 3.1838446110487046 10.347921565175055 11.148310482501982 11.148310482501982 12.210054337978365 10.617438554763792 10.617438554763796 4.1391716599464408 3.3431771099567413
leaf_count=32 404 25 71 37 35 22 40 232 9 85 35 38 29 24 39 29 742 24 32 165 50 294 13 19 36 30 33 18 24 20 11 31 22 284 10 28 26 34 30 11 22 24 22 26 153 52 83 137 113 19 19 22 15 14 62 20 30 81 20 130 61 32 369 26 120 24 36 35 25 34 28 38 30 24 27 6 32 26 30 33 283 38 27 13 15 32 38 23 18 21 29 54 37 20 26 18 38 27 25 70 19 23 35 26 30 28 27 37 33 20 39 18 24 27 14 32 38 33 36 26 33 31 22 16 15 21 16 66 71 16 20 16 41 16 32 17 27 12 24 17 16 26 24 24 24 22 47 20 20 18 18 18 38 38 25 67 20 20 21 22 27 21 36 29 40 20 24 23 31 30 20 25 22 31 30 35 20 20 25 32 24 25 28 33 20 62 24 23 23 21 20 65 21 21 23 20 20 26 21
internal_value=1.60564e-06 0.0115732 -0.0063973 0.000951773 -0.00277851 0.00201723 -0.000682238 0.00668484 0.00328825 0.013677 -0.0151851 -0.00661146 -0.0115697 -0.00577046 -0.00883726 0.00266602 0.00260033 -0.0081352 0.0173705 0.010983 -0.0318815 -0.0192541 -0.0310719 -0.00145052 -0.0291072 -0.0235412 -0.0293207 -0.0143101 -0.022475 -0.0529376 0.00113649 -0.0480589 0.0324471 -0.0225525 -0.00434318 -0.0360632 -0.0213598 -0.0354964 0.00152483 -0.0229332 -0.0254056 -0.0585915 -0.0255484 -0.0209409 -0.0168274 -0.012249 0.00177055 -0.0157863 -0.0247248 -0.0463296 -0.0487736 -0.0163649 -0.0336336 -0.0167602 0.0279153 -0.0240143 -0.0303035 -0.018527 -0.0204919 -0.0175612 -0.0236782 0.0197792 -0.0145844 -0.0179278 -0.0388638 0.0202104 -0.0373274 -0.00765559 -0.0317704 -0.052177 0.00479689 -0.0102369 0.00879997 0.031276 -0.0512966 0.0240563 0.037117 0.0231233 -0.0674943 -0.032155 -0.0251393 -0.0164147 0.0377272 0.00305849 -0.0553229 0.0503738 0.0167935 0.0120949 0.0549377 -0.0455176 -0.00439668 0.0114691 -0.0446038 -0.0296322 -0.0106586 -0.0442047 -0.0626103 -0.0300465 -0.0253887 -0.0326397 -0.01384 -0.0625948 0.00902962 -0.0216383 -0.00229015 -0.0466514 -0.0183145 -0.0596296 -0.0474871 -0.0334077 -0.0121822 -0.0710948 -0.0452329 -0.0278018 -0.0500271 -0.0540468 0.0616665 -0.0671143 -0.0425583 -0.0677503 -0.0700866 0.0511421 -0.0490632 -0.0835122 0.0329121 -0.0660194 -0.011112 -0.0650418 -0.0684258 0.0185692 -0.0673137 -0.0755268 -0.0760397 -0.0743705 -0.0737282 -0.0806956 -0.0749008 -0.0478598 -0.0516494 -0.0747701 -0.0694444 0.0474427 -0.0793623 0.0479452 -0.0762745 -0.0844108 -0.0765241 -0.0822996 -0.0841035 -0.0811155 -0.0799646 -0.0837371 -0.085077 -0.0937953 -0.0917322 -0.0907586 -0.091673 -0.0911629 -0.0927906 -0.0929054 -0.0914432 -0.0919977 -0.0925601 -0.0922459 -0.0904082 -0.0971641 -0.0916179 -0.0905835 -0.0921061 -0.0916964 -0.0914198 -0.0900069 -0.0910296 -0.0917698 -0.0909959 -0.0900381 -0.0904732 -0.087938 -0.0927896 -0.0932984 -0.0915521 -0.0908864 -0.0883874 -0.0911348 -0.0928576 -0.0880661 -0.0884886 -0.0877728 -0.0880573 -0.0876091 -0.0875682 -0.0875463 0.0875491 0.0875491 0.0875491 0.0875491 0.0875491 -0.0875491 -0.0875491
internal_weight=2180.92 1237.78 1001.02 771.294 739.441 663.378 644.56 526.785 505.55 346.064 943.138 583.688 554.49 483.858 468.463 277.466 300.94 246.144 80.3313 242.088 58.8522 159.485 229.722 63.3434 359.449 291.389 247.212 137.258 127.58 68.0597 14.4356 109.954 25.7867 154.708 73.1007 82.6725 59.4606 47.1731 66.7054 178.773 173.659 35.8905 190.997 172.02 159.965 148.251 83.4509 49.925 37.5567 25.3625 60.8746 21.9999 117.775 137.769 33.5259 31.2659 64.8002 51.6423 165.813 159.359 136.928 22.4312 113.801 34.5797 81.6069 12.1942 112.707 104.389 35.5481 25.7185 68.8406 47.2634 44.1779 25.4127 70.6323 35.4395 29.475 18.9881 53.6241 102.922 87.2099 71.5629 21.5772 10.4081 16.7461 21.8597 15.2588 14.5198 22.4308 28.0912 29.2734 21.721 76.0636 41.5318 27.2977 12.7099 34.5319 13.4999 27.4342 28.2753 23.1359 20.6058 14.0279 18.7651 13.5629 9.23637 21.7448 50.9491 35.5068 26.2733 16.5345 15.7124 33.3802 20.8857 7.55245 13.4983 21.4643 38.8747 14.8542 43.1981 32.2172 19.0756 9.10799 21.032 12.2875 14.2341 9.07202 15.647 23.1271 14.5878 18.9768 12.0549 19.0213 12.4945 23.2119 25.3723 37.4631 9.51235 10.5102 11.7142 9.73876 13.6448 15.717 16.4949 12.8116 27.2811 13.1579 24.0205 27.9508 13.9629 8.4345 12.5934 9.72809 17.7043 9.78503 17.9589 25.5329 22.3115 7.55053 11.2678 10.4255 12.7016 12.4065 21.5509 11.6913 7.27879 9.31831 19.0873 8.84089 17.9963 6.74113 14.7352 13.1619 9.64517 9.31157 15.3812 6.41346 24.3871 8.21818 8.71453 7.39368 9.63331 21.8655 9.16287 6.45384 17.3789 10.6996 13.5417 7.49561 21.1779 17.8315 13.5318 236.769 225.621 31.8523 31.3214 29.198 15.4423 9.23354
internal_count=8808 4642 4196 3090 3030 2642 2607 2031 1991 1274 4166 2453 2398 2021 1992 1100 1189 1041 290 907 282 717 1106 258 1713 1351 1180 607 589 362 59 573 83 708 304 408 273 232 269 823 810 198 892 783 713 645 334 220 175 132 320 99 576 612 114 145 311 234 751 711 631 80 499 156 404 43 561 440 171 136 269 201 171 85 377 124 94 66 303 500 409 321 68 41 90 61 57 55 62 144 123 83 388 197 118 65 191 65 128 135 101 114 54 86 56 48 97 283 186 128 72 91 172 99 40 72 56 221 76 249 187 55 47 126 41 79 40 88 132 53 109 70 111 73 135 154 223 50 56 68 56 40 93 48 75 165 77 145 173 85 50 76 58 110 61 112 159 139 47 70 65 79 77 134 73 45 58 119 55 112 42 92 82 60 58 96 40 153 51 54 46 60 137 57 40 109 67 85 47 133 112 85 446 425 60 59 55 97 58
is_linear=0
shrinkage=0.05


Tree=4
num_leaves=201
num_cat=0
split_feature=7 7 32 32 20 20 9 9 10 10 16 44 44 33 33 52 43 50 0 43 33 33 60 17 50 8 48 53 2 43 2 49 51 51 32 33 32 52 46 44 5 53 48 51 5 52 60 49 51 51 5 16 51 17 2 10 2 20 2 2 50 60 43 18 43 59 4 9 17 16 1 53 18 3 11 49 17 48 16 43 47 43 50 1 35 18 16 59 49 18 50 49 0 43 36 51 47 33 8 49 36 46 3 35 46 48 49 17 50 51 51 48 44 47 53 48 16 46 18 51 34 48 53 16 59 17 35 8 20 48 17 35 36 50 5 50 18 49 16 48 49 47 50 50 43 18 5 46 3 4 5 53 41 32 41 16 8 32 46 51 9 50 1 53 33 59 50 5 11 35 53 47 36 51 47 9 4 5 43 8 5 51 20 3 35 52 18 2 51 48 5 17 59 10 8 52 49 52 0 0
split_gain=139.259 619.649 65.968 91.2829 53.8124 60.2835 58.0591 145.587 41.4255 141.634 39.5735 39.1223 96.0695 32.6601 45.0023 31.8917 29.7141 27.5649 27.6521 27.1591 22.57 53.9305 22.331 21.3802 21.183 20.3502 19.6035 18.3924 18.8729 29.9703 18.49 18.1735 18.073 21.5351 18.2051 18.5002 58.4316 17.1568 16.2125 15.9335 15.6965 15.0246 13.606 13.5313 12.7823 12.7352 13.8585 12.6091 12.9725 20.6126 12.547 11.6415 11.5384 12.2695 11.3019 11.2258 11.2115 10.7202 10.2394 16.581 13.3444 12.3332 11.8655 11.4762 12.7846 9.69189 9.38736 9.27006 14.7336 13.5253 13.2266 15.8604 17.6057 11.8261 14.8969 10.2601 9.68279 9.6395 9.17129 10.8318 11.6436 12.3367 8.95556 10.4405 8.50697 8.14041 7.88327 10.5907 7.87619 7.68547 7.68533 9.46216 7.49065 10.4038 9.71476 16.0333 8.61882 9.27966 7.46996 7.41918 6.87602 6.86421 6.76863 6.75991 6.70876 10.4639 6.69995 10.5821 6.66885 6.65704 13.4433 7.54936 6.10658 6.01335 5.99588 5.89307 7.38812 5.76071 5.74211 5.6582 5.65356 8.5151 5.54593 5.12854 4.5549 4.37352 4.35888 4.28552 4.11519 4.08017 4.03786 3.96791 3.9548 3.91302 3.83555 3.80634 3.72071 3.60299 3.33632 2.97903 2.83534 2.54568 2.75208 2.25644 1.04609 1.02146 0.986284 0.974859 0.968496 0.934693 0.846509 0.824453 0.220994 0.158848 0.0904444 0.0602501 0.0577199 0.0421494 0.0361177 0.0354274 0.0393253 0.0246678 0.0237501 0.0225198 0.0215526 0.0191509 0.0180003 0.0172785 0.0149235 0.0163351 0.0142131 0.0140129 0.0138069 0.0129167 0.0127802 0.0122018 0.0121718 0.0120428 0.0110386 0.0110233 0.0106088 0.0104666 0.0104577 0.00911999 0.00853105 0.00839254 0.00749907 0.00748954 0.00746152 0.00711542 0.00708261 0.00964564 0.00654112 0.00642587 0.00330091 0.00259715 0.0023741 3.91577e-05 1.13687e-13 1.13687e-13
threshold=1.0000000180025095e-35 0.99834842692648851 0.58043105918622373 0.13821127044274381 -0.7495977170494651 -0.5044503162085554 -0.99917375569647471 -1.0000000180025095e-35 0.9992811250394279 0.52737759034715936 0.82595689894816415 -0.66581797044107238 -0.33360874810117497 -0.43790405246577285 -1.0000000180025095e-35 -0.7330812375007284 -1.0310981344540266 -0.5874734108170464 -0.44899610312491184 -0.45948869800128872 1.0000000180025095e-35 0.30432124263110744 7.3034122697727481e-07 -0.71714270164398985 -0.70931547338280432 0.99896705526666885 -0.32786902386379363 0.58083609395268321 0.99970686288533339 0.45094929838721065 0.031637024019740452 -0.38634144835054851 -0.41448239596833925 -0.33889858809993406 0.11239486890180236 -0.4012329949986167 -0.36516580983485075 0.29721790185887464 -0.41254652306368406 -0.18668810711255127 0.27034405646065046 -0.089211980838191041 0.061049336123598856 -0.39753145699622655 -0.36578977611764268 -0.40018099707254545 -2.9605775264053948e-05 0.083617701323053892 0.44175354790859017 -0.26135227920897458 0.92043346185829755 0.63003031223137274 0.22207501678475494 -0.3371658675214676 0.99970686288533339 -0.13215127746474348 0.99970686288533339 -0.25090214177343045 0.30688749550752381 0.99970686288533339 0.66684764016594977 -0.028626397499642683 0.66209972870468248 -0.47923697896300799 -0.3369898107828353 0.088050370398882763 -0.14368117748596068 -1.0000000180025095e-35 0.66480933045317814 0.13973833362103941 -0.20205168197527046 0.29648998133218968 0.31061406748156989 0.39836421222920632 -0.66710828297906843 0.6465528775402487 -0.13385184605286929 0.13680823882385174 -0.37077372238057921 0.0064382964058141414 -0.3463735393945731 -0.27669005385300771 -0.53574453046336867 -1.0000000180025095e-35 -0.17870070189547407 -0.25024856520635147 -0.25055707176153613 0.088050370398882763 0.69700106751300372 -0.25024856520635147 0.60209162682456829 0.56183469059318225 -0.053946484064016739 0.13493777603065676 0.33885878913179907 0.66077683581463764 1.6309138079966481 -1.0000000180025095e-35 0.99896705526666885 -0.39698967642927074 0.64816763792412158 0.63557721292003966 0.54587881659070125 -0.19065433152223343 -0.39597479542949704 -0.53707845730730652 -0.34213756670201634 -0.3371658675214676 0.16756277159572633 0.22207501678475494 0.88413195274929879 0.50231710995309076 -0.33360874810117497 0.039667525439573713 0.25869827921491706 -0.44227919165102886 -0.33419590034396512 0.28133701989783372 0.74942099712442478 0.88413195274929879 -0.2503223176731591 0.61837291547531426 0.31363363982020226 0.33113675218581701 -0.43667342077947463 -0.2735944644289387 1.0114452549557045 0.99896705526666885 -0.25090214177343045 0.040567228879102399 0.66480933045317814 2.5758662541223427 0.33051953003003837 0.58288656837837693 0.5160861965393112 0.54173001393639952 0.49945124741718944 -0.3472161492749542 0.49774024262729805 -0.26479691939730149 0.45751740411157454 -0.4750357202174732 -0.5994006740763681 -0.4943029133075944 0.92041605893250955 0.49945124741718944 0.4225223771926182 0.84014210726349225 -0.40360957443049988 -0.19280428925121121 0.56389989205107482 -0.27847452867675643 0.99570679143270768 -0.37088152552045034 -0.44489316243283344 0.29648358665677149 0.33423124857244441 -0.37088152552045034 1.3216922551876971 0.22207501678475494 -1.0000000180025095e-35 -0.25682816886381682 0.49901975185291414 0.021383641743246199 -1.0000000180025095e-35 -0.098916241048501594 1.0000000180025095e-35 -0.3164102942423726 -0.66710828297906843 0.64453815421547933 0.34824950634702567 0.31320628441630455 -0.2691292229419277 -1.0000000180025095e-35 -0.017161820448398316 -1.0000000180025095e-35 -0.35385786802285946 0.024534809759770428 0.30116081186559124 0.99896705526666885 -0.17927049411098714 -1.0000000180025095e-35 -0.25090214177343045 -0.0085173237216580565 -0.02038577178154365 0.33217766189621034 -1.0000000180025095e-35 0.99970686288533339 -0.22231993459377775 0.15206978197521928 0.04938148929368489 -0.13385184605286929 -0.43667342077947463 0.49816695802837102 0.99896705526666885 0.13324066144364155 0.16818326891230037 -0.13448104195191421 0.83136751098071227 -0.8733092431431001
decision_type=2 2 2 2 2 2 2 2 2 2 2 2 2 2 2 2 2 2 2 2 2 2 2 2 2 2 2 2 2 2 2 2 2 2 2 2 2 2 2 2 2 2 2 2 2 2 2 2 2 2 2 2 2 2 2 2 2 2 2 2 2 2 2 2 2 2 2 2 2 2 2 2 2 2 2 2 2 2 2 2 2 2 2 2 2 2 2 2 2 2 2 2 2 2 2 2 2 2 2 2 2 2 2 2 2 2 2 2 2 2 2 2 2 2 2 2 2 2 2 2 2 2 2 2 2 2 2 2 2 2 2 2 2 2 2 2 2 2 2 2 2 2 2 2 2 2 2 2 2 2 2 2 2 2 2 2 2 2 2 2 2 2 2 2 2 2 2 2 2 2 2 2 2 2 2 2 2 2 2 2 2 2 2 2 2 2 2 2 2 2 2 2 2 2 2 2 2 2 2 2
left_child=8 198 3 4 92 -6 32 152 9 10 11 37 156 19 -15 66 166 40 25 38 39 -22 -20 133 -23 -19 104 28 30 -30 -25 54 78 -34 35 41 -37 47 132 139 113 -35 -42 45 109 46 -28 48 49 100 58 82 53 -36 101 -56 137 -41 60 -60 61 122 63 123 -65 85 162 70 106 117 76 72 73 74 -72 146 99 -75 112 80 -80 -82 -39 98 -68 -63 87 173 -86 -81 186 -92 96 94 136 175 126 -98 -84 -10 148 -12 158 -54 105 -4 107 -69 -89 125 111 -111 -7 -17 -58 159 -117 -70 145 -64 121 127 -46 -61 -101 -45 157 -33 -78 151 -91 149 -14 147 167 165 -94 -51 177 -18 -107 -108 -143 -122 168 182 180 174 163 -40 -118 -95 -8 155 -11 -154 -13 183 195 188 -161 -145 -9 -1 190 -109 -16 -85 -88 181 184 185 -151 -49 -21 -96 -163 -76 -159 189 -73 -170 -50 -3 -166 -130 -29 194 -106 -114 -144 -192 -123 -127 -178 197 -197 -47 199 -2
right_child=1 2 26 -5 5 6 7 15 67 154 31 12 13 14 16 17 20 18 22 23 21 24 -24 27 -26 -27 43 90 29 -31 -32 120 33 34 52 36 -38 51 131 57 42 -43 -44 44 50 102 -48 86 118 56 -52 -53 103 -55 55 -57 114 -59 59 62 -62 65 119 64 -66 -67 84 68 69 -71 71 75 -74 77 138 -77 128 -79 79 89 81 -83 83 134 88 -87 144 108 -90 130 91 -93 93 129 95 -97 97 -99 -100 124 -102 -103 -104 -105 115 140 141 135 -110 110 -112 -113 179 -115 -116 116 150 -119 -120 -121 143 192 -124 -125 -126 193 -128 -129 171 -131 -132 -133 -134 -135 -136 -137 -138 -139 -140 -141 -142 142 164 161 -146 -147 -148 -149 -150 172 -152 -153 153 -155 -156 -157 -158 178 -160 160 -162 176 -164 -165 170 -167 -168 -169 169 -171 -172 -173 -174 -175 -176 -177 187 -179 -180 -181 -182 -183 -184 -185 -186 -187 -188 -189 -190 -191 191 -193 -194 -195 -196 196 -198 -199 -200 -201
