tree
version=v4
num_class=1
num_tree_per_iteration=1
label_index=0
max_feature_idx=35
objective=binary sigmoid:1
feature_names=Column_0 Column_1 Column_2 Column_3 Column_4 Column_5 Column_6 Column_7 Column_8 Column_9 Column_10 Column_11 Column_12 Column_13 Column_14 Column_15 Column_16 Column_17 Column_18 Column_19 Column_20 Column_21 Column_22 Column_23 Column_24 Column_25 Column_26 Column_27 Column_28 Column_29 Column_30 Column_31 Column_32 Column_33 Column_34 Column_35
feature_infos=[-0.88888888888888884:0.3888888888888889] [-0.69999999999999996:0.80000000000000004] [-0.66666666666666663:3] none [-1:1.1666666666666667] [-1.1071428571428572:1.7142857142857142] [-0.16158578263841422:4.7483397488937653] [-1.2272727272727273:0.95454545454545459] [-1.0962789609173882:1.2077931195881113] [-0.16039585156518735:67.999755636244487] [-0.18102296444486707:87.426838109154943] [-0.17507389577373222:69.707194074992003] [-0.34903443343210383:5.0106184813449559] [-0.60280566388170587:7.5236940643905239] [-0.65217391304347827:2.7391304347826089] [-0.80000000000000004:4] [-0.33333333333333331:7.333333333333333] [-0.33333333333333331:11] [-2.0351498208807004:18.226915637826814] [-0.90898906504956045:2.1298555807213657] none none none none none none none none none [-26953.808007033727:3.7274253965166744e-08] [-0.63160059403805913:0.47860649832150154] none none none none none
tree_sizes=3946 5010 5008 5660 6117 6024 6245 6440 6766 6775 6879 7197 7075 6972 6985 7003 6778 7009 7199 7087 7082 7115 7226 7102 6997 7089 7206 7226 7099 6872 7531 7540 6876 7836 7402 7866 7299 8070 8177 7720 7957 8166 8251 8616 7650 7854 7973 8082 8202 8417 7195 7741 7785 7187 8165 8096 8656 7783 7475 7454 8466 8447 8016 8455 8006 7886 8034 8691 8469 8261 7476 8376 8226 7585 8351 9330 8293 8024 7308 8284 9600 7933 8800 8142 9489 7543 8423 8139 8830 9598 8493 8070 7691 9068 7593 8860 8522 8733 9196 8756 7139 7877 8418 8670 8685 9112 9679 8432 8915 8546 8199 8457 8886 8445 6869 9015 9214 9584 8673 8041 9681 9317 8903 7793 9551 7565 8934 8210 8873 8613 9115 8726 7958 8611 8590 7926 9023 8263 8606 8939 6459 8407 9868 8347 9976 9267 9879 10487 9398 10727 10495 7926 9510 8956 7967 10068 10419 7400 9511 10010 10442

Tree=0
num_leaves=37
num_cat=0
split_feature=6 6 30 0 4 0 4 0 4 0 5 6 30 18 4 30 4 30 0 12 18 13 12 4 6 12 7 4 0 0 0 0 0 1 9 10
split_gain=953.521 182.306 214.026 48.0251 33.7108 44.5884 32.2516 19.097 19.0827 33.1679 18.963 8.98129 8.12914 19.8934 4.80249 14.3291 4.47069 2.29152 2.22553 1.8144 1.70963 0.670522 0.591609 1.26419 7.54601 0.168289 0.124186 0.122753 5.68434e-14 5.68434e-14 2.84217e-14 2.84217e-14 1.42109e-14 1.42109e-14 1.42109e-14 1.42109e-14
threshold=0.20784976796057128 -0.1273446774831816 -0.57107112511704261 0.30555555555555564 -0.24999999999999997 0.25000000000000006 1.0833333333333337 0.30555555555555564 0.41666666666666669 0.30555555555555564 -0.053571428571428562 -0.027103644278159509 0.46749470775070034 -1.6286804204442504 -0.74999999999999989 -0.52673863997202819 -0.41666666666666657 -0.55018012452612941 -0.58333333333333326 -1.0000000180025095e-35 -1.0808894319415681 1.8227080807658547 -0.19767981073794902 0.25000000000000006 1.0516386660430983 -0.28673829491240338 0.20454545454545456 -0.58333333333333315 0.36111111111111116 -0.47222222222222215 0.19444444444444445 -0.36111111111111105 0.25000000000000006 0.52500000000000013 -0.10382939805537413 -0.06156940747965272
decision_type=2 2 2 2 2 2 2 2 2 2 2 2 2 2 2 2 2 2 2 2 2 2 2 2 2 2 2 2 2 2 2 2 2 2 2 2
left_child=1 2 6 14 5 -4 7 30 18 -10 11 -5 13 -2 15 -3 -12 -11 25 -20 -16 22 23 24 -14 -6 -15 -22 -24 -29 31 -1 35 34 -30 -25
right_child=12 3 4 10 8 -7 -8 -9 9 17 16 -13 21 26 20 -17 -18 -19 19 -21 27 -23 28 32 -26 -27 -28 29 33 -31 -32 -33 -34 -35 -36 -37
leaf_value=0.24890675879104618 0.3316972948253385 0.24890675879104623 0.2701351013639417 0.24890675879104623 0.44553428187249022 0.42713638497598089 0.36717895312574939 0.34089624327359314 0.31426770829180323 0.45588309887677675 0.41448783085963065 0.3376109045420736 0.38689098551486656 0.4558830988767768 0.27995320980390581 0.35239492883391149 0.35239492883391149 0.41448783085963065 0.40413901385534412 0.44647508341833447 0.25558341492284398 0.43518546486820375 0.4558830988767768 0.4558830988767768 0.4558830988767768 0.4558830988767768 0.44553428187249022 0.24890675879104623 0.4558830988767768 0.24890675879104623 0.24890675879104623 0.24890675879104623 0.4558830988767768 0.4558830988767768 0.45588309887677675 0.45588309887677675
leaf_weight=9.1797934770584053 4.8314702510833767 10.87080806493759 9.4213669896125811 6.5224848389625549 4.8314702510833767 8.6966464519500715 8.4550729393959028 6.522484838962554 9.1797934770584106 7.4887788891792297 4.831470251083374 5.0730437636375445 5.0730437636375454 7.2472053766250593 4.8314702510833731 4.8314702510833731 7.2472053766250593 6.0393378138542175 4.831470251083374 5.3146172761917096 7.4887788891792288 4.8314702510833731 96.387831509113312 19.084307491779327 18.118013441562653 21.016895592212677 4.831470251083374 31.162983119487762 23.915777742862701 54.112466812133789 7.0056318640708914 25.606792330741886 8.2134994268417341 5.0730437636375418 7.4887788891792324 7.2472053766250637
leaf_count=38 20 45 39 27 20 36 35 27 38 31 20 21 21 30 20 20 30 25 20 22 31 20 399 79 75 87 20 129 99 224 29 106 34 21 31 30
internal_value=0.371395 0.309152 0.350711 0.268619 0.405115 0.345496 0.277091 0.261325 0.423516 0.387625 0.333387 0.287715 0.450703 0.417445 0.255085 0.280749 0.377232 0.437403 0.446159 0.426315 0.250956 0.453581 0.454047 0.449821 0.440791 0.453949 0.451744 0.249446 0.455883 0.248907 0.248907 0.248907 0.455883 0.455883 0.455883 0.455883
internal_weight=482.905 270.562 133.59 136.972 76.8204 18.118 56.7698 48.3147 58.7024 22.7079 23.6742 11.5955 212.343 16.9101 113.298 15.7023 12.0787 13.5281 35.9945 10.1461 97.5957 195.433 190.602 57.7361 23.1911 25.8484 12.0787 92.7642 132.865 85.2754 41.7922 34.7866 34.545 36.4776 31.4046 26.3315
internal_count=1999 1120 553 567 318 75 235 200 243 94 98 48 879 70 469 65 50 56 149 42 404 809 789 239 96 107 50 384 550 353 173 144 143 151 130 109
is_linear=0
shrinkage=1


Tree=1
num_leaves=46
num_cat=0
split_feature=6 6 30 0 4 0 4 4 0 0 5 30 6 4 6 4 30 6 30 0 14 12 8 19 19 11 10 16 4 6 8 4 6 13 10 12 12 5 0 0 0 9 0 0 5
split_gain=865.316 170.15 190.729 31.275 30.7943 39.9871 28.1546 17.7202 30.1101 16.5455 14.4918 12.0563 16.8357 6.8336 4.81771 4.67742 12.4604 2.5081 2.15626 2.10204 1.81433 0.752198 1.19449 1.20757 0.380761 0.994859 0.191721 0.172332 0.102135 0.00272526 0.000446897 0.000306064 0.000672501 0.000276096 0.000238957 0.000144495 0.000129074 1.13687e-13 5.68434e-14 2.84217e-14 1.42109e-14 1.42109e-14 7.10543e-15 7.10543e-15 7.10543e-15
threshold=0.16436306076195276 -0.1273446774831816 -0.57107112511704261 0.30555555555555564 -0.24999999999999997 0.30555555555555564 1.0833333333333337 0.41666666666666669 0.30555555555555564 0.30555555555555564 -0.053571428571428562 0.46749470775070034 0.37077382451343671 -0.41666666666666657 -0.037313379141633976 -0.74999999999999989 -0.53931160392912847 -0.14377091052991328 -0.55018012452612941 -0.58333333333333326 0.10869565217391305 -0.17740173385417071 -0.84775333489351734 -0.75305033973843793 -0.07130854095126761 -0.1100006358551283 -0.17796068757792863 6.5000000000000009 -0.58333333333333315 0.067266251753786394 1.1525391996255561 0.25000000000000006 1.1821923229125446 1.7172717337426173 -0.13289815598647126 -0.28673829491240338 -0.27803758517971239 -0.7321428571428571 -0.47222222222222215 -0.083333333333333315 -0.24999999999999997 -0.052193658721306567 1.0000000180025095e-35 -0.69444444444444431 -0.16071428571428567
decision_type=2 2 2 2 2 2 2 2 2 2 2 2 2 2 2 2 2 2 2 2 2 2 2 2 2 2 2 2 2 2 2 2 2 2 2 2 2 2 2 2 2 2 2 2 2
left_child=1 2 6 15 5 17 9 19 -9 39 14 12 -2 -12 -5 16 42 -4 -10 27 -21 22 -13 -24 25 35 -23 36 -17 38 33 32 -26 37 -14 -25 -6 43 -30 40 -1 -33 -3 -28 -38
right_child=11 3 4 10 7 -7 -8 8 18 -11 13 21 34 -15 -16 28 -18 -19 -20 20 -22 26 23 24 31 -27 30 -29 29 -31 -32 41 -34 -35 -36 -37 44 -39 -40 -41 -42 -43 -44 -45 -46
leaf_value=-0.1141311209066333 -0.010056319696928809 -0.11413112090663331 -0.11550707351760228 -0.11413112090663327 0.081991196368495681 0.057999690464764435 -0.0040016151527802702 -0.053732606505398899 0.081694393638595153 -0.028813924067080044 0.041291189308801046 0.050600975445167541 0.082270419275756748 -0.038614053819055971 -0.047557717164652187 -0.10825708143656812 -0.017712073045701712 -0.065539700054779979 0.041291189308801046 0.030480721636754689 0.073046117242758973 0.071734849676529544 0.053797992093408568 0.082071263179758672 0.082456236590345011 0.055817779680506746 0.081694393638595125 0.071201214633458895 -0.1141311209066333 -0.1153425077911539 0.082192464001693638 0.081694393638595195 0.081730377015252764 0.08207389692874921 0.081790713970705614 0.081694393638595167 0.081694393638595125 0.081694393638595167 -0.1141311209066333 -0.11413112090663327 -0.1141311209066333 0.08169439363859507 -0.11413112090663327 0.081694393638595167 0.081694393638595167
leaf_weight=12.062206566333769 9.4470563083887118 5.4156845808029157 5.1553760468959808 6.154187023639679 4.7587675452232387 8.1237948536872846 8.461582809686659 9.269243061542511 7.360878512263298 6.5576317012310019 4.7912523150444031 4.761389508843421 4.7654607594013214 6.0599118471145612 4.8665034174919146 7.8699673265218726 4.8517004847526541 4.8967640399932879 5.9890653938055038 4.7821932435035688 5.2538412511348724 4.9885605424642554 5.2452687025070182 4.7603100240230551 5.0103804469108573 5.7124468684196463 6.4110877364873913 4.7500442862510672 31.017102599143982 4.9113188385963431 5.0001470595598212 16.383890882134434 8.7877236455678922 4.9993553906679145 5.7025610804557783 5.4612969607114783 5.6987446546554592 99.253136068582535 53.910678327083588 20.924235880374912 9.6005317568778974 5.9361923485994401 5.4156845808029175 10.210250839591025 10.210250839591025
leaf_count=49 39 22 21 25 20 34 35 38 31 27 20 20 20 25 20 32 20 20 25 20 22 21 22 20 21 24 27 20 126 20 21 69 37 21 24 23 24 418 219 85 39 25 22 43 43
internal_value=3.87136e-05 -0.0595419 -0.0195762 -0.0990913 0.0323013 -0.024496 -0.0882424 0.0500779 0.0154991 -0.102747 -0.0443486 0.0753748 0.0383363 -0.00333248 -0.0847337 -0.10965 -0.084303 -0.0911661 0.0635687 0.0721388 0.0527636 0.0791983 0.0746646 0.0766642 0.0789685 0.0725301 0.0813483 0.079789 -0.113719 -0.114197 0.0817293 0.0818088 0.081994 0.0817101 0.0820091 0.0818699 0.0817627 0.0816944 -0.114131 -0.114131 -0.114131 0.0816944 -0.114131 0.0816944 0.0816944
internal_weight=481.956 269.119 133.855 135.264 76.249 18.1759 57.6062 58.073 22.6192 49.1446 21.8719 212.837 19.9151 10.8512 11.0207 113.392 15.6831 10.0521 13.3499 35.4538 10.036 192.921 62.0589 57.2975 52.0522 15.9341 130.863 25.4178 97.7091 89.8391 125.874 36.1182 13.7981 120.874 10.468 10.2216 20.6678 115.874 84.9278 42.587 21.6627 22.3201 10.8314 16.6213 15.909
internal_count=1999 1104 553 551 318 75 235 243 94 200 90 895 83 45 45 461 64 41 56 149 42 812 261 241 219 67 551 107 397 365 530 152 58 509 44 43 87 488 345 173 88 94 44 70 67
is_linear=0
shrinkage=0.05


Tree=2
num_leaves=46
num_cat=0
split_feature=6 6 30 4 0 0 4 30 4 0 5 30 6 4 13 6 4 30 30 5 0 12 12 8 19 19 11 5 13 13 4 0 6 8 4 30 10 12 10 16 12 13 0 1 5
split_gain=787.699 150.357 170.978 28.1873 35.9049 27.5391 25.5583 21.5836 16.4964 27.3898 12.8802 11.4029 15.6102 6.17324 5.52094 4.2656 4.10355 11.0222 2.23261 2.11816 2.0042 1.70075 0.723979 1.13576 1.15227 0.365543 0.948185 0.19627 0.189088 0.17474 0.0908663 0.0890768 0.0019208 0.000354528 0.000239645 0.000541762 0.000187728 0.000113214 0.000107493 5.74624e-05 6.32449e-05 1.1838e-08 5.68434e-14 7.10543e-15 7.10543e-15
threshold=0.16436306076195276 -0.1273446774831816 -0.57107112511704261 -0.24999999999999997 0.30555555555555564 0.30555555555555564 0.75000000000000011 -0.5967016338613369 0.41666666666666669 0.30555555555555564 -0.053571428571428562 0.46749470775070034 0.37077382451343671 -0.41666666666666657 0.23056847838420527 -0.037313379141633976 -0.74999999999999989 -0.53931160392912847 -0.52673863997202819 -0.26785714285714279 -0.58333333333333326 -1.0000000180025095e-35 -0.17740173385417071 -0.84775333489351734 -0.75305033973843793 -0.07130854095126761 -0.1100006358551283 0.7678571428571429 1.7784970766869519 -0.48251685607983424 -0.58333333333333315 0.25000000000000006 0.067266251753786394 1.1525391996255561 0.25000000000000006 0.47860381373826194 -0.13289815598647126 -0.28673829491240338 -0.17759612687039797 0.83333333333333337 -0.21176442848048035 1.5639993550197973 -0.24999999999999997 0.17500000000000002 -0.053571428571428562
decision_type=2 2 2 2 2 2 2 2 2 2 2 2 2 2 2 2 2 2 2 2 2 2 2 2 2 2 2 2 2 2 2 2 2 2 2 2 2 2 2 2 2 2 2 2 2
left_child=1 2 6 4 18 16 27 -8 20 -10 15 12 -2 -12 -9 -7 17 44 -4 -11 29 -22 23 -13 -25 26 37 31 33 -5 -18 -1 42 38 35 -27 -14 -26 -24 40 -31 -40 -32 -36 -3
right_child=11 5 3 8 -6 10 7 14 9 19 13 22 36 -15 -16 -17 30 -19 -20 -21 21 -23 28 24 25 34 -28 -29 -30 39 32 -33 -34 -35 43 -37 -38 -39 41 -41 -42 -43 -44 -45 -46
leaf_value=-0.10721400105225601 -0.0095365912808302242 -0.10721400105225601 -0.10850297539956388 0.06858487124043719 0.055839435716684496 -0.10721400105225598 -0.090795674302671742 -0.024919507738868193 -0.05064547766741051 0.080048999964707809 0.039584138703602209 0.048648430349910045 0.079723414676391394 -0.036444110247826414 0.048614167405374914 -0.044847324547491296 -0.10169682243425585 -0.016775295408948749 -0.061598949292180127 0.039822212109698475 0.02914823680511619 0.070595663377022083 0.079437005701872968 0.051751749475330525 0.07954497254872199 0.079894625033156252 0.053735101502500743 -0.097703373684127695 0.068990917234444907 0.079428676694820899 -0.10721400105225601 -0.11422646415669827 -0.10822491995439286 0.0796623887291808 0.079208080514255499 0.079236782769421435 0.079294051137725433 0.079208080514255527 0.079208080514255527 0.079471652341945934 0.079208080514255527 0.079205671901404373 -0.10721400105225601 0.079208080514255527 -0.10721400105225601
leaf_weight=27.873233079910278 9.463379308581354 5.972835659980773 5.2176332920789719 4.659837260842326 8.0188500583171827 6.2217038124799728 9.6260975152254122 4.8844408392906171 9.3405949175357836 7.0300079882144928 4.7490647435188293 4.7062784731388083 4.6741216629743576 6.0986485332250577 5.3468018472194672 4.9016305804252642 7.9562647938728324 4.8661183416843405 4.9383501708507556 6.1223101466894132 4.7507409453392029 5.1669432222843152 5.3646682202816001 5.1816569566726676 4.6682377457618704 4.9155025631189337 5.6390330195426932 4.9725051522254935 4.6748936623334876 4.6645821034908321 51.515707567334175 5.4070887863636008 4.9708757400512686 4.6705512553453437 12.802557945251467 8.6147716641426069 5.5908216834068281 5.353796958923339 108.23980808258057 4.8996718674898139 10.707593917846678 5.3536809533834449 34.34380504488945 9.0781774520874006 4.9773630499839774
leaf_count=112 39 24 21 20 34 25 39 20 38 30 20 20 20 25 22 20 32 20 20 26 20 22 23 22 20 21 24 20 20 20 207 22 20 20 55 37 24 23 465 21 46 23 138 39 20
internal_value=6.85149e-05 -0.0563103 -0.0186031 0.0310099 -0.0232496 -0.0932039 -0.0830777 -0.0370541 0.0482077 0.0148265 -0.0419257 0.0729595 0.0367851 -0.00315939 0.0135089 -0.0797314 -0.103035 -0.0793892 -0.0856959 0.0613237 0.069753 0.0507416 0.0767302 0.0722438 0.0742179 0.0764972 0.0701365 -0.106969 0.0788618 0.0773156 -0.106821 -0.108353 -0.107269 0.0792351 0.0793104 0.0794758 0.0794896 0.079365 0.0792183 0.0793225 0.079275 0.079208 -0.107214 0.0792081 -0.107214
internal_weight=479.193 270.201 133.627 75.5171 18.1748 136.574 58.1102 19.8573 57.3423 22.4929 21.971 208.992 19.7283 10.8477 10.2312 11.1233 114.603 15.8163 10.156 13.1523 34.8494 9.91768 189.264 60.96 56.2537 51.0721 15.6611 38.2528 128.304 24.9317 98.7867 33.2803 90.8304 123.629 35.411 13.5303 10.2649 10.022 118.958 20.2718 15.3722 113.593 85.8595 21.8807 10.9502
internal_count=1999 1104 553 318 75 551 235 81 243 94 90 895 83 45 42 45 461 64 41 56 149 42 812 261 241 219 67 154 551 107 397 134 365 531 152 58 44 43 511 87 66 488 345 94 44
is_linear=0
shrinkage=0.05


Tree=3
num_leaves=52
num_cat=0
split_feature=6 6 30 0 4 0 4 16 18 6 4 18 0 30 18 4 30 0 14 0 18 30 13 12 4 6 8 18 19 4 0 19 11 8 10 1 13 5 19 13 12 8 16 12 6 8 10 13 6 0 1
split_gain=719.573 125.719 153.96 33.3985 25.846 32.3812 22.8122 19.6862 16.8852 15.7924 15.3962 25.1607 11.049 7.00611 16.8346 3.20804 9.92701 1.92503 1.70874 1.58136 1.00714 0.654741 0.529925 0.522795 1.25492 7.21991 0.190928 0.174179 0.146118 0.0866424 0.0710861 0.00286609 0.00125457 0.000448583 0.00033229 0.000303028 0.000259361 0.000214248 8.33684e-05 6.3629e-05 4.6557e-05 4.32442e-05 1.98692e-05 1.06251e-05 3.09639e-06 6.43672e-07 3.77185e-09 3.80851e-12 5.68434e-14 1.42109e-14 3.55271e-15
threshold=0.20784976796057128 -0.1273446774831816 -0.57107112511704261 0.30555555555555564 -0.24999999999999997 0.25000000000000006 0.75000000000000011 1.0000000180025095e-35 -0.62494372325190584 -0.086052451703421212 0.41666666666666669 0.014162192792553136 0.30555555555555564 0.46749470775070034 -1.6286804204442504 -0.74999999999999989 -0.52673863997202819 -0.58333333333333326 0.10869565217391305 -0.19444444444444439 -1.0808894319415681 0.47860638577599579 0.62851529140563878 -0.19767981073794902 0.25000000000000006 1.0516386660430983 -0.75349871284811598 0.025991402549674317 0.058547039770098196 -0.58333333333333315 0.25000000000000006 -0.07130854095126761 -0.1100006358551283 -0.58827521647554404 -0.17796068757792863 0.17500000000000002 1.6811408983140936 0.66071428571428592 1.0000000180025095e-35 -0.28091873846649978 -0.16484976145750638 -0.73073952726421709 1.0000000180025095e-35 0.084578443932689429 0.032694175630463722 1.0856424058038849 -0.17515649880142883 1.4770404963958748 1.323013274813829 -1.0000000180025095e-35 -1.0000000180025095e-35
decision_type=2 2 2 2 2 2 2 2 2 2 2 2 2 2 2 2 2 2 2 2 2 2 2 2 2 2 2 2 2 2 2 2 2 2 2 2 2 2 2 2 2 2 2 2 2 2 2 2 2 2 2
left_child=1 2 6 15 5 -4 26 -8 -5 -10 17 12 -12 14 -2 16 35 27 -19 -9 -17 23 -14 24 25 -15 -1 -6 -16 -22 37 32 -26 -27 -25 -3 40 49 -35 -29 -36 -33 43 -41 -31 46 -42 48 -48 -28 -50
right_child=13 3 4 8 10 -7 7 19 9 -11 11 -13 22 21 28 20 -18 18 -20 -21 29 -23 -24 34 31 33 30 39 -30 44 -32 41 -34 38 36 -37 -38 -39 -40 42 45 -43 -44 -45 -46 -47 47 -49 50 -51 -52
leaf_value=-0.091949608966886032 -0.037376161143308127 -0.10139725516169934 -0.084242932358925077 0.034935273713728308 0.066285637235561287 0.049795334657639224 0.018092268621977017 -0.099541605592003965 -0.0040522998540770908 -0.1007067484976038 -0.014967588320167006 -0.08616038492065381 0.078425016119948177 0.0084928535558145678 0.078214832068560627 -0.077834100427037881 -0.016203614503834014 0.027092454354349416 0.068902437929304158 -0.06085138705573221 -0.095879359458820174 0.056524675314336886 0.056694093008495997 0.077428803414908376 0.077438120616288325 0.07767530015440105 -0.10139725516169934 0.077281265011773445 0.066694775669395509 -0.10139725516169938 -0.10794882547717466 0.077158150000989523 0.078465711374328909 0.077275478968823141 0.077138711102483881 -0.10191961752025064 0.077364825247722882 -0.10173890881550951 0.077006109745728871 0.077084900024680603 0.076982415928802297 0.07698381955145496 0.077152923941549323 0.076983819551454946 -0.10136074213109919 0.076964553554301318 0.07698381955145496 0.076983865508903418 0.076983819551454946 -0.10139725516169934 0.076983819551454988
leaf_weight=4.9961744099855414 4.8628993928432491 6.2488131225109118 9.72457303106785 6.8047767281532314 4.5655730068683651 8.3961475789546949 9.277526259422304 5.695908322930336 7.5505984276533171 9.598493486642834 5.6871350109577241 4.8805300295352927 7.1569019109010679 4.9106366336345699 6.9027473628520948 4.9554877728223792 4.8751814961433402 4.6967132836580259 5.0944391191005707 4.9241567552089673 7.7459672987461081 4.7994585484266272 4.6140938103199005 4.8033381998538962 5.4891501218080521 4.8144491612911269 11.997721195220949 4.5678426027298 4.5781391113996506 81.98442816734314 4.9658102989196768 4.5611386597156551 6.4727421849966031 4.5667168647050822 5.0162441283464423 4.9962463676929474 4.8002209663391104 5.7482936680316916 7.7420509904623032 4.7860111296176893 5.0083011835813513 16.16340509057045 4.7895707637071601 5.6913398206233978 6.2488718926906577 4.552099108695983 86.053058087825775 4.7807277441024771 5.236032634973526 10.747958570718767 4.7807254493236524
leaf_count=20 20 25 39 28 20 36 38 23 31 39 23 20 31 21 30 20 20 20 22 20 31 21 20 21 24 21 48 20 20 328 20 20 28 20 22 20 21 23 34 21 22 71 21 25 25 20 378 21 23 43 21
internal_value=9.2298e-05 -0.0526065 -0.0177346 -0.0854989 0.029827 -0.022137 -0.0785795 -0.0351183 -0.0317069 -0.0581506 0.046484 0.0142014 0.0422582 0.0719718 0.0405952 -0.0965067 -0.0757944 0.0675754 0.0488466 -0.0816023 -0.0998147 0.0747505 0.0699067 0.0752371 0.0711611 0.0619388 -0.101067 0.0750908 0.0736211 -0.10095 -0.102428 0.0773779 0.0779942 0.0772661 0.077021 -0.101629 0.0770047 -0.101466 0.077106 0.0771175 0.0769897 0.0770222 0.0770686 0.07703 -0.101395 0.076983 0.0769838 0.0769838 0.0769838 -0.101397 0.0769838
internal_weight=474.908 274.013 133.004 141.009 74.6509 18.1207 58.3535 19.8976 23.9539 17.1491 56.5302 22.3387 17.4581 200.894 16.3438 117.055 16.1202 34.1915 9.79115 10.6201 100.935 184.55 11.771 179.751 54.7203 22.0339 38.456 24.4003 11.4809 95.9793 33.4598 32.6864 11.9619 17.1232 125.031 11.2451 120.227 28.494 12.3088 19.8348 115.427 20.7245 15.2669 10.4774 88.2333 110.411 105.859 100.851 96.0698 22.7457 10.0168
internal_count=1999 1120 553 567 318 75 235 81 98 70 243 94 74 879 70 469 65 149 42 43 404 809 51 788 239 96 154 107 50 384 134 143 52 75 549 45 528 114 54 87 507 91 67 46 353 485 465 443 422 91 44
is_linear=0
shrinkage=0.05


Tree=4
num_leaves=56
num_cat=0
split_feature=6 6 30 4 0 0 4 4 0 0 5 30 0 4 6 4 30 5 30 0 12 12 4 30 10 11 10 12 10 4 4 6 6 19 8 11 13 5 8 8 30 30 0 12 13 10 1 8 19 18 12 10 13 8 9
split_gain=659.584 120.367 139.176 23.738 29.4448 22.3122 21.0789 14.396 22.9521 13.6127 11.1302 10.2605 14.5156 5.54927 3.58474 3.37287 9.01767 2.03362 1.96065 1.86202 1.61372 0.694626 1.11169 7.45871 0.193794 0.184822 0.175159 0.174499 0.164644 0.0783156 0.041969 0.00402054 0.0025328 0.00207305 0.000987709 0.000797956 0.000654739 0.000328744 0.000263234 0.000211596 0.000114727 5.33395e-05 4.92022e-05 3.56169e-05 2.7669e-05 5.83668e-06 5.78371e-07 1.65351e-08 7.79268e-09 3.54845e-09 3.37317e-09 2.97237e-09 1.42902e-09 2.27658e-11 2.84217e-14
threshold=0.16436306076195276 -0.1273446774831816 -0.57107112511704261 -0.24999999999999997 0.30555555555555564 0.30555555555555564 1.0833333333333337 0.41666666666666669 0.30555555555555564 0.30555555555555564 -0.053571428571428562 0.46749470775070034 0.30555555555555564 -0.41666666666666657 -0.037313379141633976 -0.74999999999999989 -0.53931160392912847 -0.26785714285714279 -0.52673863997202819 -0.58333333333333326 -1.0000000180025095e-35 -0.17740173385417071 0.25000000000000006 0.47859473870192543 -0.17796068757792863 -0.1636401357865617 1.0000000180025095e-35 -0.28673829491240338 -0.12873126899331294 -0.58333333333333315 0.75000000000000011 0.067266251753786394 1.1565564629276543 -0.10377243613160908 1.1525391996255561 -0.1100006358551283 1.7172717337426173 0.73214285714285732 -0.38820500819096648 -0.73821670957172936 -0.46442435312084956 0.47860622699414407 0.13888888888888892 -0.33574364738153434 -0.23836198916672138 2.0844563440905097 0.12500000000000003 -0.28077463140650588 0.18840262049146395 -0.7245016290923032 -0.13432261005572552 -0.17515649880142883 1.4968019731616573 0.86714252281769266 -0.0023031631778920331
decision_type=2 2 2 2 2 2 2 2 2 2 2 2 2 2 2 2 2 2 2 2 2 2 2 2 2 2 2 2 2 2 2 2 2 2 2 2 2 2 2 2 2 2 2 2 2 2 2 2 2 2 2 2 2 2 2
left_child=1 2 6 4 18 15 9 19 -9 30 14 12 -2 -12 -7 16 46 -10 -4 27 -21 22 23 -13 -23 -25 33 -5 -14 -17 37 49 -27 35 36 -24 41 39 -34 -1 44 50 48 -35 -29 -46 -3 -45 -41 -31 -26 -52 53 54 -53
right_child=11 5 3 7 -6 10 -8 8 17 -11 13 21 28 -15 -16 29 -18 -19 -20 20 -22 24 26 25 34 32 -28 40 -30 31 -32 -33 38 43 -36 -37 -38 -39 -40 42 -42 -43 -44 47 45 -47 -48 -49 -50 -51 51 52 -54 -55 -56
leaf_value=-0.096759568848331604 -0.012571808926973902 -0.096441215250635204 -0.098247442645982758 0.064169441573105529 0.052052184692803184 -0.097983679077120439 -0.0018748694637963266 -0.045489797492900684 0.076215740577145474 -0.020556696037396127 0.038954827524952114 0.0026426543870143922 0.067302415446617886 -0.033089785227785218 -0.040971316764472077 -0.091360179119011023 -0.014822137171096723 0.036167478945197888 -0.05445281686060327 0.025907257321574131 0.066803867323125682 0.064679639796212288 0.075462268734508259 0.064141330879770517 0.074982977756570313 0.076671605374598564 0.064727023345996323 0.075167840249131243 0.07999208200687391 -0.096442528694843738 -0.10044975965947685 -0.097900156311695297 0.075565825507959081 0.075145264802590317 0.075756515337242203 0.076322386519957708 0.075594406897060581 -0.09689264187769013 0.075070174961355873 -0.096441215250635093 0.075356033963473457 0.075156923690184174 -0.096270644270143077 0.074980714424378619 0.075057174160553755 0.074981548183141636 -0.096418173950782268 0.074984253285069399 -0.096438949275277366 -0.096441215250635204 0.07498312151240881 0.074984451677918174 0.074983539021673692 0.074984565099150538 0.074984451696704854
leaf_weight=4.994370192289348 8.9293393790721911 5.9918299913406354 5.2481753677129754 4.4656258374452618 7.7994538843631736 6.2440442442893982 8.5063601881265622 9.4314112067222613 6.757028192281723 6.670954465866088 4.7286578863859177 4.6145915389061001 4.5718537867069244 6.1478898376226407 4.9372513890266436 7.9951061159372321 4.8927372246980658 5.9710143953561765 4.9813418090343484 4.6644573658704758 4.9951993972063047 4.6875531971454611 5.3638710230588913 4.4630797058343932 4.6656066030263892 4.5265318453311894 4.4801140278577796 4.6769725084304836 5.7976444959640485 5.4925163984298697 8.4905340820550901 4.9967681765556327 4.4754441678524044 4.4523209929466274 4.700010657310485 5.4225102514028567 4.7020176351070395 5.244569703936576 6.6725334376096681 13.731277063488973 4.4651475101709357 4.6761762946844092 5.4916924834251395 5.3319607973098782 5.3373394012451154 4.8876851052045822 4.9930999279022217 8.6648456901311821 5.2428417652845374 80.640045300126076 4.6656158417463294 79.316874727606759 4.4434685707092276 4.6657056659460059 5.9987552314996853
leaf_count=20 38 24 21 20 34 25 35 38 30 27 20 20 20 25 20 32 20 26 20 20 22 21 24 20 21 20 20 21 25 22 34 20 20 20 21 24 21 21 30 55 20 21 22 24 24 22 20 39 21 323 21 357 20 21 27
internal_value=0.000111993 -0.05102 -0.0169528 0.0287354 -0.0211265 -0.0838428 -0.0746229 0.0448887 0.0136247 -0.0870325 -0.0377792 0.0688145 0.0341577 -0.00176787 -0.0728091 -0.092678 -0.0712829 0.0574282 -0.0769213 0.0655738 0.0470557 0.0725099 0.0680259 0.0599793 0.0746497 0.0731181 0.0739332 0.0730793 0.0743973 -0.096105 -0.0972988 -0.0965213 0.0756742 0.075344 0.0750463 0.0758947 0.0750168 -0.0965279 0.0752692 -0.096463 0.0751337 0.0749917 -0.0964024 0.0750221 0.0750671 0.075021 -0.0964307 0.0749829 -0.0964406 -0.0964413 0.0749843 0.0749844 0.0749844 0.0749845 0.0749845
internal_weight=469.402 269.113 132.053 73.6809 18.029 137.06 58.3726 55.6519 22.1595 49.8662 22.0578 200.288 19.2988 10.8765 11.1813 115.002 15.8777 12.728 10.2295 33.4924 9.65966 180.99 58.4678 24.7522 122.522 20.1376 33.7156 23.8328 10.3695 99.1244 43.1953 91.1293 15.6745 29.2355 117.834 10.7864 113.134 34.7048 11.148 29.4602 19.3671 108.432 24.4658 18.4491 14.902 10.225 10.9849 13.9968 18.9741 86.1326 103.756 99.0904 94.4248 89.9813 85.3156
internal_count=1999 1104 553 318 75 551 235 243 94 200 90 895 83 45 45 461 64 56 41 149 42 812 261 110 551 90 151 107 45 397 173 365 70 131 530 48 509 139 50 118 87 488 98 83 67 46 44 63 76 345 467 446 425 405 384
is_linear=0
shrinkage=0.05


Tree=5
num_leaves=55
num_cat=0
split_feature=6 18 30 0 4 4 6 30 4 18 6 6 0 30 18 13 4 30 30 18 13 1 12 4 6 18 18 8 8 4 0 0 19 11 10 7 19 12 12 5 30 10 11 13 6 13 8 12 29 10 30 5 12 18
split_gain=606.371 102.384 131.268 30.5655 19.3589 18.7134 31.0906 17.5989 13.3373 23.2541 13.1701 15.6374 6.69629 6.39997 15.4244 4.82854 2.53909 8.25763 2.28034 0.76862 0.681919 0.539446 0.50381 1.17977 6.64838 0.363507 0.187764 0.17802 0.145781 0.0822193 0.046934 0.018158 0.00178258 0.000846107 0.000547159 0.000471481 0.000421752 0.000161727 0.000120039 0.000100944 7.10868e-05 4.40654e-05 4.33228e-05 1.90774e-05 5.32412e-06 3.13144e-06 1.24707e-06 6.12742e-09 2.98361e-09 2.33814e-09 1.04288e-09 5.46535e-10 8.81073e-13 3.97904e-13
threshold=0.20784976796057128 -0.019616772847225929 -0.57107112511704261 0.30555555555555564 0.75000000000000011 -0.24999999999999997 -0.13947548296578763 -0.5967016338613369 0.41666666666666669 0.014162192792553136 0.004007626722308158 -0.086052451703421212 0.30555555555555564 0.46749470775070034 -1.6286804204442504 0.23056847838420527 -0.74999999999999989 -0.52673863997202819 -0.54103178080916969 -1.0808894319415681 1.8227080807658547 -1.0000000180025095e-35 -0.19767981073794902 0.25000000000000006 1.0516386660430983 -0.040942209326035907 0.025991402549674317 -0.75349871284811598 0.34488649660659965 -0.58333333333333315 0.19444444444444445 -0.58333333333333326 -0.07130854095126761 -0.1100006358551283 -0.17796068757792863 -0.11363636363636362 0.15593872531112249 -0.24750257405820908 -0.16484976145750638 0.66071428571428592 0.47860624850770045 -0.10298481335899896 -0.14883447353791143 -0.24644215781710033 0.032694175630463722 1.6325404456335439 1.0791598408612217 -0.31590571480221002 -7.3881717287926074 -0.17515649880142883 0.47860596191983229 -0.053571428571428562 -0.10936799993712219 -0.65583110428438862
decision_type=2 2 2 2 2 2 2 2 2 2 2 2 2 2 2 2 2 2 2 2 2 2 2 2 2 2 2 2 2 2 2 2 2 2 2 2 2 2 2 2 2 2 2 2 2 2 2 2 2 2 2 2 2 2
left_child=1 3 4 16 27 6 -4 -6 18 12 11 -5 -10 14 -2 -9 17 35 -7 -18 22 -14 23 24 -15 29 -20 -3 -16 -21 39 37 33 -25 -24 -1 -26 -28 -36 48 45 47 -38 -39 53 46 49 -34 -29 -40 52 -50 -51 -31
right_child=13 2 5 10 7 8 -8 15 9 -11 -12 -13 21 20 28 -17 19 -19 26 25 -22 -23 34 32 36 -27 31 30 -30 44 -32 -33 41 -35 38 -37 42 43 40 -41 -42 -43 -44 -45 -46 -47 -48 -49 51 50 -52 -53 -54 -55
leaf_value=-0.092815192565730328 -0.036267751682072628 -0.08316873421649712 -0.098085977593772355 -0.00078729218252726889 -0.079280207588615134 0.035804204706454623 0.044094864309564441 -0.020965661866188853 -0.0027109146723829219 -0.079987415696250286 0.03313057936728226 -0.092633054960101172 0.052463719951685028 0.006953097764996744 0.075130753848052637 0.047790855063179746 -0.07087074853244657 -0.01458629736685713 0.063144487199842766 -0.086697839092280821 0.051480806408286776 0.074972607960403656 0.073755925891114793 0.073559690653910714 0.073803550306184448 -0.077701365016391882 0.073623470018107165 -0.092172613788584767 0.063416471739763378 -0.092171551772297522 -0.096598995761916787 0.076573537268540492 0.073176264455130646 0.074424341693167834 0.073444175410042264 -0.092161460453396585 0.073405676523571731 0.073345197993237146 0.073178322020427983 -0.092415867089977163 0.073386469845991092 0.07332871823336258 0.073182163022835187 0.07321347819550765 -0.0921234880219996 0.07322167047143685 0.073151991474777842 0.073178642281266956 -0.092171608835955696 0.073179543012789283 0.073178726053880844 -0.092170926168470196 0.073179519923461833 -0.092171565515789297
leaf_weight=4.9650664180517206 4.8745799213647834 4.9689075797796241 6.6779348254203788 8.9274059236049688 9.6892950832843798 5.0920549631118766 9.0631417930126172 4.9155093133449537 5.2208007127046647 4.9251980185508719 6.7409427762031546 9.636989414691925 4.4380644708871877 4.8682842850685146 6.6631017327308637 5.3138250112533569 4.9595681279897681 4.8979032486677161 4.5975827574729982 7.4625250697135916 4.3962039053440085 6.6507732421159691 4.5849698781967154 5.2232286632061005 7.6436540633440044 4.854429990053176 4.3581445217132631 6.9495190680027035 4.4161562621593475 4.9639315903186789 8.208483472466467 6.1055181175470308 4.5445643812418002 6.173283517360689 4.7797317057847968 6.2047880738973626 4.3433067500591314 4.5565578192472493 4.5447121709585181 5.4629291146993628 4.3422227352857581 8.459392696619032 4.3285144269466347 6.9290765374898857 6.204306259751319 4.3312256783246985 4.3264922797679892 6.7088953107595444 6.7013083845376977 4.3283808827400057 4.3283252120017996 5.2121216058731088 83.537728145718589 75.20356585085392
leaf_count=20 20 20 27 37 39 23 39 20 21 20 28 39 20 21 30 22 20 20 21 30 20 30 21 24 35 20 20 28 20 20 33 27 21 28 22 25 20 21 21 22 20 39 20 32 25 20 20 31 27 20 20 21 386 303
internal_value=0.000126813 -0.0480095 -0.0150469 -0.076657 -0.0708259 0.0316331 -0.0162234 -0.0309898 0.0458804 0.0152276 -0.0267296 -0.0484655 0.0439807 0.0681735 0.0378511 0.0147512 -0.0872106 -0.0687164 0.0664534 -0.0900776 0.0709254 0.0659639 0.0714241 0.067333 0.058232 -0.0910429 0.0723324 -0.0919835 0.0704615 -0.0917331 -0.0933298 0.0742569 0.0735303 0.0740281 0.0732203 -0.092452 0.0735328 0.0733641 0.0731989 -0.0922266 0.0731882 0.0732425 0.0732941 0.0732657 -0.0921681 0.07318 0.0731783 0.0731777 -0.0921718 0.0731794 0.0731795 -0.0921713 0.0731795 -0.0921716
internal_weight=462.805 271.058 126.037 145.021 57.4219 68.6148 15.7411 19.9186 52.8738 21.2348 25.3053 18.5644 16.3096 191.747 15.9538 10.2293 119.716 16.0678 31.6389 103.648 175.793 11.0888 171.397 52.2931 21.1838 98.6888 26.5469 37.5033 11.0793 93.8343 32.5344 21.9493 31.1094 11.3965 119.104 11.1699 16.3155 15.8438 114.519 24.3259 109.739 19.7129 8.67182 11.4856 86.3718 105.397 101.066 11.2535 18.8629 96.7391 92.1944 11.9134 87.8661 80.1675
internal_count=1999 1120 533 587 232 301 66 81 235 91 104 76 71 879 70 42 483 65 144 418 809 50 789 239 96 398 121 151 50 378 131 100 143 52 550 45 75 73 529 98 507 91 40 53 348 487 467 52 76 447 426 48 406 323
is_linear=0
shrinkage=0.05


Tree=6
num_leaves=57
num_cat=0
split_feature=6 18 30 0 4 4 6 16 4 18 5 0 30 18 6 4 4 30 30 16 18 6 18 12 4 30 18 30 5 10 4 0 0 6 19 11 13 10 6 8 13 12 12 10 30 13 0 6 8 5 12 10 13 5 30 18
split_gain=558.342 92.711 119.545 28.1544 17.8113 17.2695 28.2497 16.5015 12.5356 21.0911 11.996 6.2782 6.15985 14.2867 4.49126 4.32665 2.35831 7.62424 2.20124 1.48706 0.747501 0.673528 0.533103 0.498962 1.14539 6.35428 0.382549 0.18293 0.176542 0.142221 0.0799196 0.0658462 0.0145232 0.00254138 0.00142753 0.000675683 0.000429651 0.000433668 0.000408554 0.000407285 0.000208954 0.000105664 0.000100231 3.53817e-05 1.79151e-05 1.67603e-05 1.06206e-05 4.02191e-06 1.16062e-06 6.47891e-08 4.91067e-09 1.97636e-09 1.22867e-10 4.54037e-12 2.10321e-12 3.97904e-13
threshold=0.20784976796057128 -0.019616772847225929 -0.57107112511704261 0.30555555555555564 0.75000000000000011 -0.24999999999999997 -0.13947548296578763 1.0000000180025095e-35 0.41666666666666669 0.014162192792553136 -0.053571428571428562 0.30555555555555564 0.46749470775070034 -1.6286804204442504 -0.027103644278159509 -0.58333333333333315 -0.74999999999999989 -0.52673863997202819 -0.54103178080916969 0.83333333333333337 -1.0808894319415681 1.5045580458322843 -0.0047974017348325773 -0.19767981073794902 0.25000000000000006 0.47859606708319546 -0.040942209326035907 -0.44184316262983836 0.7678571428571429 -0.13516501658343638 -0.58333333333333315 0.25000000000000006 -0.58333333333333326 1.1740259740259742 -0.07130854095126761 -0.1100006358551283 1.6811408983140936 -0.17796068757792863 -0.081174227434615234 -0.61562134331851148 0.95718048098801389 -0.21176442848048035 -0.16484976145750638 -0.10298481335899896 0.47860617217725648 -0.23006085507653165 0.083333333333333343 0.032694175630463722 1.0856424058038849 0.19642857142857145 -0.31590571480221002 -0.17515649880142883 1.4451139763626701 -0.41071428571428564 0.4786057358888316 -0.65583110428438862
decision_type=2 2 2 2 2 2 2 2 2 2 2 2 2 2 2 2 2 2 2 2 2 2 2 2 2 2 2 2 2 2 2 2 2 2 2 2 2 2 2 2 2 2 2 2 2 2 2 2 2 2 2 2 2 2 2 2
left_child=1 3 4 16 28 6 -4 -6 18 11 14 -10 13 -2 -5 -12 17 38 -7 -9 -18 23 -13 24 25 -14 30 32 31 -15 -22 39 41 -27 35 -26 37 -25 -1 -3 -35 -20 -39 50 48 -43 49 55 51 53 -36 -44 54 -41 -53 -32
right_child=12 2 5 10 7 8 -8 19 9 -11 15 22 21 29 -16 -17 20 -19 27 -21 26 -23 -24 36 34 33 -28 -29 -30 -31 47 -33 -34 40 43 -37 -38 42 -40 46 -42 45 44 -45 -46 -47 -48 -49 -50 -51 -52 52 -54 -55 -56 -57
leaf_value=-0.088434434484832125 -0.034269852546286478 -0.088938079205721166 -0.093703923826473884 -0.086426473853313548 0.019314129201286202 0.034443350948033323 0.042338074721894853 -0.090293528776673668 -0.002574834103148415 -0.075573871226068776 0.042549536894761333 0.050620151620522837 0.0075484321336891438 0.061621138546309531 -0.025224416202669121 -0.016131609461085956 -0.067400640809420279 -0.013828106240444253 0.071924084556843446 -0.052854954605225525 -0.083040045047017078 0.050148039741572649 0.073244951753370008 0.072072420126415543 0.071889315285625241 0.073254773144757562 -0.073641551529439589 0.061422584066162668 -0.07935576344222238 0.073330721072557822 -0.088458292053478507 -0.094664281813791704 0.07461879185225799 0.071638161437702297 0.071540877363981431 0.072672589625752113 0.072089297584232173 0.071784433019240118 -0.089045914792167877 -0.088458358943648327 0.072068399588439219 0.071700730849523983 0.071542742333863998 0.071679403353526114 0.071645445113289977 0.071577180996793083 -0.088377731047206878 -0.088416310718959959 0.071516930035638263 -0.088451621289272309 0.071543036029585311 0.071543836641159042 0.071543561794719629 -0.088458294061253759 0.071543871267775394 -0.088458306046714702
leaf_weight=6.1431015133857718 4.9001353234052649 4.9225282371044186 6.6415342837572089 7.1512047052383423 9.2452808320522326 5.0301785469055167 8.9696549475193006 5.4440580904483777 5.2218468189239564 4.9514284431934348 5.3605106323957443 4.3491742014884984 5.006848797202113 4.3179869055747977 5.1609755605459231 7.5871928483247739 4.9542516618967047 4.9078659862279883 4.2379828840494218 5.1723042577505112 7.4031092226505271 4.4870097786188117 6.4872451126575417 4.2489140480756751 5.0809675306081772 4.3126517534255973 4.8655952215194693 4.4927717894315746 4.9257760345935813 6.4914356619119635 4.9148796498775473 5.2125082314014426 5.9559727609157553 6.3240680545568448 4.4192051738500613 6.0101178288459796 4.2489976733922949 4.6490443646907798 4.9189444184303275 5.1606248468160674 5.0963497906923294 4.854189202189449 4.4193574935197821 8.2272218465805036 4.4275432974100104 6.317333176732058 5.8962271362543097 6.1427165716886512 4.2069027274847022 5.4062451571226111 6.5238489508628845 80.602285996079445 4.2089754790067664 5.6521117091178903 4.6298993378877631 74.460428953170776
leaf_count=25 20 20 27 29 38 23 39 22 21 20 23 20 22 20 21 31 20 20 20 21 30 21 30 20 24 20 20 21 20 30 20 21 27 30 21 28 20 22 20 21 24 23 21 39 21 30 24 25 20 22 31 383 20 23 22 303
internal_value=0.000139838 -0.0460442 -0.0144564 -0.0733704 -0.0677495 0.0305702 -0.0155388 -0.0295233 0.04444 0.0146442 -0.0254373 0.0424621 0.0665135 0.0365493 -0.060772 0.00816312 -0.0835698 -0.0656948 0.0647064 -0.0720534 -0.0863483 0.0692642 0.0641645 0.0697789 0.0656591 0.0566081 -0.0873082 0.0705935 -0.0881722 0.0686532 -0.0880239 -0.0895187 0.072522 0.0722207 0.0718623 0.0723138 0.0715958 0.071577 -0.0887063 -0.0885268 0.0718302 0.0717115 0.0715574 0.0716011 0.0715471 0.0716309 -0.0884352 -0.0884553 0.0715426 -0.0884561 0.0715422 0.0715438 0.0715438 -0.0884583 0.0715438 -0.0884583
internal_weight=455.358 268.518 124.547 143.971 57.0377 67.5093 15.6112 19.8616 51.8981 21.0097 25.2599 16.0583 186.84 15.7096 12.3122 12.9477 118.711 15.9699 30.8884 10.6164 102.741 171.13 10.8364 166.643 51.0013 20.7399 97.7867 25.8582 37.176 10.8094 92.9211 32.2502 21.3655 15.7331 30.2614 11.0911 115.642 111.393 11.062 27.0377 11.4204 15.4095 107.144 19.1703 102.495 11.1715 22.1152 85.518 98.0674 16.219 10.9431 93.8605 89.4412 10.8127 85.2322 79.3753
internal_count=1999 1120 533 587 232 301 66 81 235 91 104 71 879 70 50 54 483 65 144 43 418 809 50 788 239 96 398 121 151 50 378 131 100 74 143 52 549 529 45 110 54 73 509 91 487 53 90 348 466 66 52 446 425 44 405 323
is_linear=0
shrinkage=0.05


Tree=7
num_leaves=59
num_cat=0
split_feature=6 6 30 4 0 0 4 4 0 0 30 5 30 30 5 4 6 0 30 5 18 12 8 19 19 11 11 4 19 8 0 6 4 9 4 6 8 30 15 30 5 8 0 10 6 12 10 13 10 12 10 18 5 8 30 8 10 0
split_gain=515.41 90.3642 105.114 18.7151 23.4347 17.3525 16.8949 12.1241 12.0308 11.9881 9.51468 12.3193 8.93879 13.9939 7.39852 2.78715 7.2703 2.57542 2.48088 1.95432 1.28871 0.68336 1.19622 1.12298 0.378186 0.98057 0.207792 0.0899332 0.0769523 0.119738 0.0145969 0.00706239 0.00463311 0.00438069 0.00427521 0.00916533 0.00302226 0.0012265 0.00107802 0.000880576 0.000661582 0.00038575 0.00018279 0.00011024 7.98431e-05 7.62964e-05 2.39138e-05 2.2571e-05 1.59292e-05 4.03331e-08 2.47943e-08 2.11476e-08 1.13553e-08 4.38068e-09 2.51532e-09 2.04494e-10 5.48539e-12 2.84217e-14
threshold=0.16436306076195276 -0.1273446774831816 -0.57107112511704261 -0.24999999999999997 0.30555555555555564 0.30555555555555564 1.0833333333333337 1.0000000180025095e-35 0.30555555555555564 0.30555555555555564 -0.17131651227478259 -0.053571428571428562 0.46749470775070034 -0.011046422610365319 -0.16071428571428567 -0.74999999999999989 -0.024491851638666042 0.30555555555555564 -0.54103178080916969 -0.26785714285714279 0.046166776968764124 -0.17740173385417071 -0.84775333489351734 -0.75305033973843793 -0.07130854095126761 -0.1100006358551283 -0.17262547091435201 0.75000000000000011 -0.78551423491877936 0.16051954130587412 -0.58333333333333326 0.067266251753786394 -0.58333333333333315 0.27969101012962033 0.25000000000000006 1.1821923229125446 1.1525391996255561 0.47860624850770045 -0.21428571428571427 -0.48720256505352394 0.73214285714285732 -0.73821670957172936 0.13888888888888892 -0.17759612687039797 -0.1187610173759758 -0.057210899859310986 -0.030809940229139392 1.5639993550197973 1.9108003439438734 -0.13432261005572552 -0.10565983586114053 -0.7245016290923032 -1.0000000180025095e-35 -0.24870114673531474 0.4786059170133653 0.86714252281769266 -0.17333033234943607 0.19444444444444445
decision_type=2 2 2 2 2 2 2 2 2 2 2 2 2 2 2 2 2 2 2 2 2 2 2 2 2 2 2 2 2 2 2 2 2 2 2 2 2 2 2 2 2 2 2 2 2 2 2 2 2 2 2 2 2 2 2 2 2 2
left_child=1 2 6 4 20 15 9 18 14 27 11 -7 13 17 -9 16 33 -2 -5 -10 -4 22 -14 -24 25 38 -23 40 29 -17 39 32 -30 -3 35 -26 37 43 -25 45 41 -1 48 -28 -34 -20 50 49 -43 -45 53 -46 -50 -36 55 56 -51 -53
right_child=12 5 3 7 -6 10 -8 8 19 -11 -12 -13 21 -15 -16 28 -18 -19 30 -21 -22 26 23 24 34 -27 36 -29 31 -31 -32 -33 44 -35 46 -37 -38 -39 -40 -41 -42 42 -44 47 51 -47 -48 -49 52 54 -52 57 -54 -55 -56 -57 -58 -59
leaf_value=-0.085643623694106413 0.030652449523864436 -0.087228612798582753 -0.050406303478284835 0.031432796898379793 0.048112435117681908 -0.056112376643043242 -0.00025001405890849192 -0.06351678313851504 0.071972108130109888 -0.014321199228855525 -0.094203277303951657 0.029174985233888374 0.037488398764599078 -0.036124970069931671 0.012495479610769286 -0.085476442589926344 -0.01354303276903694 0.076296384847236609 0.070377385019856756 0.031617338782823738 -0.086177356757402443 0.059223166428199615 0.041875972617426149 0.070157773892284489 0.073072702922203511 0.043199095028038099 0.070326046373412554 -0.091118505500040178 -0.08665021957419404 -0.075115772605397924 0.073304351102598253 -0.087239333709990013 -0.085412534147315214 -0.08517484307364466 0.070053070185043045 0.070223348336863597 0.071459080875125799 0.070796655928393695 0.071260121342729077 0.071052208964795124 -0.085855494589723011 -0.085307018814190783 -0.084896686637664392 0.070051340072051368 -0.085205821441429311 0.070115294190272417 0.07018691193073294 0.070173336742178238 -0.085202673514264277 0.070056405539864253 0.070049790953268312 -0.085202472923486636 -0.085199734340012268 0.070055144881820172 0.070055129135694477 0.070056716103147745 0.07005634969296036 -0.085202473209508967
leaf_weight=4.8593893647193864 4.9770293831825283 4.8591799139976484 4.9595301300287264 4.7580477893352535 7.5128290653228751 8.8514942228794133 8.5049733966588956 5.0948871970176688 6.3022055178880692 6.6666628420352927 4.9335701465606681 8.1165605783462524 4.2659022808074942 5.480694815516471 8.6129619032144564 6.5541863590478879 5.1529775261878958 8.1529991477727872 4.3196919560432496 5.7260956168174726 5.1142809092998505 4.5157590359449378 4.7248022258281699 4.5042453557252875 4.4943850636482257 5.1064650714397422 4.1096621155738822 8.3816089630126935 6.101622909307479 4.8539211750030518 6.0348314046859697 5.133889526128768 4.8539276123046866 5.5758016109466553 4.0862648934125883 7.5856508761644363 4.364039495587348 6.220991075038909 4.3691398054361335 4.1605275124311474 5.1073580086231223 4.8515435755252971 5.3257636129856101 4.2904196679592124 5.0917284786701122 7.7740923017263404 4.3027071058750179 4.3010318577289572 8.0011635422706604 4.6995390057563773 4.085979387164115 57.705302283167846 5.5764875113964054 6.742635190486908 4.2907664924859992 4.0865826904773703 71.92329378426075 6.0614813119173041
leaf_count=20 22 20 20 22 34 36 35 21 30 27 20 34 20 24 37 27 21 37 21 26 21 22 22 22 21 24 20 34 25 20 28 21 20 23 20 37 21 30 21 20 21 20 22 21 21 38 21 21 33 23 20 238 23 33 21 20 352 25
internal_value=0.000150299 -0.0450837 -0.0149855 0.0259488 -0.0187225 -0.0737875 -0.0652788 0.0408326 0.0162666 -0.0766191 -0.033086 -0.0153157 0.0638524 0.0309828 -0.0157565 -0.0817507 -0.0621354 0.0589947 0.0642079 0.0527611 -0.0685666 0.0675138 0.0629035 0.0650718 0.0674923 0.060655 0.0697318 -0.0864834 -0.084924 -0.0810682 0.0712044 -0.0854418 -0.0853261 -0.0861312 0.0705464 0.0712835 0.0701701 0.0701159 0.0707006 0.0704248 -0.0853313 -0.0852377 -0.0851547 0.0700726 -0.0852165 0.0702089 0.0700831 0.0700615 -0.0852293 0.0700561 0.0700531 -0.0852027 -0.0852015 0.0700544 0.0700563 0.0700564 0.0700564 -0.0852025
internal_weight=447.172 261.491 127.645 70.37 17.5866 133.846 57.275 52.7833 25.7362 48.77 21.9016 16.9681 185.681 18.6107 13.7078 111.944 15.588 13.13 27.0472 12.0283 10.0738 167.07 54.2682 50.0023 45.2775 13.9799 112.802 42.1033 96.3561 11.4081 22.2891 84.948 79.8141 10.435 31.2976 12.08 108.286 103.922 8.87339 16.2543 33.7217 28.6143 23.755 97.7013 73.7124 12.0938 19.2176 93.5916 18.4292 89.2906 14.9149 68.8585 13.5777 10.8289 85.0002 80.7094 76.6228 63.7668
internal_count=1999 1104 553 318 75 551 235 243 114 200 90 70 895 83 58 461 64 59 129 56 41 812 261 241 219 67 551 173 397 47 107 350 329 43 152 58 529 508 43 79 139 118 98 478 304 59 94 458 76 437 73 284 56 53 416 395 375 263
is_linear=0
shrinkage=0.05


Tree=8
num_leaves=62
num_cat=0
split_feature=6 0 0 30 18 30 6 6 6 18 5 6 30 0 30 18 6 18 6 4 19 9 13 12 4 6 1 10 13 8 4 30 4 6 8 6 4 4 19 6 11 19 5 10 6 8 30 12 0 12 11 6 5 10 8 13 8 10 10 30 18
split_gain=476.385 78.1146 67.6099 56.9403 21.823 15.6738 14.7257 11.3577 13.0182 6.55912 6.19941 5.85132 19.4755 8.65783 5.74849 13.1896 3.89389 3.68982 3.54204 2.46802 1.19469 2.09504 0.704889 0.50201 1.18012 6.35706 0.346704 0.286316 0.196258 0.149498 0.137772 0.0668898 0.0475235 0.0349732 0.016324 0.0116565 0.00894846 0.00309359 0.00250196 0.00189593 0.00115555 0.000747577 0.000461159 0.000428377 0.000302037 0.000233476 0.000131687 0.000108071 6.35902e-05 4.635e-05 4.31049e-05 3.42598e-05 2.10125e-05 7.47442e-06 1.77311e-06 6.72264e-07 6.71317e-07 6.13778e-09 6.1064e-09 2.09911e-09 3.55271e-13
threshold=0.20784976796057128 0.30555555555555564 -0.69444444444444431 -0.34829364479051811 -0.018269557291553887 -0.56677725585532557 -0.15124653739612184 0.004007626722308158 -0.086052451703421212 -0.12739401730099595 0.053571428571428575 -0.1273446774831816 -0.54103178080916969 -0.36111111111111105 0.46749470775070034 -1.6286804204442504 -0.13741051192574735 0.0085761770739126598 -0.13741051192574735 1.0833333333333337 -0.78551423491877936 0.099348101880592232 1.8227080807658547 -0.19767981073794902 0.25000000000000006 1.0516386660430983 0.47500000000000003 -0.12993287662564967 0.66949542243217264 0.34488649660659965 -0.74999999999999989 -0.56994767635330879 0.75000000000000011 -0.13696442062093026 0.45327638661362046 0.032694175630463722 0.75000000000000011 -0.58333333333333315 -0.07130854095126761 -0.1499010684606252 -0.1100006358551283 0.15593872531112249 0.69642857142857151 -0.17796068757792863 -0.14590783178040792 -0.61023870816756365 0.47860624850770045 -0.16484976145750638 0.13888888888888892 -0.33845525068576049 -0.17212022102291646 -0.11504838651653053 0.62500000000000011 -0.056842459212416319 1.0856424058038849 1.5639993550197973 -0.1970863561900304 -0.17446354323156557 -0.1245408432705072 0.4786059170133653 -0.56468047132257226
decision_type=2 2 2 2 2 2 2 2 2 2 2 2 2 2 2 2 2 2 2 2 2 2 2 2 2 2 2 2 2 2 2 2 2 2 2 2 2 2 2 2 2 2 2 2 2 2 2 2 2 2 2 2 2 2 2 2 2 2 2 2 2
left_child=1 2 3 5 7 -1 -6 8 9 -3 33 12 18 -14 15 -2 -15 -7 19 31 21 -13 23 24 25 -16 39 -22 30 -17 -29 32 42 -8 56 37 -35 -32 40 -19 -26 -27 45 -25 -41 -4 47 -45 -47 -40 -49 -39 -43 58 55 57 -5 -52 -51 -59 -53
right_child=14 4 11 34 6 17 10 -9 -10 -11 -12 20 13 16 22 29 -18 26 -20 -21 27 -23 -24 43 38 41 -28 28 -30 -31 35 -33 -34 36 -36 -37 -38 51 49 44 -42 52 -44 46 -46 48 -48 50 -50 53 54 60 -54 -55 -56 -57 -58 59 -60 -61 -62
leaf_value=-0.031954454330201942 -0.033341207026778806 0.041947761008369062 -0.082663465557821544 -0.082316530980051039 -0.031170113507226274 0.015636154979006896 0.075807845455520967 0.032969112045053879 -0.08436351766014813 -0.039743896523719097 0.014657919837904574 -0.040622966793102303 0.048757049177503384 -0.064054336226816638 0.0027887972166148745 0.071069290481168043 -0.0069981373880136089 0.070369064005895862 -0.035397950497801124 -0.045795919205364077 -0.072280630802857876 -0.08263836344051273 0.045870569853114176 0.069242519513057016 0.069160189284013976 0.06955161967153671 0.053807810542913365 -0.0891868410159318 -0.073078738273788413 0.058810600590055377 -0.083611597853692363 -0.089479984364598503 -0.087080217029332468 0.07243482729190992 -0.085893913698237206 -0.084820943791804715 0.069543147112818782 -0.08246810831329876 0.068913647310721624 0.06886765142719499 0.070211267167040417 0.068763254477897898 -0.082877157519160694 0.068959979741054667 0.069420013379916323 -0.082326799346071275 0.069009996382261671 0.068855953548619675 -0.082119676535883895 0.068698552489654771 0.068697421660693828 -0.08232734056761111 0.068925827261612269 0.068778539486625226 0.068665949022431713 0.068720277281431041 -0.082342741258772806 0.068699367607099368 0.068696034704413211 0.068698186894884855 -0.082327354747071937
leaf_weight=6.4738067835569373 4.9020811766386023 4.5209227204322842 4.7799462527036694 5.0077160000801078 5.8685399442911175 4.5891997665166917 6.3824719935655656 6.6911058425903311 9.5072024017572403 5.3826103806495675 6.2291809767484656 5.0623430609703046 4.2223535329103496 5.7749821245670327 4.7458776384592083 6.2386046946048719 6.2015024125575993 4.1077657788991973 4.8977923095226279 4.6928517073392859 6.9547939747571936 7.1681564152240753 4.1009335219860068 4.2130594402551642 4.8030726909637451 7.06127120554447 4.698890194296836 9.3792386353015882 4.7841779440641394 4.1358507871627808 5.2886704951524655 5.0253030508756629 6.8135599195957175 5.9798707962036115 4.7828321307897559 5.7733119428157798 4.841467410326004 4.7738361060619274 3.9809006154537228 5.9666996002197301 5.7398424595594424 3.9679979830980301 5.0257129967212668 4.3834349066019049 4.2289715707302022 14.308743640780454 3.9912298321723929 4.5736075788736335 5.0008795708417884 6.1410761922597903 4.5561569333076468 5.0080783069133679 3.9822904616594315 3.9696299284696535 3.9588217288255683 3.9640538543462744 4.7700772136449805 75.477309361100197 3.9617415219545364 3.9619496017694464 40.78007009625437
leaf_count=27 20 19 20 21 24 20 29 28 39 23 28 21 20 24 21 30 25 20 20 19 29 30 20 21 24 35 23 39 20 20 22 21 28 28 20 24 24 20 20 30 28 20 21 22 21 60 20 23 21 31 23 21 20 20 20 20 20 381 20 20 171
internal_value=0.000158026 -0.0426723 -0.056826 -0.00234259 0.0100413 0.036962 0.0396589 -0.023207 -0.0425715 -0.00245199 0.0573973 -0.0718608 -0.0605155 -0.012806 0.0635627 0.0342462 -0.0345103 0.0558735 -0.0758057 -0.0801413 -0.0798338 -0.0652477 0.0663353 0.0668683 0.0626277 0.0532302 0.0655911 -0.0819899 -0.0828809 0.0661823 -0.0835413 -0.0840769 -0.0833212 0.0728724 -0.0835002 -0.0826821 0.0711411 -0.082461 0.0691204 0.0694622 0.0697324 0.0691772 -0.0824415 0.0687482 0.0690968 -0.0823506 0.0687283 0.0687172 -0.0822732 0.068763 0.0687061 -0.0823406 0.0688447 0.0687204 0.0686987 0.0687002 -0.0823293 0.0686992 0.0686976 0.0686993 -0.0823274
internal_weight=438.556 261.746 206.342 44.626 55.4034 30.0653 29.3015 26.1018 19.4107 9.90353 23.433 161.716 66.7436 16.1988 176.811 15.2765 11.9765 23.5915 50.5448 45.647 94.9727 12.2305 161.534 157.433 48.3537 19.7574 19.0023 82.7422 75.7874 10.3745 71.0032 40.9541 35.9288 17.2038 14.5606 61.624 10.8213 55.8507 28.5963 14.3034 10.5429 15.0116 29.1153 109.08 10.1957 24.0896 104.867 100.875 19.3096 18.0533 96.4919 50.562 7.95029 14.0724 91.9183 87.9595 9.77779 83.9954 10.1028 79.4393 45.7881
internal_count=1999 1120 878 202 242 141 133 109 81 42 109 676 279 69 879 70 49 114 210 190 397 51 809 789 239 96 94 346 317 50 297 171 150 81 61 258 52 234 143 71 52 75 122 550 51 101 529 509 81 91 487 212 40 71 464 444 41 424 51 401 192
is_linear=0
shrinkage=0.05


Tree=9
num_leaves=62
num_cat=0
split_feature=6 0 0 30 18 30 6 6 6 5 30 18 6 30 0 30 18 0 18 4 19 9 30 12 4 30 1 10 13 19 4 30 4 6 13 6 30 6 4 19 6 11 6 13 5 8 12 8 10 0 8 11 6 13 10 1 8 30 12 12 18
split_gain=440.842 71.865 61.8256 52.4143 20.0075 14.517 13.6286 10.2987 11.8962 5.9403 5.57509 12.2576 5.57293 18.0545 7.27075 4.63934 3.56631 3.54527 3.36336 2.43421 1.14073 1.99523 0.714958 0.502855 1.15486 6.12696 0.351039 0.28275 0.18742 0.151121 0.111326 0.0553773 0.0371786 0.0285017 0.0137259 0.00928148 0.00721869 0.00310865 0.00240645 0.00203137 0.00153939 0.000934752 0.000706304 0.000436945 0.00035913 0.000250916 0.000245652 0.000181885 9.36922e-05 4.94814e-05 3.90547e-05 3.40027e-05 2.67396e-05 7.91205e-06 5.70625e-06 4.11929e-06 1.30731e-06 4.84028e-08 1.23949e-08 7.89234e-09 3.41061e-13
threshold=0.20784976796057128 0.30555555555555564 -0.69444444444444431 -0.34829364479051811 -0.018269557291553887 -0.56677725585532557 -0.15124653739612184 0.004007626722308158 -0.086052451703421212 0.053571428571428575 0.46749470775070034 -1.6286804204442504 -0.1273446774831816 -0.54103178080916969 -0.24999999999999997 -0.36540632889807573 0.0085761770739126598 -1.0000000180025095e-35 0.014162192792553136 1.0833333333333337 -0.78551423491877936 0.099348101880592232 0.47860638577599579 -0.19767981073794902 0.25000000000000006 0.47859606708319546 0.47500000000000003 -0.12993287662564967 0.66949542243217264 0.058547039770098196 -0.74999999999999989 -0.56994767635330879 0.75000000000000011 -0.13696442062093026 -0.43263838707173013 0.032694175630463722 -0.51008318227525817 1.1740259740259742 -0.58333333333333315 -0.07130854095126761 -0.1499010684606252 -0.1100006358551283 1.4577544339317194 1.1748015790070891 0.69642857142857151 0.19954364615024575 -0.16929050310065938 -0.61023870816756365 -0.17759612687039797 0.13888888888888892 -0.73073952726421709 -0.17212022102291646 -0.11504838651653053 1.5639993550197973 -0.056842459212416319 0.075000000000000025 1.0509946173648494 0.47860596191983229 -0.31590571480221002 -0.11942058146206501 -0.56468047132257226
decision_type=2 2 2 2 2 2 2 2 2 2 2 2 2 2 2 2 2 2 2 2 2 2 2 2 2 2 2 2 2 2 2 2 2 2 2 2 2 2 2 2 2 2 2 2 2 2 2 2 2 2 2 2 2 2 2 2 2 2 2 2 2
left_child=1 2 3 5 7 -1 -6 8 15 33 11 -2 13 18 -15 -3 -7 -16 -4 31 21 -14 23 24 25 -12 40 -22 30 -13 -29 32 44 -8 -5 38 -35 -27 -32 41 -18 -26 46 -39 47 -42 -25 -20 -48 -49 -41 -50 -40 56 58 -36 57 59 -52 -53 -54
right_child=10 4 12 34 6 16 9 -9 -10 -11 22 29 20 14 17 -17 26 -19 19 -21 27 -23 -24 42 39 37 -28 28 -30 -31 35 -33 -34 36 55 -37 -38 43 52 50 45 -43 -44 -45 -46 -47 48 49 51 -51 54 53 60 -55 -56 -57 -58 -59 -60 -61 -62
leaf_value=-0.030391333485383289 -0.031546812217792056 -0.038502681193800577 -0.033700038466731114 -0.083059851791375927 -0.029570911609116804 0.01488837575937311 0.073961829530712175 0.031520871525261646 -0.080796968415196943 0.013986467538055545 0.0033731449304747045 0.069687042348310607 -0.03881717207595857 0.037209047532662652 -0.06500392811460981 0.03006736328711267 0.068986415674015436 -0.0082245284748102953 -0.080072061280558465 -0.04335910414094582 -0.069613426904409373 -0.080049988813742701 0.044570120147433639 0.067873105125725974 0.067880625356474253 0.069447438584536544 0.052219076187008343 -0.085982064292447702 -0.070565629204672617 0.05718804050271175 -0.080915580772628892 -0.086307921291906897 -0.084009759217825039 0.068231855181374715 -0.079794195767547538 -0.082015885084020024 0.070868592049298282 0.067556990234673306 -0.079898089545436798 0.067656756541469174 0.067563369050327282 0.068840897327237402 0.068147238405224839 0.068225142878936246 -0.080262368263387132 0.068067590157843111 0.067706228692913345 -0.07977204388473734 0.067601308186842624 -0.079587554085820883 0.067453320270335113 0.067455539113737459 -0.079772529269747885 0.06752774079510572 0.067526389790783389 -0.079728636859929009 0.067428266893151165 0.067452125293143303 0.067456989470703624 0.067457866233033473 -0.079772543005305938
leaf_weight=6.4666126519441596 4.9213467687368384 4.6753279417753246 4.8875855952501288 4.7031038999557486 5.8763980418443706 4.5789774358272615 6.2188288867473664 6.6496748477220526 9.4323466569185257 6.2025122344493857 4.8632866293191936 6.0668731331825239 5.0336871743202192 5.0910496860742596 5.2073638439178476 5.2218987047672281 3.9837348908186003 5.8239254355430576 4.6901677697896984 4.708334118127822 6.862528219819068 7.0333301723003387 4.1505971997976294 4.0704514682292929 4.6527427285909653 3.9913319796323767 4.6022358536720267 9.2457098066806775 4.7087393105030051 4.0212428867816925 5.1940165460109631 4.9513409584760657 6.7119903713464728 4.6915861368179383 4.9133389145135862 5.6747017651796332 5.8107153624296108 6.5383955240249616 4.6833010464906613 3.8556585758924511 4.8091537803411448 5.565808832645418 4.2948218733072272 3.9102489948272705 4.9323175698518744 5.0668821036815643 4.2485742866992942 14.035518452525144 4.4292273372411719 4.9044147133827201 3.8359363973140734 3.8361715078353731 4.9124516844749371 4.0354171842336646 4.0357904434204057 4.6767677962779999 4.024935618042945 4.0275992155075064 5.7544884383678436 72.508304119110122 40.001396656036398
leaf_count=27 20 20 20 20 24 20 29 28 39 28 22 30 21 24 21 22 20 24 20 19 29 30 21 21 24 20 23 39 20 20 22 21 28 24 21 24 28 34 20 20 25 28 22 20 21 26 22 60 23 21 20 20 21 21 21 20 21 21 30 378 171
internal_value=0.000165975 -0.0411604 -0.0548687 -0.00225936 0.00966322 0.0358079 0.0383628 -0.0221525 -0.040617 0.0557774 0.0622555 0.0331455 -0.0693347 -0.0582076 -0.0122169 -0.00232428 0.0543872 -0.0350275 -0.0730902 -0.0773748 -0.077195 -0.06285 0.0650451 0.0656024 0.0613012 0.0519127 0.0641838 -0.0793247 -0.0802202 0.0647048 -0.0808723 -0.0813562 -0.0806612 0.0712792 -0.0808473 -0.080091 0.0696907 0.0682605 -0.0798916 0.0678436 0.0681567 0.0684037 0.0675192 0.067807 -0.0798743 0.0678221 0.0674926 -0.0797933 0.0674766 -0.0797243 0.0675163 0.0674661 -0.0797844 0.0674593 0.0674765 -0.0797622 0.0674561 0.0674575 0.0674555 0.0674577 -0.0797725
internal_weight=429.513 257.874 203.095 43.8008 54.7793 29.5076 28.8 25.9792 19.3296 22.9236 171.639 15.0095 159.294 65.944 16.1223 9.89723 23.041 11.0313 49.8217 44.9341 93.3499 12.067 156.63 152.479 47.0037 19.3033 18.462 81.2828 74.4203 10.0881 69.7116 40.2257 35.2744 16.7211 14.2932 60.4659 10.5023 14.44 54.7912 27.7004 13.8598 10.2186 105.476 10.4486 28.5624 9.87604 101.181 23.6301 97.1102 18.9399 17.4819 92.8617 49.5971 88.4324 13.6262 9.59011 84.397 80.3721 9.59042 76.3445 44.9138
internal_count=1999 1120 878 202 242 141 133 109 81 109 879 70 676 279 69 42 114 45 210 190 397 51 809 788 239 96 94 346 317 50 297 171 150 81 61 258 52 74 234 143 71 52 549 54 122 51 527 101 506 81 91 484 212 461 71 41 440 419 50 398 192
is_linear=0
shrinkage=0.05


Tree=10
num_leaves=63
num_cat=0
split_feature=6 18 30 0 4 30 0 18 30 4 30 5 30 30 0 13 4 30 0 0 1 7 13 12 10 5 0 6 10 5 1 8 0 6 12 4 18 8 30 6 30 0 4 30 13 6 6 19 5 10 10 5 30 13 11 19 0 18 5 13 10 12
split_gain=408.716 70.7801 84.8254 16.4868 15.5266 13.6728 12.9745 21.6789 11.2243 10.4111 8.89022 10.2625 7.99862 12.7297 4.71253 3.81424 2.6015 6.70101 2.45682 2.37956 1.26876 0.888912 0.704714 0.682431 0.956085 0.603726 1.51567 2.69127 0.295384 0.633205 1.02215 0.200865 0.146233 0.0821737 0.0109539 0.0103787 0.00605795 0.00522856 0.00455401 0.0148834 0.00365804 0.00220371 0.00155632 0.00147247 0.00078182 0.00077798 0.000667909 0.000504829 0.000498886 0.000308227 0.000302327 0.000143872 0.000131245 0.000123077 7.13906e-05 2.85175e-05 8.91494e-06 8.62641e-06 1.75708e-06 3.59904e-07 2.62914e-07 2.48995e-07
threshold=0.16436306076195276 -0.019616772847225929 -0.57107112511704261 0.30555555555555564 0.75000000000000011 -0.5967016338613369 -0.69444444444444431 0.0199125030911536 -0.54446240742396335 1.0000000180025095e-35 -0.17131651227478259 -0.053571428571428562 0.46749470775070034 -0.011046422610365319 0.30555555555555564 0.23056847838420527 -0.74999999999999989 -0.53931160392912847 0.25000000000000006 0.30555555555555564 -0.32499999999999996 0.43181818181818188 1.8227080807658547 -0.19767981073794902 -0.028184716586838601 1.0000000180025095e-35 -0.19444444444444439 1.0830377378853833 0.60388918312614959 0.089285714285714288 -1.0000000180025095e-35 -0.75349871284811598 0.25000000000000006 -0.11504838651653053 -0.27248862305570171 0.75000000000000011 -0.94094791834699909 1.1525391996255561 0.47830460249475287 1.1740259740259742 0.47788354689440876 -0.30555555555555552 -0.41666666666666657 -0.4606128044042887 -0.42034195894820442 -0.14977155808180734 -0.1495053423031262 -0.78551423491877936 0.48214285714285721 -0.17796068757792863 -0.1245408432705072 -0.62499999999999989 0.47860622699414407 0.45606072369167555 -0.17108708903899841 0.41564988675385417 -0.69444444444444431 -1.9946630267631804 -0.08928571428571426 1.5414489360812675 0.032890632776894808 -0.149727660711619
decision_type=2 2 2 2 2 2 2 2 2 2 2 2 2 2 2 2 2 2 2 2 2 2 2 2 2 2 2 2 2 2 2 2 2 2 2 2 2 2 2 2 2 2 2 2 2 2 2 2 2 2 2 2 2 2 2 2 2 2 2 2 2 2
left_child=1 3 4 16 31 -6 21 14 -9 18 11 -5 13 19 -8 -7 17 44 -10 -2 -16 43 23 24 25 26 40 -28 33 34 -31 -3 41 -18 -30 -22 -35 49 48 -40 51 -33 -38 45 -1 -4 55 -44 -27 -25 -49 -14 54 56 -51 58 -52 -56 -43 60 61 -59
right_child=12 2 6 10 5 15 7 8 9 -11 -12 -13 22 -15 20 -17 28 -19 -20 -21 35 -23 -24 37 -26 38 27 -29 29 30 -32 32 -34 36 -36 -37 42 -39 39 -41 -42 46 47 -45 -46 -47 -48 50 -50 52 53 -53 -54 -55 57 -57 -58 59 -60 -61 -62 -63
leaf_value=-0.077236423952349642 0.028374739639914666 -0.068179551800233815 0.067472378694264701 -0.048131015581134126 -0.065886583433520315 -0.013710826441942943 0.012825235297078214 -0.080532572929744278 0.0056310109204799957 -0.064549022271688891 -0.086930581835585594 0.0272935093411131 0.066316481617160541 -0.035941933295985724 0.038978419377115804 0.047567521077920852 -0.084485586536603582 -0.0067026798023028444 0.058000513105722941 0.073309036407605069 0.070924468257123341 0.042654298227440872 0.042673009923661277 0.066809178511308437 0.038082466545879996 0.067089298729631042 0.009998855530906868 0.066697528880749909 -0.080812125409052818 -0.078647270715740486 -0.045701037260259134 -0.07882810817878437 -0.087581746490154114 -0.079544372494726706 -0.077796498106252679 0.067724670930216613 -0.07841183201806623 0.068210021545052762 0.070532262940497525 0.066633214141448738 0.068429242360151951 -0.07749038356394404 -0.07798637904602182 0.06809590401389827 -0.078120729113844656 0.066608008586569067 -0.078197748341002446 -0.077922448027851726 0.066413964938129316 0.06649715478277031 -0.077415829177888473 0.066755429728202503 0.066623938766712507 -0.077742074666749886 0.066394031559377759 -0.077613168547938538 -0.077479252401373253 0.066306104978394065 -0.077450355077094413 0.066334053625744793 0.066330873839394552 0.066318822962668653
leaf_weight=4.5654597729444495 4.7871524244546908 4.626645401120185 4.4059765934944153 9.1197381615638786 9.3372270315885562 4.9205516725778562 7.8671951889991787 6.4824369996786144 4.7574123442172986 4.2684387713670722 4.8749396800994864 8.9221421033143979 3.7100823074579239 5.391573339700698 4.851550996303561 5.2476243078708649 4.9396314322948447 4.9519599974155417 4.2314643859863281 7.6620651334524155 6.8221771568059868 4.8942624628543845 3.9122604280710211 3.764806166291236 4.8394146859645835 4.9318255484104174 4.0710108280181867 4.307314395904541 5.1028063893318176 4.6178750842809677 4.802493676543234 5.0983734726905849 4.5936852246522895 4.6643130183219901 7.3469183295965212 4.0318745970726013 6.4664099812507621 3.9976027756929389 4.053729519248007 6.1769893616437912 3.8839108347892761 5.2648136764764866 7.1293146014213553 3.8970241248607644 5.5232215374708167 6.3622665405273438 4.6083525568246833 4.5984840095043102 6.1383371651172638 6.3409079462289801 6.6329812258481899 3.7572764307260531 4.1185211539268485 4.5899785459041587 4.0900178402662268 5.0422897189855567 33.645038872957244 4.0797661393880835 5.7201908230781564 4.0832949429750434 4.2684898972511283 67.899452671408653
leaf_count=20 22 20 23 38 39 20 32 28 22 18 20 38 20 24 24 22 21 20 21 37 33 25 20 20 25 26 20 23 22 20 21 22 19 20 32 21 28 21 20 33 20 23 31 20 24 34 20 20 33 34 29 20 22 20 22 22 147 22 25 22 23 366
internal_value=0.000172358 -0.0405426 -0.0122615 -0.0655874 -0.0579404 -0.0222014 0.0273056 0.0120419 -0.026614 -0.000249478 -0.0270198 -0.0108318 0.0599121 0.0282358 0.0444123 0.0179139 -0.0736534 -0.0543387 0.0302837 0.0560303 0.0602347 0.0611054 0.0636197 0.0641715 0.0591014 0.0615806 0.0552786 0.0391478 -0.0767264 -0.0716319 -0.0618513 -0.0778837 -0.0793641 -0.0782597 -0.0790325 0.0697359 -0.0778056 0.0664373 0.0674177 0.0681781 0.0671847 -0.0778972 -0.077677 0.0672631 -0.0777206 0.0669617 -0.0776673 -0.077593 0.0667148 0.0663655 -0.0775363 0.0665373 0.0663479 -0.0774968 0.0663354 -0.0775147 -0.0774688 0.0663232 -0.0774695 0.0663196 0.0663188 0.0663181
internal_weight=420.091 249.826 117.332 132.494 54.4598 19.5054 62.8721 43.3126 19.7398 13.2573 22.9168 18.0419 170.266 17.8408 23.5728 10.1682 109.577 15.0406 8.98888 12.4492 15.7056 19.5595 152.425 148.513 45.8699 41.0305 19.7296 8.37833 94.5362 21.8701 9.42037 34.9544 30.3277 72.6662 12.4497 10.8541 67.7265 102.643 21.3009 10.2307 11.3513 25.734 63.0622 14.6653 10.0887 10.7682 20.6356 56.5958 11.0702 98.6453 49.4665 7.46736 94.8805 44.868 90.7619 16.0273 40.278 84.421 10.985 80.331 76.2477 71.9792
internal_count=1999 1104 533 571 232 81 301 199 89 61 96 76 895 83 110 42 475 64 43 59 78 102 812 792 240 215 103 43 411 95 41 151 131 316 54 54 295 552 112 53 60 112 275 77 44 57 90 247 59 531 216 40 511 196 489 70 176 455 48 433 411 388
is_linear=0
shrinkage=0.05


Tree=11
num_leaves=66
num_cat=0
split_feature=6 0 0 30 18 30 6 6 6 30 18 6 30 0 30 12 6 18 6 4 5 19 9 11 8 13 30 5 9 11 10 8 4 4 30 6 18 8 12 4 4 30 4 12 6 19 30 12 1 30 8 8 0 13 10 15 19 9 15 13 10 30 30 8 12
split_gain=379.306 61.9572 52.3332 44.9598 17.3613 12.6074 11.6063 9.33287 10.3421 5.27781 11.371 5.1748 16.1717 7.29036 4.27938 4.14185 3.41259 3.19903 3.03144 2.33203 2.08684 1.11193 1.88817 0.730623 0.552495 0.401843 0.393023 0.293721 0.198297 1.16488 0.163413 0.157477 0.130025 0.0424704 0.0800524 0.0250193 0.0157834 0.0112723 0.0084482 0.0115478 0.00695247 0.00490743 0.00127757 0.0010759 0.00118726 0.000981516 0.000824034 0.000731742 0.000519875 0.000451134 0.00044926 0.000203271 0.000187349 0.000135234 0.000118279 9.84674e-05 6.27445e-05 6.0404e-05 1.89677e-05 1.76119e-05 1.51172e-05 1.30041e-05 1.4076e-06 8.3741e-07 1.22493e-07
threshold=0.20784976796057128 0.30555555555555564 -0.69444444444444431 -0.34829364479051811 -0.018269557291553887 -0.56677725585532557 -0.14880742526171883 0.004007626722308158 -0.086052451703421212 0.46749470775070034 -1.6286804204442504 -0.1273446774831816 -0.54103178080916969 -0.36111111111111105 -0.36540632889807573 0.3153555344216426 -0.13741051192574735 0.0085761770739126598 -0.13741051192574735 1.0833333333333337 0.053571428571428575 -0.78551423491877936 0.099348101880592232 -0.17338856945939968 -0.92669084952024328 -0.50769497214043835 -0.53493600569730548 -0.7321428571428571 -0.14344477953588206 -0.10569130454012753 -0.13516501658343638 1.0509946173648494 -0.74999999999999989 -0.24999999999999997 -0.59965765329495735 -0.13696442062093026 -0.89096950712316236 0.45327638661362046 -0.25858477886678549 0.25000000000000006 0.75000000000000011 -0.51008318227525817 -0.58333333333333315 -0.149727660711619 1.1114436809727668 -0.07130854095126761 0.47860624850770045 -0.1854658062893477 0.47500000000000003 0.47860600769729461 -0.75106482564942656 0.19954364615024575 1.0000000180025095e-35 0.53494538570413341 0.66522221542972881 1.0000000180025095e-35 0.48057767711453697 -0.077333180738149598 -0.49999999999999994 -0.29698352314463677 -0.17515649880142883 0.47860588620681449 0.47860447044705595 0.97605897495904526 0.73071028287131312
decision_type=2 2 2 2 2 2 2 2 2 2 2 2 2 2 2 2 2 2 2 2 2 2 2 2 2 2 2 2 2 2 2 2 2 2 2 2 2 2 2 2 2 2 2 2 2 2 2 2 2 2 2 2 2 2 2 2 2 2 2 2 2 2 2 2 2
left_child=1 2 3 5 7 -1 15 8 14 10 -2 12 18 -14 -3 -6 -15 -7 19 33 35 22 -13 -11 -25 -26 -19 -23 29 43 -12 32 -29 50 40 -8 -34 59 39 -30 -35 -37 -38 44 -27 -41 47 52 51 62 -4 -28 -40 54 -44 58 -57 -47 -52 -5 -49 63 64 -62 -45
right_child=9 4 11 37 6 17 20 -9 -10 23 30 21 13 16 -16 -17 -18 26 -20 -21 -22 27 -24 24 25 28 48 31 38 -31 -32 -33 36 34 -36 41 42 -39 46 45 -42 -43 53 49 -46 57 -48 60 -50 -51 55 -53 -54 -55 -56 56 -58 -59 -60 -61 61 -63 -64 -65 -66
leaf_value=-0.027911273818534234 -0.030729873064384763 -0.037239708185086422 -0.076056512016526245 -0.075377473128306546 -0.041781305391766797 0.014426180755738755 0.071862660691754177 0.030870374671898827 -0.076178104754936735 0.042194881447885746 0.05470818825402305 -0.034904468832853093 0.04678342282408797 -0.058264465501875695 0.028846596299998292 0.025129838910136322 -0.0047101221299743539 0.048081288323936294 -0.031150537254783089 -0.039684344098569996 0.028889530021260337 -0.06637432803374424 -0.075650029787420345 0.047041988103441096 0.052104921100933003 0.066782053604048264 0.065400978238372029 -0.08265457215488059 0.068091287269024664 0.040694836729421514 0.068013199944305769 -0.067043054054761186 -0.078670588438990149 -0.075390266155512531 -0.084469284224026359 0.066062933970965951 -0.076392194551406931 -0.078495874491784898 0.065559987635836342 0.066226778130135153 -0.077950871767225788 0.068303604797887371 -0.075461503895771484 0.065271485760819231 0.065607449577874954 0.065315605158604878 0.066044677314646263 0.065380218659495698 0.066342877021485405 0.065897024170899779 -0.075453069891234792 0.065861663407400836 0.066039063607879617 -0.075792849796667172 -0.075665816548694656 -0.075494145371582735 -0.075747492233690553 0.065570714285555609 -0.075307353095110385 -0.07551614263578442 0.065272813690546508 0.065369296043934225 0.065300483211606405 0.065247831275439247 0.065259083614885027
leaf_weight=6.3800069689750663 4.9147837907075873 4.6565474867820766 4.5041815787553778 4.6897894591093054 4.7349743992090243 4.5084794759750428 4.3299077898263958 6.584588795900344 9.2317861020565033 4.2073265910148612 3.829734578728675 4.9274908155202848 4.102802291512492 5.7367238104343423 5.1686063408851632 4.52114138007164 6.178220629692075 4.0661299079656663 4.8343596160411826 4.7102593928575507 4.2851942628622046 8.7995470613241178 6.7221112549304962 5.0194938927888861 6.8277361392974845 3.7368956208229118 4.5004159063100762 8.0387939810752851 7.4552421420812633 5.7275933474302283 5.8071853816509238 4.512372449040412 4.5854621529579083 5.5838849693536741 4.6534241139888755 4.4069033712148684 4.7485333681106487 4.5222631543874732 4.341815933585158 5.7290744334459331 5.0468539148569107 5.4852232486009562 33.757795244455352 4.480684310197832 5.0701679587364197 6.4616568684577942 4.4061946719884864 3.7778203934430996 3.7093986868858329 3.8386138528585425 4.4707991927862167 5.1169053763151169 3.8505293726921082 4.4896476268768302 8.964825361967085 5.3677160143852216 4.4866805970668793 3.6204270422458595 4.4621571153402382 4.4742071330547324 52.874482676386847 3.5957482308149329 4.6645496785640708 3.5815700292587271 3.5829916745424271
leaf_count=27 20 20 20 21 20 20 21 28 39 23 20 21 20 24 22 20 25 21 20 19 20 39 30 27 37 20 25 35 39 31 30 20 20 25 20 24 21 20 24 31 22 28 151 25 28 36 24 21 20 21 20 28 21 20 40 24 20 20 20 20 295 20 26 20 20
internal_value=0.000177185 -0.038516 -0.0515451 -0.00206006 0.00921692 0.0339412 0.0366142 -0.0204474 -0.0381788 0.059884 0.0311615 -0.0650583 -0.0542174 -0.0107009 -0.00247444 -0.00909862 -0.0304951 0.0519592 -0.0687026 -0.0728966 0.0594767 -0.0728232 -0.0584157 0.0627302 0.0633359 0.0639302 0.0616884 -0.0749779 0.0645475 0.0610619 0.0627258 -0.0760735 -0.0767045 -0.076952 -0.079 0.0686929 -0.0758586 -0.0764532 0.0656349 0.0664691 -0.0766059 0.0673054 -0.0756104 0.0656593 0.0661058 0.0657042 0.0653809 0.0653403 0.06584 0.0654219 -0.075608 0.0656461 0.0657852 -0.0755318 -0.0755044 -0.0755005 -0.0756095 0.0654072 -0.0753803 -0.0754452 0.0652832 0.0652771 0.0652786 0.0652712 0.065266
internal_weight=410.459 249.057 195.652 41.9676 53.4049 28.2813 27.7633 25.6415 19.0569 161.402 14.5517 153.685 64.1381 16.0177 9.82515 9.25612 11.9149 21.9013 48.1203 43.286 18.5072 89.5466 11.6496 146.851 142.643 137.624 17.3928 77.897 130.796 31.1015 9.63692 69.0974 64.5851 38.5757 15.2842 14.222 56.5463 13.6863 99.6946 23.2664 10.6307 9.89213 51.9608 25.3739 8.80706 15.8112 76.4282 72.022 13.3267 16.5668 23.2915 9.61732 8.19235 47.2123 42.7226 18.7874 9.8544 10.0821 8.93296 9.164 63.8296 60.0518 12.7282 56.4561 8.06368
internal_count=1999 1120 878 202 242 141 133 109 81 879 70 676 279 69 42 40 49 114 210 190 93 397 51 809 786 759 94 346 722 171 50 307 287 171 67 73 252 61 551 126 47 52 232 140 48 87 425 401 73 92 104 53 45 211 191 84 44 56 40 41 356 335 71 315 45
is_linear=0
shrinkage=0.05


Tree=12
num_leaves=65
num_cat=0
split_feature=6 0 0 30 18 30 6 18 6 30 6 6 30 4 4 12 30 6 4 19 9 30 8 12 4 6 10 13 4 30 5 4 8 6 4 13 18 4 19 13 6 11 13 1 8 10 8 19 11 10 0 10 13 8 8 5 9 11 13 13 18 6 8 8
split_gain=352.224 57.3847 48.2166 41.611 15.942 11.7632 11.064 8.48682 9.54926 5.1379 10.7333 5.00074 15.3931 7.83988 6.5818 4.54451 3.8592 2.65801 2.59568 1.08324 1.82749 0.760857 0.587134 0.55238 1.25579 6.30238 0.295517 0.188459 0.08919 0.0878029 0.0183759 0.0151806 0.00942054 0.0069284 0.00343343 0.0028107 0.00115911 0.00106334 0.00102131 0.000738353 0.000727532 0.000630359 0.000390755 0.000313348 0.000305282 0.000268914 0.000260203 0.000177336 0.00015611 0.000114837 0.00010301 7.13585e-05 5.11743e-05 5.0779e-05 4.04657e-05 3.08623e-05 2.07395e-05 0.000100003 1.4035e-05 1.11282e-05 1.62285e-06 5.84416e-07 8.07619e-07 4.51946e-07
threshold=0.20784976796057128 0.30555555555555564 -0.69444444444444431 -0.34829364479051811 -0.018269557291553887 -0.55018012452612941 -0.14009425477569518 -0.62494372325190584 -0.086052451703421212 0.46749470775070034 0.37077382451343671 -0.1273446774831816 -0.56842043534946651 -0.24999999999999997 0.41666666666666669 0.1580825427765247 -0.36540632889807573 -0.13614418822175051 1.0833333333333337 -0.78551423491877936 0.099348101880592232 0.47860638577599579 0.37127311022700688 -0.19767981073794902 0.25000000000000006 1.0516386660430983 -0.12993287662564967 0.66949542243217264 -0.74999999999999989 -0.58079971207527603 -0.053571428571428562 0.75000000000000011 0.45327638661362046 0.032694175630463722 0.75000000000000011 0.19367919401362813 0.060920430249173568 -0.58333333333333315 -0.07130854095126761 1.6811408983140936 1.1674065546641725 -0.1100006358551283 1.3076137524112108 0.47500000000000003 -0.54354083781886253 -0.17796068757792863 0.14788205008190972 0.48057767711453697 -0.17108708903899841 -0.06156940747965272 0.083333333333333343 0.46274388874951228 -0.50769497214043835 -0.87983852094547144 0.74644278024806943 0.30357142857142866 -0.14344477953588206 -0.1141803955078558 -0.29698352314463677 0.057074775899239795 -1.8058931640044948 1.3659027952656764 0.86714252281769266 -0.24468757313362974
decision_type=2 2 2 2 2 2 2 2 2 2 2 2 2 2 2 2 2 2 2 2 2 2 2 2 2 2 2 2 2 2 2 2 2 2 2 2 2 2 2 2 2 2 2 2 2 2 2 2 2 2 2 2 2 2 2 2 2 2 2 2 2 2 2 2
left_child=1 2 3 5 7 -1 15 -3 16 10 -2 12 18 -14 -15 -6 -9 43 29 20 -13 23 30 24 25 -11 -21 28 -28 31 34 36 58 37 -8 -12 -4 -30 41 45 -27 -26 -42 46 -38 -25 -7 54 -47 50 60 -49 -50 -54 -39 59 57 63 -5 -46 -40 62 -58 -55
right_child=9 4 11 32 6 17 22 8 -10 21 35 19 13 14 -16 -17 -18 -19 -20 26 -22 -23 -24 39 38 40 27 -29 33 -31 -32 -33 -34 -35 -36 -37 44 47 49 -41 42 -43 -44 -45 55 48 -48 51 52 -51 -52 -53 53 56 -56 -57 61 -59 -60 -61 -62 -63 -64 -65
leaf_value=-0.015723001184928174 -0.02052950187963749 0.029521982543747129 -0.074572183011635693 -0.073534903545947536 -0.03473917858199075 0.064530050803705594 0.067681691873709385 -0.035205224340379919 -0.073442109656033913 -0.0033934512836776448 0.068119291501756454 -0.033396412167487614 -0.056797347506611397 0.04567723876838381 -0.02430352794452767 0.028320594944121966 0.027553278926220198 0.020826358309421679 -0.034912911089627761 -0.062804092130308978 -0.07378142250051134 0.039673415582620046 0.045863491894192213 0.064802360790729638 0.064724811427609705 0.065469479938385297 -0.07934393249750879 -0.063976445864214498 -0.07444101747878018 -0.081623279581830119 0.070725998130999043 -0.076701147251117485 -0.076419407257211872 -0.075632759334923264 0.065554090139269536 0.06627019759042875 -0.074052527091561127 -0.073595884567028938 0.064344739719051094 0.065075742444411278 0.064391892753852417 0.065552502510898766 0.065052259627075656 0.065368314957762547 -0.073578542567344002 0.064604246252400396 0.065031943418036017 -0.073724613861734914 0.06449596826252009 0.064716982192654302 0.064649676029949324 -0.074006799222577038 0.064506373634711525 0.06431859035713057 -0.073757878182175482 -0.073698360121850534 0.064306027390854323 0.064606279808229292 -0.073660301145540924 -0.073479292253670295 0.064298030814363291 0.064325048675280452 0.064282119464573642 0.064297637690089296
leaf_weight=8.5785337388515455 6.0249680727720252 6.5421654731035259 4.4105346053838792 4.5699709504842749 5.5024798065423983 4.1849146485328692 3.8273244798183432 4.6787647306919125 9.100235909223553 4.5453668683767345 4.3795161843299848 4.8933785408735258 8.6446837335824984 5.6109717786312094 8.3748452961444837 5.942776545882225 5.1413587182760248 4.4385457783937481 4.4676931649446479 6.4825226217508307 6.5520454496145248 3.8243191093206397 3.9568254798650733 3.5235653370618811 4.2137187123298645 3.5908354669809333 8.7400177717208845 4.4212352037429801 4.8515812605619351 4.7900612354278556 4.2771812081336966 5.6381730735301963 4.415583908557891 5.3206422179937354 3.758172407746315 3.8721404224634171 4.3856735676527085 32.89048150181771 3.6378131508827201 3.9094572961330405 6.0728260427713376 5.065886855125429 3.5494528412818909 3.7717972099781027 8.0572304725646955 5.9466985315084449 6.7441694587469101 4.5830895155668241 4.8787589967250815 4.9175094813108435 3.5030671060085297 4.3828054815530777 3.8335574418306342 3.6342302560806266 4.366901069879531 4.3630361706018439 49.817047372460372 3.4992127120494763 4.3604664504528037 4.3484658300876609 3.8042892068624488 3.6351047009229651 3.8019245117902747 8.8188919425010663
leaf_count=38 26 28 20 21 24 24 20 20 39 21 23 21 37 27 34 27 22 20 18 29 30 21 20 20 24 20 39 20 22 21 21 25 20 24 21 21 20 151 21 22 35 28 20 21 37 34 38 21 28 28 20 20 22 21 20 20 288 20 20 20 22 21 22 51
internal_value=0.000181174 -0.0373114 -0.0500207 -0.00199514 0.00888113 0.03293 0.03545 -0.0195683 -0.0365424 0.0587989 0.0302065 -0.0631179 -0.0523881 -0.019365 0.00377206 -0.00199634 -0.0023478 0.054737 -0.0708586 -0.0708559 -0.0565152 0.0616731 0.0625421 0.0622819 0.0575706 0.0473918 -0.0730144 -0.073966 -0.0746441 -0.0753203 0.0681053 -0.0743528 -0.0745302 -0.0739157 0.0666276 0.0672516 -0.0738348 -0.0737368 0.06476 0.0644028 0.0648621 0.0651767 0.0646355 0.0649754 -0.0736811 0.0643741 0.0648398 -0.0736629 0.0643569 0.0645163 0.0644261 -0.0738626 0.0643389 0.064329 -0.0736149 -0.073584 0.0643197 0.0643701 -0.0735961 -0.0735438 0.0643209 0.0643056 0.0643043 0.0643038
internal_weight=400.667 244.367 191.64 41.064 52.7273 27.718 27.2648 25.4625 18.9204 156.3 14.2766 150.576 63.0914 22.6305 13.9858 11.4453 9.82012 19.1394 40.4609 87.4847 11.4454 142.024 15.8195 138.199 42.9008 17.7585 76.0393 69.5568 65.1355 35.9932 11.8627 31.2031 13.346 56.3955 7.5855 8.25166 25.5649 51.0749 25.1423 95.2984 13.2131 9.27961 9.62228 14.7009 21.1544 91.389 10.9291 46.2233 87.8654 15.8627 10.9452 8.96589 81.9187 77.04 37.2574 16.7687 73.2064 15.9523 8.93044 12.4057 7.4421 57.2541 53.619 12.4531
internal_count=1999 1120 878 202 242 141 133 109 81 879 70 676 279 98 61 51 42 103 181 397 51 809 82 788 239 96 346 317 297 163 62 142 61 258 41 44 117 234 143 549 75 52 55 83 97 527 62 212 507 91 63 41 473 445 171 77 423 92 41 57 43 331 310 72
is_linear=0
shrinkage=0.05


Tree=13
num_leaves=64
num_cat=0
split_feature=6 18 30 0 4 16 4 18 4 6 30 5 30 30 7 14 4 6 0 30 0 12 8 19 11 18 10 4 10 8 5 0 6 0 15 8 0 14 6 30 18 30 19 30 6 19 10 4 1 13 13 18 5 11 13 6 0 8 9 11 4 8 30
split_gain=327.631 56.7592 67.1573 14.29 14.2822 12.333 11.1119 18.9077 9.4917 20.748 8.1633 8.75431 7.27268 11.6942 4.19605 4.93321 2.61409 6.31022 2.22526 1.94899 1.39071 0.772791 1.34139 1.21598 0.440523 1.45457 0.282394 0.621453 0.249327 0.209948 0.196946 0.177371 0.100032 0.0271632 0.00908856 0.00811982 0.00640126 0.00623557 0.00614949 0.0293501 0.00369454 0.00284842 0.00246014 0.00185455 0.000959971 0.000503216 0.000324807 0.000362916 0.000205235 0.000179139 0.000138795 0.00013417 0.000100097 9.73724e-05 4.03956e-05 3.99067e-05 3.0394e-05 1.65322e-05 1.68587e-05 7.3213e-05 6.81362e-06 5.30514e-06 1.02274e-07
threshold=0.16436306076195276 -0.019616772847225929 -0.57107112511704261 0.30555555555555564 0.75000000000000011 1.0000000180025095e-35 -0.24999999999999997 0.0199125030911536 0.41666666666666669 -0.13786379825160985 -0.17131651227478259 -0.053571428571428562 0.46749470775070034 -0.011046422610365319 -0.15909090909090906 0.32608695652173919 -0.74999999999999989 -0.024491851638666042 0.30555555555555564 -0.54103178080916969 -0.19444444444444439 -0.17740173385417071 -0.84775333489351734 -0.75305033973843793 -0.1100006358551283 -1.3476098626640285 0.60388918312614959 1.0000000180025095e-35 -0.17796068757792863 -0.75349871284811598 -0.80357142857142849 0.25000000000000006 -0.11504838651653053 -0.58333333333333326 -0.099999999999999992 1.1525391996255561 -0.30555555555555552 -0.19565217391304343 1.0622441270640719 0.47802095450127369 -0.94094791834699909 -0.4606128044042887 -0.78551423491877936 0.47860631278618931 -0.1495053423031262 0.09101093495043959 -0.1245408432705072 -0.41666666666666657 0.12500000000000003 1.6500504637288218 0.45606072369167555 2.5134205623750483 -0.16071428571428567 -0.17212022102291646 -0.50769497214043835 1.1674065546641725 -0.69444444444444431 -0.87983852094547144 -0.14344477953588206 -0.11688663114944137 -0.24999999999999997 0.473086824245261 0.47860588620681449
decision_type=2 2 2 2 2 2 2 2 2 2 2 2 2 2 2 2 2 2 2 2 2 2 2 2 2 2 2 2 2 2 2 2 2 2 2 2 2 2 2 2 2 2 2 2 2 2 2 2 2 2 2 2 2 2 2 2 2 2 2 2 2 2 2
left_child=1 3 4 16 29 -6 7 -4 19 -10 11 -5 13 18 -11 -16 17 37 -2 -8 -7 22 -14 -24 38 45 32 -28 -23 -3 -21 36 -18 41 -29 43 -31 -1 39 52 -34 48 -42 49 60 -26 -44 -48 -32 53 56 55 -25 -30 -55 -40 -49 -56 59 -59 61 -38 -60
right_child=12 2 6 10 5 20 8 -9 9 14 -12 -13 21 -15 15 -17 26 -19 -20 30 -22 28 23 24 25 -27 27 34 35 31 33 -33 40 -35 -36 -37 44 -39 51 -41 42 -43 46 -45 -46 -47 47 50 -50 -51 -52 -53 -54 54 57 -57 -58 58 62 -61 -62 -63 -64
leaf_value=-0.074250674379813295 0.026413237813522103 -0.062376824830725978 0.043158021542150121 -0.043474278221042155 0.024191978339466985 -0.07396446559255429 0.027362588696200497 -0.072683541216383138 -0.088807309394790507 0.068628552858855316 -0.08211627353468981 0.02693356222136797 0.0262218558423606 -0.035917385932330674 0.052547220656108486 -0.02314286566547645 -0.079842763068799658 -0.0035936617797770591 0.070993624662874982 0.053180773704129117 -0.0365680241306287 0.050185601896991096 0.031823718234060994 0.063741289852080385 0.064355018184518845 0.02691739210060597 -0.055676898043059413 -0.075133475733337424 0.063710523643232458 -0.074125149613393712 0.063707247671778919 -0.083368783183036282 -0.073671270636377878 0.068798520833718832 -0.072302902675279709 0.065927491913873995 -0.071885332639387942 -0.071645506446826712 0.06360948137236018 0.068914730897332757 -0.073004749864250942 0.065548219388323489 -0.072453743433339948 0.064645925886128705 -0.072742693772571462 0.063586800972287263 -0.072395392521587582 -0.071816888876251248 0.064188408688485354 0.0638257342031886 -0.072219895722786684 0.063831719626717215 0.06340022972044046 0.063593003848146187 0.063536476853608415 0.063388288943976009 -0.07193865653948156 0.063413256953710875 0.063415185992556078 0.06367950562479488 -0.07184795786943575 -0.071960384215226353 0.063406137626232581
leaf_weight=4.5508346259593955 4.5882958322763461 4.3285999149084082 7.2119664996862394 8.8308506160974556 9.0328698903322238 5.3054033815860748 4.5808669328689566 6.8855309784412384 4.1161450594663647 6.3870432376861581 4.7494848221540442 8.8287018686532956 3.6869386285543433 5.2859902381896964 4.3564810752868617 4.2556665986776352 4.6806916445493689 5.1029686778783789 7.1788011491298676 3.9501209408044842 4.6783412843942624 3.5948964953422538 4.0989184230566016 4.902244806289672 3.4636631458997709 3.7774579823017147 8.4311190992593783 4.5740145444869995 3.5462407618761054 4.8075223714113262 5.738146454095844 4.4467089027166358 4.352993130683898 4.6781283468008033 7.4627305865287763 3.6465306133031836 5.293950974941259 4.6376412957906714 3.5283620953559858 3.6804974526166907 7.5332887172698966 3.600524067878724 4.2768596857786099 3.4957637190818778 4.2908868789672843 5.5433106422424316 5.1267504990100852 6.1334186494350353 3.6107619553804398 3.3906022310256949 4.259768232703208 4.069447621703147 3.8336231857538214 4.2015225142240515 3.6883287578821173 4.8312206566333771 31.158018112182631 11.007482483983038 49.204197868704803 3.3732254356145779 5.2903598845005027 4.2407830804586411 3.3345774859189978
leaf_count=21 22 20 35 38 38 23 23 31 17 32 20 38 20 24 22 20 21 21 37 22 20 21 22 29 20 21 39 21 21 22 34 19 20 24 35 21 25 22 21 19 35 20 20 20 20 33 24 29 21 20 20 24 23 25 22 29 147 66 295 20 25 20 20
internal_value=0.000185095 -0.0369319 -0.0109409 -0.0600873 -0.0525956 -0.0181402 0.0253424 -0.0134216 0.0374128 0.0106314 -0.023925 -0.00827464 0.0566627 0.0258594 0.0379198 0.0151452 -0.0680102 -0.0481762 0.0536106 0.0569833 -0.0564406 0.0604719 0.0551306 0.0576848 0.0605018 0.0529601 -0.0712317 -0.0660869 0.0630949 -0.0726338 0.0632717 -0.0741987 -0.0727912 0.065533 -0.0733785 0.063617 -0.0724942 -0.0729358 0.0643825 0.0651695 -0.072266 0.0643533 -0.0721614 0.0635181 -0.0720841 0.0638822 -0.0720367 -0.0719985 0.0638931 0.0634699 -0.0719495 0.0635963 0.0635916 0.0634545 0.0634424 0.0634816 -0.0719186 0.0634334 0.0634277 0.0634757 -0.0718935 -0.0719187 0.0634146
internal_weight=390.729 235.777 111.087 124.69 51.7154 19.0166 59.3714 14.0975 45.2739 19.1153 22.409 17.6596 154.952 17.0531 14.9992 8.61215 102.281 14.2914 11.7671 26.1585 9.98374 137.899 45.4157 41.7287 37.6298 12.7844 87.9897 20.4679 92.4834 32.6988 21.5777 28.3702 67.5218 17.6276 12.0367 88.8885 23.9235 9.18848 24.8454 12.4164 62.8411 12.9494 58.4881 85.2419 19.116 9.00697 50.9548 46.678 9.34891 81.7462 41.5512 12.429 8.73587 78.3556 74.8093 8.35958 37.2914 70.6078 66.9195 14.3807 14.8251 9.53473 52.5388
internal_count=1999 1104 533 571 232 81 301 66 235 91 96 76 895 83 74 42 475 64 59 144 43 812 261 241 219 74 411 95 551 151 121 131 316 99 56 530 112 43 145 71 295 75 275 509 90 53 240 220 55 489 196 74 52 469 448 50 176 423 401 86 70 45 315
is_linear=0
shrinkage=0.05


Tree=14
num_leaves=64
num_cat=0
split_feature=6 0 0 30 18 30 6 6 6 30 6 6 30 4 4 12 30 18 4 19 9 13 11 12 4 30 1 5 8 4 30 4 18 18 8 6 6 13 19 4 18 10 8 12 30 12 13 10 11 8 19 8 13 10 9 5 18 9 11 13 8 18 0
split_gain=304.913 50.5308 41.8852 36.1873 13.9462 10.3302 9.87986 7.71578 8.46019 4.93186 10.1174 4.52913 13.6977 6.73388 5.5811 3.98137 3.51661 2.8895 2.61007 1.08088 1.78414 0.80768 0.606683 0.575134 1.30429 6.26225 0.397842 0.3048 0.158339 0.104446 0.0887956 0.0194092 0.0146529 0.0119667 0.00738619 0.00363308 0.00303216 0.00245701 0.00135493 0.000805309 0.000704124 0.000498286 0.000377786 0.000253557 0.000220106 0.000180033 0.00017809 0.000144659 0.000128805 0.000128522 0.000108668 4.98457e-05 3.57868e-05 3.26179e-05 1.97087e-05 1.90049e-05 1.50895e-05 1.30526e-05 6.87459e-05 1.20036e-05 1.62027e-06 5.12042e-07 2.91535e-07
threshold=0.20784976796057128 0.30555555555555564 -0.69444444444444431 -0.34829364479051811 -0.018269557291553887 -0.56677725585532557 -0.14009425477569518 0.004007626722308158 -0.086052451703421212 0.46749470775070034 0.37077382451343671 -0.1273446774831816 -0.56842043534946651 -0.24999999999999997 0.41666666666666669 0.1580825427765247 -0.36540632889807573 0.0085761770739126598 1.0833333333333337 -0.78551423491877936 0.099348101880592232 1.8227080807658547 2.4135453246806811 -0.19767981073794902 0.25000000000000006 0.47859606708319546 0.47500000000000003 -0.7321428571428571 1.0509946173648494 -0.74999999999999989 -0.58079971207527603 0.75000000000000011 0.0085761770739126598 -0.89096950712316236 0.45327638661362046 -0.1499010684606252 1.1740259740259742 0.19367919401362813 -0.623194759017072 -0.58333333333333315 0.060920430249173568 -0.17796068757792863 -0.54354083781886253 -0.34059309445025182 0.47860624850770045 -0.29958107693879626 0.53494538570413341 0.65063081497016373 -0.17108708903899841 0.19954364615024575 1.0000000180025095e-35 -0.87983852094547144 -0.50769497214043835 -0.068847473793826539 -0.11337114195929592 0.30357142857142866 -0.3579650308168813 -0.14344477953588206 -0.1141803955078558 0.057074775899239795 1.0188860285513692 2.476158551640117 0.30555555555555564
decision_type=2 2 2 2 2 2 2 2 2 2 2 2 2 2 2 2 2 2 2 2 2 2 2 2 2 2 2 2 2 2 2 2 2 2 2 2 2 2 2 2 2 2 2 2 2 2 2 2 2 2 2 2 2 2 2 2 2 2 2 2 2 2 2
left_child=1 2 3 5 7 -1 15 8 16 10 -2 12 18 -14 -15 -6 -3 -7 30 20 -13 23 32 24 25 -11 35 -21 29 -29 31 40 -8 -31 56 -19 -27 -12 -26 -35 -4 -25 -42 -40 48 -38 47 -41 -43 -37 -45 -50 -53 54 -52 59 -5 58 62 -44 61 -59 -54
right_child=9 4 11 34 6 17 22 -9 -10 21 37 19 13 14 -16 -17 -18 26 -20 27 -22 -23 -24 41 38 36 -28 28 -30 33 -32 -33 -34 39 -36 49 45 -39 43 46 42 44 55 50 -46 -47 -48 -49 51 -51 53 52 57 -55 -56 -57 -58 60 -60 -61 -62 -63 -64
leaf_value=-0.024523298165250198 -0.020530967789345499 -0.033683377251622078 -0.071202763743683048 -0.070358734234610906 -0.031958490728971022 0.013160547944714425 0.06527697568191114 0.028951963632121158 -0.069908434758982355 -0.0052724349294364821 0.066589873120363172 -0.029945210271095275 -0.053405295126622399 0.043018450762600094 -0.022305838788025854 0.027432850311828974 0.026426061540636182 0.064833239765761316 -0.03153984890168942 -0.060684004235205882 -0.070614578009437198 0.036077449852645195 0.044048456793797708 0.063264043665714989 0.06397842296888305 0.064697611155735218 0.045260427656719303 -0.077089243901562576 -0.061546005307473763 -0.073331022612806107 -0.078682574682497675 -0.073923908900858301 0.069062435940795169 -0.071214201929386142 -0.072991035496976095 0.062712796059980327 0.063238551735945864 0.06481686723752772 0.063270386649299751 -0.070419951733692601 -0.070912908068491889 0.062866745101713681 -0.070382076029753785 0.063025633078443014 0.063055009704506476 0.062771657367985775 -0.070815329643589706 -0.070651077809681037 0.062790855732343442 0.06310607299511399 0.062778661854219792 0.062749324015106328 0.062596802841235283 0.06287456524982421 0.062615742422305928 -0.070469738219048103 -0.07049246799794362 0.062590458672988722 0.062846319257929939 -0.07027599859871736 0.062555612660094365 0.062606474649943428 0.062580475501788621
leaf_weight=6.2760725170373908 5.9886087328195554 4.666939169168475 4.1733935922384324 4.3181948810815802 5.4659381210804003 4.4231021702289643 6.9416135996580106 6.4699182510375968 8.8281218260526657 4.5473297983408001 4.177801713347435 4.7732797563076002 8.4053445011377352 5.3979684561491004 8.293134391307829 5.8332147896289825 5.0837025642395028 3.510312259197236 4.4561735391616812 8.1879853159189206 6.1987338960170746 3.4976541548967353 4.0580656230449668 3.4773980230092993 3.5822389572858837 3.4379937350749961 4.0102891325950614 7.543912023305885 4.1997028291225424 4.2709790915250698 4.6042818725109091 5.4149105399847022 4.0466366410255432 4.3919725865125576 4.1948570609092704 4.0401792675256694 3.3038127571344376 3.6709717661142349 4.1382258683443114 30.676258936524412 4.1579910069704118 5.6946396231651297 7.6119387894868797 4.9143812954425785 3.2808789610862723 5.5049733370542508 4.1500988453626624 8.6871848851442319 4.0530161112546912 4.2761148065328598 3.2417523562908199 4.3712078332900992 4.3399916738271695 3.2559795230627016 4.3435624986886978 4.1218546479940406 4.1233729422092429 44.029671147465713 3.2523547112941662 4.1051703542470932 3.208496466279029 5.628373220562934 7.3883283138275146
leaf_count=27 26 20 20 21 24 20 39 28 39 22 23 21 37 27 34 27 22 20 18 39 30 20 22 21 21 20 23 35 20 20 21 25 21 21 20 25 20 21 25 149 20 35 37 30 20 34 20 42 25 26 20 27 27 20 27 20 20 274 20 20 20 35 46
internal_value=0.000187279 -0.0351679 -0.0474711 -0.00163543 0.0086389 0.0315274 0.0340358 -0.0180728 -0.0344488 0.0568188 0.0284149 -0.0599552 -0.0495783 -0.0181777 0.00344946 -0.00129757 -0.00234405 0.0488906 -0.0675323 -0.0675421 -0.0529217 0.0597853 0.0605696 0.0604281 0.0554725 0.0448335 0.0588696 -0.0697667 -0.0709302 -0.0715901 -0.0722234 -0.0712182 0.066671 -0.070795 -0.0712762 0.0634844 0.0634383 0.0657606 0.0630833 -0.0705689 -0.070612 0.0626774 -0.0704887 0.0629221 0.0626534 0.0629468 -0.0705038 -0.070471 0.0626374 0.062915 0.0628306 0.0626202 0.0626107 0.0627422 0.0626854 -0.0703774 -0.0704241 0.0626017 0.0626429 -0.0703449 0.06259 0.0625923 0.0625865
internal_weight=380.719 234.389 182.995 39.1725 51.3942 26.5361 26.3455 25.0487 18.5788 146.33 13.8374 143.822 60.7422 22.0964 13.6911 11.2992 9.75064 20.26 38.6457 83.0801 10.972 132.492 15.0463 128.995 40.2703 16.7941 15.8369 72.1081 63.9201 59.7204 34.1895 29.5853 10.9883 52.1765 12.6364 11.8266 12.2468 7.84877 23.4761 47.9055 24.1703 88.7244 19.997 19.8939 85.247 8.80879 43.5135 39.3634 81.9661 8.31629 15.7557 76.2714 72.2184 10.8413 7.58531 15.839 8.44157 67.8472 14.9807 11.7171 52.8665 49.658 11.7283
internal_count=1999 1120 878 202 242 141 133 109 81 879 70 676 279 98 61 51 42 114 181 397 51 809 82 789 239 96 94 346 307 287 163 142 60 252 61 71 74 44 143 232 117 550 97 122 529 54 211 191 509 51 97 474 449 67 47 77 41 422 93 57 329 309 73
is_linear=0
shrinkage=0.05


Tree=15
num_leaves=64
num_cat=0
split_feature=6 0 0 30 18 4 6 4 19 30 18 6 30 4 5 11 12 6 4 19 9 6 8 12 4 6 10 13 19 30 4 4 5 8 6 4 6 6 19 6 4 13 18 10 13 8 1 19 12 11 19 10 8 10 13 30 9 5 18 9 11 13 8
split_gain=283.935 47.0345 38.8195 33.6207 12.8149 10.0146 9.35366 8.14054 7.4659 4.84433 9.68377 4.4055 12.9861 6.16966 5.30301 3.76909 3.59637 3.55058 2.60203 1.06721 1.74231 0.82698 0.616845 0.584831 1.29354 6.11167 0.31697 0.197084 0.179232 0.0739774 0.0713513 0.0157975 0.011864 0.00624732 0.00538299 0.00262938 0.00166044 0.0028127 0.00111996 0.00095104 0.000755905 0.000620425 0.000572854 0.000408119 0.000331556 0.000305456 0.000257647 0.000211091 0.00021013 9.52858e-05 9.01182e-05 6.34668e-05 4.98943e-05 2.70105e-05 2.69277e-05 2.54636e-05 1.63257e-05 1.53652e-05 1.22264e-05 1.04442e-05 4.95101e-05 9.68926e-06 1.35994e-06
threshold=0.20784976796057128 0.30555555555555564 -0.69444444444444431 -0.34829364479051811 -0.018269557291553887 -1.0000000180025095e-35 -0.14009425477569518 0.91666666666666685 -0.7205864445580964 0.46749470775070034 -1.6286804204442504 -0.1273446774831816 -0.56842043534946651 -0.24999999999999997 -0.16071428571428567 0.13275590159924386 0.1580825427765247 -0.084217721336834889 1.0833333333333337 -0.78551423491877936 0.099348101880592232 1.5045580458322843 0.37127311022700688 -0.19767981073794902 0.25000000000000006 1.0516386660430983 -0.12993287662564967 0.66949542243217264 0.058547039770098196 -0.58079971207527603 -0.74999999999999989 0.75000000000000011 -0.053571428571428562 0.45327638661362046 0.032694175630463722 0.75000000000000011 -0.15039752491276034 -0.14229593121559878 -0.623194759017072 1.1674065546641725 -0.58333333333333315 1.6811408983140936 0.060920430249173568 -0.17796068757792863 1.1748015790070891 -0.54354083781886253 0.37500000000000006 0.5779693626555612 -0.34059309445025182 -0.17108708903899841 1.0000000180025095e-35 0.65063081497016373 -0.87983852094547144 -0.068847473793826539 -0.50769497214043835 0.47860617217725648 -0.11337114195929592 0.30357142857142866 -0.3579650308168813 -0.14344477953588206 -0.11688663114944137 0.057074775899239795 0.97605897495904526
decision_type=2 2 2 2 2 2 2 2 2 2 2 2 2 2 2 2 2 2 2 2 2 2 2 2 2 2 2 2 2 2 2 2 2 2 2 2 2 2 2 2 2 2 2 2 2 2 2 2 2 2 2 2 2 2 2 2 2 2 2 2 2 2 2
left_child=1 2 3 5 8 -1 16 36 -3 10 -2 12 18 -14 -15 -10 -6 -17 29 20 -13 23 32 24 25 -11 -21 30 -12 31 -28 42 35 58 40 -8 -7 46 -26 -27 -32 43 -4 -25 -41 -44 -38 51 -40 -45 -50 -42 -51 56 -54 59 -52 61 -5 60 -56 -47 -61
right_child=9 4 11 33 6 7 22 -9 15 21 28 19 13 14 -16 17 -18 -19 -20 26 -22 -23 -24 41 38 39 27 -29 -30 -31 34 -33 -34 -35 -36 -37 37 -39 48 44 47 -43 45 49 -46 57 -48 -49 50 52 53 -53 54 -55 55 -57 -58 -59 -60 62 -62 -63 -64
leaf_value=-0.032233622415403611 -0.028722002148914356 0.030341394418751683 -0.069748073554233667 -0.068975553815863663 -0.030264313257571403 0.063894390414594868 0.065082251616656706 -0.011250893200124269 -1.3953261511889126e-05 -0.0061982687390316604 0.065001685574951187 -0.028666395601024703 -0.051415123987738565 -0.037832901117330113 0.027043268656086389 -0.023506981390585543 0.026216894334500054 -0.076334548046294623 -0.029990361231127711 -0.05731683049385361 -0.069209566032217493 0.034964523677049643 0.041706075535787125 0.062452437896699409 0.06311254080975208 0.063207445502006465 -0.074371113900653221 -0.058682101546530557 0.050309341471270252 -0.076663263254245467 -0.069789322319159783 -0.072237328242288942 0.06755556602027811 -0.071431132646648576 -0.070910809414588868 0.06313641156238585 0.06202854809045194 0.063919477153340828 0.062457330092089917 0.061969594783229082 -0.069020183209568139 0.062606937225773165 -0.069481482179660353 0.062079832930232975 0.062610474214833692 -0.068996864153579182 0.062587094010021257 -0.06935564449697694 0.062230372285016627 0.062038477065108004 0.062001168601414872 -0.069181626311919472 0.061973891302453177 0.062090093447708418 0.061821499232812195 0.061982890173611541 0.061850051299881352 -0.069076928080085934 -0.069097788416269179 0.061828129506647213 0.062049659003584105 -0.068900086023000684 0.061793865386295825
