tree
version=v4
num_class=1
num_tree_per_iteration=1
label_index=0
max_feature_idx=31
objective=binary sigmoid:1
feature_names=Column_0 Column_1 Column_2 Column_3 Column_4 Column_5 Column_6 Column_7 Column_8 Column_9 Column_10 Column_11 Column_12 Column_13 Column_14 Column_15 Column_16 Column_17 Column_18 Column_19 Column_20 Column_21 Column_22 Column_23 Column_24 Column_25 Column_26 Column_27 Column_28 Column_29 Column_30 Column_31
feature_infos=[-0.97706537832924534:1.006122413549368] [-0.75:0.75] [0:1] [-1.0193918456795643:0.98561197737584616] [-0.97235796687593379:0.98630938619064845] [-0.98315926506404416:1.0228519493789299] [-0.5:0.5] [0:1] [0:1] [-1:0] [-1:1] [-1:0.66666666666666663] [-0.97706537832924534:1.006122413549368] [0:1] [-0.75:0.75] [-1:0.66666666666666663] [-0.58815944512122764:2099.9383545399942] [-0.59167426814784829:1062.4239126176603] [-0.59665085275188789:1801.3510721865121] [-0.81477140412701488:2.0363993158371625] [-0.86674485053378414:2.3558657904739047] [-1.0039058141529218:0.99396014683515321] none none none [-0.55432687994882246:0.63927865562548269] [-291.58124281768073:7.3034671994451213e-07] none none none none none
tree_sizes=20082

Tree=0
num_leaves=194
num_cat=0
split_feature=7 7 6 6 10 10 6 6 11 11 8 8 9 9 10 10 5 5 0 1 1 20 21 0 10 10 10 10 11 4 4 19 2 10 10 5 26 11 25 20 25 19 3 5 5 2 20 11 10 10 5 20 20 20 10 10 6 17 10 16 21 21 0 19 3 16 10 9 0 0 20 4 9 21 20 17 10 5 16 16 18 11 20 1 0 16 16 16 21 21 4 16 4 16 17 18 17 26 4 17 5 17 16 16 17 18 21 16 1 21 6 20 21 17 8 0 11 1 17 3 2 26 2 1 16 20 17 5 4 26 11 3 17 5 5 21 10 19 3 11 21 20 4 1 18 9 16 4 25 19 8 16 0 3 4 16 5 19 21 20 4 26 18 11 1 16 17 3 21 16 19 0 4 19 19 0 18 25 5 16 8 16 26 17 4 18 4 4 18 5 21 17 3
split_gain=298.782 1267.34 117.605 539.494 97.245 271.529 83.0373 518.397 81.2166 119.05 53.3012 345.174 44.5094 104.788 39.4656 66.8026 38.1932 35.0938 32.8208 31.3558 80.6293 31.3485 37.8038 26.3656 26.1868 64.7297 25.5268 72.4625 31.9678 23.7985 22.8941 23.8235 22.4455 22.1832 56.6861 21.2342 21.945 19.7845 19.4977 18.8086 18.1594 17.5369 16.1795 15.937 15.9546 21.8442 15.6377 15.3536 14.8489 38.0078 22.1335 15.7917 15.7246 17.658 13.7711 45.0387 13.4113 13.5273 13.0157 13.1512 12.9275 17.181 14.0435 13.5434 12.7749 12.5172 11.7187 11.7005 11.5484 11.0696 10.5256 10.3765 10.3035 11.3341 15.1417 10.1418 10.0169 9.95069 9.79905 9.77459 15.1697 9.70585 9.67274 11.8898 12.1559 16.8634 9.33565 10.3129 9.15465 28.8656 10.9412 11.5313 8.88889 8.78056 28.1442 8.72308 8.63171 8.61539 8.78931 8.32338 8.31803 8.23728 14.2644 8.2289 7.8125 7.36191 7.16598 7.11464 7.0127 9.14396 9.07267 7.00541 7 6.99568 7.64909 6.79641 6.60498 6.54675 6.52901 6.37769 6.0494 6.03429 5.64548 5.64284 5.6279 5.47389 5.28174 5.21185 5.16212 5.00108 4.93566 4.68866 4.63965 4.59403 4.45324 4.43612 4.32343 4.26714 4.1011 3.99802 4.78735 3.82476 3.82003 3.79457 4.19048 3.78151 3.62195 4.88897 3.47656 3.40734 5.78454 3.4 3.36645 3.29305 3.26723 3.09074 5.74089 2.78797 2.77561 2.53696 2.45455 2.36516 2.13295 2.04978 3.11814 2.22414 2.03664 1.96143 1.92471 1.91631 1.65606 1.6035 1.59645 1.52428 1.49434 1.45538 1.42857 1.41818 1.92 1.35652 1.30612 1.13508 0.814392 1.06554 0.494009 0.468864 0.460317 0.437838 0.435616 0.432247 0.428571 0.411429 0.409524
threshold=1.0000000180025095e-35 0.99977195935954721 -0.49992845103897848 -1.0000000180025095e-35 0.99985870033256374 0.50054179570676782 0.49926974184465955 1.0000000180025095e-35 -0.9997756215072392 -0.66857972533409205 0.99977860928139617 1.0000000180025095e-35 -0.9972409581016316 -1.0000000180025095e-35 -1.0000000180025095e-35 -0.49855937416719265 0.27901322388442767 -0.79831132656045056 0.44121099085039345 0.25004709988914553 0.49983171613042959 0.20264374829129073 0.50234923018790634 0.7088210274127188 0.49912664392261658 1.0000000180025095e-35 -0.99988930464069792 -0.50113908451359512 -0.66857972533409205 -0.10563789705414083 0.21587599104884767 0.016233777627426109 0.99977860928139617 0.013679040620939999 0.49912664392261658 -0.80776308849352774 -3.3808349457626565e-06 -0.66627047037523079 0.53122804481336616 0.86762304478314445 0.50748625846042505 0.16030184286402627 -0.37173153490021343 0.15911196029621988 -0.24668863786121611 0.99977860928139617 -0.50568708449192179 0.62607018312434992 -0.50113908451359512 -0.9569992953916715 0.14566452577360345 -0.53918850408076424 0.2965552021962275 0.20264374829129073 0.99985870033256374 0.55281849503751301 1.0000000180025095e-35 -0.048132857860490617 -0.90525380825226454 -0.36531895332747633 -0.68259451638753521 -0.19062357652441511 -0.16060435458709785 -0.15656236585190544 -0.11405443910322875 -0.47198239209019838 -1.0000000180025095e-35 -0.92478482203745715 0.16455865101548348 0.28583035512776334 -0.37375267057269312 0.69285803171308713 -1.0000000180025095e-35 -0.15310111241326579 0.1508123453826509 -0.24731858228785192 0.0494678256674096 -0.46026412460916927 0.998724205165476 0.039052358005938231 0.10225588799277698 0.37171807522435818 -0.46829052391526133 -0.2212173081891225 -0.050770943956826117 -0.029031253687317793 0.37181930781272349 2.1432596061534617 -0.41865760366240301 -0.26909357292574726 0.55065388261923631 0.067338071234331567 0.035793876648032512 -0.40407435058112556 0.15194367860398716 0.20513444454179472 -0.11770095863430612 -9.9349057680213146 -0.15279465297579933 4.2943863574630621 0.093000684027824895 1.0000000180025095e-35 0.38438556502831417 7.0226674845818051 0.15194367860398716 -0.45456974665515321 -0.50504373507024491 1.0819445599146762 -0.084389217671438671 -0.62721351792171987 0.10246645514932241 0.9490621270012739 -0.016258378953641631 -0.29738899139093222 0.89749765702865114 0.93094911546674564 -1.0000000180025095e-35 -1.0000000180025095e-35 0.16096841358547651 -0.37173153490021343 0.70139110829193596 -0.0011870415021472207 0.99977860928139617 0.6056042492062047 1.1177076725066717 1.2206085338774535 0.10903309875349489 -0.60544706427349027 -0.32561326229587634 -18.233341093631577 -1.0000000180025095e-35 0.85883190921288188 -0.23234328549187336 0.743383035000171 -0.21433507527066262 0.28725527777085164 0.53018001672122805 0.36150440024508584 0.70783034199121486 0.66661896735931914 -0.83180911516357559 0.56717876204572559 0.47680171726297399 0.3895541074558182 0.13175755028557115 -0.91513314148556624 0.046779212390701076 0.30559729575169142 0.089765054030110952 -0.28502782705478991 0.99977860928139617 -0.46383554840971436 0.79310821261841347 -0.53301755945318074 -0.11534989550292994 0.039052358005938231 0.57302454081299381 -0.6052699182108906 0.51293900826759919 0.76249608247147727 0.59584445200230929 -8.2115916590514697 -0.013255554391883391 -0.33440586858279925 0.49983171613042959 0.23415018920289929 -0.49278890386686874 -0.54196127439246289 0.58374682268084299 -0.4554092063802167 0.71372613975085752 -0.25957754219702817 -0.55134622823132551 -0.49914072046811764 0.33395821328783476 0.89516190183150324 1.0329746613681174 -1.0000000180025095e-35 -0.86154383524314082 0.29311936516008336 0.99977860928139617 -0.39896316717275321 -59.708900938078834 1.9082022919783679 0.70027893369767458 -0.5016586623976157 -0.4819277863651828 -0.0544978907985268 0.73397929422200303 -0.78977360836973021 -0.038036747664540106 -0.30189809975251808 0.41182236727596611
decision_type=2 2 2 2 2 2 2 2 2 2 2 2 2 2 2 2 2 2 2 2 2 2 2 2 2 2 2 2 2 2 2 2 2 2 2 2 2 2 2 2 2 2 2 2 2 2 2 2 2 2 2 2 2 2 2 2 2 2 2 2 2 2 2 2 2 2 2 2 2 2 2 2 2 2 2 2 2 2 2 2 2 2 2 2 2 2 2 2 2 2 2 2 2 2 2 2 2 2 2 2 2 2 2 2 2 2 2 2 2 2 2 2 2 2 2 2 2 2 2 2 2 2 2 2 2 2 2 2 2 2 2 2 2 2 2 2 2 2 2 2 2 2 2 2 2 2 2 2 2 2 2 2 2 2 2 2 2 2 2 2 2 2 2 2 2 2 2 2 2 2 2 2 2 2 2 2 2 2 2 2 2 2 2 2 2 2 2 2 2 2 2 2 2
left_child=4 -2 14 -4 5 8 7 23 77 -10 11 17 40 -14 15 26 82 177 29 35 -21 22 24 38 25 -19 101 -28 -29 81 56 96 -20 103 -35 42 58 115 48 47 118 -26 -12 44 72 67 -42 76 49 50 121 146 53 -53 55 60 122 128 117 65 191 62 78 -64 -54 -60 -61 104 111 -44 153 145 73 74 137 -52 100 138 180 80 134 116 171 120 154 -86 133 107 167 -90 131 -92 -69 94 151 -65 -32 98 -95 105 -39 102 113 106 -46 148 -23 -88 186 -110 -111 -48 -70 166 -115 152 -18 162 124 -36 188 -5 187 170 139 155 -31 -120 -58 -81 -124 149 -122 -40 -72 -47 -34 -6 185 140 -8 -142 176 144 -75 -33 147 -50 -45 150 -91 -63 -25 -30 -85 156 169 -157 160 -160 -99 -151 -37 164 165 -107 -3 -79 184 -56 189 -15 -169 -171 -131 -24 -103 178 -11 -98 -62 -78 183 -129 -165 -1 -38 -22 -84 -74 -148 -16 -128
right_child=1 2 3 6 43 -7 12 -9 9 10 19 -13 13 16 54 -17 18 21 32 20 30 33 175 37 41 -27 27 28 70 126 31 71 136 34 119 36 108 39 86 -41 46 -43 69 99 45 135 68 -49 51 -51 75 52 64 -55 125 -57 57 -59 59 66 61 93 63 95 -66 -67 -68 92 112 -71 79 -73 123 143 -76 -77 181 88 -80 129 -82 -83 83 84 85 -87 87 -89 89 90 91 -93 -94 97 -96 -97 179 158 -100 -101 -102 142 -104 -105 -106 163 -108 -109 109 110 -112 -113 -114 114 -116 -117 -118 -119 127 -121 132 -123 130 -125 -126 -127 192 182 -130 174 -132 -133 -134 -135 -136 -137 -138 -139 -140 -141 141 -143 -144 -145 -146 -147 190 -149 -150 161 -152 -153 -154 -155 -156 157 -158 -159 159 -161 -162 -163 -164 168 -166 -167 -168 172 -170 173 -172 -173 -174 -175 -176 -177 -178 -179 -180 -181 -182 -183 -184 -185 -186 -187 -188 -189 -190 -191 -192 -193 -194
leaf_value=-0.080952380952380817 0.10000000000000001 -0.058620689655172378 0.10000000000000001 -0.042857142857142851 -0.070370370370370389 0.10000000000000001 -0.031707317073170732 0.10000000000000001 0.10000000000000001 -0.051999999999999991 -0.083333333333333273 0.10000000000000001 0.10000000000000001 -0.063636363636363616 -0.080952380952380956 0.10000000000000001 0.00714285714285714 -0.0067357512953367879 -0.036842105263157877 0.10000000000000001 -0.10000000000000001 -0.023404255319148939 -0.10000000000000001 -0.044827586206896558 -0.015625 0.10000000000000001 0.10000000000000001 0.044262295081967218 -0.047826086956521741 -0.03999999999999998 -0.0058823529411764705 0.014285714285714284 0.041666666666666657 0.10000000000000001 -0.019999999999999997 -0.092857142857142805 -0.080952380952380887 0.040350877192982443 -0.099999999999999992 -0.05897435897435898 0.028000000000000004 -0.084810126582278489 -0.026315789473684199 -0.068000000000000019 0 -0.044186046511627913 -0.099999999999999978 -0.046666666666666669 -0.040983606557377025 0.10000000000000001 -0.07647058823529404 -0.031606217616580314 -0.030097087378640777 0.031428571428571431 -0.051999999999999949 0.10000000000000001 0.044444444444444432 -0.069999999999999993 -0.031034482758620682 -0.015294117647058826 -0.10000000000000003 -0.099999999999999978 0.053846153846153835 -0.058974358974358966 -0.086086956521739144 0.044827586206896558 -0.05643564356435643 0.062962962962962929 0.02222222222222222 0.053333333333333337 -0.014285714285714308 -0.020000000000000004 -0.081818181818181679 -0.099999999999999964 0.073913043478260873 0.020000000000000004 0.086046511627906982 -0.053846153846153814 0.0090909090909090922 -0.023076923076923078 0.039130434782608699 0.059999999999999998 -0.099999999999999978 -0.088235294117647023 -0.035999999999999997 0.05609756097560973 -0.06129032258064513 -0.10000000000000001 0.031034482758620693 -0.022580645161290339 0.020000000000000004 -0.082608695652173894 -0.011111111111111112 0.0025641025641025637 0.057575757575757586 0.033333333333333326 -0.10000000000000003 -0.099999999999999978 -0.077142857142857166 -0.011111111111111112 -0.038461538461538464 -0.099999999999999978 0.029411764705882356 -0.010000000000000002 -0.083333333333333315 -0.099999999999999964 -0.071906354515050161 0.01282051282051282 -0.10000000000000001 -0.068750000000000006 -0.018987341772151903 -0.020000000000000004 -0.055555555555555573 -0.069230769230769221 0.018518518518518514 0 -0.059999999999999977 -0.014285714285714285 -0.04736842105263158 -0.072222222222222215 -0.024999999999999991 -0.099999999999999978 -0.021951219512195114 -0.035483870967741936 -0.0076923076923076927 -0.023076923076923078 -0.10000000000000001 -0.063636363636363588 -0.023076923076923071 -0.10000000000000003 -0.076000000000000012 -0.020000000000000004 -0.075510204081632656 -0.040000000000000008 -0.076470588235293901 -0.10000000000000001 0.089090909090909096 0 -0.040000000000000008 -0.025000000000000001 -0.082417582417582416 -0.04716981132075472 -0.045945945945945948 -0.031428571428571431 -0.042857142857142858 0.064705882352941155 -0.10000000000000001 -0.10000000000000001 -0.0076923076923076919 -0.063636363636363671 -0.099999999999999978 -0.03999999999999998 -0.099999999999999992 -0.10000000000000007 -0.042857142857142858 -0.05999999999999997 -0.022580645161290325 -0.10000000000000001 -0.086206896551724158 -0.039393939393939391 -0.063636363636363644 -0.099999999999999936 -0.063157894736842107 -0.099999999999999992 -0.035999999999999997 -0.058620689655172413 -0.099999999999999978 -0.063636363636363616 -0.068421052631578952 -0.06363636363636356 -0.059999999999999998 -0.10000000000000003 -0.10000000000000003 -0.10000000000000005 -0.059999999999999991 -0.065217391304347824 -0.066666666666666666 -0.10000000000000001 -0.099999999999999936 -0.059999999999999991 -0.0619047619047619 0.057575757575757586 -0.10000000000000001 -0.099999999999999978 -0.080952380952380956 -0.10000000000000001 -0.10000000000000001 -0.079999999999999932 -0.080000000000000016 -0.099999999999999978 -0.080000000000000016 -0.10000000000000001 -0.080000000000000016
leaf_weight=3.9375000000000062 335.625 5.4375000000000027 114.375 10.5 5.0624999999999982 49.875 7.6874999999999991 94.875 22.125 4.6875 4.5000000000000027 64.875 16.5 4.1250000000000009 3.9374999999999991 11.249999999999998 10.500000000000004 144.75 7.1250000000000027 14.249999999999998 10.124999999999998 8.8124999999999982 9.9374999999999982 5.4374999999999982 24 15.749999999999998 12.749999999999998 11.437499999999998 4.3124999999999991 7.5000000000000027 6.3749999999999991 5.2500000000000009 9.0000000000000018 8.6249999999999982 10.3125 10.500000000000005 3.9375000000000027 10.687500000000002 21.375000000000004 7.3124999999999991 9.3749999999999982 14.812499999999998 7.1250000000000027 4.6874999999999982 7.4999999999999982 8.0624999999999982 10.125000000000002 5.6249999999999991 11.437500000000005 6.7499999999999991 3.1875000000000027 72.375 19.3125 13.124999999999998 4.6875000000000044 5.2499999999999991 6.7500000000000009 7.4999999999999991 10.875000000000002 31.875 5.2499999999999982 6.3750000000000009 9.75 7.3125 21.5625 10.874999999999998 37.875 10.125000000000005 6.75 11.249999999999998 5.2499999999999911 7.4999999999999991 4.1250000000000062 8.2500000000000018 4.3124999999999991 18.75 8.0624999999999982 4.8750000000000027 4.1249999999999991 4.8749999999999991 8.6249999999999982 5.6249999999999991 9.9375000000000018 6.3750000000000027 14.062499999999998 7.6875000000000027 5.8125000000000018 5.8124999999999991 10.874999999999998 5.8124999999999947 7.4999999999999982 4.3125 6.7499999999999991 7.3125 6.1874999999999991 3.9375 4.8749999999999982 18.562500000000004 6.5624999999999982 5.0624999999999991 4.8749999999999991 11.250000000000002 6.3749999999999991 7.4999999999999991 4.5 8.0625000000000018 56.0625 7.3125 11.812499999999998 24 14.812499999999998 3.7499999999999991 5.0624999999999982 4.875 5.0625 4.4999999999999991 5.6250000000000009 5.2499999999999991 7.1249999999999991 13.5 9.0000000000000018 8.25 7.6875000000000027 5.8124999999999991 4.8749999999999991 4.8749999999999991 8.0624999999999982 4.1250000000000018 4.8750000000000009 6.1874999999999982 9.3749999999999982 3.7499999999999991 9.1874999999999982 3.7499999999999991 6.3750000000000178 6.3749999999999991 10.312499999999998 3.75 3.7499999999999991 5.9999999999999991 34.125 9.9374999999999982 6.9374999999999991 6.5624999999999991 5.2499999999999991 12.750000000000004 9.3749999999999982 5.0624999999999991 4.875 6.1874999999999956 4.125 3.7500000000000009 5.625 10.124999999999991 10.499999999999998 5.6250000000000027 5.8124999999999991 19.3125 5.4374999999999982 6.1875 6.1874999999999991 16.125000000000011 14.249999999999998 25.125000000000004 4.6874999999999991 5.4374999999999991 6.5625000000000009 4.1250000000000009 7.1249999999999991 4.1250000000000044 3.7499999999999991 11.437499999999996 11.249999999999996 9.5624999999999947 3.75 4.3124999999999991 4.4999999999999991 12.187499999999998 3.7500000000000018 3.75 3.9375 6.1874999999999991 21.75 3.9375 3.9374999999999991 18 16.3125 3.7500000000000027 3.7499999999999991 15.750000000000002 3.7499999999999991 10.124999999999998 3.7499999999999991
leaf_count=20 895 26 305 48 25 133 34 253 59 22 23 173 44 20 20 30 41 592 32 38 54 38 53 25 101 42 34 39 20 34 26 20 31 23 44 55 20 37 114 35 34 76 31 23 30 37 54 26 52 18 16 320 85 47 22 14 23 37 48 134 28 34 32 35 111 37 180 32 25 37 22 32 21 44 13 70 23 23 16 21 30 18 53 33 63 25 28 31 39 25 28 22 28 29 20 14 26 99 33 21 22 60 23 31 23 43 278 28 63 118 63 16 24 24 19 18 27 22 33 67 39 44 33 26 20 21 43 20 21 33 47 16 46 17 32 34 29 15 17 26 174 46 32 29 24 40 50 27 20 30 22 17 30 54 48 27 25 103 28 28 30 86 69 134 21 26 35 20 35 20 18 61 60 51 18 21 22 65 20 18 19 20 116 21 20 96 87 19 19 84 19 54 19
internal_value=0 0.0146878 -0.0106538 -0.00073193 -0.0200139 -0.0133875 -0.0170654 -0.00210576 -0.0200353 -0.0142498 -0.0177415 -0.00566388 -0.0367385 -0.0197354 -0.0368803 -0.0166897 -0.0326007 -0.025885 -0.00444444 -0.0329818 -0.0105546 -0.0217903 -0.0107989 -0.033783 -0.00517404 0.00373832 -0.027218 -0.00839695 -0.0310769 -0.0324201 -0.0279503 0 0.0390071 -0.044186 -0.00982659 -0.0439024 -0.0493177 -0.00353698 -0.0409091 0.0140351 -0.0582173 -0.042029 0.00163934 -0.0541265 -0.0419469 -0.0186147 -0.0272727 0.0291005 -0.0343779 -0.00988142 -0.0281106 -0.0418269 -0.0341246 -0.0219298 -0.0526372 -0.0432137 -0.0505618 -0.0176471 -0.0364198 -0.0270492 -0.0497553 -0.0434944 -0.0147541 0.0107143 -0.059633 0.00689655 -0.0376344 0.00649351 -0.0474453 0.022449 -0.0484848 0.0294118 -0.0580838 -0.0389831 -0.00285714 0.00598291 0.0433962 -0.0612903 -0.0549296 -0.0336898 -0.0111111 0.00344828 -0.0546841 -0.0468085 -0.0281553 -0.00344828 -0.0710638 -0.0445545 -0.0524941 -0.042492 -0.0592157 -0.0174603 0.0333333 -0.0583099 -0.0264368 -0.0266667 -0.05 -0.0686567 -0.0351351 -0.0728261 0.0156627 -0.0544118 -0.0364238 -0.0595855 -0.03125 -0.0777126 -0.0653179 -0.02 -0.0714286 -0.0614815 -0.0497585 -0.0783784 -0.0111111 -0.0555556 -0.0245283 -0.0518072 -0.0162791 -0.065 -0.0691149 -0.0496063 -0.0694118 -0.068 -0.0709091 -0.0796178 -0.0592814 -0.0736111 -0.0728155 -0.0857868 0.016129 -0.064557 -0.0516484 -0.0729167 -0.0505155 -0.0910448 -0.0483871 -0.0688312 0.0669903 -0.0404255 -0.0883212 -0.0636364 -0.0681159 -0.0744681 -0.0768595 -0.0626168 -0.0777778 0.05 -0.0746835 -0.0590909 -0.0372549 -0.0790698 -0.054717 -0.0777778 -0.0728814 -0.0844156 -0.06 -0.078626 -0.0658915 -0.0909774 -0.0814433 -0.0612903 -0.0909091 -0.089916 -0.0757576 -0.0848276 -0.071134 -0.0833333 -0.08125 -0.0814815 -0.0917098 -0.0795918 -0.0904762 -0.0903614 -0.0902439 -0.0890411 -0.0849057 -0.0894737 -0.0904762 -0.0890909 -0.0733333 -0.0826087 -0.0836735 0.0736842 -0.0949686 -0.0813953 -0.0974194 -0.0965812 -0.0962963 -0.0945946 -0.0945205 -0.0962264 -0.0942857 -0.0946667 -0.0936508
internal_weight=2541 1465.5 1129.88 819.75 1075.5 900.562 705.375 400.688 850.688 746.062 723.938 403.875 304.688 170.062 310.125 135.938 153.562 339 67.5 320.062 104.812 318.375 213.562 305.812 199.312 160.5 124.688 73.6875 60.9375 41.0625 90.5625 40.5 26.4375 104.812 32.4375 215.25 192.375 58.3125 247.5 42.75 134.625 38.8125 22.875 174.938 105.938 43.3125 35.0625 35.4375 203.438 47.4375 40.6875 156 126.375 85.5 174.188 120.188 50.0625 19.125 121.5 91.5 114.938 100.875 34.3125 21 40.875 21.75 69.75 28.875 25.6875 18.375 49.5 25.5 62.625 33.1875 13.125 21.9375 29.8125 104.625 13.3125 35.0625 20.25 21.75 86.0625 70.5 38.625 21.75 44.0625 18.9375 78.9375 58.6875 47.8125 11.8125 16.875 66.5625 16.3125 11.25 15 50.25 13.875 69 15.5625 51 28.3125 72.375 12 63.9375 64.875 13.125 70.875 50.625 38.8125 13.875 11.8125 21.9375 9.9375 15.5625 16.125 30 99.5625 23.8125 31.875 18.75 30.9375 29.4375 62.625 54 19.3125 36.9375 11.625 14.8125 17.0625 36 18.1875 25.125 11.625 14.4375 19.3125 8.8125 25.6875 57.75 51.75 44.0625 22.6875 20.0625 13.5 18 29.625 16.5 9.5625 32.25 9.9375 10.125 11.0625 14.4375 16.875 49.125 24.1875 24.9375 36.375 11.625 24.75 22.3125 24.75 54.375 18.1875 13.5 12 20.25 36.1875 18.375 23.625 15.5625 15.375 13.6875 9.9375 14.25 15.75 20.625 8.4375 8.625 9.1875 14.25 29.8125 8.0625 29.0625 21.9375 20.25 13.875 13.6875 19.875 13.125 14.0625 11.8125
internal_count=10164 5575 4680 3287 4589 3763 2982 1614 3630 3126 3067 1646 1368 725 1393 574 681 1473 274 1421 434 1366 885 1361 811 634 544 303 269 182 396 162 92 481 134 987 896 236 1125 163 643 177 91 826 483 184 153 128 907 196 178 711 563 367 819 550 234 81 545 399 536 462 144 81 196 85 314 113 119 68 230 92 299 150 53 86 102 504 63 156 84 86 407 326 169 88 218 87 371 268 229 50 60 318 71 49 70 247 62 343 59 241 127 347 53 322 316 56 351 244 181 70 49 104 43 73 68 146 490 111 157 92 153 149 300 269 96 190 44 72 80 179 85 131 54 71 60 40 133 280 254 220 114 97 68 60 148 79 43 163 47 51 55 74 81 248 118 130 185 56 129 116 124 279 90 69 61 103 189 93 123 81 80 71 51 74 82 107 42 44 47 43 157 41 154 116 107 73 72 105 69 74 62
is_linear=0
shrinkage=0.05


end of trees

feature_importances:
Column_16=20
Column_10=18
Column_4=15
Column_5=14
Column_17=14
Column_21=14
Column_20=13
Column_0=10
Column_11=10
Column_19=9
Column_1=8
Column_3=8
Column_18=8
Column_6=6
Column_26=6
Column_8=5
Column_9=5
Column_2=4
Column_25=4
Column_7=2

parameters:
[boosting: gbdt]
[objective: binary]
[metric: average_precision]
[tree_learner: serial]
[device_type: cpu]
[data_sample_strategy: bagging]
[data: ]
[valid: ]
[num_iterations: 500]
[learning_rate: 0.05]
[num_leaves: 512]
[num_threads: 32]
[seed: 42]
[deterministic: 0]
[force_col_wise: 0]
[force_row_wise: 0]
[histogram_pool_size: -1]
[max_depth: 12]
[min_data_in_leaf: 20]
[min_sum_hessian_in_leaf: 0.001]
[bagging_fraction: 1]
[pos_bagging_fraction: 1]
[neg_bagging_fraction: 1]
[bagging_freq: 0]
[bagging_seed: 400]
[bagging_by_query: 0]
[feature_fraction: 1]
[feature_fraction_bynode: 1]
[feature_fraction_seed: 30056]
[extra_trees: 0]
[extra_seed: 12879]
[early_stopping_round: 0]
[early_stopping_min_delta: 0]
[first_metric_only: 0]
[max_delta_step: 0]
[lambda_l1: 0]
[lambda_l2: 0]
[linear_lambda: 0]
[min_gain_to_split: 0]
[drop_rate: 0.1]
[max_drop: 50]
[skip_drop: 0.5]
[xgboost_dart_mode: 0]
[uniform_drop: 0]
[drop_seed: 17869]
[top_rate: 0.2]
[other_rate: 0.1]
[min_data_per_group: 100]
[max_cat_threshold: 32]
[cat_l2: 10]
[cat_smooth: 10]
[max_cat_to_onehot: 4]
[top_k: 20]
[monotone_constraints: ]
[monotone_constraints_method: basic]
[monotone_penalty: 0]
[feature_contri: ]
[forcedsplits_filename: ]
[refit_decay_rate: 0.9]
[cegb_tradeoff: 1]
[cegb_penalty_split: 0]
[cegb_penalty_feature_lazy: ]
[cegb_penalty_feature_coupled: ]
[path_smooth: 0]
[interaction_constraints: ]
[verbosity: -1]
[saved_feature_importance_type: 0]
[use_quantized_grad: 0]
[num_grad_quant_bins: 4]
[quant_train_renew_leaf: 0]
[stochastic_rounding: 1]
[linear_tree: 0]
[max_bin: 255]
[max_bin_by_feature: ]
[min_data_in_bin: 3]
[bin_construct_sample_cnt: 200000]
[data_random_seed: 175]
[is_enable_sparse: 1]
[enable_bundle: 1]
[use_missing: 1]
[zero_as_missing: 0]
[feature_pre_filter: 1]
[pre_partition: 0]
[two_round: 0]
[header: 0]
[label_column: ]
[weight_column: ]
[group_column: ]
[ignore_column: ]
[categorical_feature: ]
[forcedbins_filename: ]
[precise_float_parser: 0]
[parser_config_file: ]
[objective_seed: 16083]
[num_class: 1]
[is_unbalance: 0]
[scale_pos_weight: 1]
[sigmoid: 1]
[boost_from_average: 1]
[reg_sqrt: 0]
[alpha: 0.9]
[fair_c: 1]
[poisson_max_delta_step: 0.7]
[tweedie_variance_power: 1.5]
[lambdarank_truncation_level: 30]
[lambdarank_norm: 1]
[label_gain: ]
[lambdarank_position_bias_regularization: 0]
[eval_at: ]
[multi_error_top_k: 1]
[auc_mu_weights: ]
[num_machines: 1]
[local_listen_port: 12400]
[time_out: 120]
[machine_list_filename: ]
[machines: ]
[gpu_platform_id: -1]
[gpu_device_id: -1]
[gpu_use_dp: 0]
[num_gpu: 1]

end of parameters

pandas_categorical:null
