{"learner":{"attributes":{"best_iteration":"1","best_score":"0.09441037297704172","scikit_learn":"{\"_estimator_type\": \"classifier\"}"},"feature_names":[],"feature_types":[],"gradient_booster":{"model":{"gbtree_model_param":{"num_parallel_tree":"1","num_trees":"22"},"iteration_indptr":[0,1,2,3,4,5,6,7,8,9,10,11,12,13,14,15,16,17,18,19,20,21,22],"tree_info":[0,0,0,0,0,0,0,0,0,0,0,0,0,0,0,0,0,0,0,0,0,0],"trees":[{"base_weights":[-8.8378406E-1,-9.6484363E-1,-8.2299685E-1,-8.655618E-1,-5.0430328E-2,-6.1807644E-1,-8.8716924E-1,-4.8529163E-2,-7.2385544E-1,-4.0041924E-1,-8.2869494E-1,-4.86944E-2,-7.902539E-1,-8.2634217E-1,-3.8748568E-1,-6.896126E-1,-1.0117158E-1,-6.7503333E-1,-4.7695328E-2,-7.05646E-1,-4.796908E-2,-6.34974E-1,-4.7801908E-2,-3.6042005E-2,-8.69482E-4,-2.011118E-2,-3.7558816E-2,2.355998E-1,-5.080149E-1,-3.911887E-2,-1.6874127E-2,-4.463471E-2,-5.2766997E-1,-4.1056108E-2,-2.1659235E-2,4.5500357E-2,-1.9214828E-2,-1.170368E-2,-3.5215117E-2,-3.564946E-2,1.3208799E-2],"categories":[],"categories_nodes":[],"categories_segments":[],"categories_sizes":[],"default_left":[0,0,0,0,0,0,0,0,0,0,0,0,0,0,0,0,0,0,0,0,0,0,0,0,0,0,0,0,0,0,0,0,0,0,0,0,0,0,0,0,0],"id":0,"left_children":[1,3,5,7,-1,9,11,-1,13,15,17,-1,19,21,23,25,27,29,-1,31,-1,33,-1,-1,-1,-1,-1,35,37,-1,-1,-1,39,-1,-1,-1,-1,-1,-1,-1,-1],"loss_changes":[2.368988E0,2.969818E-1,4.365036E0,6.284561E-1,0E0,3.904045E0,1.6024017E0,0E0,1.1278038E0,4.0301547E0,2.4160194E-1,0E0,1.3061142E0,1.7007637E-1,1.429948E0,1.2108135E-1,3.4703593E0,6.086664E-1,0E0,2.7299652E0,0E0,2.3126173E-1,0E0,0E0,0E0,0E0,0E0,6.228902E0,4.477117E-1,0E0,0E0,0E0,7.7776804E0,0E0,0E0,0E0,0E0,0E0,0E0,0E0,0E0],"parents":[2147483647,0,0,1,1,2,2,3,3,5,5,6,6,8,8,9,9,10,10,12,12,13,13,14,14,15,15,16,16,17,17,19,19,21,21,27,27,28,28,32,32],"right_children":[2,4,6,8,-1,10,12,-1,14,16,18,-1,20,22,24,26,28,30,-1,32,-1,34,-1,-1,-1,-1,-1,36,38,-1,-1,-1,40,-1,-1,-1,-1,-1,-1,-1,-1],"split_conditions":[-4.1746822E-1,-2.5E-1,3.0508474E-1,5.0921775E-3,-5.0430328E-2,9.6991205E-1,3.3031462E-3,-4.8529163E-2,7.841985E-3,3.3031462E-3,1.3333334E-1,-4.86944E-2,4.9958688E-1,0E0,-9.947704E-1,-4.719612E-1,3.5355338E-1,2.5275782E-1,-4.7695328E-2,-4.1316897E-1,-4.796908E-2,-6.418562E-1,-4.7801908E-2,-3.6042005E-2,-8.69482E-4,-2.011118E-2,-3.7558816E-2,4.456731E-1,9.5178795E-1,-3.911887E-2,-1.6874127E-2,-4.463471E-2,-8.845881E-2,-4.1056108E-2,-2.1659235E-2,4.5500357E-2,-1.9214828E-2,-1.170368E-2,-3.5215117E-2,-3.564946E-2,1.3208799E-2],"split_indices":[48,1,48,7,0,13,13,0,27,8,82,0,1,65,9,80,24,16,0,47,0,65,0,0,0,0,0,89,7,0,0,0,89,0,0,0,0,0,0,0,0],"split_type":[0,0,0,0,0,0,0,0,0,0,0,0,0,0,0,0,0,0,0,0,0,0,0,0,0,0,0,0,0,0,0,0,0,0,0,0,0,0,0,0,0],"sum_hessian":[6.409249E2,2.682894E2,3.7263553E2,8.843693E1,1.7985248E2,9.140031E1,2.8123523E2,4.743363E1,4.10033E1,4.637581E1,4.50245E1,1.4365002E2,1.375852E2,3.0311266E1,1.0692033E1,2.292071E1,2.3455097E1,2.3085169E1,2.1939333E1,9.51551E1,4.24301E1,1.4626109E1,1.5685158E1,5.1266365E0,5.5653963E0,5.372848E0,1.7547861E1,1.3062939E1,1.03921585E1,1.6515339E1,6.5698295E0,4.443706E1,5.0718037E1,6.011433E0,8.6146755E0,6.0322456E0,7.0306935E0,5.253211E0,5.138947E0,4.118007E1,9.537969E0],"tree_param":{"num_deleted":"0","num_feature":"96","num_nodes":"41","size_leaf_vector":"1"}},{"base_weights":[-8.6264294E-1,-9.479579E-1,-7.9951954E-1,-8.527558E-1,-4.9526468E-2,-5.767755E-1,-8.6831176E-1,-4.8730757E-2,-7.063787E-1,-3.7473026E-1,-7.8822047E-1,-4.7513228E-2,-7.7916104E-1,-3.0835035E-1,-8.222755E-1,-4.7077026E-2,-2.0819874E-1,-4.5509156E-2,-6.106906E-1,-7.242301E-1,-5.241238E-2,-2.902109E-2,1.3554426E-3,-2.9215952E-2,-4.5230925E-2,4.0185234E-1,-6.132964E-1,-1.2166589E-2,-7.44367E-1,-6.3903415E-1,-4.5200713E-2,-1.2279985E-2,5.074492E-2,-2.2773905E-2,-4.2531908E-2,-4.3400366E-2,-2.141623E-2,-4.1595273E-2,-2.2021571E-2],"categories":[],"categories_nodes":[],"categories_segments":[],"categories_sizes":[],"default_left":[0,0,0,0,0,0,0,0,0,0,0,0,0,0,0,0,0,0,0,0,0,0,0,0,0,0,0,0,0,0,0,0,0,0,0,0,0,0,0],"id":1,"left_children":[1,3,5,7,-1,9,11,-1,13,15,17,-1,19,21,23,-1,25,-1,27,29,-1,-1,-1,-1,-1,31,33,-1,35,37,-1,-1,-1,-1,-1,-1,-1,-1,-1],"loss_changes":[2.6130981E0,2.1232605E-1,5.1098022E0,8.772621E-1,0E0,3.5230007E0,1.2890778E0,0E0,1.7535839E0,4.298088E0,3.7015152E-1,0E0,1.289505E0,1.0573043E0,1.19939804E-1,0E0,9.658007E0,0E0,8.2336617E-1,1.2348785E0,0E0,0E0,0E0,0E0,0E0,6.521121E0,4.8462105E-1,0E0,1.9527721E-1,2.8397865E0,0E0,0E0,0E0,0E0,0E0,0E0,0E0,0E0,0E0],"parents":[2147483647,0,0,1,1,2,2,3,3,5,5,6,6,8,8,9,9,10,10,12,12,13,13,14,14,16,16,18,18,19,19,25,25,26,26,28,28,29,29],"right_children":[2,4,6,8,-1,10,12,-1,14,16,18,-1,20,22,24,-1,26,-1,28,30,-1,-1,-1,-1,-1,32,34,-1,36,38,-1,-1,-1,-1,-1,-1,-1,-1,-1],"split_conditions":[-4.1746822E-1,0E0,3.0508474E-1,6.0352083E-2,-4.9526468E-2,9.6991205E-1,3.3031462E-3,-4.8730757E-2,9.947704E-1,-5.06878E-1,6.0352083E-2,-4.7513228E-2,6.234898E-1,-1.9247128E-1,-7.841985E-3,-4.7077026E-2,4.456731E-1,-4.5509156E-2,-3.36136E-2,4.9958688E-1,-5.241238E-2,-2.902109E-2,1.3554426E-3,-2.9215952E-2,-4.5230925E-2,3.3031462E-3,6.666667E-1,-1.2166589E-2,-3.223713E-2,-4.1316897E-1,-4.5200713E-2,-1.2279985E-2,5.074492E-2,-2.2773905E-2,-4.2531908E-2,-4.3400366E-2,-2.141623E-2,-4.1595273E-2,-2.2021571E-2],"split_indices":[48,47,48,57,0,2,2,0,8,89,57,0,25,5,9,0,89,0,9,1,0,0,0,0,0,8,11,0,5,47,0,0,0,0,0,0,0,0,0],"split_type":[0,0,0,0,0,0,0,0,0,0,0,0,0,0,0,0,0,0,0,0,0,0,0,0,0,0,0,0,0,0,0,0,0,0,0,0,0,0,0],"sum_hessian":[6.2495935E2,2.5980292E2,3.6515643E2,8.677661E1,1.730263E2,8.8378296E1,2.7677817E2,4.4266434E1,4.2510174E1,4.6611317E1,4.1766975E1,1.3917804E2,1.3760013E2,1.0412103E1,3.2098072E1,9.527951E0,3.7083366E1,2.231186E1,1.9455116E1,1.1733831E2,2.0261814E1,5.3460236E0,5.0660796E0,1.0333185E1,2.1764885E1,1.4801407E1,2.228196E1,5.9430914E0,1.3512024E1,8.2701996E1,3.4636314E1,7.4902067E0,7.3112006E0,1.5136296E1,7.1456633E0,8.457026E0,5.0549984E0,4.0338673E1,4.2363323E1],"tree_param":{"num_deleted":"0","num_feature":"96","num_nodes":"39","size_leaf_vector":"1"}},{"base_weights":[-8.529051E-1,-4.8257593E-2,-8.085127E-1,-8.9135927E-1,-7.242819E-1,-8.4693545E-1,-4.9945977E-2,-5.818196E-1,-8.2469356E-1,-4.6311833E-2,-6.714738E-1,-7.253983E-1,-2.6552314E-1,-7.2954905E-1,-4.545395E-2,-8.4024495E-1,3.8010847E-2,-5.5264807E-1,-4.323686E-2,5.330684E-2,-5.736244E-1,-4.7265258E-1,-7.9938793E-1,-4.6103466E-2,-3.266072E-2,-4.1069053E-2,-1.5839024E-2,-2.811656E-2,5.9539594E-2,-4.146838E-2,-1.5033081E-2,-3.6830302E-2,-5.9863515E-3,-4.323803E-2,-1.9086543E-2],"categories":[],"categories_nodes":[],"categories_segments":[],"categories_sizes":[],"default_left":[0,0,0,0,0,0,0,0,0,0,0,0,0,0,0,0,0,0,0,0,0,0,0,0,0,0,0,0,0,0,0,0,0,0,0],"id":2,"left_children":[1,-1,3,5,7,9,-1,11,13,-1,15,17,19,21,-1,23,-1,25,-1,27,29,31,33,-1,-1,-1,-1,-1,-1,-1,-1,-1,-1,-1,-1],"loss_changes":[2.2280579E0,0E0,2.416504E0,1.9030762E-1,2.7090225E0,1.6052399E0,0E0,4.146984E0,3.6737823E-1,0E0,1.355607E1,1.0902214E0,3.116201E0,7.955055E-1,0E0,1.3681412E-1,0E0,1.7590446E0,0E0,1.21205845E1,8.717365E-1,1.4419253E0,1.0343323E0,0E0,0E0,0E0,0E0,0E0,0E0,0E0,0E0,0E0,0E0,0E0,0E0],"parents":[2147483647,0,0,2,2,3,3,4,4,5,5,7,7,8,8,10,10,11,11,12,12,13,13,15,15,17,17,19,19,20,20,21,21,22,22],"right_children":[2,-1,4,6,8,10,-1,12,14,-1,16,18,20,22,-1,24,-1,26,-1,28,30,32,34,-1,-1,-1,-1,-1,-1,-1,-1,-1,-1,-1,-1],"split_conditions":[-4.2152175E-1,-4.8257593E-2,5.0921775E-3,3.3333334E-1,0E0,-3.1757426E-1,-4.9945977E-2,-4.1316897E-1,5E-1,-4.6311833E-2,-5.028676E-2,0E0,4.456731E-1,9.890042E-1,-4.545395E-2,3.0652503E-2,3.8010847E-2,-6.418562E-1,-4.323686E-2,-6.521177E-1,-2.054262E-1,3.3031462E-3,1.022433E-1,-4.6103466E-2,-3.266072E-2,-4.1069053E-2,-1.5839024E-2,-2.811656E-2,5.9539594E-2,-4.146838E-2,-1.5033081E-2,-3.6830302E-2,-5.9863515E-3,-4.323803E-2,-1.9086543E-2],"split_indices":[81,0,7,65,47,65,0,47,14,0,4,65,89,57,0,10,0,65,0,11,64,2,89,0,0,0,0,0,0,0,0,0,0,0,0],"split_type":[0,0,0,0,0,0,0,0,0,0,0,0,0,0,0,0,0,0,0,0,0,0,0,0,0,0,0,0,0,0,0,0,0,0,0],"sum_hessian":[6.027489E2,1.6494424E2,4.3780466E2,2.1588501E2,2.2191965E2,1.5906363E2,5.6821377E1,9.45575E1,1.2736214E2,1.06604195E2,5.2459435E1,6.414589E1,3.0411615E1,6.439842E1,6.296372E1,4.7297054E1,5.1623807E0,3.0856579E1,3.328931E1,1.5352003E1,1.5059611E1,1.5425342E1,4.897308E1,3.0168526E1,1.7128527E1,1.3263073E1,1.7593506E1,1.0288968E1,5.063035E0,6.7226562E0,8.336955E0,8.2030945E0,7.222247E0,4.14195E1,7.5535793E0],"tree_param":{"num_deleted":"0","num_feature":"96","num_nodes":"35","size_leaf_vector":"1"}},{"base_weights":[-8.353661E-1,-7.958929E-1,-4.890622E-2,-8.958058E-1,-7.208878E-1,-4.826222E-2,-8.149306E-1,-4.367788E-1,-8.101151E-1,-6.1964124E-1,-4.512843E-2,-1.5625425E-1,-7.21944E-1,-4.517441E-2,-7.072201E-1,-4.1547988E-2,-3.7991995E-1,-5.122092E-1,2.3169859E-1,-4.206195E-2,-5.465018E-1,-4.1473165E-2,-5.7613355E-1,-3.885022E-3,-4.2048596E-2,-8.166048E-3,-3.282127E-2,2.8384093E-2,-2.462314E-2,-4.0442087E-2,-1.1978107E-2,-2.1682465E-2,-4.1874416E-2],"categories":[],"categories_nodes":[],"categories_segments":[],"categories_sizes":[],"default_left":[0,0,0,0,0,0,0,0,0,0,0,0,0,0,0,0,0,0,0,0,0,0,0,0,0,0,0,0,0,0,0,0,0],"id":3,"left_children":[1,3,-1,5,7,-1,9,11,13,15,-1,17,19,-1,21,-1,23,25,27,-1,29,-1,31,-1,-1,-1,-1,-1,-1,-1,-1,-1,-1],"loss_changes":[2.519806E0,2.8306274E0,0E0,3.0734253E-1,6.4931946E0,0E0,1.0907593E0,5.224758E0,1.324585E0,1.3587046E0,0E0,4.9397244E0,2.2698593E-1,0E0,1.1539268E0,0E0,2.3491595E0,8.2453156E-1,4.5114865E0,0E0,1.1054397E0,0E0,1.5886326E0,0E0,0E0,0E0,0E0,0E0,0E0,0E0,0E0,0E0,0E0],"parents":[2147483647,0,0,1,1,3,3,4,4,6,6,7,7,8,8,9,9,11,11,12,12,14,14,16,16,17,17,18,18,20,20,22,22],"right_children":[2,4,-1,6,8,-1,10,12,14,16,-1,18,20,-1,22,-1,24,26,28,-1,30,-1,32,-1,-1,-1,-1,-1,-1,-1,-1,-1,-1],"split_conditions":[6.1237246E-1,-4.1746822E-1,-4.890622E-2,3.3031462E-3,3.0508474E-1,-4.826222E-2,0E0,9.66054E-1,3.3031462E-3,-3.3379668E-1,-4.512843E-2,3.3031462E-3,5.0921775E-3,-4.517441E-2,-3.3379668E-1,-4.1547988E-2,6.830127E-1,-1.8328312E-3,5.5124915E-1,-4.206195E-2,-4.5684314E-1,-4.1473165E-2,6.830127E-1,-3.885022E-3,-4.2048596E-2,-8.166048E-3,-3.282127E-2,2.8384093E-2,-2.462314E-2,-4.0442087E-2,-1.1978107E-2,-2.1682465E-2,-4.1874416E-2],"split_indices":[24,48,0,8,48,0,47,2,2,24,0,8,7,0,24,0,23,10,89,0,24,0,23,0,0,0,0,0,0,0,0,0,0],"split_type":[0,0,0,0,0,0,0,0,0,0,0,0,0,0,0,0,0,0,0,0,0,0,0,0,0,0,0,0,0,0,0,0,0],"sum_hessian":[5.8431067E2,4.628938E2,1.21416885E2,1.9379698E2,2.690968E2,9.83875E1,9.5409485E1,6.572303E1,2.0337378E2,3.2053352E1,6.335613E1,3.391141E1,3.1811617E1,1.0254118E2,1.00832596E2,1.572507E1,1.6328283E1,1.7517994E1,1.6393415E1,1.6676899E1,1.5134719E1,4.9419456E1,5.1413143E1,1.0568898E1,5.759384E0,5.7470927E0,1.1770901E1,1.1345582E1,5.0478334E0,7.2785745E0,7.856144E0,3.4994328E1,1.6418816E1],"tree_param":{"num_deleted":"0","num_feature":"96","num_nodes":"33","size_leaf_vector":"1"}},{"base_weights":[-8.228298E-1,-8.956195E-1,-7.4597454E-1,-4.81482E-2,-8.4186804E-1,-8.6074394E-1,-6.2619317E-1,-4.6021655E-2,-7.4727637E-1,-7.6226586E-1,-4.727684E-2,-3.88608E-1,-8.635269E-1,-6.5789115E-1,-4.6805505E-2,-3.956961E-2,-1.6699148E-2,1.0445533E-1,-5.075872E-1,-4.5483336E-2,-5.88616E-1,-7.9021007E-1,-4.1964737E-1,2.7888386E-2,-2.2496983E-2,-3.915129E-2,-2.9155415E-1,-4.007679E-2,-1.5497388E-2,-4.276899E-2,-2.5538994E-2,-9.098853E-3,-2.9893849E-2,1.9690696E-2,-2.7380943E-2],"categories":[],"categories_nodes":[],"categories_segments":[],"categories_sizes":[],"default_left":[0,0,0,0,0,0,0,0,0,0,0,0,0,0,0,0,0,0,0,0,0,0,0,0,0,0,0,0,0,0,0,0,0,0,0],"id":4,"left_children":[1,3,5,-1,7,9,11,-1,13,15,-1,17,19,21,-1,-1,-1,23,25,-1,27,29,31,-1,-1,-1,33,-1,-1,-1,-1,-1,-1,-1,-1],"loss_changes":[2.5147705E0,2.2898865E-1,3.3477478E0,0E0,5.583191E-1,4.6261597E-1,7.672123E0,0E0,7.580147E-1,6.179352E-1,0E0,4.323036E0,3.553276E-1,1.516016E0,0E0,0E0,0E0,4.0153875E0,3.2710295E0,0E0,5.185137E-1,2.286644E-1,8.680444E-1,0E0,0E0,0E0,6.2794137E0,0E0,0E0,0E0,0E0,0E0,0E0,0E0,0E0],"parents":[2147483647,0,0,1,1,2,2,4,4,5,5,6,6,8,8,9,9,11,11,12,12,13,13,17,17,18,18,20,20,21,21,22,22,26,26],"right_children":[2,4,6,-1,8,10,12,-1,14,16,-1,18,20,22,-1,-1,-1,24,26,-1,28,30,32,-1,-1,-1,34,-1,-1,-1,-1,-1,-1,-1,-1],"split_conditions":[3.3031462E-3,-4.1746822E-1,5.0921775E-3,-4.81482E-2,3.3031462E-3,9.878915E-1,2E0,-4.6021655E-2,4.5524898E-1,2.515004E0,-4.727684E-2,-1.0860227E1,6.6908723E-1,-9.4911814E-2,-4.6805505E-2,-3.956961E-2,-1.6699148E-2,3.064412E-1,-2.4390255E-1,-4.5483336E-2,-2.3191981E-1,6.0352083E-2,-2.0079055E-1,2.7888386E-2,-2.2496983E-2,-3.915129E-2,2.5E-1,-4.007679E-2,-1.5497388E-2,-4.276899E-2,-2.5538994E-2,-9.098853E-3,-2.9893849E-2,1.9690696E-2,-2.7380943E-2],"split_indices":[8,48,7,0,2,2,57,0,51,50,0,90,0,50,0,0,0,23,18,0,1,57,83,0,0,0,18,0,0,0,0,0,0,0,0],"split_type":[0,0,0,0,0,0,0,0,0,0,0,0,0,0,0,0,0,0,0,0,0,0,0,0,0,0,0,0,0,0,0,0,0,0,0],"sum_hessian":[5.6794434E2,2.8621567E2,2.8172864E2,1.1953579E2,1.6667989E2,1.4071529E2,1.4101335E2,8.6284195E1,8.039569E1,6.972577E1,7.098951E1,7.1787346E1,6.922601E1,5.760982E1,2.2785866E1,6.4492035E1,5.233737E0,1.397897E1,5.7808376E1,5.730006E1,1.1925949E1,3.5549225E1,2.2060598E1,7.6872497E0,6.29172E0,2.4256796E1,3.3551582E1,5.696877E0,6.2290716E0,2.7154903E1,8.3943205E0,1.0319933E1,1.1740666E1,8.979533E0,2.4572048E1],"tree_param":{"num_deleted":"0","num_feature":"96","num_nodes":"35","size_leaf_vector":"1"}},{"base_weights":[-8.0324095E-1,-7.5539154E-1,-4.6908654E-2,-8.4040695E-1,-5.891945E-1,-4.5743283E-2,-7.5714E-1,-7.880811E-1,1.7889857E-1,-6.331495E-1,-4.3925203E-2,-1.644179E-2,-8.072051E-1,-7.260464E-1,1.9914005E-2,-4.504068E-2,-7.318834E-1,-4.2222455E-2,-2.9412527E-2,-2.264984E-2,-4.04657E-2],"categories":[],"categories_nodes":[],"categories_segments":[],"categories_sizes":[],"default_left":[0,0,0,0,0,0,0,0,0,0,0,0,0,0,0,0,0,0,0,0,0],"id":5,"left_children":[1,3,-1,5,7,-1,9,11,-1,13,-1,-1,15,17,-1,-1,19,-1,-1,-1,-1],"loss_changes":[2.8590698E0,5.3410645E0,0E0,9.870453E-1,1.2144743E2,0E0,1.4556656E0,9.4156647E-1,0E0,6.968937E0,0E0,0E0,2.661209E-1,5.5247116E-1,0E0,0E0,1.3190804E0,0E0,0E0,0E0,0E0],"parents":[2147483647,0,0,1,1,3,3,4,4,6,6,7,7,9,9,12,12,13,13,16,16],"right_children":[2,4,-1,6,8,-1,10,12,-1,14,-1,-1,16,18,-1,-1,20,-1,-1,-1,-1],"split_conditions":[3.3333334E-1,-3.1757426E-1,-4.6908654E-2,5.0921775E-3,-1.1185014E-2,-4.5743283E-2,-3.3333334E-1,2.6227217E-2,1.7889857E-1,-5.028676E-2,-4.3925203E-2,-1.644179E-2,-4.1746822E-1,3.3031462E-3,1.9914005E-2,-4.504068E-2,3.0508474E-1,-4.2222455E-2,-2.9412527E-2,-2.264984E-2,-4.04657E-2],"split_indices":[65,65,0,7,4,0,65,3,0,4,0,0,48,8,0,0,48,0,0,0,0],"split_type":[0,0,0,0,0,0,0,0,0,0,0,0,0,0,0,0,0,0,0,0,0],"sum_hessian":[5.515844E2,4.1205905E2,1.3952534E2,2.699261E2,1.4213298E2,1.372277E2,1.3269838E2,1.3643234E2,5.7006335E0,6.8714134E1,6.398425E1,6.181605E0,1.3025073E2,6.3308277E1,5.405855E0,5.318889E1,7.706185E1,3.1291996E1,3.201628E1,1.8234789E1,5.882706E1],"tree_param":{"num_deleted":"0","num_feature":"96","num_nodes":"21","size_leaf_vector":"1"}},{"base_weights":[-7.902085E-1,-9.2171955E-1,-7.389204E-1,-4.838921E-2,-7.817071E-1,-8.403948E-1,-6.359879E-1,-2.5260715E-2,-4.1472897E-2,-7.730914E-1,-4.6836786E-2,-7.653185E-1,-5.0364596E-1,-4.341843E-2,-6.2957233E-1,-4.3613862E-2,-6.410652E-1,-3.1386432E-1,-6.5650403E-1,-4.2005217E-1,-3.9317485E-2,-4.4585E-1,-8.4402484E-1,-5.146271E-1,7.266339E-2,-3.730108E-1,-7.505207E-1,-3.372922E-2,-6.9427365E-3,-3.3889826E-2,-9.658909E-3,-2.7071882E-2,-4.6701502E-2,-1.3536383E-2,-3.7107825E-2,-2.0010788E-2,1.7982759E-2,-8.480589E-4,-3.4827527E-2,-4.0500786E-2,-1.6742835E-2],"categories":[],"categories_nodes":[],"categories_segments":[],"categories_sizes":[],"default_left":[0,0,0,0,0,0,0,0,0,0,0,0,0,0,0,0,0,0,0,0,0,0,0,0,0,0,0,0,0,0,0,0,0,0,0,0,0,0,0,0,0],"id":6,"left_children":[1,3,5,-1,7,9,11,-1,-1,13,-1,15,17,-1,19,-1,21,23,25,27,-1,29,31,33,35,37,39,-1,-1,-1,-1,-1,-1,-1,-1,-1,-1,-1,-1,-1,-1],"loss_changes":[2.9140015E0,1.8191528E-1,3.523407E0,0E0,1.251812E-1,5.241699E-1,2.9859772E0,0E0,0E0,1.0814514E0,0E0,7.3921204E-1,2.7030277E0,0E0,1.3496475E0,0E0,1.5638142E0,3.6576648E0,1.1760273E0,1.6267052E0,0E0,1.4561014E0,1.17614746E-1,1.5098791E0,2.427208E0,1.7843969E0,7.1881104E-1,0E0,0E0,0E0,0E0,0E0,0E0,0E0,0E0,0E0,0E0,0E0,0E0,0E0,0E0],"parents":[2147483647,0,0,1,1,2,2,4,4,5,5,6,6,9,9,11,11,12,12,14,14,16,16,17,17,18,18,19,19,21,21,22,22,23,23,24,24,25,25,26,26],"right_children":[2,4,6,-1,8,10,12,-1,-1,14,-1,16,18,-1,20,-1,22,24,26,28,-1,30,32,34,36,38,40,-1,-1,-1,-1,-1,-1,-1,-1,-1,-1,-1,-1,-1,-1],"split_conditions":[-4.2152175E-1,2.544516E-1,5.0921775E-3,-4.838921E-2,-6.1164474E-1,3.5355338E-1,3.3031462E-3,-2.5260715E-2,-4.1472897E-2,-3.3379668E-1,-4.6836786E-2,3.3031462E-3,0E0,-4.341843E-2,3.3333334E-1,-4.3613862E-2,2E0,-4.1316897E-1,-1.0501873E-2,-2.6700932E-1,-3.9317485E-2,-1.3028301E-1,-5.673779E-2,-2.4695165E-2,-4.5684314E-1,9.565014E-1,3.4042314E-1,-3.372922E-2,-6.9427365E-3,-3.3889826E-2,-9.658909E-3,-2.7071882E-2,-4.6701502E-2,-1.3536383E-2,-3.7107825E-2,-2.0010788E-2,1.7982759E-2,-8.480589E-4,-3.4827527E-2,-4.0500786E-2,-1.6742835E-2],"split_indices":[81,1,7,0,10,24,2,0,0,24,0,60,47,0,81,0,57,47,90,25,0,17,26,65,24,60,11,0,0,0,0,0,0,0,0,0,0,0,0,0,0],"split_type":[0,0,0,0,0,0,0,0,0,0,0,0,0,0,0,0,0,0,0,0,0,0,0,0,0,0,0,0,0,0,0,0,0,0,0,0,0,0,0,0,0],"sum_hessian":[5.3200586E2,1.4450366E2,3.875022E2,1.0428225E2,4.022141E1,1.9152536E2,1.9597685E2,7.62874E0,3.259267E1,1.18067955E2,7.3457405E1,9.6697075E1,9.927978E1,6.7924644E1,5.014331E1,4.8729763E1,4.7967308E1,4.5652733E1,5.3627045E1,2.3036367E1,2.7106943E1,2.6079594E1,2.1887716E1,2.9828419E1,1.5824312E1,1.4592632E1,3.9034412E1,1.1357184E1,1.1679184E1,1.2720224E1,1.3359368E1,6.6263375E0,1.5261378E1,1.5453233E1,1.4375187E1,5.8276E0,9.996713E0,7.448316E0,7.144316E0,3.3316948E1,5.717465E0],"tree_param":{"num_deleted":"0","num_feature":"96","num_nodes":"41","size_leaf_vector":"1"}},{"base_weights":[-7.8575873E-1,-9.1817725E-1,-7.33908E-1,-4.8162702E-2,-7.7843046E-1,-8.267645E-1,-6.4142084E-1,-2.5450481E-2,-4.1613325E-2,-7.8114116E-1,-4.6697605E-2,-4.7123122E-1,-7.673777E-1,-8.637686E-1,-5.9595484E-1,-6.197401E-1,-1.7379871E-1,-6.0212624E-1,-8.211699E-1,-4.4042535E-2,-2.412801E-2,-3.1001164E-5,-6.72051E-1,-8.2453954E-1,-4.089375E-1,-3.494843E-2,1.200059E-2,-2.3436628E-1,-7.852976E-1,-6.161701E-1,-4.3414507E-2,-4.0090423E-2,-2.1556744E-2,-4.5136683E-2,-2.5168044E-2,-2.5395488E-3,-3.7491094E-2,-1.928795E-2,1.705533E-2,-2.5192264E-2,2.9754662E-3,-4.402037E-2,-2.0745015E-2,-1.1904693E-2,-3.6965046E-2],"categories":[],"categories_nodes":[],"categories_segments":[],"categories_sizes":[],"default_left":[0,0,0,0,0,0,0,0,0,0,0,0,0,0,0,0,0,0,0,0,0,0,0,0,0,0,0,0,0,0,0,0,0,0,0,0,0,0,0,0,0,0,0,0,0],"id":7,"left_children":[1,3,5,-1,7,9,11,-1,-1,13,-1,15,17,19,21,23,25,27,29,-1,-1,-1,31,33,35,-1,37,39,41,43,-1,-1,-1,-1,-1,-1,-1,-1,-1,-1,-1,-1,-1,-1,-1],"loss_changes":[2.910614E0,1.5047455E-1,2.7343597E0,0E0,1.5753555E-1,1.8119049E-1,3.816597E0,0E0,0E0,1.577568E0,0E0,3.668522E0,4.8710632E-1,1.7617035E-1,2.056942E0,2.1076775E0,2.9220188E0,1.895155E0,2.4311447E-1,0E0,0E0,0E0,9.130497E-1,2.4227524E-1,3.611104E0,0E0,3.1476085E0,9.5555264E-1,3.4556293E-1,6.851711E-1,0E0,0E0,0E0,0E0,0E0,0E0,0E0,0E0,0E0,0E0,0E0,0E0,0E0,0E0,0E0],"parents":[2147483647,0,0,1,1,2,2,4,4,5,5,6,6,9,9,11,11,12,12,13,13,14,14,15,15,16,16,17,17,18,18,22,22,23,23,24,24,26,26,27,27,28,28,29,29],"right_children":[2,4,6,-1,8,10,12,-1,-1,14,-1,16,18,20,22,24,26,28,30,-1,-1,-1,32,34,36,-1,38,40,42,44,-1,-1,-1,-1,-1,-1,-1,-1,-1,-1,-1,-1,-1,-1,-1],"split_conditions":[-4.2152175E-1,2.544516E-1,5.0921775E-3,-4.8162702E-2,-5.606925E-1,3.3333334E-1,0E0,-2.5450481E-2,-4.1613325E-2,-3.1757426E-1,-4.6697605E-2,-4.1316897E-1,-1.6386157E-16,4.1809893E0,1.0587174E-1,-9.947704E-1,-4.9570784E-1,-1.8328312E-3,-5.2667516E-1,-4.4042535E-2,-2.412801E-2,-3.1001164E-5,3.0652503E-2,5.1334983E-1,2E0,-3.494843E-2,3.3031462E-3,-2.6700932E-1,4.74762E-1,1.1942206E-1,-4.3414507E-2,-4.0090423E-2,-2.1556744E-2,-4.5136683E-2,-2.5168044E-2,-2.5395488E-3,-3.7491094E-2,-1.928795E-2,1.705533E-2,-2.5192264E-2,2.9754662E-3,-4.402037E-2,-2.0745015E-2,-1.1904693E-2,-3.6965046E-2],"split_indices":[81,1,7,0,10,65,47,0,0,65,0,47,26,77,3,9,79,10,51,0,0,0,10,16,57,0,8,25,72,77,0,0,0,0,0,0,0,0,0,0,0,0,0,0,0],"split_type":[0,0,0,0,0,0,0,0,0,0,0,0,0,0,0,0,0,0,0,0,0,0,0,0,0,0,0,0,0,0,0,0,0,0,0,0,0,0,0,0,0,0,0,0,0],"sum_hessian":[5.210596E2,1.4191739E2,3.7914218E2,1.02849396E2,3.9067986E1,1.8523154E2,1.9391064E2,8.247655E0,3.0820332E1,1.3574184E2,4.9489693E1,8.449048E1,1.09420166E2,9.132821E1,4.4413635E1,5.563042E1,2.8860056E1,2.9865604E1,7.955456E1,8.615681E1,5.1714025E0,5.147845E0,3.9265793E1,2.6740248E1,2.8890171E1,6.82028E0,2.2039778E1,1.0687469E1,1.9178135E1,1.7499287E1,6.205527E1,2.400729E1,1.5258501E1,2.0048544E1,6.6917043E0,1.4648685E1,1.4241487E1,9.901102E0,1.2138676E1,5.202437E0,5.4850316E0,1.41641655E1,5.0139704E0,5.019734E0,1.2479553E1],"tree_param":{"num_deleted":"0","num_feature":"96","num_nodes":"45","size_leaf_vector":"1"}},{"base_weights":[-7.658786E-1,-7.1258694E-1,-4.464891E-2,-8.281015E-1,-5.8454204E-1,-7.7681595E-1,-4.719582E-2,-4.0698653E-1,-4.384597E-2,-4.1165125E-2,-5.663644E-1,-7.7191824E-1,7.8017014E-1,-3.34187E-1,-7.151923E-1,-4.3226935E-2,-4.8768872E-1,1.2542549E0,7.587768E-2,1.1121676E-3,-2.9831856E-2,-4.167647E-2,-2.1760767E-2,-3.48447E-2,-1.0518874E-2,1.1399642E-2,9.213181E-2,2.0979946E-2,-1.521756E-2],"categories":[],"categories_nodes":[],"categories_segments":[],"categories_sizes":[],"default_left":[0,0,0,0,0,0,0,0,0,0,0,0,0,0,0,0,0,0,0,0,0,0,0,0,0,0,0,0,0],"id":8,"left_children":[1,3,-1,5,7,9,-1,11,-1,-1,13,15,17,19,21,-1,23,25,27,-1,-1,-1,-1,-1,-1,-1,-1,-1,-1],"loss_changes":[2.7809143E0,4.846817E0,0E0,3.779297E-1,8.693432E0,8.5746765E-1,0E0,4.8401596E1,0E0,0E0,7.176399E-1,1.8132286E0,8.73266E0,1.2004987E0,1.6713238E-1,0E0,1.1969461E0,9.082819E0,1.6569841E0,0E0,0E0,0E0,0E0,0E0,0E0,0E0,0E0,0E0,0E0],"parents":[2147483647,0,0,1,1,3,3,4,4,5,5,7,7,10,10,11,11,12,12,13,13,14,14,16,16,17,17,18,18],"right_children":[2,4,-1,6,8,10,-1,12,-1,-1,14,16,18,20,22,-1,24,26,28,-1,-1,-1,-1,-1,-1,-1,-1,-1,-1],"split_conditions":[5E-1,-3.3379668E-1,-4.464891E-2,9.7587377E-1,6.830127E-1,2.2078434E-3,-4.719582E-2,-5.9221387E-1,-4.384597E-2,-4.1165125E-2,8.3333336E-2,-6.718652E-1,5.549581E-1,5E-1,-5.7525545E-1,-4.3226935E-2,5.0921775E-3,-4.170472E-1,4.5545563E-2,1.1121676E-3,-2.9831856E-2,-4.167647E-2,-2.1760767E-2,-3.48447E-2,-1.0518874E-2,1.1399642E-2,9.213181E-2,2.0979946E-2,-1.521756E-2],"split_indices":[24,24,0,27,23,20,0,23,0,0,16,23,26,23,24,0,59,26,30,0,0,0,0,0,0,0,0,0,0],"split_type":[0,0,0,0,0,0,0,0,0,0,0,0,0,0,0,0,0,0,0,0,0,0,0,0,0,0,0,0,0],"sum_hessian":[5.0350592E2,3.594135E2,1.440924E2,1.8607773E2,1.7333577E2,1.3430959E2,5.1768147E1,1.0933226E2,6.400351E1,1.0762439E2,2.6685196E1,8.3893265E1,2.5438993E1,1.16914835E1,1.4993712E1,6.1734474E1,2.2158794E1,1.4737665E1,1.0701329E1,5.346167E0,6.3453164E0,9.14942E0,5.8442926E0,1.1767947E1,1.0390847E1,5.876058E0,8.861607E0,5.566108E0,5.135221E0],"tree_param":{"num_deleted":"0","num_feature":"96","num_nodes":"29","size_leaf_vector":"1"}},{"base_weights":[-7.5928247E-1,-4.49935E-2,-7.049659E-1,-6.444835E-1,-4.3740097E-2,-4.2304624E-2,-5.3936327E-1,-4.059785E-1,-7.4441314E-1,-5.8452046E-1,1.1229615E-1,-5.474464E-1,-8.2261616E-1,-3.2510385E-2,-1.4753724E-2,2.7903289E-2,-1.4605735E-2,-3.8468137E-2,-1.3438113E-2,-3.271109E-2,-4.616506E-2],"categories":[],"categories_nodes":[],"categories_segments":[],"categories_sizes":[],"default_left":[0,0,0,0,0,0,0,0,0,0,0,0,0,0,0,0,0,0,0,0,0],"id":9,"left_children":[1,-1,3,5,-1,-1,7,9,11,13,15,17,19,-1,-1,-1,-1,-1,-1,-1,-1],"loss_changes":[3.1052856E0,0E0,3.1122131E0,5.216751E0,0E0,0E0,4.5854416E0,1.02880745E1,6.16066E-1,1.3734283E0,5.4170465E0,1.1949401E0,2.0244217E-1,0E0,0E0,0E0,0E0,0E0,0E0,0E0,0E0],"parents":[2147483647,0,0,2,2,3,3,6,6,7,7,8,8,9,9,10,10,11,11,12,12],"right_children":[2,-1,4,6,-1,-1,8,10,12,14,16,18,20,-1,-1,-1,-1,-1,-1,-1,-1],"split_conditions":[-4.2152175E-1,-4.49935E-2,3.3333334E-1,-6.418562E-1,-4.3740097E-2,-4.2304624E-2,3.5355338E-1,-1.5958941E-1,-2.1493064E-2,-3.3379668E-1,1.8301271E-1,3.3031462E-3,-1.0481223E-1,-3.2510385E-2,-1.4753724E-2,2.7903289E-2,-1.4605735E-2,-3.8468137E-2,-1.3438113E-2,-3.271109E-2,-4.616506E-2],"split_indices":[81,0,65,65,0,0,24,24,90,24,24,2,80,0,0,0,0,0,0,0,0],"split_type":[0,0,0,0,0,0,0,0,0,0,0,0,0,0,0,0,0,0,0,0,0],"sum_hessian":[4.8872397E2,1.3186108E2,3.5686288E2,2.666852E2,9.017768E1,8.898092E1,1.7770428E2,1.0947245E2,6.823184E1,8.132778E1,2.8144665E1,2.1665127E1,4.6566715E1,6.526913E1,1.6058655E1,1.3207024E1,1.4937642E1,1.10807905E1,1.0584335E1,2.0230003E1,2.633671E1],"tree_param":{"num_deleted":"0","num_feature":"96","num_nodes":"21","size_leaf_vector":"1"}},{"base_weights":[-7.319715E-1,-6.755098E-1,-8.7103105E-1,-7.953431E-1,-5.4538715E-1,-4.427131E-2,-2.2539096E-2,-7.3844874E-1,-4.609068E-2,-3.6967212E-1,-4.255189E-2,-7.9702437E-1,-4.7944665E-1,-7.4928313E-1,7.034659E-1,-4.7058452E-2,-7.406952E-1,-6.4781153E-1,-2.52141E-1,-4.235831E-2,-4.4737357E-1,1.0465215E0,-9.679121E-3,-4.2932007E-2,-3.2042462E-2,-1.5948901E-2,-3.9732315E-2,8.181583E-3,-2.787296E-2,-3.4430902E-2,-7.452307E-3,4.396973E-3,7.569329E-2],"categories":[],"categories_nodes":[],"categories_segments":[],"categories_sizes":[],"default_left":[0,0,0,0,0,0,0,0,0,0,0,0,0,0,0,0,0,0,0,0,0,0,0,0,0,0,0,0,0,0,0,0,0],"id":10,"left_children":[1,3,5,7,9,-1,-1,11,-1,13,-1,15,17,19,21,-1,23,25,27,-1,29,31,-1,-1,-1,-1,-1,-1,-1,-1,-1,-1,-1],"loss_changes":[3.114212E0,4.86557E0,4.0380096E-1,5.765991E-1,8.606907E0,0E0,0E0,1.5225983E0,0E0,4.421569E1,0E0,1.2200165E-1,8.189244E-1,1.976429E0,8.985182E0,0E0,3.5923386E-1,4.2770243E-1,1.6854689E0,0E0,1.4543257E0,9.185198E0,0E0,0E0,0E0,0E0,0E0,0E0,0E0,0E0,0E0,0E0,0E0],"parents":[2147483647,0,0,1,1,2,2,3,3,4,4,7,7,9,9,11,11,12,12,13,13,14,14,16,16,17,17,18,18,20,20,21,21],"right_children":[2,4,6,8,10,-1,-1,12,-1,14,-1,16,18,20,22,-1,24,26,28,-1,30,32,-1,-1,-1,-1,-1,-1,-1,-1,-1,-1,-1],"split_conditions":[5E-1,-3.3379668E-1,5.4407015E0,9.7587377E-1,6.830127E-1,-4.427131E-2,-2.2539096E-2,2.2078434E-3,-4.609068E-2,-5.9221387E-1,-4.255189E-2,-4.8412985E-1,-5.7525545E-1,-6.718652E-1,9.756102E-1,-4.7058452E-2,-4.1746822E-1,-1.4532071E-1,9.0841794E-1,-4.235831E-2,6.0352083E-2,-4.170472E-1,-9.679121E-3,-4.2932007E-2,-3.2042462E-2,-1.5948901E-2,-3.9732315E-2,8.181583E-3,-2.787296E-2,-3.4430902E-2,-7.452307E-3,4.396973E-3,7.569329E-2],"split_indices":[24,24,76,27,23,0,0,20,0,23,0,23,24,23,27,0,48,77,8,0,57,26,0,0,0,0,0,0,0,0,0,0,0],"split_type":[0,0,0,0,0,0,0,0,0,0,0,0,0,0,0,0,0,0,0,0,0,0,0,0,0,0,0,0,0,0,0,0,0],"sum_hessian":[4.7057767E2,3.3885254E2,1.3172514E2,1.7373927E2,1.6511327E2,1.2629225E2,5.4328923E0,1.2454849E2,4.919079E1,1.0624417E2,5.8869087E1,9.988201E1,2.466648E1,7.870493E1,2.753924E1,2.3651123E1,7.623089E1,1.3107682E1,1.1558798E1,5.80714E1,2.063353E1,1.98004E1,7.73884E0,3.1463886E1,4.4767002E1,5.0255094E0,8.082173E0,5.090617E0,6.46818E0,1.0684874E1,9.948656E0,6.878956E0,1.2921443E1],"tree_param":{"num_deleted":"0","num_feature":"96","num_nodes":"33","size_leaf_vector":"1"}},{"base_weights":[-7.1087825E-1,-8.1469536E-1,-6.3313746E-1,-6.800393E-1,-4.3925155E-2,-7.9971266E-1,-4.691751E-1,-4.535634E-1,-8.063249E-1,-6.6251314E-1,-4.6299208E-2,-1.490966E-1,-7.8782266E-1,-6.4305097E-1,-5.179111E-3,-4.5518328E-2,-4.997833E-1,-4.109119E-2,-4.9786782E-1,1.0265193E0,-4.3919262E-1,-2.1938076E-2,-8.2780933E-1,-3.8554803E-2,-2.0536838E-2,-4.125107E-2,-5.585394E-3,-3.803078E-1,-3.769694E-2,1.2852275E-1,-7.84582E-3,-2.0991284E-1,-6.640259E-1,-2.6785417E-2,-4.3472145E-2,-2.9401368E-2,-2.3371668E-3,-3.1127168E-2,2.3517799E-2,-1.9224266E-2,-3.955504E-2],"categories":[],"categories_nodes":[],"categories_segments":[],"categories_sizes":[],"default_left":[0,0,0,0,0,0,0,0,0,0,0,0,0,0,0,0,0,0,0,0,0,0,0,0,0,0,0,0,0,0,0,0,0,0,0,0,0,0,0,0,0],"id":11,"left_children":[1,3,5,7,-1,9,11,13,15,17,-1,19,21,23,-1,-1,25,-1,27,29,31,-1,33,-1,-1,-1,-1,35,-1,-1,-1,37,39,-1,-1,-1,-1,-1,-1,-1,-1],"loss_changes":[3.164917E0,1.0504456E0,6.8696823E0,1.5244408E0,0E0,1.6415329E0,1.376363E1,1.6539679E0,8.572006E-1,1.3193054E0,0E0,2.4027283E1,5.8548355E-1,1.7825747E-1,0E0,0E0,1.5035915E0,0E0,7.651787E-1,2.5950731E1,2.7550592E0,0E0,2.6213837E-1,0E0,0E0,0E0,0E0,1.7716539E0,0E0,0E0,0E0,8.506555E0,6.8644905E-1,0E0,0E0,0E0,0E0,0E0,0E0,0E0,0E0],"parents":[2147483647,0,0,1,1,2,2,3,3,5,5,6,6,7,7,8,8,9,9,11,11,12,12,13,13,16,16,18,18,19,19,20,20,22,22,27,27,31,31,32,32],"right_children":[2,4,6,8,-1,10,12,14,16,18,-1,20,22,24,-1,-1,26,-1,28,30,32,-1,34,-1,-1,-1,-1,36,-1,-1,-1,38,40,-1,-1,-1,-1,-1,-1,-1,-1],"split_conditions":[-4.1746822E-1,0E0,-3.6535862E-1,0E0,-4.3925155E-2,2.5E-1,6.596121E-1,-4.713659E-1,7.841985E-3,5.0921775E-3,-4.6299208E-2,-1.9105093E-7,-1.2277611E-2,5.0921775E-3,-5.179111E-3,-4.5518328E-2,-9.947704E-1,-4.109119E-2,5E-1,3.5923392E-1,5.2996576E-1,-2.1938076E-2,-1.9578203E1,-3.8554803E-2,-2.0536838E-2,-4.125107E-2,-5.585394E-3,-2.4390255E-1,-3.769694E-2,1.2852275E-1,-7.84582E-3,-6.521177E-1,-1.8328312E-3,-2.6785417E-2,-4.3472145E-2,-2.9401368E-2,-2.3371668E-3,-3.1127168E-2,2.3517799E-2,-1.9224266E-2,-3.955504E-2],"split_indices":[48,47,47,18,0,1,47,18,27,7,0,90,58,7,0,0,9,0,18,89,89,0,90,0,0,0,0,18,0,0,0,11,10,0,0,0,0,0,0,0,0],"split_type":[0,0,0,0,0,0,0,0,0,0,0,0,0,0,0,0,0,0,0,0,0,0,0,0,0,0,0,0,0,0,0,0,0,0,0,0,0,0,0,0,0],"sum_hessian":[4.5505142E2,1.9078816E2,2.6426324E2,6.508799E1,1.2570018E2,1.2916377E2,1.3509947E2,2.4944695E1,4.0143295E1,6.489703E1,6.426674E1,6.8130714E1,6.696876E1,1.5639653E1,9.305042E0,2.8500349E1,1.1642945E1,3.095425E1,3.3942783E1,1.2982105E1,5.5148613E1,8.113669E0,5.885509E1,8.58735E0,7.0523033E0,5.721741E0,5.921204E0,2.4966179E1,8.976602E0,5.1245193E0,7.857586E0,2.8261662E1,2.688695E1,9.072144E0,4.9782948E1,1.49152155E1,1.0050964E1,1.7644125E1,1.0617536E1,9.660767E0,1.7226183E1],"tree_param":{"num_deleted":"0","num_feature":"96","num_nodes":"41","size_leaf_vector":"1"}},{"base_weights":[-7.040424E-1,-7.928234E-1,-6.125764E-1,-7.2674495E-1,-4.470532E-2,-8.041546E-1,-5.320052E-1,-4.233482E-2,-6.338733E-1,-4.4938266E-2,-6.8458647E-1,-2.1500768E-1,-6.189095E-1,-7.469456E-1,-4.5099807E-1,-2.1496374E-2,-3.790417E-2,1.7170556E-2,-4.022329E-1,-3.937895E-2,-4.814057E-1,-4.3739405E-2,-6.254254E-1,-1.419759E-1,-3.526208E-2,-3.504209E-2,-2.1071588E-1,-7.2271794E-1,-2.3813649E-1,-1.5216521E-2,-3.492092E-2,-2.0694196E-2,1.5941294E-2,7.3466855E-3,-2.6218314E-2,-3.9162394E-2,-2.4486888E-2,9.264177E-3,-3.4601916E-2],"categories":[],"categories_nodes":[],"categories_segments":[],"categories_sizes":[],"default_left":[0,0,0,0,0,0,0,0,0,0,0,0,0,0,0,0,0,0,0,0,0,0,0,0,0,0,0,0,0,0,0,0,0,0,0,0,0,0,0],"id":12,"left_children":[1,3,5,7,-1,9,11,-1,13,-1,15,17,19,21,23,-1,-1,-1,25,-1,27,-1,29,31,-1,-1,33,35,37,-1,-1,-1,-1,-1,-1,-1,-1,-1,-1],"loss_changes":[3.1477356E0,8.4703064E-1,3.041893E0,1.0306244E0,0E0,1.1544037E-1,4.307495E0,0E0,1.3851051E0,0E0,2.8667164E-1,3.924364E0,2.542595E0,2.286377E-1,2.597919E0,0E0,0E0,0E0,1.4296951E0,0E0,4.052948E0,0E0,4.696808E-1,2.2309837E0,0E0,0E0,2.1225028E0,1.19018555E-1,7.3031545E0,0E0,0E0,0E0,0E0,0E0,0E0,0E0,0E0,0E0,0E0],"parents":[2147483647,0,0,1,1,2,2,3,3,5,5,6,6,8,8,10,10,11,11,12,12,13,13,14,14,18,18,20,20,22,22,23,23,26,26,27,27,28,28],"right_children":[2,4,6,8,-1,10,12,-1,14,-1,16,18,20,22,24,-1,-1,-1,26,-1,28,-1,30,32,-1,-1,34,36,38,-1,-1,-1,-1,-1,-1,-1,-1,-1,-1],"split_conditions":[3.3031462E-3,3.5355338E-1,-4.713659E-1,-4.1746822E-1,-4.470532E-2,-9.947704E-1,0E0,-4.233482E-2,-3.3379668E-1,-4.4938266E-2,-1.6386157E-16,9.890042E-1,-4.1746822E-1,-1.78339E-1,5E-1,-2.1496374E-2,-3.790417E-2,1.7170556E-2,5.0921775E-3,-3.937895E-2,-3.6535862E-1,-4.3739405E-2,3.0508474E-1,-3.972982E-1,-3.526208E-2,-3.504209E-2,0E0,1.337411E-2,4.9958688E-1,-1.5216521E-2,-3.492092E-2,-2.0694196E-2,1.5941294E-2,7.3466855E-3,-2.6218314E-2,-3.9162394E-2,-2.4486888E-2,9.264177E-3,-3.4601916E-2],"split_indices":[8,24,18,48,0,61,18,0,24,0,26,57,48,51,16,0,0,0,7,0,47,0,48,16,0,0,47,65,1,0,0,0,0,0,0,0,0,0,0],"split_type":[0,0,0,0,0,0,0,0,0,0,0,0,0,0,0,0,0,0,0,0,0,0,0,0,0,0,0,0,0,0,0,0,0,0,0,0,0,0,0],"sum_hessian":[4.4643848E2,2.226532E2,2.237853E2,1.3969176E2,8.296144E1,6.3594006E1,1.601913E2,5.7416615E1,8.227513E1,3.1864109E1,3.1729897E1,3.5214542E1,1.2497675E2,4.8934383E1,3.334075E1,8.640625E0,2.3089272E1,8.632624E0,2.658192E1,5.4004395E1,7.097235E1,2.0826086E1,2.8108297E1,1.5752583E1,1.758817E1,9.347731E0,1.723419E1,3.464008E1,3.6332275E1,6.1636806E0,2.1944616E1,9.970845E0,5.781738E0,8.300652E0,8.933538E0,2.5621552E1,9.018529E0,1.9103483E1,1.722879E1],"tree_param":{"num_deleted":"0","num_feature":"96","num_nodes":"39","size_leaf_vector":"1"}},{"base_weights":[-6.926544E-1,-8.503165E-1,-6.3271743E-1,-4.5340955E-2,-6.755126E-1,-7.4565494E-1,-5.195589E-1,-1.8507542E-2,-3.6946435E-2,-6.517088E-1,-4.1580282E-2,-6.897628E-1,-3.546238E-1,-5.822545E-1,-4.070672E-2,-1.6460039E-2,-7.157519E-1,-2.3098076E-2,-7.09206E-1,-7.114713E-1,-2.9374418E-1,-4.0906705E-2,-5.937599E-1,2.6280877E-1,-4.1136956E-1,-7.740736E-1,-1.032289E-2,-1.989758E-2,-3.919372E-2,-2.4651531E-2,-1.0441619E-3,-1.9425116E-2,-3.626156E-2,-6.2378584E-3,4.901206E-2,-3.300629E-2,-2.9728904E-3,-4.3975916E-2,-2.6231596E-2],"categories":[],"categories_nodes":[],"categories_segments":[],"categories_sizes":[],"default_left":[0,0,0,0,0,0,0,0,0,0,0,0,0,0,0,0,0,0,0,0,0,0,0,0,0,0,0,0,0,0,0,0,0,0,0,0,0,0,0],"id":13,"left_children":[1,3,5,-1,7,9,11,-1,-1,13,-1,15,17,19,-1,-1,21,23,25,27,29,-1,31,33,35,37,-1,-1,-1,-1,-1,-1,-1,-1,-1,-1,-1,-1,-1],"loss_changes":[3.5708923E0,5.4164886E-1,3.6887665E0,0E0,3.551941E-1,7.284775E-1,4.3205338E0,0E0,0E0,4.261322E-1,0E0,5.044098E-1,9.934016E0,2.0056286E0,0E0,0E0,4.2362976E-1,5.0789943E0,1.1729469E0,6.034374E-1,1.0815469E0,0E0,7.1321297E-1,7.462641E0,1.657258E0,4.8106766E-1,0E0,0E0,0E0,0E0,0E0,0E0,0E0,0E0,0E0,0E0,0E0,0E0,0E0],"parents":[2147483647,0,0,1,1,2,2,4,4,5,5,6,6,9,9,11,11,12,12,13,13,16,16,17,17,18,18,19,19,20,20,22,22,23,23,24,24,25,25],"right_children":[2,4,6,-1,8,10,12,-1,-1,14,-1,16,18,20,-1,-1,22,24,26,28,30,-1,32,34,36,38,-1,-1,-1,-1,-1,-1,-1,-1,-1,-1,-1,-1,-1],"split_conditions":[-4.2152175E-1,2.544516E-1,5.0921775E-3,-4.5340955E-2,-3.70171E-1,9.3682975E-1,3.3031462E-3,-1.8507542E-2,-3.6946435E-2,3.3333334E-1,-4.1580282E-2,-2.2222222E-1,2E0,-3.1757426E-1,-4.070672E-2,-1.6460039E-2,-9.947704E-1,5E-1,3.4042314E-1,-1.2609938E1,3.3031462E-3,-4.0906705E-2,0E0,-4.8730683E-1,5.174407E-1,2.9946604E-1,-1.032289E-2,-1.989758E-2,-3.919372E-2,-2.4651531E-2,-1.0441619E-3,-1.9425116E-2,-3.626156E-2,-6.2378584E-3,4.901206E-2,-3.300629E-2,-2.9728904E-3,-4.3975916E-2,-2.6231596E-2],"split_indices":[81,14,7,0,77,13,8,0,0,65,0,81,57,65,0,0,9,10,11,90,8,0,47,10,10,0,0,0,0,0,0,0,0,0,0,0,0,0,0],"split_type":[0,0,0,0,0,0,0,0,0,0,0,0,0,0,0,0,0,0,0,0,0,0,0,0,0,0,0,0,0,0,0,0,0,0,0,0,0,0,0],"sum_hessian":[4.338146E2,1.1586049E2,3.1795413E2,8.439388E1,3.1466602E1,1.5633502E2,1.6161911E2,6.5867696E0,2.4879833E1,7.879382E1,7.75412E1,7.797314E1,8.364597E1,5.840445E1,2.038937E1,6.161255E0,7.181188E1,4.3778904E1,3.9867073E1,3.9325497E1,1.9078953E1,3.5941444E1,3.5870438E1,2.5399158E1,1.8379744E1,3.483302E1,5.0340514E0,8.596648E0,3.072885E1,1.0559692E1,8.519259E0,1.5549327E1,2.0321112E1,1.7027044E1,8.372115E0,1.02549715E1,8.124772E0,2.2707912E1,1.2125107E1],"tree_param":{"num_deleted":"0","num_feature":"96","num_nodes":"39","size_leaf_vector":"1"}},{"base_weights":[-6.7457545E-1,-6.117595E-1,-8.2886297E-1,-7.446058E-1,-4.6932593E-1,-7.218974E-1,-4.4684865E-2,-6.8363655E-1,-4.440718E-2,-7.428742E-1,-3.530836E-1,-4.4217627E-2,-5.826255E-1,-7.460302E-1,-4.1760236E-1,-2.3950616E-2,-4.007683E-2,1.415539E-1,-4.8270077E-1,-1.206137E-2,-6.837754E-1,-6.8778247E-1,-4.5305822E-2,-3.594624E-2,-2.1615297E-1,6.7477447E-1,-3.6213487E-1,-7.248089E-1,-2.9025298E-1,-4.2283684E-2,-4.4375482E-1,-2.4163587E-2,-3.9178923E-2,8.615463E-3,-2.5289198E-2,7.303748E-3,5.3998657E-2,-3.8168586E-3,-3.2556523E-2,-2.12556E-2,-3.9344113E-2,-3.137471E-2,3.2226066E-4,-9.442437E-3,-3.1040082E-2],"categories":[],"categories_nodes":[],"categories_segments":[],"categories_sizes":[],"default_left":[0,0,0,0,0,0,0,0,0,0,0,0,0,0,0,0,0,0,0,0,0,0,0,0,0,0,0,0,0,0,0,0,0,0,0,0,0,0,0,0,0,0,0,0,0],"id":14,"left_children":[1,3,5,7,9,11,-1,13,-1,15,17,-1,19,21,23,-1,-1,25,27,-1,29,31,-1,-1,33,35,37,39,41,-1,43,-1,-1,-1,-1,-1,-1,-1,-1,-1,-1,-1,-1,-1,-1],"loss_changes":[3.627884E0,5.4598694E0,1.9139862E-1,7.681198E-1,4.534981E0,6.3241005E-1,0E0,1.5913849E0,0E0,2.9844475E-1,6.978631E0,0E0,8.793745E-1,2.3085022E-1,1.3045244E0,0E0,0E0,6.4626274E0,3.7793808E0,0E0,5.101118E-1,1.0183105E0,0E0,0E0,1.8697932E0,2.3264046E0,9.8741186E-1,3.5853386E-1,4.944509E0,0E0,3.919227E-1,0E0,0E0,0E0,0E0,0E0,0E0,0E0,0E0,0E0,0E0,0E0,0E0,0E0,0E0],"parents":[2147483647,0,0,1,1,2,2,3,3,4,4,5,5,7,7,9,9,10,10,12,12,13,13,14,14,17,17,18,18,20,20,21,21,24,24,25,25,26,26,27,27,28,28,30,30],"right_children":[2,4,6,8,10,12,-1,14,-1,16,18,-1,20,22,24,-1,-1,26,28,-1,30,32,-1,-1,34,36,38,40,42,-1,44,-1,-1,-1,-1,-1,-1,-1,-1,-1,-1,-1,-1,-1,-1],"split_conditions":[5E-1,-3.3379668E-1,-5.2238098E-5,9.9506E-1,-4.713659E-1,-2.0762728E-1,-4.4684865E-2,2.2078434E-3,-4.440718E-2,0E0,0E0,-4.4217627E-2,6.1237246E-1,6.234898E-1,-6.521177E-1,-2.3950616E-2,-4.007683E-2,2.5E-1,-4.1746822E-1,-1.206137E-2,3.3031462E-3,5.549581E-1,-4.5305822E-2,-3.594624E-2,3.3333334E-1,-3.1300527E-1,1.0830844E-1,-6.4461916E-3,-3.6535862E-1,-4.2283684E-2,4.793696E-1,-2.4163587E-2,-3.9178923E-2,8.615463E-3,-2.5289198E-2,7.303748E-3,5.3998657E-2,-3.8168586E-3,-3.2556523E-2,-2.12556E-2,-3.9344113E-2,-3.137471E-2,3.2226066E-4,-9.442437E-3,-3.1040082E-2],"split_indices":[24,24,90,27,18,5,0,20,0,24,18,0,24,25,11,0,0,20,48,0,2,26,0,0,11,16,47,24,47,0,5,0,0,0,0,0,0,0,0,0,0,0,0,0,0],"split_type":[0,0,0,0,0,0,0,0,0,0,0,0,0,0,0,0,0,0,0,0,0,0,0,0,0,0,0,0,0,0,0,0,0,0,0,0,0,0,0,0,0,0,0,0,0],"sum_hessian":[4.2564478E2,3.0601865E2,1.1962611E2,1.5615074E2,1.4986792E2,4.972419E1,6.990191E1,1.13642586E2,4.2508152E1,4.3085606E1,1.0678232E2,2.0482435E1,2.9241756E1,9.059164E1,2.3050953E1,9.503712E0,3.3581894E1,2.215263E1,8.4629684E1,7.4572215E0,2.1784534E1,7.03067E1,2.0284935E1,8.206756E0,1.4844197E1,1.059586E1,1.1556771E1,3.6254105E1,4.837558E1,1.150253E1,1.0282004E1,2.4355658E1,4.595104E1,6.5133543E0,8.330843E0,5.187612E0,5.408247E0,6.4461236E0,5.110647E0,7.5672383E0,2.8686867E1,2.211907E1,2.625651E1,5.061413E0,5.2205915E0],"tree_param":{"num_deleted":"0","num_feature":"96","num_nodes":"45","size_leaf_vector":"1"}},{"base_weights":[-6.608098E-1,-6.015368E-1,-4.172718E-2,-7.1235704E-1,-3.8929307E-1,-4.0477123E-2,-6.061075E-1,8.825153E-2,-5.1851475E-1,-7.6564604E-1,-4.326623E-1,-4.486824E-1,-4.3397326E-2,-4.1425604E-2,-5.65348E-1,-6.993492E-1,-1.9470051E-1,-5.893224E-1,-1.17016144E-1,-1.596403E-2,-3.796623E-2,-2.501449E-2,-4.204294E-2,-3.782466E-2,-8.389621E-4,-2.127784E-2,-3.692133E-2,-2.5552709E-2,1.2852113E-2],"categories":[],"categories_nodes":[],"categories_segments":[],"categories_sizes":[],"default_left":[0,0,0,0,0,0,0,0,0,0,0,0,0,0,0,0,0,0,0,0,0,0,0,0,0,0,0,0,0],"id":15,"left_children":[1,3,-1,5,7,-1,9,-1,11,13,15,17,-1,-1,19,21,23,25,27,-1,-1,-1,-1,-1,-1,-1,-1,-1,-1],"loss_changes":[3.7166595E0,6.9915085E0,0E0,1.593338E0,3.1040272E1,0E0,2.4467773E0,0E0,2.120594E0,1.7372131E-1,3.0623102E0,4.0265293E0,0E0,0E0,4.8928976E-1,2.3791218E-1,2.788085E0,1.1852303E0,4.168803E0,0E0,0E0,0E0,0E0,0E0,0E0,0E0,0E0,0E0,0E0],"parents":[2147483647,0,0,1,1,3,3,4,4,6,6,8,8,9,9,10,10,11,11,14,14,15,15,16,16,17,17,18,18],"right_children":[2,4,-1,6,8,-1,10,-1,12,14,16,18,-1,-1,20,22,24,26,28,-1,-1,-1,-1,-1,-1,-1,-1,-1,-1],"split_conditions":[3.3333334E-1,-3.1757426E-1,-4.172718E-2,5.0921775E-3,1.6389923E-2,-4.0477123E-2,3.3031462E-3,8.825153E-2,6.234898E-1,4.8064774E-1,-8.459266E-2,1.6091318E-3,-4.3397326E-2,-4.1425604E-2,-3.3333334E-1,-3.3333334E-1,-9.535047E-1,5.549581E-1,-4.170472E-1,-1.596403E-2,-3.796623E-2,-2.501449E-2,-4.204294E-2,-3.782466E-2,-8.389621E-4,-2.127784E-2,-3.692133E-2,-2.5552709E-2,1.2852113E-2],"split_indices":[65,65,0,7,3,0,2,0,25,49,81,25,0,0,65,65,10,26,26,0,0,0,0,0,0,0,0,0,0],"split_type":[0,0,0,0,0,0,0,0,0,0,0,0,0,0,0,0,0,0,0,0,0,0,0,0,0,0,0,0,0],"sum_hessian":[4.0866818E2,3.0803705E2,1.0063113E2,2.0082344E2,1.07213615E2,1.0142849E2,9.939494E1,5.350677E0,1.0186294E2,4.9994556E1,4.940039E1,8.6800316E1,1.506262E1,3.5664433E1,1.4330126E1,2.237996E1,2.702043E1,6.0408012E1,2.6392307E1,7.4832644E0,6.846861E0,1.1183571E1,1.1196388E1,5.71699E0,2.130344E1,3.0625359E1,2.9782652E1,1.26745405E1,1.3717768E1],"tree_param":{"num_deleted":"0","num_feature":"96","num_nodes":"29","size_leaf_vector":"1"}},{"base_weights":[-6.5563416E-1,-5.641647E-1,-7.715426E-1,-7.3856467E-1,-3.830186E-1,-4.1765284E-2,-6.307075E-1,-7.918114E-1,-4.4653267E-1,3.812786E-2,-4.3218855E-2,-3.830653E-1,-7.0296496E-1,-8.1499034E-1,-2.2903578E-2,-1.9499664E-1,-3.4201242E-2,-4.1086223E-2,3.5994276E-1,-3.8072765E-2,-6.315163E-3,-5.5900145E-1,-4.0856306E-2,-4.1775532E-2,-2.5610292E-2,6.0044485E-3,-2.4132414E-2,-3.420911E-2,-1.5993172E-2],"categories":[],"categories_nodes":[],"categories_segments":[],"categories_sizes":[],"default_left":[0,0,0,0,0,0,0,0,0,0,0,0,0,0,0,0,0,0,0,0,0,0,0,0,0,0,0,0,0],"id":16,"left_children":[1,3,5,7,9,-1,11,13,15,17,-1,19,21,23,-1,25,-1,-1,-1,-1,-1,27,-1,-1,-1,-1,-1,-1,-1],"loss_changes":[3.8110352E0,6.906784E0,1.0351562E0,1.4326515E0,2.308412E1,0E0,7.737713E-1,3.682518E-1,1.0618544E0,3.8522693E2,0E0,1.3965209E0,2.6516342E-1,1.2101364E-1,0E0,1.06541E0,0E0,0E0,0E0,0E0,0E0,4.5749283E-1,0E0,0E0,0E0,0E0,0E0,0E0,0E0],"parents":[2147483647,0,0,1,1,2,2,3,3,4,4,6,6,7,7,8,8,9,9,11,11,12,12,13,13,15,15,21,21],"right_children":[2,4,6,8,10,-1,12,14,16,18,-1,20,22,24,-1,26,-1,-1,-1,-1,-1,28,-1,-1,-1,-1,-1,-1,-1],"split_conditions":[5.549581E-1,-4.170472E-1,1.6091318E-3,6.8313754E-1,6.234898E-1,-4.1765284E-2,-3.9783123E-1,3.4154124E0,3.4105152E-1,-5.9771764E-1,-4.3218855E-2,-3.8418835E-1,9.8212606E-1,1.0241348E0,-2.2903578E-2,1.4912547E-1,-3.4201242E-2,-4.1086223E-2,3.5994276E-1,-3.8072765E-2,-6.315163E-3,-3.9237E-2,-4.0856306E-2,-4.1775532E-2,-2.5610292E-2,6.0044485E-3,-2.4132414E-2,-3.420911E-2,-1.5993172E-2],"split_indices":[26,26,25,72,25,0,51,76,37,25,0,47,13,57,0,25,0,0,0,0,0,5,0,0,0,0,0,0,0],"split_type":[0,0,0,0,0,0,0,0,0,0,0,0,0,0,0,0,0,0,0,0,0,0,0,0,0,0,0,0,0],"sum_hessian":[3.9951816E2,2.2657959E2,1.7293858E2,1.1387159E2,1.12708E2,1.15647934E2,5.729064E1,9.486355E1,1.9008043E1,6.060485E1,5.2103146E1,1.43638735E1,4.2926765E1,8.73546E1,7.508952E0,1.011547E1,8.892573E0,5.4898006E1,5.706846E0,5.0120354E0,9.351838E0,2.159318E1,2.1333588E1,8.0162415E1,7.1921835E0,5.105531E0,5.0099382E0,1.2952135E1,8.641045E0],"tree_param":{"num_deleted":"0","num_feature":"96","num_nodes":"29","size_leaf_vector":"1"}},{"base_weights":[-6.296418E-1,-5.2402645E-1,-7.3156554E-1,-4.104782E-1,-7.0159423E-1,-4.398137E-2,-6.7061627E-1,-6.3788146E-1,-9.743931E-2,-5.744191E-1,-4.0354136E-2,-7.421633E-1,-4.9167705E-1,-4.1841224E-2,-5.222146E-1,4.931261E-1,-3.5482895E-2,-4.1009557E-2,-2.5607964E-1,-7.841056E-1,-4.3977854E-1,-2.9016834E-1,-3.5619743E-2,-6.9208366E-1,-3.3136687E-1,1.6352677E0,-3.5789707E-1,8.437421E-3,-3.2242905E-2,-6.3530254E-1,-4.2228904E-2,-5.720035E-3,-3.200912E-2,3.4800965E-2,-3.3995222E-2,-2.2207275E-2,-3.8538706E-2,1.3306039E-2,-3.3176374E-2,1.0130588E-1,4.752045E-2,-3.4106165E-2,9.4736E-5,-2.5218388E-2,-4.2960286E-2,2.104302E-2,-1.9719383E-2],"categories":[],"categories_nodes":[],"categories_segments":[],"categories_sizes":[],"default_left":[0,0,0,0,0,0,0,0,0,0,0,0,0,0,0,0,0,0,0,0,0,0,0,0,0,0,0,0,0,0,0,0,0,0,0,0,0,0,0,0,0,0,0,0,0,0,0],"id":17,"left_children":[1,3,5,7,9,-1,11,13,15,17,-1,19,21,-1,23,25,-1,-1,27,29,31,33,-1,35,37,39,41,-1,-1,43,-1,-1,-1,45,-1,-1,-1,-1,-1,-1,-1,-1,-1,-1,-1,-1,-1],"loss_changes":[3.771286E0,3.604744E0,1.1597595E0,8.492479E0,5.277405E-1,0E0,1.4473495E0,1.1605968E0,1.9058891E1,2.6826582E0,0E0,9.127655E-1,1.7233591E0,0E0,1.2801647E0,2.6759623E1,0E0,0E0,3.0094523E0,2.3553085E-1,8.628521E-1,3.110431E0,0E0,1.2037945E-1,4.909032E0,1.2001095E0,1.8970759E0,0E0,0E0,4.11829E-1,0E0,0E0,0E0,2.5257068E0,0E0,0E0,0E0,0E0,0E0,0E0,0E0,0E0,0E0,0E0,0E0,0E0,0E0],"parents":[2147483647,0,0,1,1,2,2,3,3,4,4,6,6,7,7,8,8,9,9,11,11,12,12,14,14,15,15,18,18,19,19,20,20,21,21,23,23,24,24,25,25,26,26,29,29,33,33],"right_children":[2,4,6,8,10,-1,12,14,16,18,-1,20,22,-1,24,26,-1,-1,28,30,32,34,-1,36,38,40,42,-1,-1,44,-1,-1,-1,46,-1,-1,-1,-1,-1,-1,-1,-1,-1,-1,-1,-1,-1],"split_conditions":[9.968743E-1,3.5355338E-1,-4.2152175E-1,-3.3379668E-1,6.1237246E-1,-4.398137E-2,3.3182627E-1,-3.491514E-1,6.830127E-1,3.6253783E-1,-4.0354136E-2,1.0241348E0,1.6533025E-1,-4.1841224E-2,-6.6015834E-1,5.833333E-1,-3.5482895E-2,-4.1009557E-2,5E-1,1.1111111E-1,-1.7098727E-2,3.3516937E-1,-3.5619743E-2,8.3333336E-2,5E-1,9.778764E-1,1.08053273E-16,8.437421E-3,-3.2242905E-2,9.580735E-1,-4.2228904E-2,-5.720035E-3,-3.200912E-2,0E0,-3.3995222E-2,-2.2207275E-2,-3.8538706E-2,1.3306039E-2,-3.3176374E-2,1.0130588E-1,4.752045E-2,-3.4106165E-2,9.4736E-5,-2.5218388E-2,-4.2960286E-2,2.104302E-2,-1.9719383E-2],"split_indices":[2,24,81,24,24,0,48,23,23,24,0,57,77,0,24,16,0,0,23,81,18,51,0,16,23,7,24,0,0,27,0,0,0,65,0,0,0,0,0,0,0,0,0,0,0,0,0],"split_type":[0,0,0,0,0,0,0,0,0,0,0,0,0,0,0,0,0,0,0,0,0,0,0,0,0,0,0,0,0,0,0,0,0,0,0,0,0,0,0,0,0,0,0,0,0,0,0],"sum_hessian":[3.8495117E2,1.92068E2,1.9288318E2,1.1917288E2,7.289512E1,5.2329304E1,1.4055388E2,6.842713E1,5.074575E1,3.5972534E1,3.6922585E1,9.81586E1,4.2395283E1,2.286513E1,4.5562E1,2.5928667E1,2.4817085E1,1.9410389E1,1.6562145E1,8.480294E1,1.3355661E1,2.3372004E1,1.902328E1,2.2716347E1,2.2845654E1,1.0677317E1,1.525135E1,8.184588E0,8.377557E0,2.7829416E1,5.6973522E1,5.689301E0,7.66636E0,1.3241608E1,1.0130396E1,7.0734663E0,1.564288E1,8.233723E0,1.4611931E1,5.5509405E0,5.1263757E0,7.55094E0,7.7004104E0,1.9612799E1,8.216618E0,6.981281E0,6.260327E0],"tree_param":{"num_deleted":"0","num_feature":"96","num_nodes":"47","size_leaf_vector":"1"}},{"base_weights":[-6.177784E-1,-5.640377E-1,-8.2118475E-1,-4.8516396E-1,-7.448477E-1,-4.21374E-2,-2.1561882E-2,-6.213774E-1,-2.862987E-1,-6.1360884E-1,-4.340693E-2,-5.127393E-1,-4.1254506E-2,1.0417158E-1,-7.6307493E-1,-4.4002762E-1,-3.929875E-2,-3.068433E-1,-7.05219E-1,8.467018E-1,-3.679269E-1,-2.2172611E-2,-3.991158E-2,-1.9530651E-1,-3.5144057E-2,-2.3910332E-2,1.2142888E-2,-4.0617064E-2,-2.8348193E-2,4.6923324E-3,1.23269536E-1,-8.708744E-3,-3.359745E-2,-3.206302E-2,1.2182929E-2],"categories":[],"categories_nodes":[],"categories_segments":[],"categories_sizes":[],"default_left":[0,0,0,0,0,0,0,0,0,0,0,0,0,0,0,0,0,0,0,0,0,0,0,0,0,0,0,0,0,0,0,0,0,0,0],"id":18,"left_children":[1,3,5,7,9,-1,-1,11,13,15,-1,17,-1,19,21,23,-1,25,27,29,31,-1,-1,33,-1,-1,-1,-1,-1,-1,-1,-1,-1,-1,-1],"loss_changes":[3.7155457E0,3.9965057E0,2.898941E-1,5.6631737E0,9.3883514E-1,0E0,0E0,2.3902512E0,1.6743582E1,1.0742245E0,0E0,3.173973E0,0E0,1.7870312E1,1.002388E-1,1.5300579E0,0E0,4.1764803E0,1.828556E-1,2.3863068E1,1.7277474E0,0E0,0E0,3.0550063E0,0E0,0E0,0E0,0E0,0E0,0E0,0E0,0E0,0E0,0E0,0E0],"parents":[2147483647,0,0,1,1,2,2,3,3,4,4,7,7,8,8,9,9,11,11,13,13,14,14,15,15,17,17,18,18,19,19,20,20,23,23],"right_children":[2,4,6,8,10,-1,-1,12,14,16,-1,18,-1,20,22,24,-1,26,28,30,32,-1,-1,34,-1,-1,-1,-1,-1,-1,-1,-1,-1,-1,-1],"split_conditions":[1E0,5.8319396E-1,1.2051793E0,-3.6535862E-1,-2.5E-1,-4.21374E-2,-2.1561882E-2,2.5E-1,7.5E-1,7.7257785E-3,-4.340693E-2,5.5932206E-1,-4.1254506E-2,7.3034636E-7,4.579825E-2,9.8896873E-1,-3.929875E-2,3.0652503E-2,3.3031462E-3,-4.2043418E-1,3.5355338E-1,-2.2172611E-2,-3.991158E-2,3.3031462E-3,-3.5144057E-2,-2.3910332E-2,1.2142888E-2,-4.0617064E-2,-2.8348193E-2,4.6923324E-3,1.23269536E-1,-8.708744E-3,-3.359745E-2,-3.206302E-2,1.2182929E-2],"split_indices":[45,47,80,47,1,0,0,1,1,72,0,48,0,90,89,8,0,45,2,0,24,0,0,2,0,0,0,0,0,0,0,0,0,0,0],"split_type":[0,0,0,0,0,0,0,0,0,0,0,0,0,0,0,0,0,0,0,0,0,0,0,0,0,0,0,0,0,0,0,0,0,0,0],"sum_hessian":[3.812744E2,3.04577E2,7.669741E1,2.1463239E2,8.994461E1,7.157811E1,5.1192994E0,1.2612086E2,8.8511536E1,4.6463135E1,4.348148E1,8.454876E1,4.1572098E1,4.9089622E1,3.9421913E1,2.4920168E1,2.1542967E1,4.2104073E1,4.2444683E1,1.8771606E1,3.0318014E1,5.2555246E0,3.416639E1,1.3807848E1,1.111232E1,3.2197052E1,9.9070215E0,2.1167837E1,2.1276846E1,1.3534611E1,5.2369957E0,1.9477797E1,1.0840218E1,6.6207957E0,7.1870522E0],"tree_param":{"num_deleted":"0","num_feature":"96","num_nodes":"35","size_leaf_vector":"1"}},{"base_weights":[-6.115865E-1,-7.33289E-1,-5.235122E-1,-5.9054613E-1,-4.0165257E-2,-2.197126E-1,-6.248827E-1,-7.67959E-1,-3.8582584E-1,6.501227E-2,-5.1786995E-1,-5.3172356E-1,-4.011445E-2,-5.9180015E-1,-4.5164015E-2,-3.0763542E-2,-1.5719941E-1,-3.719211E-2,2.8818393E-1,-2.8461286E-1,-3.8596865E-2,-3.7030578E-2,-3.3513343E-1,-1.2448997E-2,-3.807994E-2,1.4224902E-2,-3.129481E-2,6.0544796E-2,-5.776779E-2,-2.798496E-2,2.6879532E-3,-5.626857E-1,5.187009E-1,1.2093422E-2,-2.0517636E-2,-1.5268623E-2,-3.571243E-2,-8.730442E-3,6.608503E-2],"categories":[],"categories_nodes":[],"categories_segments":[],"categories_sizes":[],"default_left":[0,0,0,0,0,0,0,0,0,0,0,0,0,0,0,0,0,0,0,0,0,0,0,0,0,0,0,0,0,0,0,0,0,0,0,0,0,0,0],"id":19,"left_children":[1,3,5,7,-1,9,11,13,15,17,19,21,-1,23,-1,-1,25,-1,27,29,-1,-1,31,-1,-1,-1,-1,-1,33,-1,-1,35,37,-1,-1,-1,-1,-1,-1],"loss_changes":[3.567047E0,1.0473175E0,6.555874E0,1.6606865E0,0E0,4.7807264E0,2.2576904E0,1.2948227E-1,1.3209524E0,5.5380473E0,1.4056644E0,4.2468414E0,0E0,6.8365335E-1,0E0,0E0,3.258553E0,0E0,7.6784616E0,1.5084832E0,0E0,0E0,1.1602943E1,0E0,0E0,0E0,0E0,0E0,2.0315409E0,0E0,0E0,1.5932484E0,7.3405876E0,0E0,0E0,0E0,0E0,0E0,0E0],"parents":[2147483647,0,0,1,1,2,2,3,3,5,5,6,6,7,7,8,8,9,9,10,10,11,11,13,13,16,16,18,18,19,19,22,22,28,28,31,31,32,32],"right_children":[2,4,6,8,-1,10,12,14,16,18,20,22,-1,24,-1,-1,26,-1,28,30,-1,-1,32,-1,-1,-1,-1,-1,34,-1,-1,36,38,-1,-1,-1,-1,-1,-1],"split_conditions":[-4.1746822E-1,-2.5E-1,3.0508474E-1,5.0921775E-3,-4.0165257E-2,9.6991205E-1,4.9958688E-1,8.869249E-1,3.3031462E-3,-5.06878E-1,1.757816E-1,-4.1316897E-1,-4.011445E-2,-2.8041634E-1,-4.5164015E-2,-3.0763542E-2,2E0,-3.719211E-2,2.4221015E-1,3.3031462E-3,-3.8596865E-2,-3.7030578E-2,-8.845881E-2,-1.2448997E-2,-3.807994E-2,1.4224902E-2,-3.129481E-2,6.0544796E-2,5.5124915E-1,-2.798496E-2,2.6879532E-3,-1.5311638E-1,-2.4263693E-3,1.2093422E-2,-2.0517636E-2,-1.5268623E-2,-3.571243E-2,-8.730442E-3,6.608503E-2],"split_indices":[48,1,48,7,0,2,1,2,60,89,82,47,0,83,0,0,62,0,89,60,0,0,89,0,0,0,0,0,89,0,0,37,90,0,0,0,0,0,0],"split_type":[0,0,0,0,0,0,0,0,0,0,0,0,0,0,0,0,0,0,0,0,0,0,0,0,0,0,0,0,0,0,0,0,0,0,0,0,0,0,0],"sum_hessian":[3.6759476E2,1.512581E2,2.1633664E2,5.2881714E1,9.837639E1,5.4918255E1,1.6141838E2,2.68564E1,2.6025316E1,2.8491909E1,2.6426344E1,1.0846089E2,5.2957497E1,1.4002062E1,1.2854338E1,1.2145333E1,1.3879982E1,5.656752E0,2.2835157E1,1.4882797E1,1.1543548E1,5.1243984E1,5.7216908E1,5.454949E0,8.547113E0,7.3481374E0,6.5318446E0,5.54514E0,1.7290018E1,7.8482823E0,7.0345144E0,4.5446194E1,1.1770712E1,9.516582E0,7.7734356E0,1.7963602E1,2.7482594E1,6.7367544E0,5.0339575E0],"tree_param":{"num_deleted":"0","num_feature":"96","num_nodes":"39","size_leaf_vector":"1"}},{"base_weights":[-5.8795196E-1,-6.9224584E-1,-4.839823E-1,-4.0499546E-2,-6.0255307E-1,-6.4388686E-1,-3.3239287E-1,-3.9559945E-2,-5.2518904E-1,-4.969842E-1,-3.891361E-2,-3.5336096E-2,-6.6474175E-1,-2.782266E-1,-6.385529E-1,-2.732336E-1,-6.9874793E-1,-5.832081E-1,1.6153626E-1,-7.366701E-1,-1.1728531E-2,2.8081909E-2,-5.303631E-1,-5.0076145E-1,-3.741492E-2,-9.117663E-2,-2.829065E-2,-1.938904E-2,-4.0306445E-2,-1.7244892E-2,-3.9439302E-2,3.7979966E-1,-2.0643095E-2,-3.930119E-2,-1.775835E-2,-1.4207643E-2,-3.213125E-2,-1.0304771E-2,-3.2990158E-2,9.566784E-3,-2.454883E-2,-2.3793008E-3,4.2640787E-2],"categories":[],"categories_nodes":[],"categories_segments":[],"categories_sizes":[],"default_left":[0,0,0,0,0,0,0,0,0,0,0,0,0,0,0,0,0,0,0,0,0,0,0,0,0,0,0,0,0,0,0,0,0,0,0,0,0,0,0,0,0,0,0],"id":20,"left_children":[1,3,5,-1,7,9,11,-1,13,15,-1,17,19,21,23,25,27,29,31,33,-1,-1,35,37,-1,39,-1,-1,-1,-1,-1,41,-1,-1,-1,-1,-1,-1,-1,-1,-1,-1,-1],"loss_changes":[3.5557556E0,1.379158E0,4.222149E0,0E0,1.1061134E0,1.3503914E0,9.455793E0,0E0,1.9756641E0,1.8318758E0,0E0,5.6766367E0,1.2276001E0,5.797366E0,4.107685E-1,1.1675639E0,4.5270634E-1,4.0885592E-1,5.0283523E0,4.4213486E-1,0E0,0E0,3.8369226E-1,1.0849271E0,0E0,1.8221524E0,0E0,0E0,0E0,0E0,0E0,5.838261E0,0E0,0E0,0E0,0E0,0E0,0E0,0E0,0E0,0E0,0E0,0E0],"parents":[2147483647,0,0,1,1,2,2,4,4,5,5,6,6,8,8,9,9,11,11,12,12,13,13,14,14,15,15,16,16,17,17,18,18,19,19,22,22,23,23,25,25,31,31],"right_children":[2,4,6,-1,8,10,12,-1,14,16,-1,18,20,22,24,26,28,30,32,34,-1,-1,36,38,-1,40,-1,-1,-1,-1,-1,42,-1,-1,-1,-1,-1,-1,-1,-1,-1,-1,-1],"split_conditions":[3.3031462E-3,-4.1746822E-1,5.0921775E-3,-4.0499546E-2,-6.418562E-1,9.890042E-1,2E0,-3.9559945E-2,0E0,9.878915E-1,-3.891361E-2,-4.713659E-1,4.887333E-1,2.0993331E-1,5.5932206E-1,7.3034647E-7,-3.3181757E-1,8.609924E-2,4.9958688E-1,3.4042314E-1,-1.1728531E-2,2.8081909E-2,-2E-1,7.30341E-7,-3.741492E-2,5.8319396E-1,-2.829065E-2,-1.938904E-2,-4.0306445E-2,-1.7244892E-2,-3.9439302E-2,1.7998291E-2,-2.0643095E-2,-3.930119E-2,-1.775835E-2,-1.4207643E-2,-3.213125E-2,-1.0304771E-2,-3.2990158E-2,9.566784E-3,-2.454883E-2,-2.3793008E-3,4.2640787E-2],"split_indices":[8,48,7,0,65,62,62,0,65,2,0,18,30,4,48,90,79,47,1,15,0,0,82,90,0,47,0,0,0,0,0,78,0,0,0,0,0,0,0,0,0,0,0],"split_type":[0,0,0,0,0,0,0,0,0,0,0,0,0,0,0,0,0,0,0,0,0,0,0,0,0,0,0,0,0,0,0,0,0,0,0,0,0,0,0,0,0,0,0],"sum_hessian":[3.578167E2,1.7580515E2,1.8201158E2,7.254297E1,1.0326218E2,8.6996E1,9.501558E1,2.7348398E1,7.591378E1,4.38069E1,4.31891E1,5.0755833E1,4.4259747E1,2.4970345E1,5.0943436E1,2.188796E1,2.191894E1,1.28984995E1,3.785733E1,3.730888E1,6.950866E0,5.4820747E0,1.948827E1,2.5052095E1,2.5891338E1,1.4300889E1,7.5870705E0,6.8097296E0,1.5109211E1,7.2138057E0,5.684694E0,2.7678621E1,1.017871E1,3.2096348E1,5.21253E0,7.208946E0,1.2279325E1,9.586492E0,1.5465604E1,8.685113E0,5.615776E0,1.5013146E1,1.2665476E1],"tree_param":{"num_deleted":"0","num_feature":"96","num_nodes":"43","size_leaf_vector":"1"}},{"base_weights":[-5.627209E-1,-4.9245873E-1,-7.39177E-1,-5.8265465E-1,-1.6529606E-1,-4.0936265E-2,-6.459268E-1,-5.009226E-1,-4.034556E-2,-1.4583674E-2,-2.999792E-2,-5.562751E-1,-4.060507E-2,-1.8968445E-1,-6.734751E-1,-4.3419707E-1,1.883352E-1,-4.5736825E-1,-4.0200766E-2,-4.336911E-1,5.5791758E-2,-5.3484356E-1,-4.0692825E-2,-7.927891E-3,-3.169262E-2,4.2832524E-2,-8.714754E-2,-5.557443E-1,-5.7662926E-3,-8.456599E-3,-3.2145604E-2,-1.4191016E-2,2.066785E-2,-1.320419E-2,-3.1136313E-2,-2.1311156E-2,1.1787605E-2,-3.6138687E-2,-1.6530363E-2],"categories":[],"categories_nodes":[],"categories_segments":[],"categories_sizes":[],"default_left":[0,0,0,0,0,0,0,0,0,0,0,0,0,0,0,0,0,0,0,0,0,0,0,0,0,0,0,0,0,0,0,0,0,0,0,0,0,0,0],"id":21,"left_children":[1,3,5,7,9,-1,11,13,-1,15,-1,17,-1,19,21,23,25,27,-1,29,31,33,-1,-1,-1,-1,35,37,-1,-1,-1,-1,-1,-1,-1,-1,-1,-1,-1],"loss_changes":[3.9783325E0,7.383934E0,1.9624329E-1,3.230667E0,3.6714554E0,0E0,2.892151E-1,7.8194847E0,0E0,3.7209444E0,0E0,5.0167465E-1,0E0,3.268957E0,1.4097939E0,6.828246E-1,5.5069466E0,8.672066E-1,0E0,1.4013071E0,3.504158E0,1.0400105E0,0E0,0E0,0E0,0E0,2.487427E0,5.595007E-1,0E0,0E0,0E0,0E0,0E0,0E0,0E0,0E0,0E0,0E0,0E0],"parents":[2147483647,0,0,1,1,2,2,3,3,4,4,6,6,7,7,9,9,11,11,13,13,14,14,15,15,16,16,17,17,19,19,20,20,21,21,26,26,27,27],"right_children":[2,4,6,8,10,-1,12,14,-1,16,-1,18,-1,20,22,24,26,28,-1,30,32,34,-1,-1,-1,-1,36,38,-1,-1,-1,-1,-1,-1,-1,-1,-1,-1,-1],"split_conditions":[9.9506E-1,2.2078434E-3,3.3031462E-3,8.0193776E-1,3.3333334E-1,-4.0936265E-2,4.843049E-1,5E-1,-4.034556E-2,-6.521177E-1,-2.999792E-2,1E0,-4.060507E-2,3.3031462E-3,6.234898E-1,9.8367894E-1,0E0,3.0652503E-2,-4.0200766E-2,0E0,-9.947704E-1,-3.6352083E-1,-4.0692825E-2,-7.927891E-3,-3.169262E-2,4.2832524E-2,3.3031462E-3,6.0352083E-2,-5.7662926E-3,-8.456599E-3,-3.2145604E-2,-1.4191016E-2,2.066785E-2,-1.320419E-2,-3.1136313E-2,-2.1311156E-2,1.1787605E-2,-3.6138687E-2,-1.6530363E-2],"split_indices":[27,20,13,26,65,0,50,25,0,11,0,10,0,8,25,8,11,10,0,11,9,51,0,0,0,0,13,57,0,0,0,0,0,0,0,0,0,0,0],"split_type":[0,0,0,0,0,0,0,0,0,0,0,0,0,0,0,0,0,0,0,0,0,0,0,0,0,0,0,0,0,0,0,0,0,0,0,0,0,0,0],"sum_hessian":[3.4924002E2,2.5249223E2,9.674778E1,1.9731361E2,5.5178616E1,4.801127E1,4.873651E1,1.4697949E2,5.0334133E1,4.173961E1,1.3439007E1,3.4481297E1,1.4255214E1,5.317158E1,9.380791E1,1.3233813E1,2.8505795E1,2.6677021E1,7.804274E0,2.6281088E1,2.6890491E1,4.961816E1,4.4189747E1,6.3127465E0,6.921067E0,7.704706E0,2.0801088E1,2.0232964E1,6.444058E0,1.2404293E1,1.3876795E1,1.3897253E1,1.2993239E1,1.3139946E1,3.6478214E1,9.990314E0,1.0810774E1,1.0346505E1,9.886457E0],"tree_param":{"num_deleted":"0","num_feature":"96","num_nodes":"39","size_leaf_vector":"1"}}]},"name":"gbtree"},"learner_model_param":{"base_score":"1.3287061E-1","boost_from_average":"1","num_class":"0","num_feature":"96","num_target":"1"},"objective":{"name":"binary:logistic","reg_loss_param":{"scale_pos_weight":"0.106847696"}}},"version":[3,0,2]}