{"learner":{"attributes":{"best_iteration":"6","best_score":"0.09494934298350566","scikit_learn":"{\"_estimator_type\": \"classifier\"}"},"feature_names":[],"feature_types":[],"gradient_booster":{"model":{"gbtree_model_param":{"num_parallel_tree":"1","num_trees":"27"},"iteration_indptr":[0,1,2,3,4,5,6,7,8,9,10,11,12,13,14,15,16,17,18,19,20,21,22,23,24,25,26,27],"tree_info":[0,0,0,0,0,0,0,0,0,0,0,0,0,0,0,0,0,0,0,0,0,0,0,0,0,0,0],"trees":[{"base_weights":[-4.950937E-1,-3.4257504E-1,-8.8326454E-1,-5.302577E-1,2.843958E-1,-9.485055E-1,-6.6167843E-1,-3.8939908E-1,-9.018269E-1,-5.2862145E-2,-8.606664E-1,-9.2061836E-1,-3.4229803E-1,-5.8627146E-1,2.7883422E-1,-8.25944E-1,-5.334894E-2,-6.24991E-1,-9.3952894E-1,-2.3693545E-2,-5.1169183E-2,1.9680327E-1,-8.3495885E-1,-7.868108E-1,-3.8553643E-1,-8.9927274E-1,-5.011776E-1,-3.0911636E-1,-4.7457773E-2,-6.332724E-1,-9.921731E-1,-2.6455065E-2,3.719571E-2,-2.5648942E-2,-5.058309E-2,-4.6004504E-2,-3.2034036E-2,2.6799706E-1,-3.2399606E-2,-4.9836397E-2,-3.5578873E-2,3.2253608E-3,-4.1056562E-2,4.5804353E-3,-4.1140676E-2,-8.1182625E-3,-4.5389034E-2,-5.117748E-2,-2.7264232E-2],"categories":[],"categories_nodes":[],"categories_segments":[],"categories_sizes":[],"default_left":[0,0,0,0,0,0,0,0,0,0,0,0,0,0,0,0,0,0,0,0,0,0,0,0,0,0,0,0,0,0,0,0,0,0,0,0,0,0,0,0,0,0,0,0,0,0,0,0,0],"id":0,"left_children":[1,3,5,7,-1,9,11,13,15,-1,17,19,21,23,-1,25,-1,27,29,-1,-1,31,33,35,37,39,41,43,-1,45,47,-1,-1,-1,-1,-1,-1,-1,-1,-1,-1,-1,-1,-1,-1,-1,-1,-1,-1],"loss_changes":[4.8551575E1,6.753786E2,2.728302E0,2.9850342E1,0E0,7.809448E-1,4.3250675E0,4.9679483E2,1.0970612E0,0E0,1.3327942E0,9.104595E-1,7.259452E0,1.6107193E1,0E0,2.230568E0,0E0,2.6645708E0,5.8758545E-1,0E0,0E0,5.7810035E0,2.8604698E-1,3.3635864E0,3.1364377E2,9.478302E-1,4.2153788E0,3.392447E0,0E0,1.6399379E0,3.1947708E-1,0E0,0E0,0E0,0E0,0E0,0E0,0E0,0E0,0E0,0E0,0E0,0E0,0E0,0E0,0E0,0E0,0E0,0E0],"parents":[2147483647,0,0,1,1,2,2,3,3,5,5,6,6,7,7,8,8,10,10,11,11,12,12,13,13,15,15,17,17,18,18,21,21,22,22,23,23,24,24,25,25,26,26,27,27,29,29,30,30],"right_children":[2,4,6,8,-1,10,12,14,16,-1,18,20,22,24,-1,26,-1,28,30,-1,-1,32,34,36,38,40,42,44,-1,46,48,-1,-1,-1,-1,-1,-1,-1,-1,-1,-1,-1,-1,-1,-1,-1,-1,-1,-1],"split_conditions":[9.968493E-1,3.918375E-3,3.0208714E-3,9.929035E-1,2.843958E-1,-2.4366285E-1,1.6350424E-2,3.4736912E-3,5.8319396E-1,-5.2862145E-2,2.4648355E-1,-6.666667E-2,2E0,3.719661E-3,2.7883422E-1,2.0098651E-3,-5.334894E-2,1.20423414E-1,-1.1368883E-1,-2.3693545E-2,-5.1169183E-2,-1.0715416E-1,-1.7823006E-1,5.712014E-3,9.9168617E-1,2.2711258E-1,7.303457E-7,7.3034454E-7,-4.7457773E-2,-1.5037672E-1,3.2066987E0,-2.6455065E-2,3.719571E-2,-2.5648942E-2,-5.058309E-2,-4.6004504E-2,-3.2034036E-2,2.6799706E-1,-3.2399606E-2,-4.9836397E-2,-3.5578873E-2,3.2253608E-3,-4.1056562E-2,4.5804353E-3,-4.1140676E-2,-8.1182625E-3,-4.5389034E-2,-5.117748E-2,-2.7264232E-2],"split_indices":[54,54,57,56,0,18,5,56,32,0,18,72,41,8,0,32,0,73,41,0,0,71,43,2,8,71,80,80,0,17,68,0,0,0,0,0,0,0,0,0,0,0,0,0,0,0,0,0,0],"split_type":[0,0,0,0,0,0,0,0,0,0,0,0,0,0,0,0,0,0,0,0,0,0,0,0,0,0,0,0,0,0,0,0,0,0,0,0,0,0,0,0,0,0,0,0,0,0,0,0,0],"sum_hessian":[8.241934E2,5.9305493E2,2.3113844E2,5.7603937E2,1.7015593E1,1.760299E2,5.510853E1,4.191799E2,1.5685948E2,7.37266E1,1.02303314E2,2.9394342E1,2.5714184E1,4.0666232E2,1.2517557E1,1.115886E2,4.5270874E1,2.7887749E1,7.4415565E1,6.5464454E0,2.2847897E1,1.2565133E1,1.3149051E1,2.019698E2,2.0469254E2,8.959095E1,2.1997648E1,1.5113916E1,1.2773833E1,1.282656E1,6.1589E1,5.4143343E0,7.1507993E0,6.042231E0,7.1068196E0,1.0285952E2,9.911028E1,8.093503E0,1.9659903E2,5.613445E1,3.3456505E1,8.235497E0,1.3762152E1,8.952171E0,6.161745E0,5.3096166E0,7.516943E0,5.634274E1,5.246263E0],"tree_param":{"num_deleted":"0","num_feature":"86","num_nodes":"49","size_leaf_vector":"1"}},{"base_weights":[-4.8852634E-1,-3.4941122E-1,-8.738962E-1,-5.549785E-1,2.3600124E-1,-5.0512213E-2,-7.315476E-1,-7.3216176E-1,-2.7634397E-1,-5.717582E-1,-4.92457E-2,-5.8624357E-1,-9.060615E-1,2.5419167E-1,-7.2644854E-1,-2.7298614E-1,-4.807043E-2,-7.8856117E-1,2.0954183E-1,-9.8289657E-1,-6.5469706E-1,-8.9103824E-1,-5.7518005E-1,1.7109057E-1,-5.553449E-1,-3.1162104E-2,-4.4611212E-2,-4.179641E-2,-5.2006204E-2,-1.8176703E-2,-4.712486E-2,-4.9636498E-2,-3.421181E-2,-1.391011E-2,-4.315905E-2,-1.9349044E-2,4.6606123E-2,-1.6120533E-2,-4.9679954E-2],"categories":[],"categories_nodes":[],"categories_segments":[],"categories_sizes":[],"default_left":[0,0,0,0,0,0,0,0,0,0,0,0,0,0,0,0,0,0,0,0,0,0,0,0,0,0,0,0,0,0,0,0,0,0,0,0,0,0,0],"id":1,"left_children":[1,3,5,7,-1,-1,9,11,13,15,-1,17,19,-1,21,23,-1,25,-1,27,29,31,33,35,37,-1,-1,-1,-1,-1,-1,-1,-1,-1,-1,-1,-1,-1,-1],"loss_changes":[4.371866E1,6.3313153E2,3.4754944E0,2.8547943E1,0E0,0E0,3.884552E0,8.4865265E0,5.5371405E2,7.8581676E0,0E0,1.9280115E2,2.4526367E0,0E0,4.7455063E0,5.2206726E0,0E0,2.6819382E0,0E0,1.4639282E-1,3.0532112E0,1.4094467E0,9.413532E0,7.433586E0,2.2546978E0,0E0,0E0,0E0,0E0,0E0,0E0,0E0,0E0,0E0,0E0,0E0,0E0,0E0,0E0],"parents":[2147483647,0,0,1,1,2,2,3,3,6,6,7,7,8,8,9,9,11,11,12,12,14,14,15,15,17,17,19,19,20,20,21,21,22,22,23,23,24,24],"right_children":[2,4,6,8,-1,-1,10,12,14,16,-1,18,20,-1,22,24,-1,26,-1,28,30,32,34,36,38,-1,-1,-1,-1,-1,-1,-1,-1,-1,-1,-1,-1,-1,-1],"split_conditions":[9.929035E-1,3.4736912E-3,5.0233626E-1,3.1507157E-3,2.3600124E-1,-5.0512213E-2,9.8141575E-1,9.968493E-1,9.9608165E-1,9.932118E-1,-4.92457E-2,3.918375E-3,3.0208714E-3,2.5419167E-1,-9.956404E-1,5.8170384E-1,-4.807043E-2,-2.4869244E-1,2.0954183E-1,-7.2134514E-3,9.8812866E-1,2.8246057E-1,9.962245E-1,-3.3164454E-1,5.7761836E-1,-3.1162104E-2,-4.4611212E-2,-4.179641E-2,-5.2006204E-2,-1.8176703E-2,-4.712486E-2,-4.9636498E-2,-3.421181E-2,-1.391011E-2,-4.315905E-2,-1.9349044E-2,4.6606123E-2,-1.6120533E-2,-4.9679954E-2],"split_indices":[56,56,20,55,0,0,55,54,55,54,0,54,57,0,9,16,0,73,0,80,2,34,57,16,32,0,0,0,0,0,0,0,0,0,0,0,0,0,0],"split_type":[0,0,0,0,0,0,0,0,0,0,0,0,0,0,0,0,0,0,0,0,0,0,0,0,0,0,0,0,0,0,0,0,0,0,0,0,0,0,0],"sum_hessian":[8.2017804E2,6.040338E2,2.1614421E2,5.8135034E2,2.2683424E1,1.0728483E2,1.0885938E2,3.5437573E2,2.2697464E2,6.875478E1,4.0104607E1,1.950672E2,1.5930853E2,1.6785519E1,2.1018912E2,3.987808E1,2.8876703E1,1.8794244E2,7.124758E0,1.1978375E2,3.9524773E1,9.8320145E1,1.1186898E2,1.5653409E1,2.4224669E1,7.513363E1,1.1280881E2,3.794437E1,8.1839386E1,2.07726E1,1.8752172E1,6.3362305E1,3.4957836E1,5.6044033E1,5.582495E1,9.314505E0,6.338904E0,1.695087E1,7.273799E0],"tree_param":{"num_deleted":"0","num_feature":"86","num_nodes":"39","size_leaf_vector":"1"}},{"base_weights":[-4.777765E-1,-3.3883512E-1,-8.643363E-1,-5.3954494E-1,1.9733022E-1,-5.015708E-2,-7.281622E-1,-7.131583E-1,-2.6808965E-1,-5.940269E-1,-4.8062675E-2,-8.7201345E-1,-5.4625654E-1,2.0936361E-1,-7.1215713E-1,-3.1013483E-1,-4.827045E-2,-7.7040774E-1,-9.8715204E-1,2.2448161E-1,-7.822031E-1,-8.9146847E-1,-5.417052E-1,1.04410686E-1,-5.843188E-1,-2.2586042E-2,-4.8642445E-2,-5.1401056E-2,-3.5541654E-2,-4.8309375E-2,-3.1646594E-2,-3.4991212E-2,-4.975318E-2,-1.2675377E-2,-4.2074453E-2,-2.1607896E-2,4.1793313E-2,-4.3969154E-2,-1.1838618E-2],"categories":[],"categories_nodes":[],"categories_segments":[],"categories_sizes":[],"default_left":[0,0,0,0,0,0,0,0,0,0,0,0,0,0,0,0,0,0,0,0,0,0,0,0,0,0,0,0,0,0,0,0,0,0,0,0,0,0,0],"id":2,"left_children":[1,3,5,7,-1,-1,9,11,13,15,-1,17,19,-1,21,23,-1,25,27,-1,29,31,33,35,37,-1,-1,-1,-1,-1,-1,-1,-1,-1,-1,-1,-1,-1,-1],"loss_changes":[4.296605E1,5.131498E2,3.282547E0,2.6597397E1,0E0,0E0,2.893795E0,8.699524E0,4.4484097E2,7.392706E0,0E0,1.2942505E0,2.0722375E2,0E0,5.750458E0,4.928312E0,0E0,5.8738976E0,1.5893555E-1,0E0,3.9096298E0,1.246109E0,9.0401535E0,7.385042E0,2.4505138E0,0E0,0E0,0E0,0E0,0E0,0E0,0E0,0E0,0E0,0E0,0E0,0E0,0E0,0E0],"parents":[2147483647,0,0,1,1,2,2,3,3,6,6,7,7,8,8,9,9,11,11,12,12,14,14,15,15,17,17,18,18,20,20,21,21,22,22,23,23,24,24],"right_children":[2,4,6,8,-1,-1,10,12,14,16,-1,18,20,-1,22,24,-1,26,28,-1,30,32,34,36,38,-1,-1,-1,-1,-1,-1,-1,-1,-1,-1,-1,-1,-1,-1],"split_conditions":[9.929035E-1,3.4736912E-3,5.0233626E-1,3.1507157E-3,1.9733022E-1,-5.015708E-2,9.893299E-1,3.0208714E-3,9.9608165E-1,9.932118E-1,-4.8062675E-2,9.968493E-1,9.962245E-1,2.0936361E-1,-9.956404E-1,5.8170384E-1,-4.827045E-2,5.6225735E-1,5.8355665E-1,2.2448161E-1,-4.3384263E-1,0E0,9.962245E-1,-3.3164454E-1,5.712014E-3,-2.2586042E-2,-4.8642445E-2,-5.1401056E-2,-3.5541654E-2,-4.8309375E-2,-3.1646594E-2,-3.4991212E-2,-4.975318E-2,-1.2675377E-2,-4.2074453E-2,-2.1607896E-2,4.1793313E-2,-4.3969154E-2,-1.1838618E-2],"split_indices":[56,56,20,55,0,0,55,7,55,54,0,54,7,0,9,16,0,16,33,0,33,10,57,16,13,0,0,0,0,0,0,0,0,0,0,0,0,0,0],"split_type":[0,0,0,0,0,0,0,0,0,0,0,0,0,0,0,0,0,0,0,0,0,0,0,0,0,0,0,0,0,0,0,0,0,0,0,0,0,0,0],"sum_hessian":[8.0442883E2,5.9312E2,2.1130884E2,5.674189E2,2.5701134E1,1.0149058E2,1.0981826E2,3.450865E2,2.223324E2,7.195774E1,3.7860523E1,1.7464075E2,1.7044574E2,1.938744E1,2.0294496E2,4.1822693E1,3.013505E1,9.685809E1,7.778265E1,6.82161E0,1.6362413E2,9.684077E1,1.06104195E2,1.6896164E1,2.4926527E1,3.8881466E1,5.7976624E1,6.539061E1,1.2392044E1,7.083889E1,9.278524E1,3.6701233E1,6.013953E1,5.503849E1,5.106571E1,9.982531E0,6.913633E0,1.2653524E1,1.2273004E1],"tree_param":{"num_deleted":"0","num_feature":"86","num_nodes":"39","size_leaf_vector":"1"}},{"base_weights":[-4.5104688E-1,-6.7518395E-1,-2.386665E-1,-5.247437E-1,-8.336535E-1,2.0552246E-1,-6.030074E-1,-7.270788E-1,1.8870865E-1,-5.1167186E-2,-7.633956E-1,-7.7669746E-1,-4.3754923E-1,-9.587704E-1,-6.3077325E-1,-6.402536E-1,-4.9004447E-2,-9.079137E-1,-5.9403044E-1,2.0219748E-1,-6.399443E-1,-5.08025E-2,-2.422919E-2,-5.3371304E-1,-4.95211E-2,-5.2084917E-1,-4.658493E-2,-8.240742E-1,-5.1028308E-2,-2.1723424E-1,-7.95754E-1,-5.1622342E-2,-5.696464E-1,-1.9080283E-2,-4.2453263E-2,-1.4253697E-2,-3.8601514E-2,-3.2680623E-2,-4.9286984E-2,-4.1484613E-2,5.196116E-3,-5.137515E-2,-2.729681E-2,-3.6051717E-2,-1.7519526E-2],"categories":[],"categories_nodes":[],"categories_segments":[],"categories_sizes":[],"default_left":[0,0,0,0,0,0,0,0,0,0,0,0,0,0,0,0,0,0,0,0,0,0,0,0,0,0,0,0,0,0,0,0,0,0,0,0,0,0,0,0,0,0,0,0,0],"id":3,"left_children":[1,3,5,7,9,-1,11,13,-1,-1,15,17,19,21,23,25,-1,27,29,-1,31,-1,-1,33,-1,35,-1,37,-1,39,41,-1,43,-1,-1,-1,-1,-1,-1,-1,-1,-1,-1,-1,-1],"loss_changes":[3.7247498E1,8.664719E0,6.443183E2,1.7545628E2,1.6741943E0,0E0,1.0426147E1,3.6453018E0,0E0,0E0,3.0650406E0,3.8103943E0,1.786854E2,9.7442627E-1,4.270153E0,2.6857224E0,0E0,1.3855743E-1,5.8132763E0,0E0,4.561142E0,0E0,0E0,4.972723E0,0E0,3.7422695E0,0E0,1.137516E0,0E0,5.7582884E0,2.3870163E0,0E0,5.074936E0,0E0,0E0,0E0,0E0,0E0,0E0,0E0,0E0,0E0,0E0,0E0,0E0],"parents":[2147483647,0,0,1,1,2,2,3,3,4,4,6,6,7,7,10,10,11,11,12,12,13,13,14,14,15,15,17,17,18,18,20,20,23,23,25,25,27,27,29,29,30,30,32,32],"right_children":[2,4,6,8,10,-1,12,14,-1,-1,16,18,20,22,24,26,-1,28,30,-1,32,-1,-1,34,-1,36,-1,38,-1,40,42,-1,44,-1,-1,-1,-1,-1,-1,-1,-1,-1,-1,-1,-1],"split_conditions":[3.0208714E-3,9.9168617E-1,9.962245E-1,3.719661E-3,-6.5539265E-1,2.0552246E-1,-9.956404E-1,-5.3558445E-1,1.8870865E-1,-5.1167186E-2,3.3333334E-1,7.0960894E-3,-4.1976324E-3,8.8894355E-1,6.666667E-1,9.968493E-1,-4.9004447E-2,9.764565E-1,5E-1,2.0219748E-1,-7.3404413E-1,-5.08025E-2,-2.422919E-2,-5.2846735E-4,-4.95211E-2,9.9608165E-1,-4.658493E-2,9.6141756E-1,-5.1028308E-2,-3.2507145E-1,5.0338304E-1,-5.1622342E-2,3.1507157E-3,-1.9080283E-2,-4.2453263E-2,-1.4253697E-2,-3.8601514E-2,-3.2680623E-2,-4.9286984E-2,-4.1484613E-2,5.196116E-3,-5.137515E-2,-2.729681E-2,-3.6051717E-2,-1.7519526E-2],"split_indices":[7,8,7,8,44,0,9,79,0,0,44,18,9,71,11,54,0,55,18,0,20,0,0,52,0,55,0,54,0,71,18,0,55,0,0,0,0,0,0,0,0,0,0,0,0],"split_type":[0,0,0,0,0,0,0,0,0,0,0,0,0,0,0,0,0,0,0,0,0,0,0,0,0,0,0,0,0,0,0,0,0,0,0,0,0,0,0,0,0,0,0,0,0],"sum_hessian":[7.848579E2,3.8079953E2,4.040584E2,1.9756042E2,1.832391E2,3.0438147E1,3.7362024E2,1.8947343E2,8.086988E0,4.5858818E1,1.3738028E2,1.8047357E2,1.9314668E2,5.3003147E1,1.3647029E2,9.012112E1,4.7259163E1,1.0271756E2,7.775601E1,7.5258718E0,1.8562082E2,4.627109E1,6.732055E0,1.09423584E2,2.704671E1,6.590649E1,2.4214626E1,6.3657135E1,3.9060425E1,2.7836868E1,4.9919144E1,2.6116232E1,1.5950458E2,7.530904E1,3.4114548E1,3.5097023E1,3.0809465E1,3.3440308E1,3.0216825E1,9.030983E0,1.8805885E1,2.4281172E1,2.5637972E1,9.3001785E1,6.65028E1],"tree_param":{"num_deleted":"0","num_feature":"86","num_nodes":"45","size_leaf_vector":"1"}},{"base_weights":[-4.5157322E-1,-3.1373712E-1,-8.3124006E-1,-4.8610383E-1,1.6579337E-1,-8.9856297E-1,-6.081024E-1,-3.510646E-1,-8.567105E-1,-9.5073056E-1,-5.8634335E-1,-4.344886E-2,-2.6140428E-1,-5.3606933E-1,1.5602154E-1,-6.964057E-1,-5.0129272E-2,-4.8139106E-2,-2.7483553E-2,-2.65016E-1,-4.613667E-2,1.969004E-1,-3.567266E-2,-7.252263E-1,-3.5205624E-1,-4.7594544E-2,-4.5926636E-1,1.1007425E-2,-3.7386604E-2,-1.3183968E-2,3.600096E-2,-4.617419E-2,-2.9242573E-2,1.7044789E-1,-2.9853983E-2,-4.2486083E-2,-1.20647615E-2],"categories":[],"categories_nodes":[],"categories_segments":[],"categories_sizes":[],"default_left":[0,0,0,0,0,0,0,0,0,0,0,0,0,0,0,0,0,0,0,0,0,0,0,0,0,0,0,0,0,0,0,0,0,0,0,0,0],"id":4,"left_children":[1,3,5,7,-1,9,11,13,15,17,19,-1,21,23,-1,25,-1,-1,-1,27,-1,29,-1,31,33,-1,35,-1,-1,-1,-1,-1,-1,-1,-1,-1,-1],"loss_changes":[4.019629E1,3.5745566E2,2.5377045E0,2.6917953E1,0E0,1.9773254E0,4.3564987E0,2.5877295E2,2.6820831E0,1.0752869E-1,2.445775E0,0E0,4.9449763E0,1.3003326E1,0E0,3.933754E0,0E0,0E0,0E0,3.4744132E0,0E0,3.153205E0,0E0,4.6610794E0,1.8175912E2,0E0,3.143793E0,0E0,0E0,0E0,0E0,0E0,0E0,0E0,0E0,0E0,0E0],"parents":[2147483647,0,0,1,1,2,2,3,3,5,5,6,6,7,7,8,8,9,9,10,10,12,12,13,13,15,15,19,19,21,21,23,23,24,24,26,26],"right_children":[2,4,6,8,-1,10,12,14,16,18,20,-1,22,24,-1,26,-1,-1,-1,28,-1,30,-1,32,34,-1,36,-1,-1,-1,-1,-1,-1,-1,-1,-1,-1],"split_conditions":[9.968493E-1,3.918375E-3,3.0208714E-3,9.929035E-1,1.6579337E-1,5.8355665E-1,1.6350424E-2,3.4736912E-3,9.9608165E-1,8.808022E0,5.7008E-2,-4.344886E-2,2E0,3.719661E-3,1.5602154E-1,5.0233626E-1,-5.0129272E-2,-4.8139106E-2,-2.7483553E-2,1.3246784E-1,-4.613667E-2,-4.9798405E-1,-3.567266E-2,-4.3384263E-1,9.9168617E-1,-4.7594544E-2,-2.3691322E-1,1.1007425E-2,-3.7386604E-2,-1.3183968E-2,3.600096E-2,-4.617419E-2,-2.9242573E-2,1.7044789E-1,-2.9853983E-2,-4.2486083E-2,-1.20647615E-2],"split_indices":[54,54,57,56,0,33,5,56,55,67,0,0,41,8,0,20,0,0,0,51,0,36,0,33,8,0,16,0,0,0,0,0,0,0,0,0,0],"split_type":[0,0,0,0,0,0,0,0,0,0,0,0,0,0,0,0,0,0,0,0,0,0,0,0,0,0,0,0,0,0,0,0,0,0,0,0,0],"sum_hessian":[7.720876E2,5.6778314E2,2.0430443E2,5.4286884E2,2.491429E1,1.5462541E2,4.9679024E1,3.9931595E2,1.4355289E2,1.3073615E2,2.388927E1,2.7488626E1,2.2190397E1,3.7991492E2,1.9401047E1,7.1144646E1,7.240824E1,1.2556248E2,5.1736636E0,1.3132568E1,1.0756701E1,1.129923E1,1.0891168E1,1.8588875E2,1.9402615E2,3.279667E1,3.8347977E1,6.8209543E0,6.3116136E0,6.2725296E0,5.0266995E0,7.474476E1,1.1114399E2,1.1077534E1,1.8294862E2,1.2699977E1,2.5648E1],"tree_param":{"num_deleted":"0","num_feature":"86","num_nodes":"37","size_leaf_vector":"1"}},{"base_weights":[-4.1801262E-1,-2.8052264E-1,-7.940028E-1,-4.5269412E-1,1.4863993E-1,-8.6637217E-1,-5.6766355E-1,-2.3494367E-1,-6.7443997E-1,-9.2204046E-1,-5.505121E-1,-8.391704E-1,-2.5198066E-1,-6.3541394E-1,1.6829623E-1,-5.734551E-1,-4.802835E-2,-4.838784E-2,-7.631966E-1,-1.4332654E-1,-4.6102133E-2,-1.9751724E-2,-4.742364E-2,-4.699621E-2,3.2107722E-2,-5.239291E-1,-9.14498E-1,-9.337218E-1,-4.5147496E-1,-4.6078295E-2,-1.7480342E-2,2.0334078E-2,-4.0443715E-2,3.1771913E-2,-3.7603703E-1,-3.500328E-2,-1.3961916E-2,-4.9078975E-2,-3.4821626E-2,-5.1195145E-2,-3.4400363E-2,-1.3513793E-2,-4.1933957E-2,7.5034783E-3,-3.936404E-2],"categories":[],"categories_nodes":[],"categories_segments":[],"categories_sizes":[],"default_left":[0,0,0,0,0,0,0,0,0,0,0,0,0,0,0,0,0,0,0,0,0,0,0,0,0,0,0,0,0,0,0,0,0,0,0,0,0,0,0,0,0,0,0,0,0],"id":5,"left_children":[1,3,5,7,-1,9,11,13,15,17,19,21,23,25,-1,27,-1,-1,29,31,-1,-1,-1,-1,33,35,37,39,41,-1,-1,-1,-1,-1,43,-1,-1,-1,-1,-1,-1,-1,-1,-1,-1],"loss_changes":[3.8919937E1,3.127707E2,2.820221E0,2.5380112E1,0E0,2.1529617E0,4.2358665E0,3.891738E2,7.005562E0,1.847992E-1,3.673119E0,9.5869446E-1,4.998429E0,7.0619736E0,0E0,8.181931E0,0E0,0E0,1.8490562E0,5.1553993E0,0E0,0E0,0E0,0E0,4.90742E0,7.369728E0,3.0879974E-1,3.7210846E-1,1.0170702E1,0E0,0E0,0E0,0E0,0E0,2.7007551E0,0E0,0E0,0E0,0E0,0E0,0E0,0E0,0E0,0E0,0E0],"parents":[2147483647,0,0,1,1,2,2,3,3,5,5,6,6,7,7,8,8,9,9,10,10,11,11,12,12,13,13,15,15,18,18,19,19,24,24,25,25,26,26,27,27,28,28,34,34],"right_children":[2,4,6,8,-1,10,12,14,16,18,20,22,24,26,-1,28,-1,-1,30,32,-1,-1,-1,-1,34,36,38,40,42,-1,-1,-1,-1,-1,44,-1,-1,-1,-1,-1,-1,-1,-1,-1,-1],"split_conditions":[9.968493E-1,3.918375E-3,3.0208714E-3,9.9608165E-1,1.4863993E-1,5.8355665E-1,4.5118417E-4,3.1507157E-3,9.929035E-1,4.6693236E-1,2.8551962E-2,-6.666667E-2,-4.2826802E-1,5.8319396E-1,1.6829623E-1,-6.5539265E-1,-4.802835E-2,-4.838784E-2,3.4736912E-3,1.9380285E-1,-4.6102133E-2,-1.9751724E-2,-4.742364E-2,-4.699621E-2,3.2786807E-1,-3.69321E-1,3.316722E-3,4.1913658E-1,3.3333334E-1,-4.6078295E-2,-1.7480342E-2,2.0334078E-2,-4.0443715E-2,3.1771913E-2,1.605671E-1,-3.500328E-2,-1.3961916E-2,-4.9078975E-2,-3.4821626E-2,-5.1195145E-2,-3.4400363E-2,-1.3513793E-2,-4.1933957E-2,7.5034783E-3,-3.936404E-2],"split_indices":[54,54,57,55,0,33,5,55,56,3,25,72,71,32,0,44,0,0,56,51,0,0,0,0,72,32,60,26,44,0,0,0,0,0,68,0,0,0,0,0,0,0,0,0,0],"split_type":[0,0,0,0,0,0,0,0,0,0,0,0,0,0,0,0,0,0,0,0,0,0,0,0,0,0,0,0,0,0,0,0,0,0,0,0,0,0,0,0,0,0,0,0,0],"sum_hessian":[7.5618646E2,5.5498773E2,2.0119873E2,5.279106E2,2.7077106E1,1.5031078E2,5.0887962E1,2.67394E2,2.605166E2,1.2615725E2,2.415352E1,2.6466696E1,2.4421267E1,2.4137325E2,2.6020767E1,1.947768E2,6.573981E1,9.400845E1,3.2148792E1,1.2184966E1,1.1968555E1,6.138368E0,2.0328327E1,6.4627123E0,1.7958555E1,1.7453114E2,6.68421E1,4.758383E1,1.4719296E2,2.2359007E1,9.789786E0,6.8845406E0,5.3004255E0,7.021819E0,1.0936736E1,1.0039937E2,7.4131775E1,4.8439713E1,1.8402386E1,3.2491795E1,1.509204E1,1.0142659E2,4.5766365E1,5.076905E0,5.8598313E0],"tree_param":{"num_deleted":"0","num_feature":"86","num_nodes":"45","size_leaf_vector":"1"}},{"base_weights":[-4.1462868E-1,-2.8321913E-1,-7.8513616E-1,-4.482625E-1,1.3535662E-1,-8.558627E-1,-5.5668586E-1,-6.814597E-1,-2.286406E-1,-4.9814604E-2,-7.3916423E-1,-2.7739277E-1,-8.420231E-1,-8.415771E-1,-5.236306E-1,1.7278118E-1,-5.687926E-1,-8.177899E-1,-3.2785276E-1,-6.800301E-1,1.3392887E-1,-1.4978537E-2,-4.912604E-2,-4.8380908E-2,-7.4026704E-1,1.743632E-1,-7.455017E-1,-3.5014254E-1,-7.6340735E-1,-4.806145E-2,-6.831868E-1,1.4468384E-2,-3.9813522E-2,-4.609661E-2,-1.9304993E-2,3.5002243E-2,-2.1159546E-2,-4.77343E-2,-2.6291851E-2,-4.3822266E-2,-2.7947012E-2,-3.435711E-2,1.4945577E-1,-4.438184E-2,-2.954624E-2,-2.1284157E-2,-4.4576105E-2],"categories":[],"categories_nodes":[],"categories_segments":[],"categories_sizes":[],"default_left":[0,0,0,0,0,0,0,0,0,0,0,0,0,0,0,0,0,0,0,0,0,0,0,0,0,0,0,0,0,0,0,0,0,0,0,0,0,0,0,0,0,0,0,0,0,0,0],"id":6,"left_children":[1,3,5,7,-1,9,11,13,15,-1,17,19,21,23,25,-1,27,29,31,33,35,-1,-1,-1,37,-1,39,41,43,-1,45,-1,-1,-1,-1,-1,-1,-1,-1,-1,-1,-1,-1,-1,-1,-1,-1],"loss_changes":[3.580922E1,2.7160107E2,2.64505E0,2.647908E1,0E0,1.6506271E0,3.6340666E0,5.9207993E0,3.3949203E2,0E0,2.4298553E0,4.399838E0,1.4978123E0,8.5829926E-1,1.1776819E2,0E0,1.0261215E1,6.8262863E-1,4.5837917E0,5.9054327E-1,4.618783E0,0E0,0E0,0E0,2.8368454E0,0E0,2.5260544E0,1.3525256E2,2.2623138E0,0E0,1.7258034E0,0E0,0E0,0E0,0E0,0E0,0E0,0E0,0E0,0E0,0E0,0E0,0E0,0E0,0E0,0E0,0E0],"parents":[2147483647,0,0,1,1,2,2,3,3,5,5,6,6,7,7,8,8,10,10,11,11,12,12,13,13,14,14,16,16,17,17,18,18,19,19,20,20,24,24,26,26,27,27,28,28,30,30],"right_children":[2,4,6,8,-1,10,12,14,16,-1,18,20,22,24,26,-1,28,30,32,34,36,-1,-1,-1,38,-1,40,42,44,-1,46,-1,-1,-1,-1,-1,-1,-1,-1,-1,-1,-1,-1,-1,-1,-1,-1],"split_conditions":[9.968493E-1,3.918375E-3,3.0208714E-3,3.0208714E-3,1.3535662E-1,-2.4366285E-1,2E0,-9.956404E-1,9.962245E-1,-4.9814604E-2,5.8355665E-1,-1.0715416E-1,-6.666667E-2,-4.3384263E-1,-9.357262E-3,1.7278118E-1,9.859916E-1,-2.4814017E-1,-8.946968E-2,-5.000821E-2,0E0,-1.4978537E-2,-4.912604E-2,-4.8380908E-2,-3.69321E-1,1.743632E-1,1.1368593E-2,3.1507157E-3,7.0960894E-3,-4.806145E-2,9.778537E-1,1.4468384E-2,-3.9813522E-2,-4.609661E-2,-1.9304993E-2,3.5002243E-2,-2.1159546E-2,-4.77343E-2,-2.6291851E-2,-4.3822266E-2,-2.7947012E-2,-3.435711E-2,1.4945577E-1,-4.438184E-2,-2.954624E-2,-2.1284157E-2,-4.4576105E-2],"split_indices":[54,54,57,7,0,18,41,9,7,0,33,71,72,33,9,0,55,20,0,73,15,0,0,0,32,0,14,55,18,0,56,0,0,0,0,0,0,0,0,0,0,0,0,0,0,0,0],"split_type":[0,0,0,0,0,0,0,0,0,0,0,0,0,0,0,0,0,0,0,0,0,0,0,0,0,0,0,0,0,0,0,0,0,0,0,0,0,0,0,0,0,0,0,0,0,0,0],"sum_hessian":[7.390474E2,5.4685596E2,1.9219147E2,5.1905817E2,2.7797743E1,1.4465958E2,4.753188E1,2.507286E2,2.683296E2,6.2233433E1,8.242615E1,2.5016981E1,2.2514898E1,1.2231155E2,1.2841705E2,2.190563E1,2.4642395E2,6.836865E1,1.4057494E1,1.2311821E1,1.2705159E1,5.276168E0,1.7238731E1,5.069286E1,7.161869E1,5.959847E0,1.2245721E2,1.17364204E2,1.2905975E2,3.0124945E1,3.8243706E1,6.230279E0,7.8272147E0,5.5816236E0,6.7301974E0,6.174457E0,6.5307026E0,3.408412E1,3.7534565E1,6.97813E1,5.2675907E1,1.07326935E2,1.0037265E1,7.261387E1,5.6445885E1,1.84646E1,1.9779108E1],"tree_param":{"num_deleted":"0","num_feature":"86","num_nodes":"47","size_leaf_vector":"1"}},{"base_weights":[-4.1150352E-1,-2.8051475E-1,-7.902522E-1,-4.7269315E-1,1.3500407E-1,-6.8678683E-1,-4.8566565E-2,-6.355665E-1,-2.3011273E-1,-4.852867E-1,-4.7336932E-2,-8.0236334E-1,-4.5639E-1,1.3332854E-1,-6.39737E-1,-1.8115109E-1,-6.9358826E-1,-6.95916E-1,-4.7550693E-2,1.4494716E-1,-6.9679624E-1,-8.777038E-1,-4.7439367E-1,-6.239315E-1,5.243477E-1,-4.4956177E-2,-4.3877152E-1,-3.999951E-2,-4.2699577E-4,-4.4870075E-2,-2.7168674E-2,-4.615886E-2,-2.6766047E-2,8.549318E-3,-3.464638E-2,-1.3910285E-2,-4.751471E-2,-1.4450857E-3,5.0171923E-2,-4.1478574E-3,-4.042181E-2],"categories":[],"categories_nodes":[],"categories_segments":[],"categories_sizes":[],"default_left":[0,0,0,0,0,0,0,0,0,0,0,0,0,0,0,0,0,0,0,0,0,0,0,0,0,0,0,0,0,0,0,0,0,0,0,0,0,0,0,0,0],"id":7,"left_children":[1,3,5,7,-1,9,-1,11,13,15,-1,17,19,-1,21,23,25,27,-1,-1,29,31,33,35,37,-1,39,-1,-1,-1,-1,-1,-1,-1,-1,-1,-1,-1,-1,-1,-1],"loss_changes":[3.6218834E1,3.1478055E2,2.858902E0,2.0201843E1,0E0,5.992798E0,0E0,8.8256E0,2.4904427E2,4.4004383E0,0E0,1.8377151E0,1.2349814E2,0E0,6.800995E0,9.821889E0,1.8077469E0,6.844864E0,0E0,0E0,3.8622894E0,6.5831757E-1,1.5690098E1,1.894217E0,3.279568E0,0E0,2.6591744E0,0E0,0E0,0E0,0E0,0E0,0E0,0E0,0E0,0E0,0E0,0E0,0E0,0E0,0E0],"parents":[2147483647,0,0,1,1,2,2,3,3,5,5,7,7,8,8,9,9,11,11,12,12,14,14,15,15,16,16,17,17,20,20,21,21,22,22,23,23,24,24,26,26],"right_children":[2,4,6,8,-1,10,-1,12,14,16,-1,18,20,-1,22,24,26,28,-1,-1,30,32,34,36,38,-1,40,-1,-1,-1,-1,-1,-1,-1,-1,-1,-1,-1,-1,-1,-1],"split_conditions":[9.929035E-1,3.4736912E-3,9.9608165E-1,3.1507157E-3,1.3500407E-1,9.968493E-1,-4.8566565E-2,3.0208714E-3,9.9608165E-1,5.8170384E-1,-4.7336932E-2,5.8170384E-1,9.962245E-1,1.3332854E-1,-4.3384263E-1,-3.3164454E-1,3.0208714E-3,-3.3164454E-1,-4.7550693E-2,1.4494716E-1,-4.3384263E-1,3.3615574E-1,3.0508474E-1,-3.3333334E-1,-3.3017367E-1,-4.4956177E-2,5E-1,-3.999951E-2,-4.2699577E-4,-4.4870075E-2,-2.7168674E-2,-4.615886E-2,-2.6766047E-2,8.549318E-3,-3.464638E-2,-1.3910285E-2,-4.751471E-2,-1.4450857E-3,5.0171923E-2,-4.1478574E-3,-4.042181E-2],"split_indices":[56,56,55,55,0,54,0,7,55,16,0,16,7,0,33,16,7,16,0,0,33,53,33,16,53,0,10,0,0,0,0,0,0,0,0,0,0,0,0,0,0],"split_type":[0,0,0,0,0,0,0,0,0,0,0,0,0,0,0,0,0,0,0,0,0,0,0,0,0,0,0,0,0,0,0,0,0,0,0,0,0,0,0,0,0],"sum_hessian":[7.3351245E2,5.4631287E2,1.8719957E2,5.140126E2,3.2300323E1,1.2218051E2,6.5019066E1,3.065612E2,2.0745135E2,7.04435E1,5.173701E1,1.5696405E2,1.4959715E2,2.5018896E1,1.8243246E2,2.9394709E1,4.104879E1,9.477678E1,6.2187263E1,9.262506E0,1.4033466E2,7.302478E1,1.09407684E2,1.813104E1,1.1263667E1,2.1321968E1,1.9726822E1,8.2171524E1,1.2605251E1,5.8714436E1,8.162022E1,6.29657E1,1.0059081E1,2.7730583E1,8.16771E1,9.7038765E0,8.427165E0,5.663354E0,5.6003127E0,1.067561E1,9.051212E0],"tree_param":{"num_deleted":"0","num_feature":"86","num_nodes":"41","size_leaf_vector":"1"}},{"base_weights":[-3.9369798E-1,-2.6443943E-1,-7.658023E-1,-4.2250785E-1,1.1957896E-1,-6.8146E-1,-4.9433216E-2,-2.8849277E-1,-7.8465736E-1,-8.559392E-1,-4.9912974E-1,-3.8301283E-1,1.6908537E-1,-7.005099E-1,-4.888591E-2,-7.133319E-1,-5.0561626E-2,-7.410287E-1,-2.653207E-1,-6.367249E-1,-1.5476313E-1,-6.0183907E-1,-4.823191E-2,-4.5937084E-2,-5.3510106E-1,-5.0680983E-1,-4.615845E-2,1.416645E-1,-7.226124E-1,-3.921884E-2,-2.0666528E-2,1.4652403E-1,-2.485763E-2,-1.9954612E-2,-3.8984038E-2,2.4572841E-3,-3.5347927E-2,-1.3049983E-3,-3.992787E-2,-1.9826744E-2,3.761707E-2,-1.21307885E-2,-4.5221828E-2],"categories":[],"categories_nodes":[],"categories_segments":[],"categories_sizes":[],"default_left":[0,0,0,0,0,0,0,0,0,0,0,0,0,0,0,0,0,0,0,0,0,0,0,0,0,0,0,0,0,0,0,0,0,0,0,0,0,0,0,0,0,0,0],"id":8,"left_children":[1,3,5,7,-1,9,-1,11,13,15,17,19,-1,21,-1,23,-1,25,27,29,31,33,-1,-1,35,37,-1,39,41,-1,-1,-1,-1,-1,-1,-1,-1,-1,-1,-1,-1,-1,-1],"loss_changes":[3.428251E1,2.250579E2,2.7908707E0,2.4260376E1,0E0,3.9290237E0,0E0,1.295952E2,1.5195312E0,7.9730225E-1,3.7262173E0,2.083303E1,0E0,1.9742928E0,0E0,9.4137955E-1,0E0,9.626312E-1,6.9562907E0,5.3114395E0,2.038491E2,2.358055E0,0E0,0E0,2.379476E0,2.3473735E0,0E0,6.9772863E0,1.3083773E0,0E0,0E0,0E0,0E0,0E0,0E0,0E0,0E0,0E0,0E0,0E0,0E0,0E0,0E0],"parents":[2147483647,0,0,1,1,2,2,3,3,5,5,7,7,8,8,9,9,10,10,11,11,13,13,15,15,17,17,18,18,19,19,20,20,21,21,24,24,25,25,27,27,28,28],"right_children":[2,4,6,8,-1,10,-1,12,14,16,18,20,-1,22,-1,24,-1,26,28,30,32,34,-1,-1,36,38,-1,40,42,-1,-1,-1,-1,-1,-1,-1,-1,-1,-1,-1,-1,-1,-1],"split_conditions":[9.968493E-1,3.918375E-3,4.9354127E-1,5.8319396E-1,1.1957896E-1,-9.956404E-1,-4.9433216E-2,1.1768559E-1,5E-1,1.9473746E-1,3.0208714E-3,3.0208714E-3,1.6908537E-1,3.3333334E-1,-4.888591E-2,-2.4366285E-1,-5.0561626E-2,1E0,2E0,-3.69321E-1,9.962245E-1,9.859916E-1,-4.823191E-2,-4.5937084E-2,-2.3382362E-2,-1.7429532E-1,-4.615845E-2,6.883713E-2,4.303801E-3,-3.921884E-2,-2.0666528E-2,1.4652403E-1,-2.485763E-2,-1.9954612E-2,-3.8984038E-2,2.4572841E-3,-3.5347927E-2,-1.3049983E-3,-3.992787E-2,-1.9826744E-2,3.761707E-2,-1.21307885E-2,-4.5221828E-2],"split_indices":[54,54,1,32,0,9,0,32,20,17,7,7,0,44,0,18,0,41,41,32,7,55,0,0,41,51,0,5,72,0,0,0,0,0,0,0,0,0,0,0,0,0,0],"split_type":[0,0,0,0,0,0,0,0,0,0,0,0,0,0,0,0,0,0,0,0,0,0,0,0,0,0,0,0,0,0,0,0,0,0,0,0,0,0,0,0,0,0,0],"sum_hessian":[7.1597906E2,5.32659E2,1.8332005E2,5.03533E2,2.9125982E1,1.3593364E2,4.7386417E1,3.6883905E2,1.3469397E2,6.757448E1,6.835915E1,3.6045184E2,8.387212E0,9.703067E1,3.7663296E1,3.814188E1,2.94326E1,3.2532074E1,3.5827084E1,1.6985692E2,1.9059491E2,7.302805E1,2.4002619E1,1.5789644E1,2.2352234E1,1.5886166E1,1.6645906E1,1.9321417E1,1.6505667E1,1.007532E2,6.910372E1,1.8283634E1,1.7231126E2,3.5640495E1,3.7387554E1,5.24281E0,1.7109425E1,6.411483E0,9.474683E0,1.04565525E1,8.864864E0,5.1759768E0,1.1329689E1],"tree_param":{"num_deleted":"0","num_feature":"86","num_nodes":"43","size_leaf_vector":"1"}},{"base_weights":[-3.8945347E-1,-2.6677877E-1,-7.569401E-1,-4.5297432E-1,1.21034324E-1,-4.5664083E-2,-6.0721934E-1,-6.191148E-1,-2.0525733E-1,-4.5531437E-1,-8.8563037E-1,-7.90588E-1,-4.46505E-1,1.1964803E-1,-6.053295E-1,-1.827352E-1,-4.319454E-2,-4.894176E-2,-3.0928433E-2,-6.887188E-1,-4.6448782E-2,1.2539391E-1,-6.822871E-1,-8.415105E-1,-4.456817E-1,2.7704865E-1,-4.7800532E-1,-3.9859243E-2,4.4684033E-4,-2.5125047E-2,-4.3114558E-2,-4.4595443E-2,-2.3853313E-2,6.6794376E-3,-3.3253305E-2,4.3275E-2,-2.2004142E-2,-4.057332E-2,-5.679595E-3],"categories":[],"categories_nodes":[],"categories_segments":[],"categories_sizes":[],"default_left":[0,0,0,0,0,0,0,0,0,0,0,0,0,0,0,0,0,0,0,0,0,0,0,0,0,0,0,0,0,0,0,0,0,0,0,0,0,0,0],"id":9,"left_children":[1,3,5,7,-1,-1,9,11,13,15,17,19,21,-1,23,25,-1,-1,-1,27,-1,-1,29,31,33,35,37,-1,-1,-1,-1,-1,-1,-1,-1,-1,-1,-1,-1],"loss_changes":[3.1440094E1,2.6518835E2,3.5445786E0,2.0220924E1,0E0,0E0,3.506153E0,8.391396E0,2.0931783E2,6.7319813E0,1.8042755E-1,1.4312363E0,1.0587161E2,0E0,6.189152E0,5.3424444E0,0E0,0E0,0E0,6.70306E0,0E0,0E0,4.0735855E0,8.434868E-1,1.3559761E1,6.9811487E0,2.7921672E0,0E0,0E0,0E0,0E0,0E0,0E0,0E0,0E0,0E0,0E0,0E0,0E0],"parents":[2147483647,0,0,1,1,2,2,3,3,6,6,7,7,8,8,9,9,10,10,11,11,12,12,14,14,15,15,19,19,22,22,23,23,24,24,25,25,26,26],"right_children":[2,4,6,8,-1,-1,10,12,14,16,18,20,22,-1,24,26,-1,-1,-1,28,-1,-1,30,32,34,36,38,-1,-1,-1,-1,-1,-1,-1,-1,-1,-1,-1,-1],"split_conditions":[9.929035E-1,3.4736912E-3,5.0233626E-1,3.1507157E-3,1.21034324E-1,-4.5664083E-2,9.893299E-1,3.0208714E-3,9.9608165E-1,9.932118E-1,3.146126E-1,5.8170384E-1,9.962245E-1,1.1964803E-1,-4.3384263E-1,5.8170384E-1,-4.319454E-2,-4.894176E-2,-3.0928433E-2,-3.3164454E-1,-4.6448782E-2,1.2539391E-1,9.9736786E-1,1.0505074E0,3.0508474E-1,9.760706E-1,5.712014E-3,-3.9859243E-2,4.4684033E-4,-2.5125047E-2,-4.3114558E-2,-4.4595443E-2,-2.3853313E-2,6.6794376E-3,-3.3253305E-2,4.3275E-2,-2.2004142E-2,-4.057332E-2,-5.679595E-3],"split_indices":[56,56,20,55,0,0,55,7,55,54,0,16,7,0,33,16,0,0,0,16,0,0,2,41,33,8,2,0,0,0,0,0,0,0,0,0,0,0,0],"split_type":[0,0,0,0,0,0,0,0,0,0,0,0,0,0,0,0,0,0,0,0,0,0,0,0,0,0,0,0,0,0,0,0,0,0,0,0,0,0,0],"sum_hessian":[7.0088776E2,5.267677E2,1.7412006E2,4.9341394E2,3.3353737E1,8.268199E1,9.143807E1,2.9443863E2,1.9897533E2,6.0864788E1,3.0573278E1,1.4590959E2,1.4852902E2,2.5885288E1,1.7309004E2,3.7376526E1,2.3488264E1,2.0687954E1,9.885325E0,8.748633E1,5.842327E1,1.0265419E1,1.3826361E2,6.8089E1,1.05001045E2,1.4640533E1,2.2735992E1,7.559132E1,1.1895008E1,7.107063E1,6.719297E1,5.854553E1,9.54347E0,2.895041E1,7.605064E1,7.9281216E0,6.712412E0,1.1231602E1,1.1504392E1],"tree_param":{"num_deleted":"0","num_feature":"86","num_nodes":"39","size_leaf_vector":"1"}},{"base_weights":[-3.6996296E-1,-2.493723E-1,-7.357624E-1,-4.298917E-1,1.13749266E-1,-6.2776786E-1,-9.2191553E-1,-3.2519257E-1,-7.723331E-1,-4.2119607E-1,-9.0126306E-1,-5.0553825E-2,-7.543256E-1,-4.638397E-1,1.6674814E-1,-6.3563585E-1,-4.5469332E-2,-6.6777104E-1,-1.4716832E-1,-2.8769646E-2,-4.7494285E-2,-8.629872E-3,-4.795954E-2,-3.1842884E-1,-7.7692944E-1,-8.573191E-1,-4.7407597E-1,-3.7247843E-1,-4.277045E-2,-4.8292285E-1,2.9866305E-1,-2.7288202E-2,1.6443165E-1,-2.8562952E-2,-4.21964E-2,-4.709108E-2,-2.6008358E-2,3.7562818E-4,-3.431345E-2,8.9499345E-3,-3.3567026E-2,-4.0072776E-2,-9.159834E-3,3.6355045E-2,-1.3415244E-2],"categories":[],"categories_nodes":[],"categories_segments":[],"categories_sizes":[],"default_left":[0,0,0,0,0,0,0,0,0,0,0,0,0,0,0,0,0,0,0,0,0,0,0,0,0,0,0,0,0,0,0,0,0,0,0,0,0,0,0,0,0,0,0,0,0],"id":10,"left_children":[1,3,5,7,-1,9,11,13,15,17,19,-1,21,23,-1,25,-1,27,29,-1,-1,-1,-1,31,33,35,37,39,-1,41,43,-1,-1,-1,-1,-1,-1,-1,-1,-1,-1,-1,-1,-1,-1],"loss_changes":[2.9878136E1,2.352221E2,2.80764E0,1.6978928E1,0E0,5.8201485E0,1.295433E-1,1.8919495E2,1.51651E0,4.2527857E0,1.8771744E-1,0E0,2.7749138E0,1.6012619E1,0E0,1.717207E0,0E0,1.5437908E0,4.901719E0,0E0,0E0,0E0,0E0,2.0317259E2,1.0691376E0,1.8700027E-1,3.7387E0,2.5645733E0,0E0,1.6205015E0,3.6616478E0,0E0,0E0,0E0,0E0,0E0,0E0,0E0,0E0,0E0,0E0,0E0,0E0,0E0,0E0],"parents":[2147483647,0,0,1,1,2,2,3,3,5,5,6,6,7,7,8,8,9,9,10,10,12,12,13,13,15,15,17,17,18,18,23,23,24,24,25,25,26,26,27,27,29,29,30,30],"right_children":[2,4,6,8,-1,10,12,14,16,18,20,-1,22,24,-1,26,-1,28,30,-1,-1,-1,-1,32,34,36,38,40,-1,42,44,-1,-1,-1,-1,-1,-1,-1,-1,-1,-1,-1,-1,-1,-1],"split_conditions":[9.929035E-1,3.4736912E-3,9.9608165E-1,3.3333334E-1,1.13749266E-1,9.968493E-1,1.4907579E-1,8.0334896E-5,9.9167305E-1,3.0208714E-3,-6.282299E-1,-5.0553825E-2,9.056038E-2,0E0,1.6674814E-1,-4.3384263E-1,-4.5469332E-2,5.8170384E-1,8.854313E-2,-2.8769646E-2,-4.7494285E-2,-8.629872E-3,-4.795954E-2,-3.254191E-1,-5.023477E-1,5.010075E-1,3.0508474E-1,-1.6585416E-1,-4.277045E-2,-4.3384263E-1,5E-1,-2.7288202E-2,1.6443165E-1,-2.8562952E-2,-4.21964E-2,-4.709108E-2,-2.6008358E-2,3.7562818E-4,-3.431345E-2,8.9499345E-3,-3.3567026E-2,-4.0072776E-2,-9.159834E-3,3.6355045E-2,-1.3415244E-2],"split_indices":[56,56,55,44,0,54,0,44,2,7,73,0,36,44,0,33,0,16,73,0,0,0,0,44,73,5,33,37,0,33,10,0,0,0,0,0,0,0,0,0,0,0,0,0,0],"split_type":[0,0,0,0,0,0,0,0,0,0,0,0,0,0,0,0,0,0,0,0,0,0,0,0,0,0,0,0,0,0,0,0,0,0,0,0,0,0,0,0,0,0,0,0,0],"sum_hessian":[6.80484E2,5.1303644E2,1.6744757E2,4.795715E2,3.3464943E1,1.0873725E2,5.871032E1,3.687717E2,1.1079981E2,6.3394924E1,4.5342327E1,3.503697E1,2.3673351E1,3.561538E2,1.2617878E1,5.829461E1,5.2505207E1,3.2612633E1,3.078229E1,7.5533624E0,3.7788967E1,6.645503E0,1.702785E1,2.4457901E2,1.1157479E2,2.2759207E1,3.5535404E1,1.3831145E1,1.8781487E1,1.7511343E1,1.32709465E1,2.308767E2,1.3702317E1,2.9756233E1,8.181856E1,1.676406E1,5.9951477E0,1.1163523E1,2.4371881E1,5.0020847E0,8.829061E0,7.677818E0,9.833526E0,7.398057E0,5.872889E0],"tree_param":{"num_deleted":"0","num_feature":"86","num_nodes":"45","size_leaf_vector":"1"}},{"base_weights":[-3.598084E-1,-2.3783752E-1,-7.208651E-1,-3.9263362E-1,1.05144195E-1,-4.6930797E-2,-6.2512857E-1,-2.6488638E-1,-7.46838E-1,-2.0005023E-1,-7.335165E-1,-3.5685143E-1,1.4635709E-1,-6.608821E-1,-4.7784653E-2,2.3692094E-1,-5.8771056E-1,-6.2058794E-1,-4.6832412E-2,-5.910572E-1,-1.5276678E-1,-4.5506272E-2,-5.397952E-1,-2.0408303E-2,4.5642402E-2,-1.6472569E-2,-3.7548345E-2,-4.6597835E-2,-3.808213E-1,-3.630614E-2,-1.1227515E-2,1.4361382E-1,-2.3175765E-2,-4.726064E-3,-3.1558324E-2,-7.0042135E-3,-4.4384792E-2],"categories":[],"categories_nodes":[],"categories_segments":[],"categories_sizes":[],"default_left":[0,0,0,0,0,0,0,0,0,0,0,0,0,0,0,0,0,0,0,0,0,0,0,0,0,0,0,0,0,0,0,0,0,0,0,0,0],"id":11,"left_children":[1,3,5,7,-1,-1,9,11,13,15,17,19,-1,21,-1,23,25,27,-1,29,31,-1,33,-1,-1,-1,-1,-1,35,-1,-1,-1,-1,-1,-1,-1,-1],"loss_changes":[2.9225723E1,1.8216177E2,2.9169312E0,2.1081009E1,0E0,0E0,5.369915E0,1.02956566E2,1.5962753E0,4.4931726E0,1.5987358E0,1.6081337E1,0E0,2.259903E0,0E0,5.9518523E0,3.3895016E-1,4.4261665E0,0E0,7.6183777E0,1.7254944E2,0E0,2.5364704E0,0E0,0E0,0E0,0E0,0E0,4.4968963E0,0E0,0E0,0E0,0E0,0E0,0E0,0E0,0E0],"parents":[2147483647,0,0,1,1,2,2,3,3,6,6,7,7,8,8,9,9,10,10,11,11,13,13,15,15,16,16,17,17,19,19,20,20,22,22,28,28],"right_children":[2,4,6,8,-1,-1,10,12,14,16,18,20,-1,22,-1,24,26,28,-1,30,32,-1,34,-1,-1,-1,-1,-1,36,-1,-1,-1,-1,-1,-1,-1,-1],"split_conditions":[9.968493E-1,3.918375E-3,-4.954884E-1,5.8319396E-1,1.05144195E-1,-4.6930797E-2,0E0,1.1768559E-1,9.929035E-1,-5.000821E-2,3.5923392E-1,-9.956404E-1,1.4635709E-1,-4.2826802E-1,-4.7784653E-2,-3.6903117E-2,-1.2299987E-1,-5.3558445E-1,-4.6832412E-2,1.3228813E-2,-4.1976324E-3,-4.5506272E-2,-1.1111111E-1,-2.0408303E-2,4.5642402E-2,-1.6472569E-2,-3.7548345E-2,-4.6597835E-2,4E-1,-3.630614E-2,-1.1227515E-2,1.4361382E-1,-2.3175765E-2,-4.726064E-3,-3.1558324E-2,-7.0042135E-3,-4.4384792E-2],"split_indices":[54,54,18,32,0,0,18,32,56,73,79,9,0,71,0,5,1,79,0,41,9,0,71,0,0,0,0,0,17,0,0,0,0,0,0,0,0],"split_type":[0,0,0,0,0,0,0,0,0,0,0,0,0,0,0,0,0,0,0,0,0,0,0,0,0,0,0,0,0,0,0,0,0,0,0,0,0],"sum_hessian":[6.6653503E2,4.9946597E2,1.6706905E2,4.692649E2,3.0201067E1,4.8332817E1,1.1873624E2,3.4616498E2,1.23099915E2,2.4702625E1,9.403361E1,3.373343E2,8.830682E0,9.015872E1,3.2941196E1,1.1795531E1,1.2907093E1,6.3041546E1,3.0992065E1,1.5619273E2,1.8114157E2,2.734857E1,6.281015E1,6.2381473E0,5.5573845E0,6.167916E0,6.739177E0,2.6169743E1,3.6871803E1,1.134155E2,4.277724E1,1.6106504E1,1.6503506E2,1.1040694E1,5.1769455E1,2.586415E1,1.1007654E1],"tree_param":{"num_deleted":"0","num_feature":"86","num_nodes":"37","size_leaf_vector":"1"}},{"base_weights":[-3.4480017E-1,-2.2677808E-1,-7.064646E-1,-3.9788333E-1,1.0551181E-1,-8.6844784E-1,-5.4879254E-1,-8.502124E-1,-2.9036483E-1,-4.7925424E-2,-7.127307E-1,-3.9778626E-1,-8.30333E-1,-7.2256017E-1,-4.8151497E-2,1.4977705E-1,-3.9663804E-1,-4.2610116E-2,-3.8475814E-1,-1.192753E-1,-8.1321126E-1,-6.075618E-1,-4.9145404E-2,-4.8925158E-1,-4.3694254E-2,-7.755387E-1,-2.8287172E-1,-2.8505445E-2,-6.514486E-3,-4.3850746E-2,6.145735E-2,-5.6252015E-1,-4.987826E-2,-1.4757412E-2,-4.1775532E-2,-6.4924555E-3,-3.7587836E-2,-4.192076E-2,-2.7608648E-2,1.5741165E-1,-2.2585299E-2,1.774144E-2,-3.29131E-2,-7.495931E-3,-4.237215E-2],"categories":[],"categories_nodes":[],"categories_segments":[],"categories_sizes":[],"default_left":[0,0,0,0,0,0,0,0,0,0,0,0,0,0,0,0,0,0,0,0,0,0,0,0,0,0,0,0,0,0,0,0,0,0,0,0,0,0,0,0,0,0,0,0,0],"id":12,"left_children":[1,3,5,7,-1,9,11,13,15,-1,17,19,21,23,-1,-1,25,-1,27,29,31,33,-1,35,-1,37,39,-1,-1,-1,41,43,-1,-1,-1,-1,-1,-1,-1,-1,-1,-1,-1,-1,-1],"loss_changes":[2.794522E1,1.99944E2,3.648964E0,2.2357574E1,0E0,4.101448E-1,3.2652302E0,5.8218384E-1,1.328538E2,0E0,1.1572342E0,6.4940786E0,3.7509727E-1,1.1837692E0,0E0,0E0,1.5562466E1,0E0,4.6861196E-1,4.884755E0,4.8756504E-1,7.679529E-1,0E0,1.8107715E0,0E0,7.1635056E-1,1.6544566E2,0E0,0E0,0E0,6.4446607E0,1.2729473E0,0E0,0E0,0E0,0E0,0E0,0E0,0E0,0E0,0E0,0E0,0E0,0E0,0E0],"parents":[2147483647,0,0,1,1,2,2,3,3,5,5,6,6,7,7,8,8,10,10,11,11,12,12,13,13,16,16,18,18,19,19,20,20,21,21,23,23,25,25,26,26,30,30,31,31],"right_children":[2,4,6,8,-1,10,12,14,16,-1,18,20,22,24,-1,-1,26,-1,28,30,32,34,-1,36,-1,38,40,-1,-1,-1,42,44,-1,-1,-1,-1,-1,-1,-1,-1,-1,-1,-1,-1,-1],"split_conditions":[9.929035E-1,3.4736912E-3,5.0233626E-1,-7.3404413E-1,1.0551181E-1,1.1368593E-2,9.893299E-1,9.9736786E-1,-5E-1,-4.7925424E-2,7.3145432E-3,9.932118E-1,-1.2672445E-2,-1.2409682E-1,-4.8151497E-2,1.4977705E-1,-4.9306208E-1,-4.2610116E-2,-2.0099549E-2,-9.80026E-1,8.0563664E-2,-5.9371192E-2,-4.9145404E-2,0E0,-4.3694254E-2,8.0334896E-5,-2.5E-1,-2.8505445E-2,-6.514486E-3,-4.3850746E-2,5.7761836E-1,-8.179191E-2,-4.987826E-2,-1.4757412E-2,-4.1775532E-2,-6.4924555E-3,-3.7587836E-2,-4.192076E-2,-2.7608648E-2,1.5741165E-1,-2.2585299E-2,1.774144E-2,-3.29131E-2,-7.495931E-3,-4.237215E-2],"split_indices":[56,56,20,20,0,1,55,2,20,0,33,54,44,66,0,0,20,0,48,10,51,73,0,44,0,44,20,0,0,0,32,36,0,0,0,0,0,0,0,0,0,0,0,0,0],"split_type":[0,0,0,0,0,0,0,0,0,0,0,0,0,0,0,0,0,0,0,0,0,0,0,0,0,0,0,0,0,0,0,0,0,0,0,0,0,0,0,0,0,0,0,0,0],"sum_hessian":[6.574478E2,4.9691605E2,1.6053177E2,4.637893E2,3.312674E1,7.695976E1,8.3572E1,8.774395E1,3.7604535E2,4.5492966E1,3.1466799E1,5.596673E1,2.760527E1,4.4639427E1,4.3104523E1,1.0929341E1,3.65116E2,2.0956549E1,1.051025E1,3.4275036E1,2.1691692E1,1.3246472E1,1.4358798E1,1.922774E1,2.541169E1,8.29691E1,2.821469E2,5.36331E0,5.14694E0,5.858815E0,2.841622E1,1.0908806E1,1.0782887E1,6.555997E0,6.6904755E0,8.746853E0,1.04808855E1,6.2595253E1,2.0373844E1,1.2404837E1,2.6974207E2,2.054761E1,7.868611E0,5.0794053E0,5.8294E0],"tree_param":{"num_deleted":"0","num_feature":"86","num_nodes":"45","size_leaf_vector":"1"}},{"base_weights":[-3.4526488E-1,-2.4415104E-1,-7.8672045E-1,-3.416941E-1,1.4665169E-1,-7.0997864E-1,-4.840642E-2,-2.055701E-1,-8.0498815E-1,-8.354742E-1,-5.57058E-1,-3.6891112E-1,1.4554214E-1,-4.5537855E-2,-6.934383E-1,-6.112265E-1,-4.5008004E-2,-7.1526474E-1,-2.3817943E-1,-1.8938291E-1,-7.9766357E-1,-4.6564803E-1,-4.4972137E-2,-4.049784E-2,-1.5878966E-2,-4.406462E-1,-4.480907E-2,1.8340351E-2,-3.3947222E-2,-2.1658156E-2,1.4147584E-1,-3.310293E-2,-4.6209425E-2,-3.7216645E-2,3.7518363E-2,-3.18283E-2,-5.763442E-3],"categories":[],"categories_nodes":[],"categories_segments":[],"categories_sizes":[],"default_left":[0,0,0,0,0,0,0,0,0,0,0,0,0,0,0,0,0,0,0,0,0,0,0,0,0,0,0,0,0,0,0,0,0,0,0,0,0],"id":13,"left_children":[1,3,5,7,-1,9,-1,11,13,15,17,19,-1,-1,21,23,-1,25,27,29,31,33,-1,-1,-1,35,-1,-1,-1,-1,-1,-1,-1,-1,-1,-1,-1],"loss_changes":[2.8772018E1,1.6507028E2,9.8986053E-1,3.2283455E1,0E0,1.2312775E0,0E0,2.0419284E2,7.4300385E-1,1.2517166E-1,1.9914665E0,2.9101822E1,0E0,0E0,2.4386272E0,5.3286743E-1,0E0,1.0033102E0,4.4380693E0,1.993327E2,1.3072586E0,1.1060843E1,0E0,0E0,0E0,7.645376E-1,0E0,0E0,0E0,0E0,0E0,0E0,0E0,0E0,0E0,0E0,0E0],"parents":[2147483647,0,0,1,1,2,2,3,3,5,5,7,7,8,8,9,9,10,10,11,11,14,14,15,15,17,17,18,18,19,19,20,20,21,21,25,25],"right_children":[2,4,6,8,-1,10,-1,12,14,16,18,20,-1,-1,22,24,-1,26,28,30,32,34,-1,-1,-1,36,-1,-1,-1,-1,-1,-1,-1,-1,-1,-1,-1],"split_conditions":[1E0,5.234822E-1,9.929035E-1,5E-1,1.4665169E-1,3.0208714E-3,-4.840642E-2,6.5051066E-3,-3.254191E-1,-2.3382362E-2,2.15244E-1,0E0,1.4554214E-1,-4.5537855E-2,3.3333334E-1,-5.1433112E-6,-4.5008004E-2,1.967705E-2,2.534338E-1,-4.873748E-1,0E0,-1.04024306E-1,-4.4972137E-2,-4.049784E-2,-1.5878966E-2,7.175671E-1,-4.480907E-2,1.8340351E-2,-3.3947222E-2,-2.1658156E-2,1.4147584E-1,-3.310293E-2,-4.6209425E-2,-3.7216645E-2,3.7518363E-2,-3.18283E-2,-5.763442E-3],"split_indices":[10,10,56,10,0,7,0,10,44,41,25,10,0,0,44,80,0,69,35,10,44,4,0,0,0,68,0,0,0,0,0,0,0,0,0,0,0],"split_type":[0,0,0,0,0,0,0,0,0,0,0,0,0,0,0,0,0,0,0,0,0,0,0,0,0,0,0,0,0,0,0,0,0,0,0,0,0],"sum_hessian":[6.478772E2,5.2840173E2,1.1947551E2,5.1352826E2,1.48734255E1,8.741125E1,3.206426E1,3.9802518E2,1.1550311E2,4.5559246E1,4.1852E1,3.790401E2,1.8985064E1,5.5610207E1,5.9892906E1,1.2539055E1,3.302019E1,2.7142567E1,1.4709435E1,2.6818625E2,1.1085386E2,2.999081E1,2.9902094E1,6.4295144E0,6.10954E0,1.2144188E1,1.4998379E1,6.2704787E0,8.438957E0,2.4894049E2,1.9245762E1,5.651534E1,5.433852E1,2.4714634E1,5.276176E0,6.9830713E0,5.161116E0],"tree_param":{"num_deleted":"0","num_feature":"86","num_nodes":"37","size_leaf_vector":"1"}},{"base_weights":[-3.390831E-1,-5.5651134E-1,-1.4637275E-1,-8.416382E-1,-4.6449307E-1,1.13929965E-1,-4.5806846E-1,-7.3140424E-1,-5.067384E-2,-3.12624E-1,-7.90471E-1,-3.3333728E-1,-7.9497737E-1,-5.600076E-1,-4.428506E-2,-4.6273288E-1,1.2440138E-1,-8.443913E-1,-2.0352934E-2,-4.2293456E-1,1.3493341E-1,-4.6792183E-2,-6.370268E-1,-2.8882823E-3,-6.839347E-1,-2.2401947E-1,-7.388487E-1,-4.6661083E-2,-7.062881E-1,-6.2699395E-1,-2.3114374E-1,-4.6968752E-1,-8.2927656E-1,-2.4100509E-2,-4.2922262E-2,-2.6580611E-2,1.3348137E-1,-4.1371953E-2,-2.618326E-2,-1.9216383E-2,-4.016742E-2,-3.7308164E-2,-2.2431491E-2,1.3386843E-1,-2.3573315E-2,-2.9907478E-2,-1.4746387E-3,-4.714226E-2,-2.4756942E-2],"categories":[],"categories_nodes":[],"categories_segments":[],"categories_sizes":[],"default_left":[0,0,0,0,0,0,0,0,0,0,0,0,0,0,0,0,0,0,0,0,0,0,0,0,0,0,0,0,0,0,0,0,0,0,0,0,0,0,0,0,0,0,0,0,0,0,0,0,0],"id":14,"left_children":[1,3,5,7,9,-1,11,13,-1,15,17,19,21,23,-1,25,-1,27,-1,29,-1,-1,31,-1,33,35,37,-1,39,41,43,45,47,-1,-1,-1,-1,-1,-1,-1,-1,-1,-1,-1,-1,-1,-1,-1,-1],"loss_changes":[2.6590439E1,7.4469833E0,2.571372E2,6.1608124E-1,1.1044235E1,0E0,1.2386322E1,7.5345993E-1,0E0,6.72581E1,1.1413612E0,6.129653E1,1.1976547E0,1.5228825E0,0E0,9.727314E0,0E0,1.0204697E-1,0E0,8.306438E0,0E0,0E0,9.3393135E-1,0E0,2.9245186E-1,7.434428E1,8.850708E-1,0E0,5.7873154E-1,1.8767128E0,8.0179085E1,1.3564758E0,2.1005821E-1,0E0,0E0,0E0,0E0,0E0,0E0,0E0,0E0,0E0,0E0,0E0,0E0,0E0,0E0,0E0,0E0],"parents":[2147483647,0,0,1,1,2,2,3,3,4,4,6,6,7,7,9,9,10,10,11,11,12,12,13,13,15,15,17,17,19,19,22,22,24,24,25,25,26,26,28,28,29,29,30,30,31,31,32,32],"right_children":[2,4,6,8,10,-1,12,14,-1,16,18,20,22,24,-1,26,-1,28,-1,30,-1,-1,32,-1,34,36,38,-1,40,42,44,46,48,-1,-1,-1,-1,-1,-1,-1,-1,-1,-1,-1,-1,-1,-1,-1,-1],"split_conditions":[3.0208714E-3,-6.5539265E-1,9.962245E-1,9.9608165E-1,3.3333334E-1,1.13929965E-1,5.8319396E-1,-4.1976324E-3,-5.067384E-2,8.0334896E-5,5.0338304E-1,1.1768559E-1,5.712014E-3,-5.0427324E-1,-4.428506E-2,0E0,1.2440138E-1,1.1368593E-2,-2.0352934E-2,3.719661E-3,1.3493341E-1,-4.6792183E-2,1.8447018E-1,-2.8882823E-3,2.1026738E-1,-3.254191E-1,2.5367722E-1,-4.6661083E-2,-2.797237E-1,-3.69321E-1,9.8473513E-1,-1.1800089E-1,2.0596613E-1,-2.4100509E-2,-4.2922262E-2,-2.6580611E-2,1.3348137E-1,-4.1371953E-2,-2.618326E-2,-1.9216383E-2,-4.016742E-2,-3.7308164E-2,-2.2431491E-2,1.3386843E-1,-2.3573315E-2,-2.9907478E-2,-1.4746387E-3,-4.714226E-2,-2.4756942E-2],"split_indices":[7,44,7,55,44,0,32,9,0,44,18,32,13,69,0,44,0,1,0,8,0,0,48,0,69,44,1,0,20,32,8,48,68,0,0,0,0,0,0,0,0,0,0,0,0,0,0,0,0],"split_type":[0,0,0,0,0,0,0,0,0,0,0,0,0,0,0,0,0,0,0,0,0,0,0,0,0,0,0,0,0,0,0,0,0,0,0,0,0,0,0,0,0,0,0,0,0,0,0,0,0],"sum_hessian":[6.355504E2,2.9773672E2,3.3781366E2,7.0656105E1,2.2708063E2,3.7756927E1,3.0005673E2,4.624585E1,2.4410252E1,1.5624641E2,7.083422E1,2.2043585E2,7.962088E1,2.410209E1,2.214376E1,1.4909027E2,7.15614E0,6.1046753E1,9.787468E0,2.1494464E2,5.491214E0,3.9483284E1,4.0137596E1,5.060289E0,1.9041801E1,8.0932304E1,6.815797E1,3.364701E1,2.7399744E1,1.0304203E2,1.1190261E2,2.3299881E1,1.6837717E1,1.0571584E1,8.470218E0,7.389373E1,7.038572E0,4.6265373E1,2.1892591E1,7.4956093E0,1.9904135E1,5.986287E1,4.3179157E1,7.76658E0,1.0413603E2,1.775857E1,5.5413117E0,1.120692E1,5.6307974E0],"tree_param":{"num_deleted":"0","num_feature":"86","num_nodes":"49","size_leaf_vector":"1"}},{"base_weights":[-3.2038522E-1,-2.0295385E-1,-6.829117E-1,-3.6740968E-1,9.4933406E-2,-8.5238045E-1,-5.2570707E-1,-7.9892945E-1,-2.7117082E-1,-4.7016528E-2,-6.9824004E-1,-3.1847286E-1,-7.181738E-1,-6.7570865E-1,-4.545123E-2,1.3149324E-1,-3.754276E-1,-4.021225E-1,-4.162064E-2,-4.9822184E-1,1.4680386E-1,-8.459131E-1,-1.3767186E-2,-4.2621832E-2,-4.7670346E-1,-6.050939E-1,-1.7581588E-1,-3.0282745E-2,-6.626562E-3,-2.8217667E-1,-4.2055797E-2,3.826178E-2,-2.46967E-2,-4.658937E-2,-2.8107284E-2,-1.1180818E-2,-3.3674225E-2,-4.257733E-2,-2.5120372E-2,1.3167654E-1,-2.3524318E-2,2.7207859E-4,-4.3285474E-2],"categories":[],"categories_nodes":[],"categories_segments":[],"categories_sizes":[],"default_left":[0,0,0,0,0,0,0,0,0,0,0,0,0,0,0,0,0,0,0,0,0,0,0,0,0,0,0,0,0,0,0,0,0,0,0,0,0,0,0,0,0,0,0],"id":15,"left_children":[1,3,5,7,-1,9,11,13,15,-1,17,19,21,23,-1,-1,25,27,-1,29,31,33,-1,-1,35,37,39,-1,-1,41,-1,-1,-1,-1,-1,-1,-1,-1,-1,-1,-1,-1,-1],"loss_changes":[2.6198776E1,1.6269551E2,3.5732346E0,1.787062E1,0E0,3.0634308E-1,2.9986095E0,4.5622253E-1,1.09152275E2,0E0,8.448267E-1,3.4819603E0,2.0951023E0,1.040184E0,0E0,0E0,1.5760017E1,5.338448E-1,0E0,1.9575543E0,5.184825E0,2.4279594E-1,0E0,0E0,9.258623E-1,3.634575E0,1.5568948E2,0E0,0E0,3.3078854E0,0E0,0E0,0E0,0E0,0E0,0E0,0E0,0E0,0E0,0E0,0E0,0E0,0E0],"parents":[2147483647,0,0,1,1,2,2,3,3,5,5,6,6,7,7,8,8,10,10,11,11,12,12,13,13,16,16,17,17,19,19,20,20,21,21,24,24,25,25,26,26,29,29],"right_children":[2,4,6,8,-1,10,12,14,16,-1,18,20,22,24,-1,-1,26,28,-1,30,32,34,-1,-1,36,38,40,-1,-1,42,-1,-1,-1,-1,-1,-1,-1,-1,-1,-1,-1,-1,-1],"split_conditions":[9.929035E-1,3.4736912E-3,5.0233626E-1,-7.3404413E-1,9.4933406E-2,1.1368593E-2,9.760706E-1,9.9736786E-1,-5E-1,-4.7016528E-2,5E-1,1.3228813E-2,6.015875E-1,5.359105E-2,-4.545123E-2,1.3149324E-1,-9.956404E-1,-1.22789755E-1,-4.162064E-2,3.1512308E-1,3.0183932E-7,5.0581324E-1,-1.3767186E-2,-4.2621832E-2,-3.3417173E-2,-4.954884E-1,-4.1976324E-3,-3.0282745E-2,-6.626562E-3,4.780435E-1,-4.2055797E-2,3.826178E-2,-2.46967E-2,-4.658937E-2,-2.8107284E-2,-1.1180818E-2,-3.3674225E-2,-4.257733E-2,-2.5120372E-2,1.3167654E-1,-2.3524318E-2,2.7207859E-4,-4.3285474E-2],"split_indices":[56,56,20,20,0,14,8,2,20,0,14,41,16,5,0,0,9,48,0,73,80,5,0,0,66,18,9,0,0,35,0,0,0,0,0,0,0,0,0,0,0,0,0],"split_type":[0,0,0,0,0,0,0,0,0,0,0,0,0,0,0,0,0,0,0,0,0,0,0,0,0,0,0,0,0,0,0,0,0,0,0,0,0,0,0,0,0,0,0],"sum_hessian":[6.176551E2,4.677115E2,1.4994359E2,4.345336E2,3.317789E1,7.002913E1,7.991445E1,7.7907455E1,3.5662613E2,4.1340458E1,2.8688673E1,3.9759262E1,4.015519E1,4.0130287E1,3.777717E1,1.1531353E1,3.450948E2,1.0192035E1,1.8496637E1,2.8628494E1,1.113077E1,3.045877E1,9.696419E0,1.9515726E1,2.0614561E1,1.5952243E2,1.8557234E2,5.09723E0,5.0948052E0,1.868112E1,9.947373E0,5.565103E0,5.565667E0,2.1629559E1,8.829213E0,9.951699E0,1.0662863E1,4.47728E1,1.14749626E2,1.6863256E1,1.6870909E2,1.3176977E1,5.5041423E0],"tree_param":{"num_deleted":"0","num_feature":"86","num_nodes":"43","size_leaf_vector":"1"}},{"base_weights":[-3.1645608E-1,-5.759806E-1,-1.4767799E-1,-3.3165255E-1,-7.1050704E-1,1.283134E-1,-2.9971826E-1,3.2053486E-2,-5.875301E-1,-7.8655624E-1,-4.9601707E-1,-6.9091547E-1,-1.5990484E-1,-4.227234E-1,3.892478E-1,-8.226189E-1,-3.4301898E-1,-8.281436E-1,-5.162264E-1,-3.133822E-1,-7.5772494E-1,-5.139927E-1,-4.4553455E-2,1.3105127E-1,-2.6342905E-1,-6.730393E-1,5.4672114E-3,8.911252E-1,-1.6251883E-2,-2.6867194E-2,-4.7747727E-2,1.5985696E-2,-6.478456E-1,-7.2671753E-1,-4.6096295E-2,-4.1147154E-2,-2.679661E-1,-6.020924E-1,2.0682482E-2,-2.3566699E-2,-4.3656345E-2,-8.896972E-2,-6.9798684E-1,-4.12994E-2,-1.3375586E-1,-2.031956E-2,-4.1788246E-2,1.355544E-2,6.371639E-2,-3.9962344E-2,-1.0244368E-2,-2.6654584E-2,-4.4302944E-2,-8.276162E-4,-2.34671E-2,-1.3308095E-2,-3.860153E-2,2.5593339E-2,-1.9636702E-2,-3.9651852E-2,-8.449275E-3,1.3040338E-1,-1.4780939E-2],"categories":[],"categories_nodes":[],"categories_segments":[],"categories_sizes":[],"default_left":[0,0,0,0,0,0,0,0,0,0,0,0,0,0,0,0,0,0,0,0,0,0,0,0,0,0,0,0,0,0,0,0,0,0,0,0,0,0,0,0,0,0,0,0,0,0,0,0,0,0,0,0,0,0,0,0,0,0,0,0,0,0,0],"id":16,"left_children":[1,3,5,7,9,-1,11,13,15,17,19,21,23,25,27,29,31,33,35,37,39,41,-1,-1,43,45,-1,47,-1,-1,-1,-1,49,51,-1,-1,53,55,-1,-1,-1,57,59,-1,61,-1,-1,-1,-1,-1,-1,-1,-1,-1,-1,-1,-1,-1,-1,-1,-1,-1,-1],"loss_changes":[2.6518269E1,7.6196365E0,1.5317905E2,8.091028E0,2.1096725E0,0E0,1.906894E1,6.137528E0,2.6475792E0,8.252411E-1,1.8092766E0,2.80085E0,7.543805E1,2.2917473E0,7.858987E0,4.4084167E-1,5.600765E0,2.3288727E-1,1.1129346E0,5.900886E0,1.4685535E-1,3.9427433E0,0E0,0E0,1.8216187E1,1.5786457E-1,0E0,2.6644745E0,0E0,0E0,0E0,0E0,1.084837E0,1.0802746E0,0E0,0E0,5.573019E-1,9.17994E-1,0E0,0E0,0E0,3.2340186E0,1.6556969E0,0E0,9.190893E1,0E0,0E0,0E0,0E0,0E0,0E0,0E0,0E0,0E0,0E0,0E0,0E0,0E0,0E0,0E0,0E0,0E0,0E0],"parents":[2147483647,0,0,1,1,2,2,3,3,4,4,6,6,7,7,8,8,9,9,10,10,11,11,12,12,13,13,14,14,15,15,16,16,17,17,18,18,19,19,20,20,21,21,24,24,25,25,27,27,32,32,33,33,36,36,37,37,41,41,42,42,44,44],"right_children":[2,4,6,8,10,-1,12,14,16,18,20,22,24,26,28,30,32,34,36,38,40,42,-1,-1,44,46,-1,48,-1,-1,-1,-1,50,52,-1,-1,54,56,-1,-1,-1,58,60,-1,62,-1,-1,-1,-1,-1,-1,-1,-1,-1,-1,-1,-1,-1,-1,-1,-1,-1,-1],"split_conditions":[-4.3384263E-1,0E0,0E0,0E0,3.316722E-3,1.283134E-1,-4.954884E-1,3.719661E-3,1.3228813E-2,5.0338304E-1,2.3625427E-1,-5E-1,-2.5E-1,3.4891722E-1,9.9167305E-1,-1.6154978E-1,9.9168617E-1,5.8319396E-1,-1.4904396E-1,-2.4814017E-1,-1.1413097E-1,-3.6346373E-1,-4.4553455E-2,1.3105127E-1,-2.4366285E-1,-1.7629951E-1,5.4672114E-3,-4.954884E-1,-1.6251883E-2,-2.6867194E-2,-4.7747727E-2,1.5985696E-2,3.435006E-1,5.740522E-1,-4.6096295E-2,-4.1147154E-2,6.949182E-1,-4.0312538E-1,2.0682482E-2,-2.3566699E-2,-4.3656345E-2,-1.7212652E-1,1.0505074E0,-4.12994E-2,0E0,-2.031956E-2,-4.1788246E-2,1.355544E-2,6.371639E-2,-3.9962344E-2,-1.0244368E-2,-2.6654584E-2,-4.4302944E-2,-8.276162E-4,-2.34671E-2,-1.3308095E-2,-3.860153E-2,2.5593339E-2,-1.9636702E-2,-3.9651852E-2,-8.449275E-3,1.3040338E-1,-1.4780939E-2],"split_indices":[33,32,33,18,60,0,18,58,41,18,20,18,18,71,2,0,58,32,4,20,71,43,0,0,18,0,0,18,0,0,0,0,16,79,0,0,1,4,0,0,0,3,41,0,18,0,0,0,0,0,0,0,0,0,0,0,0,0,0,0,0,0,0],"split_type":[0,0,0,0,0,0,0,0,0,0,0,0,0,0,0,0,0,0,0,0,0,0,0,0,0,0,0,0,0,0,0,0,0,0,0,0,0,0,0,0,0,0,0,0,0,0,0,0,0,0,0,0,0,0,0,0,0,0,0,0,0,0,0],"sum_hessian":[6.063534E2,2.379905E2,3.6836288E2,8.573791E1,1.522526E2,1.8699242E1,3.4966367E2,3.5769554E1,4.996835E1,1.104312E2,4.18214E1,9.102751E1,2.5863614E2,1.5654684E1,2.011487E1,2.4269625E1,2.5698727E1,9.3919266E1,1.6511927E1,2.5926111E1,1.5895288E1,5.0211674E1,4.081584E1,8.409771E0,2.5022636E2,1.04659395E1,5.188745E0,1.1668602E1,8.446269E0,9.294341E0,1.4975283E1,8.080918E0,1.7617807E1,4.9324036E1,4.459523E1,6.350845E0,1.0161081E1,1.8679987E1,7.246124E0,6.0256987E0,9.86959E0,1.5617977E1,3.4593697E1,4.5868046E1,2.0435832E2,5.2918773E0,5.1740623E0,5.1093025E0,6.5592995E0,1.2530574E1,5.087234E0,2.4228289E1,2.5095749E1,5.00039E0,5.1606917E0,7.137312E0,1.1542675E1,5.0144567E0,1.060352E1,2.8901579E1,5.692118E0,1.0549291E1,1.9380904E2],"tree_param":{"num_deleted":"0","num_feature":"86","num_nodes":"63","size_leaf_vector":"1"}},{"base_weights":[-2.9703742E-1,-1.8283093E-1,-6.599817E-1,-3.4286627E-1,9.002775E-2,-8.1363344E-1,-5.188289E-1,-7.952908E-1,-2.4167266E-1,-5.8307904E-1,-4.3035034E-2,-8.416766E-1,-3.646842E-1,-6.832533E-1,-4.4808324E-2,1.1990209E-1,-3.392521E-1,-4.082992E-2,-1.8097898E-2,-2.3087688E-2,-4.5895047E-2,-9.5894694E-2,-6.095555E-1,-4.920876E-1,-4.1301187E-2,-7.2461516E-1,-2.2717528E-1,1.5964514E-1,-3.5280224E-2,-7.311714E-1,-8.633458E-3,-1.2922785E-2,-3.6670882E-2,-4.4285152E-2,-2.8421393E-2,1.3232315E-1,-1.9413078E-2,-1.423426E-2,2.8784102E-2,-2.2266103E-2,-4.1865446E-2],"categories":[],"categories_nodes":[],"categories_segments":[],"categories_sizes":[],"default_left":[0,0,0,0,0,0,0,0,0,0,0,0,0,0,0,0,0,0,0,0,0,0,0,0,0,0,0,0,0,0,0,0,0,0,0,0,0,0,0,0,0],"id":17,"left_children":[1,3,5,7,-1,9,11,13,15,17,-1,19,21,23,-1,-1,25,-1,-1,-1,-1,27,29,31,-1,33,35,37,-1,39,-1,-1,-1,-1,-1,-1,-1,-1,-1,-1,-1],"loss_changes":[2.4489838E1,1.4440619E2,2.6516914E0,1.903741E1,0E0,2.1541595E-1,3.5064545E0,2.5045013E-1,8.959783E1,4.4315863E-1,0E0,2.7113533E-1,3.4713655E0,6.955204E-1,0E0,0E0,1.4229515E1,0E0,0E0,0E0,0E0,4.2808604E0,1.3548956E0,9.232197E-1,0E0,1.3742752E0,1.21216064E2,3.799518E0,0E0,2.7933884E-1,0E0,0E0,0E0,0E0,0E0,0E0,0E0,0E0,0E0,0E0,0E0],"parents":[2147483647,0,0,1,1,2,2,3,3,5,5,6,6,7,7,8,8,9,9,11,11,12,12,13,13,16,16,21,21,22,22,23,23,25,25,26,26,27,27,29,29],"right_children":[2,4,6,8,-1,10,12,14,16,18,-1,20,22,24,-1,-1,26,-1,-1,-1,-1,28,30,32,-1,34,36,38,-1,40,-1,-1,-1,-1,-1,-1,-1,-1,-1,-1,-1],"split_conditions":[9.929035E-1,3.4736912E-3,5.0233626E-1,-7.3404413E-1,9.002775E-2,-6.0458905E-1,-3.8294116E-1,9.9736786E-1,-5E-1,-2.4448346E-1,-4.3035034E-2,-3.300893E-1,9.9167305E-1,-1.1875924E-2,-4.4808324E-2,1.1990209E-1,-4.9306208E-1,-4.082992E-2,-1.8097898E-2,-2.3087688E-2,-4.5895047E-2,3.319657E-1,3.0208714E-3,2.7289255E-2,-4.1301187E-2,3.0208714E-3,-2.5E-1,-9.956404E-1,-3.5280224E-2,-3.8753864E-1,-8.633458E-3,-1.2922785E-2,-3.6670882E-2,-4.4285152E-2,-2.8421393E-2,1.3232315E-1,-1.9413078E-2,-1.423426E-2,2.8784102E-2,-2.2266103E-2,-4.1865446E-2],"split_indices":[56,56,20,20,0,73,5,13,20,1,0,67,13,9,0,0,20,0,0,0,0,52,57,67,0,7,20,9,0,11,0,0,0,0,0,0,0,0,0,0,0],"split_type":[0,0,0,0,0,0,0,0,0,0,0,0,0,0,0,0,0,0,0,0,0,0,0,0,0,0,0,0,0,0,0,0,0,0,0,0,0,0,0,0,0],"sum_hessian":[5.9273096E2,4.520041E2,1.4072688E2,4.1902127E2,3.2982834E1,6.509911E1,7.562777E1,7.533744E1,3.4368384E2,1.3306527E1,5.179259E1,2.2998457E1,5.262931E1,3.937681E1,3.596063E1,1.1411276E1,3.3227255E2,5.1620502E0,8.144477E0,5.0225453E0,1.7975912E1,2.5752739E1,2.687657E1,1.8736225E1,2.0640585E1,7.3632034E1,2.5864053E2,1.866717E1,7.0855694E0,2.0497179E1,6.379392E0,1.0572214E1,8.164011E0,3.3948055E1,3.968398E1,1.2909924E1,2.457306E2,9.1793165E0,9.487853E0,6.9568114E0,1.3540367E1],"tree_param":{"num_deleted":"0","num_feature":"86","num_nodes":"41","size_leaf_vector":"1"}},{"base_weights":[-2.866952E-1,-1.9009784E-1,-7.3403347E-1,-2.812346E-1,1.2373717E-1,-8.447733E-1,-5.979332E-1,-1.5360796E-1,-7.456182E-1,-4.7234014E-2,-6.6555136E-1,-3.8588025E-2,-3.793497E-1,-3.082689E-1,1.2630294E-1,-8.5933584E-1,-6.205283E-1,-4.3892568E-1,-4.34224E-2,-4.248152E-2,-1.3359103E-1,-1.3731578E-1,-7.4778545E-1,-4.4776108E-2,-2.377203E-2,-3.944896E-1,-4.2292614E-2,-3.651979E-2,-8.182879E-3,7.841541E-3,-2.7222777E-2,-1.869226E-2,1.2345053E-1,-3.0516887E-2,-4.370276E-2,-3.4579944E-2,3.2724336E-2],"categories":[],"categories_nodes":[],"categories_segments":[],"categories_sizes":[],"default_left":[0,0,0,0,0,0,0,0,0,0,0,0,0,0,0,0,0,0,0,0,0,0,0,0,0,0,0,0,0,0,0,0,0,0,0,0,0],"id":18,"left_children":[1,3,5,7,-1,9,11,13,15,-1,17,-1,19,21,-1,23,25,27,-1,-1,29,31,33,-1,-1,35,-1,-1,-1,-1,-1,-1,-1,-1,-1,-1,-1],"loss_changes":[2.5376118E1,1.1896311E2,1.0700874E0,2.7845669E1,0E0,3.597145E-1,1.6188126E0,1.5466747E2,9.097862E-1,0E0,6.829691E-1,0E0,2.6895308E0,2.6341461E1,0E0,2.7630234E-1,2.3099327E0,9.198067E-1,0E0,0E0,2.1276603E0,1.5788586E2,1.1731415E0,0E0,0E0,9.112232E0,0E0,0E0,0E0,0E0,0E0,0E0,0E0,0E0,0E0,0E0,0E0],"parents":[2147483647,0,0,1,1,2,2,3,3,5,5,6,6,7,7,8,8,10,10,12,12,13,13,15,15,16,16,17,17,20,20,21,21,22,22,25,25],"right_children":[2,4,6,8,-1,10,12,14,16,-1,18,-1,20,22,-1,24,26,28,-1,-1,30,32,34,-1,-1,36,-1,-1,-1,-1,-1,-1,-1,-1,-1,-1,-1],"split_conditions":[1E0,5.234822E-1,5.2206162E-3,5E-1,1.2373717E-1,7.297424E-7,1.3228813E-2,6.5051066E-3,-3.254191E-1,-4.7234014E-2,-4.1976324E-3,-3.8588025E-2,-3.4781334E-1,0E0,1.2630294E-1,7.6852137E-1,3.3333334E-1,-2.3401822E-1,-4.34224E-2,-4.248152E-2,2.5E-1,-4.873748E-1,0E0,-4.4776108E-2,-2.377203E-2,-1.3612323E-1,-4.2292614E-2,-3.651979E-2,-8.182879E-3,7.841541E-3,-2.7222777E-2,-1.869226E-2,1.2345053E-1,-3.0516887E-2,-4.370276E-2,-3.4579944E-2,3.2724336E-2],"split_indices":[10,10,71,10,0,80,41,10,44,0,9,0,5,10,0,0,44,66,0,0,20,10,44,0,0,4,0,0,0,0,0,0,0,0,0,0,0],"split_type":[0,0,0,0,0,0,0,0,0,0,0,0,0,0,0,0,0,0,0,0,0,0,0,0,0,0,0,0,0,0,0,0,0,0,0,0,0],"sum_hessian":[5.8948035E2,4.859666E2,1.0351375E2,4.7076117E2,1.5205421E1,5.4203407E1,4.9310337E1,3.7031754E2,1.0044364E2,3.2060387E1,2.2143023E1,2.6057512E1,2.3252825E1,3.5094705E2,1.9370472E1,4.9538803E1,5.0904835E1,1.1954134E1,1.0188889E1,7.1374736E0,1.611535E1,2.5361436E2,9.733271E1,4.405356E1,5.485245E0,2.6785316E1,2.4119518E1,5.003129E0,6.9510045E0,9.803783E0,6.311568E0,2.332986E2,2.031576E1,4.939674E1,4.793597E1,2.1138731E1,5.646587E0],"tree_param":{"num_deleted":"0","num_feature":"86","num_nodes":"37","size_leaf_vector":"1"}},{"base_weights":[-2.7897143E-1,-5.315736E-1,-1.2029432E-1,-2.828247E-1,-6.7207754E-1,1.1664494E-1,-2.6940212E-1,-1.0273605E-2,-6.3629705E-1,-5.842085E-1,-4.492724E-2,-7.454156E-1,-1.404169E-1,-4.349059E-1,3.312654E-1,-4.036491E-2,-2.933551E-1,-7.029527E-1,-4.0842637E-1,-6.0786283E-1,-4.3212723E-2,1.2684414E-1,-3.342273E-1,-1.1694297E-1,-3.5401486E-2,6.9280314E-1,-2.1618892E-1,-3.675192E-2,2.9139386E-3,-7.551546E-1,-1.628809E-2,-6.7047626E-1,-1.440284E-1,-4.04685E-2,-3.9640757E-1,-1.6976655E-1,-7.323665E-1,1.7482325E-2,-2.8534828E-2,5.8110585E-3,4.7281194E-2,3.1052793E-3,-2.3257194E-2,-4.628797E-2,-3.2118518E-2,-4.2008244E-2,-1.3683003E-2,2.4471026E-2,-2.4613494E-2,-3.2653686E-2,-1.9552675E-3,1.2998207E-1,-2.007442E-2,-3.911519E-2,-1.8238792E-2],"categories":[],"categories_nodes":[],"categories_segments":[],"categories_sizes":[],"default_left":[0,0,0,0,0,0,0,0,0,0,0,0,0,0,0,0,0,0,0,0,0,0,0,0,0,0,0,0,0,0,0,0,0,0,0,0,0,0,0,0,0,0,0,0,0,0,0,0,0,0,0,0,0,0,0],"id":19,"left_children":[1,3,5,7,9,-1,11,13,15,17,-1,19,21,23,25,-1,27,29,31,33,-1,-1,35,37,-1,39,41,-1,-1,43,-1,45,47,-1,49,51,53,-1,-1,-1,-1,-1,-1,-1,-1,-1,-1,-1,-1,-1,-1,-1,-1,-1,-1],"loss_changes":[2.2937569E1,7.5377617E0,1.3002635E2,7.84878E0,2.2723618E0,0E0,2.0425585E1,6.9684324E0,1.8440037E0,1.8865242E0,0E0,6.361847E-1,1.3800018E2,1.7763748E0,5.4238825E0,0E0,2.1203892E0,9.504509E-1,2.9776955E0,1.2261457E0,0E0,0E0,1.6072405E1,2.5474865E0,0E0,2.264193E0,8.159809E-1,0E0,0E0,4.1777992E-1,0E0,1.2521839E0,5.394008E0,0E0,1.7788563E0,1.1421523E2,1.0364342E0,0E0,0E0,0E0,0E0,0E0,0E0,0E0,0E0,0E0,0E0,0E0,0E0,0E0,0E0,0E0,0E0,0E0,0E0],"parents":[2147483647,0,0,1,1,2,2,3,3,4,4,6,6,7,7,8,8,9,9,11,11,12,12,13,13,14,14,16,16,17,17,18,18,19,19,22,22,23,23,25,25,26,26,29,29,31,31,32,32,34,34,35,35,36,36],"right_children":[2,4,6,8,10,-1,12,14,16,18,-1,20,22,24,26,-1,28,30,32,34,-1,-1,36,38,-1,40,42,-1,-1,44,-1,46,48,-1,50,52,54,-1,-1,-1,-1,-1,-1,-1,-1,-1,-1,-1,-1,-1,-1,-1,-1,-1,-1],"split_conditions":[-4.3384263E-1,-4.4067797E-1,0E0,2.5E-1,9.929035E-1,1.1664494E-1,7.3145432E-3,3.719661E-3,4.9052197E-3,-2.4814017E-1,-4.492724E-2,9.9167305E-1,3.0508474E-1,-1.2672445E-2,9.9167305E-1,-4.036491E-2,-1.1882544E-1,7.688372E-1,-2.4448346E-1,3.719661E-3,-4.3212723E-2,1.2684414E-1,5E-1,-1.6712077E-1,-3.5401486E-2,-4.954884E-1,1.21391326E-1,-3.675192E-2,2.9139386E-3,-7.3404413E-1,-1.628809E-2,2.5946867E-1,4.456731E-1,-4.04685E-2,3.429508E-2,5.5932206E-1,5.0338304E-1,1.7482325E-2,-2.8534828E-2,5.8110585E-3,4.7281194E-2,3.1052793E-3,-2.3257194E-2,-4.628797E-2,-3.2118518E-2,-4.2008244E-2,-1.3683003E-2,2.4471026E-2,-2.4613494E-2,-3.2653686E-2,-1.9552675E-3,1.2998207E-1,-2.007442E-2,-3.911519E-2,-1.8238792E-2],"split_indices":[33,33,33,18,56,0,33,8,11,20,0,2,33,44,2,0,67,5,1,8,0,0,1,34,0,18,17,0,0,20,0,18,79,0,48,33,18,0,0,0,0,0,0,0,0,0,0,0,0,0,0,0,0,0,0],"split_type":[0,0,0,0,0,0,0,0,0,0,0,0,0,0,0,0,0,0,0,0,0,0,0,0,0,0,0,0,0,0,0,0,0,0,0,0,0,0,0,0,0,0,0,0,0,0,0,0,0,0,0,0,0,0,0],"sum_hessian":[5.728588E2,2.2011005E2,3.5274875E2,8.053805E1,1.3957199E2,1.937278E1,3.3337598E2,4.6055332E1,3.448271E1,1.0313528E2,3.643672E1,7.005659E1,2.633194E2,2.0408394E1,2.564694E1,2.2105974E1,1.237674E1,5.9764317E1,4.3370956E1,3.530593E1,3.475066E1,1.6958933E1,2.4636046E2,1.0090034E1,1.031836E1,1.5286359E1,1.036058E1,5.002636E0,7.374104E0,5.1618454E1,8.145865E0,2.1010847E1,2.2360111E1,1.6630354E1,1.8675577E1,1.7535313E2,7.1007324E1,5.087772E0,5.0022616E0,5.104578E0,1.0181781E1,5.246411E0,5.11417E0,1.7674553E1,3.39439E1,1.3934737E1,7.076109E0,7.788137E0,1.4571974E1,1.0386619E1,8.2889595E0,1.2750276E1,1.6260286E2,6.1521423E1,9.485901E0],"tree_param":{"num_deleted":"0","num_feature":"86","num_nodes":"55","size_leaf_vector":"1"}},{"base_weights":[-2.7198842E-1,-1.6254313E-1,-6.48538E-1,-3.0736896E-1,1.18938446E-1,-5.053869E-1,-8.0687004E-1,-1.6339418E-1,-6.3064873E-1,-7.296389E-1,-3.3118048E-1,-4.4367235E-2,-5.2307934E-1,-3.8635898E-1,1.1518741E-1,-4.9085128E-1,-7.565264E-1,-5.6957585E-1,-4.3267153E-2,-6.422013E-1,-1.2239761E-1,-3.6836825E-2,-1.2578352E-2,-1.7841852E-1,-6.3007015E-1,-3.0745095E-1,-7.232335E-1,-7.913594E-1,-1.4738447E-2,-1.7259277E-2,-3.8126174E-2,-2.0512057E-2,-4.473951E-2,-2.8967282E-2,1.2397724E-1,-3.10006E-2,1.2810397E-1,-4.095773E-2,-2.2431567E-2,-2.9212086E-2,-4.2708844E-4,-4.542222E-2,-2.6399106E-2,-4.1887127E-2,-2.148074E-2,-1.8532574E-2,2.4981141E-2],"categories":[],"categories_nodes":[],"categories_segments":[],"categories_sizes":[],"default_left":[0,0,0,0,0,0,0,0,0,0,0,0,0,0,0,0,0,0,0,0,0,0,0,0,0,0,0,0,0,0,0,0,0,0,0,0,0,0,0,0,0,0,0,0,0,0,0],"id":20,"left_children":[1,3,5,7,-1,9,11,13,15,17,19,-1,21,23,-1,25,27,29,-1,31,33,-1,-1,35,37,39,41,43,-1,-1,-1,-1,-1,-1,45,-1,-1,-1,-1,-1,-1,-1,-1,-1,-1,-1,-1],"loss_changes":[2.3094727E1,1.6175592E2,2.458065E0,1.9203808E1,0E0,2.4570656E0,8.686981E-1,1.5950339E2,1.8717003E0,1.4509201E-1,2.564908E0,0E0,7.0392084E-1,1.3332321E1,0E0,2.4728947E0,8.158188E-1,4.4691133E-1,0E0,5.771556E-1,2.9531841E0,0E0,0E0,1.7652225E2,3.8093834E0,3.0632365E0,5.0238323E-1,6.4775085E-1,0E0,0E0,0E0,0E0,0E0,0E0,3.42785E0,0E0,0E0,0E0,0E0,0E0,0E0,0E0,0E0,0E0,0E0,0E0,0E0],"parents":[2147483647,0,0,1,1,2,2,3,3,5,5,6,6,7,7,8,8,9,9,10,10,12,12,13,13,15,15,16,16,17,17,19,19,20,20,23,23,24,24,25,25,26,26,27,27,34,34],"right_children":[2,4,6,8,-1,10,12,14,16,18,20,-1,22,24,-1,26,28,30,-1,32,34,-1,-1,36,38,40,42,44,-1,-1,-1,-1,-1,-1,46,-1,-1,-1,-1,-1,-1,-1,-1,-1,-1,-1,-1],"split_conditions":[3.3333334E-1,8.0334896E-5,9.9167305E-1,0E0,1.18938446E-1,-2.4366285E-1,3.0208714E-3,-3.254191E-1,9.962245E-1,-6.6853114E-5,-1.9730514E-1,-4.4367235E-2,-6.9601096E-2,-3.3333334E-1,1.1518741E-1,2.2122322E-1,8.888819E-1,-8.019461E-2,-4.3267153E-2,9.8141575E-1,-3.7496054E-1,-3.6836825E-2,-1.2578352E-2,-6.5539265E-1,5.712014E-3,-4.2826802E-1,-4.3384263E-1,8.8894355E-1,-1.4738447E-2,-1.7259277E-2,-3.8126174E-2,-2.0512057E-2,-4.473951E-2,-2.8967282E-2,-4.3384263E-1,-3.10006E-2,1.2810397E-1,-4.095773E-2,-2.2431567E-2,-2.9212086E-2,-4.2708844E-4,-4.542222E-2,-2.6399106E-2,-4.1887127E-2,-2.148074E-2,-1.8532574E-2,2.4981141E-2],"split_indices":[44,44,2,44,0,18,57,44,7,68,5,0,16,44,0,71,43,66,0,55,69,0,0,44,2,71,33,71,0,0,0,0,0,0,33,0,0,0,0,0,0,0,0,0,0,0,0],"split_type":[0,0,0,0,0,0,0,0,0,0,0,0,0,0,0,0,0,0,0,0,0,0,0,0,0,0,0,0,0,0,0,0,0,0,0,0,0,0,0,0,0,0,0,0,0,0,0],"sum_hessian":[5.6195215E2,4.3651065E2,1.2544149E2,4.138074E2,2.2703257E1,6.8080505E1,5.736098E1,2.873428E2,1.2646459E2,2.8370913E1,3.9709595E1,4.3031704E1,1.4329276E1,2.643004E2,2.3042406E1,6.224066E1,6.422393E1,1.5401748E1,1.2969166E1,1.5115831E1,2.4593763E1,7.0601115E0,7.269164E0,1.4355112E2,1.2074929E2,3.6084866E1,2.6155796E1,5.9055256E1,5.168674E0,8.410123E0,6.991625E0,9.247611E0,5.8682213E0,8.1418E0,1.6451965E1,1.2429624E2,1.9254868E1,5.7407715E1,6.334158E1,1.8239998E1,1.7844868E1,1.1548488E1,1.4607309E1,5.117742E1,7.8778343E0,7.107072E0,9.3448925E0],"tree_param":{"num_deleted":"0","num_feature":"86","num_nodes":"47","size_leaf_vector":"1"}},{"base_weights":[-2.6550955E-1,-1.7011368E-1,-6.95377E-1,-2.5715035E-1,1.1190762E-1,-6.112068E-1,-4.5135763E-2,-1.2963957E-1,-7.1339977E-1,-5.35773E-1,-4.6016425E-2,-2.747822E-1,1.1129756E-1,-8.2753766E-1,-5.936565E-1,-7.373501E-1,-3.1366646E-1,-1.0421339E-1,-7.1431565E-1,-4.341897E-2,-2.5449008E-2,4.288526E-3,-6.722221E-1,-4.158775E-2,-1.6857032E-2,-3.727983E-2,-1.2164259E-1,-1.6336394E-2,1.1005671E-1,-4.2550158E-2,-2.850761E-2,-3.570391E-2,-1.7880343E-2,1.7270597E-2,-2.2903938E-2],"categories":[],"categories_nodes":[],"categories_segments":[],"categories_sizes":[],"default_left":[0,0,0,0,0,0,0,0,0,0,0,0,0,0,0,0,0,0,0,0,0,0,0,0,0,0,0,0,0,0,0,0,0,0,0],"id":21,"left_children":[1,3,5,7,-1,9,-1,11,13,15,-1,17,-1,19,21,23,25,27,29,-1,-1,-1,31,-1,-1,-1,33,-1,-1,-1,-1,-1,-1,-1,-1],"loss_changes":[2.2538654E1,9.5629684E1,1.1937675E0,2.5421833E1,0E0,1.2379837E0,0E0,1.1822132E2,8.149605E-1,2.547594E0,0E0,2.428479E1,0E0,1.6161728E-1,2.7362385E0,9.209385E-1,2.5029058E0,1.2139573E2,1.3014336E0,0E0,0E0,0E0,3.3843613E-1,0E0,0E0,0E0,3.7474582E0,0E0,0E0,0E0,0E0,0E0,0E0,0E0,0E0],"parents":[2147483647,0,0,1,1,2,2,3,3,5,5,7,7,8,8,9,9,11,11,13,13,14,14,15,15,16,16,17,17,18,18,22,22,26,26],"right_children":[2,4,6,8,-1,10,-1,12,14,16,-1,18,-1,20,22,24,26,28,30,-1,-1,-1,32,-1,-1,-1,34,-1,-1,-1,-1,-1,-1,-1,-1],"split_conditions":[1E0,5.234822E-1,9.929035E-1,5E-1,1.1190762E-1,1.1397318E0,-4.5135763E-2,6.5051066E-3,-3.254191E-1,-1.1548538E-1,-4.6016425E-2,0E0,1.1129756E-1,6.656848E-1,5.7633504E-2,7.3590463E-1,-4.8560074E-1,-4.873748E-1,-3.3017367E-1,-4.341897E-2,-2.5449008E-2,4.288526E-3,5.0338304E-1,-4.158775E-2,-1.6857032E-2,-3.727983E-2,2.5E-1,-1.6336394E-2,1.1005671E-1,-4.2550158E-2,-2.850761E-2,-3.570391E-2,-1.7880343E-2,1.7270597E-2,-2.2903938E-2],"split_indices":[10,10,56,10,0,35,0,10,44,35,0,10,0,73,3,51,1,10,52,0,0,0,18,0,0,0,1,0,0,0,0,0,0,0,0],"split_type":[0,0,0,0,0,0,0,0,0,0,0,0,0,0,0,0,0,0,0,0,0,0,0,0,0,0,0,0,0,0,0,0,0,0,0],"sum_hessian":[5.515062E2,4.5248648E2,9.901974E1,4.3756573E2,1.49207535E1,7.3236725E1,2.5783012E1,3.4299185E2,9.457387E1,6.1067787E1,1.2168938E1,3.239167E2,1.9075178E1,4.539395E1,4.9179913E1,3.0797295E1,3.0270493E1,2.3424919E2,8.966749E1,3.8705593E1,6.6883583E0,5.0879693E0,4.4091946E1,2.4046658E1,6.750637E0,8.428642E0,2.1841852E1,2.1441219E2,1.983701E1,4.351038E1,4.6157112E1,3.7794167E1,6.297779E0,9.13441E0,1.2707442E1],"tree_param":{"num_deleted":"0","num_feature":"86","num_nodes":"35","size_leaf_vector":"1"}},{"base_weights":[-2.5991422E-1,-1.5208821E-1,-6.319705E-1,-2.929608E-1,1.11029565E-1,-4.6897438E-1,-8.086854E-1,-1.5067516E-1,-6.162731E-1,-7.034165E-1,-2.9126194E-1,-4.4574674E-2,-5.2110237E-1,-3.748481E-1,1.09051764E-1,-7.47555E-1,-4.898696E-1,-5.2135015E-1,-4.4250138E-2,-6.354841E-1,-6.47473E-2,-1.2594925E-2,-3.739385E-2,-1.6932838E-1,-6.180925E-1,-6.690712E-1,-4.6192985E-2,-5.8345273E-2,-6.564015E-1,-1.1055383E-2,-3.217966E-2,-4.179705E-2,-1.4967135E-2,-2.8936867E-2,1.2770866E-1,-3.0442372E-2,1.18212834E-1,-3.948556E-2,-2.278431E-2,-2.6974946E-2,-4.2963766E-2,1.1264729E-2,-2.7230535E-2,-3.8307127E-2,-1.5550789E-2,2.1524988E-2,-1.4510385E-2],"categories":[],"categories_nodes":[],"categories_segments":[],"categories_sizes":[],"default_left":[0,0,0,0,0,0,0,0,0,0,0,0,0,0,0,0,0,0,0,0,0,0,0,0,0,0,0,0,0,0,0,0,0,0,0,0,0,0,0,0,0,0,0,0,0,0,0],"id":22,"left_children":[1,3,5,7,-1,9,11,13,15,17,19,-1,21,23,-1,25,27,29,-1,31,33,-1,-1,35,37,39,-1,41,43,-1,-1,-1,-1,-1,45,-1,-1,-1,-1,-1,-1,-1,-1,-1,-1,-1,-1],"loss_changes":[2.1615112E1,1.4133708E2,3.114231E0,1.822548E1,0E0,2.5228987E0,8.883934E-1,1.4604399E2,1.6477966E0,4.4855118E-1,2.9957244E0,0E0,7.339668E-1,1.26092E1,0E0,1.7934418E-1,4.6135654E0,4.5144176E-1,0E0,7.837081E-1,2.507753E0,0E0,0E0,1.56477E2,2.875885E0,6.0863686E-1,0E0,2.7601864E0,1.5283775E0,0E0,0E0,0E0,0E0,0E0,2.4938426E0,0E0,0E0,0E0,0E0,0E0,0E0,0E0,0E0,0E0,0E0,0E0,0E0],"parents":[2147483647,0,0,1,1,2,2,3,3,5,5,6,6,7,7,8,8,9,9,10,10,12,12,13,13,15,15,16,16,17,17,19,19,20,20,23,23,24,24,25,25,27,27,28,28,34,34],"right_children":[2,4,6,8,-1,10,12,14,16,18,20,-1,22,24,-1,26,28,30,-1,32,34,-1,-1,36,38,40,-1,42,44,-1,-1,-1,-1,-1,46,-1,-1,-1,-1,-1,-1,-1,-1,-1,-1,-1,-1],"split_conditions":[3.3333334E-1,8.0334896E-5,9.9167305E-1,0E0,1.11029565E-1,-2.4366285E-1,3.0208714E-3,-3.254191E-1,-9.956404E-1,5.472009E-2,-2.4448346E-1,-4.4574674E-2,7.710057E-2,-3.3333334E-1,1.09051764E-1,5.5503374E-1,1E0,-5E-1,-4.4250138E-2,1.13703355E-1,-2.8662732E-1,-1.2594925E-2,-3.739385E-2,-6.5539265E-1,-9.956404E-1,3.364432E-1,-4.6192985E-2,3.3333334E-1,4.7591344E-1,-1.1055383E-2,-3.217966E-2,-4.179705E-2,-1.4967135E-2,-2.8936867E-2,2.4924478E-1,-3.0442372E-2,1.18212834E-1,-3.948556E-2,-2.278431E-2,-2.6974946E-2,-4.2963766E-2,1.1264729E-2,-2.7230535E-2,-3.8307127E-2,-1.5550789E-2,2.1524988E-2,-1.4510385E-2],"split_indices":[44,44,2,44,0,18,57,44,9,68,1,0,72,44,0,69,41,18,0,71,68,0,0,44,9,70,0,72,43,0,0,0,0,0,20,0,0,0,0,0,0,0,0,0,0,0,0],"split_type":[0,0,0,0,0,0,0,0,0,0,0,0,0,0,0,0,0,0,0,0,0,0,0,0,0,0,0,0,0,0,0,0,0,0,0,0,0,0,0,0,0,0,0,0,0,0,0],"sum_hessian":[5.4019293E2,4.199078E2,1.2028511E2,3.972014E2,2.2706425E1,6.4472015E1,5.5813087E1,2.768356E2,1.2036578E2,2.6523481E1,3.794854E1,4.1704536E1,1.4108551E1,2.5332037E2,2.351523E1,5.6633034E1,6.3732754E1,1.5177217E1,1.1346264E1,1.4344495E1,2.3604044E1,7.415914E0,6.6926374E0,1.3822704E2,1.1509334E2,4.2506012E1,1.4127019E1,1.8122736E1,4.561002E1,5.204107E0,9.97311E0,8.054402E0,6.290092E0,5.883617E0,1.7720427E1,1.1844008E2,1.9786957E1,5.4081512E1,6.101183E1,2.7564638E1,1.4941375E1,1.1785126E1,6.33761E0,3.368796E1,1.1922059E1,1.0258078E1,7.46235E0],"tree_param":{"num_deleted":"0","num_feature":"86","num_nodes":"47","size_leaf_vector":"1"}},{"base_weights":[-2.614859E-1,-7.4215835E-1,-1.8436585E-1,-5.705067E-1,-4.24973E-2,1.0558224E-1,-2.5012246E-1,-3.9937045E-2,-3.2236966E-1,-5.294501E-1,-7.723794E-2,-1.9471346E-3,-2.896875E-2,-3.0798718E-1,-6.516117E-1,1.0173347E-1,-2.0978406E-1,-2.0278692E-3,-5.3157955E-1,-7.2515696E-1,-3.673798E-1,-6.2107784E-1,-7.617165E-2,-2.6335645E-2,1.4289133E-2,-3.8460206E-2,-1.5615851E-2,-2.9609907E-2,-4.257414E-2,-3.4896296E-2,-2.4829635E-3,-1.8217053E-2,-3.9360177E-2,1.0518416E-1,-8.473893E-3],"categories":[],"categories_nodes":[],"categories_segments":[],"categories_sizes":[],"default_left":[0,0,0,0,0,0,0,0,0,0,0,0,0,0,0,0,0,0,0,0,0,0,0,0,0,0,0,0,0,0,0,0,0,0,0],"id":23,"left_children":[1,3,5,7,-1,-1,9,-1,11,13,15,-1,-1,17,19,-1,21,23,25,27,29,31,33,-1,-1,-1,-1,-1,-1,-1,-1,-1,-1,-1,-1],"loss_changes":[1.9671112E1,8.758812E-1,7.024953E1,1.5214272E0,0E0,0E0,2.1682283E1,0E0,1.1958032E0,4.4473724E0,7.853439E1,0E0,0E0,4.3070183E0,2.0294724E0,0E0,1.4430779E1,4.31742E0,1.6552925E0,9.4403076E-1,2.5492604E0,2.4624844E0,4.103484E1,0E0,0E0,0E0,0E0,0E0,0E0,0E0,0E0,0E0,0E0,0E0,0E0],"parents":[2147483647,0,0,1,1,2,2,3,3,6,6,8,8,9,9,10,10,13,13,14,14,16,16,17,17,18,18,19,19,20,20,21,21,22,22],"right_children":[2,4,6,8,-1,-1,10,-1,12,14,16,-1,-1,18,20,-1,22,24,26,28,30,32,34,-1,-1,-1,-1,-1,-1,-1,-1,-1,-1,-1,-1],"split_conditions":[-9.7801346E-1,0E0,-6.666667E-1,-9.80026E-1,-4.24973E-2,1.0558224E-1,-4.3384263E-1,-3.9937045E-2,9.8473513E-1,0E0,0E0,-1.9471346E-3,-2.896875E-2,0E0,6.251925E-1,1.0173347E-1,-4.954884E-1,-2.1695727E-1,1.3228813E-2,5.8319396E-1,5.712014E-3,0E0,-2.5E-1,-2.6335645E-2,1.4289133E-2,-3.8460206E-2,-1.5615851E-2,-2.9609907E-2,-4.257414E-2,-3.4896296E-2,-2.4829635E-3,-1.8217053E-2,-3.9360177E-2,1.0518416E-1,-8.473893E-3],"split_indices":[11,10,11,10,0,0,33,0,8,32,33,0,0,18,0,0,18,71,41,32,2,11,18,0,0,0,0,0,0,0,0,0,0,0,0],"split_type":[0,0,0,0,0,0,0,0,0,0,0,0,0,0,0,0,0,0,0,0,0,0,0,0,0,0,0,0,0,0,0,0,0,0,0],"sum_hessian":[5.333464E2,7.2547874E1,4.6079846E2,3.0411093E1,4.213678E1,1.1963355E1,4.488351E2,1.4685004E1,1.5726089E1,1.7080496E2,2.7803015E2,8.026235E0,7.6998534E0,6.1974503E1,1.0883046E2,1.5571582E1,2.6245856E2,2.6593525E1,3.5380978E1,8.52267E1,2.3603765E1,6.3460938E1,1.9899763E2,9.126197E0,1.7467329E1,1.5775852E1,1.9605125E1,4.4294403E1,4.0932293E1,1.09818945E1,1.2621871E1,2.618572E1,3.7275215E1,7.283837E0,1.9171379E2],"tree_param":{"num_deleted":"0","num_feature":"86","num_nodes":"35","size_leaf_vector":"1"}},{"base_weights":[-2.4758239E-1,-1.4195892E-1,-5.830709E-1,-2.8639576E-1,7.893352E-2,-7.6809514E-1,-4.1465428E-1,-7.072765E-1,-1.9790602E-1,-4.2857315E-2,-6.0887605E-1,1.3903956E-1,-7.1771353E-1,-8.271533E-1,-5.605562E-1,1.00993335E-1,-2.880425E-1,-1.5648277E-2,-3.758153E-2,-6.170626E-1,-4.3903694E-2,-4.6487335E-2,-6.0097855E-1,-3.6236432E-1,-3.8340207E-2,-6.8062675E-1,-1.7525321E-1,-4.5212013E-1,-4.1839946E-2,-4.0096916E-2,-1.4108111E-2,-2.9395223E-2,7.263694E-4,-4.2933073E-2,-2.5204232E-2,1.09286025E-1,-1.6359612E-2,-4.0252935E-2,-1.591527E-2],"categories":[],"categories_nodes":[],"categories_segments":[],"categories_sizes":[],"default_left":[0,0,0,0,0,0,0,0,0,0,0,0,0,0,0,0,0,0,0,0,0,0,0,0,0,0,0,0,0,0,0,0,0,0,0,0,0,0,0],"id":24,"left_children":[1,3,5,7,-1,9,11,13,15,-1,17,-1,19,21,23,-1,25,-1,-1,27,-1,-1,29,31,-1,33,35,37,-1,-1,-1,-1,-1,-1,-1,-1,-1,-1,-1],"loss_changes":[1.842694E1,9.9512085E1,3.568985E0,1.35870495E1,0E0,3.0433273E-1,6.734519E1,6.556854E-1,6.1738354E1,0E0,7.935467E-1,0E0,4.6582413E-1,2.0516777E-1,1.0187197E0,0E0,1.2936876E1,0E0,0E0,1.1337671E0,0E0,0E0,6.1312294E-1,1.5446992E0,0E0,1.6246071E0,8.336493E1,9.720006E-1,0E0,0E0,0E0,0E0,0E0,0E0,0E0,0E0,0E0,0E0,0E0],"parents":[2147483647,0,0,1,1,2,2,3,3,5,5,6,6,7,7,8,8,10,10,12,12,13,13,14,14,16,16,19,19,22,22,23,23,25,25,26,26,27,27],"right_children":[2,4,6,8,-1,10,12,14,16,-1,18,-1,20,22,24,-1,26,-1,-1,28,-1,-1,30,32,-1,34,36,38,-1,-1,-1,-1,-1,-1,-1,-1,-1,-1,-1],"split_conditions":[9.929035E-1,3.4736912E-3,5.0233626E-1,-7.3404413E-1,7.893352E-2,1.1368593E-2,7.5E-1,6.883713E-2,-5E-1,-4.2857315E-2,5E-1,1.3903956E-1,9.893299E-1,3.1507157E-3,4.3594196E-2,1.00993335E-1,-4.9306208E-1,-1.5648277E-2,-3.758153E-2,9.9074745E-1,-4.3903694E-2,-4.6487335E-2,-8.148162E-2,-2.699753E-1,-3.8340207E-2,3.0208714E-3,-2.5E-1,-5.914658E-1,-4.1839946E-2,-4.0096916E-2,-1.4108111E-2,-2.9395223E-2,7.263694E-4,-4.2933073E-2,-2.5204232E-2,1.09286025E-1,-1.6359612E-2,-4.0252935E-2,-1.591527E-2],"split_indices":[56,56,20,20,0,1,20,5,20,0,1,0,55,55,67,0,20,0,0,54,0,0,43,67,0,7,20,5,0,0,0,0,0,0,0,0,0,0,0],"split_type":[0,0,0,0,0,0,0,0,0,0,0,0,0,0,0,0,0,0,0,0,0,0,0,0,0,0,0,0,0,0,0,0,0,0,0,0,0,0,0],"sum_hessian":[5.213499E2,3.9759595E2,1.2375392E2,3.6757382E2,3.0022133E1,5.7272774E1,6.648115E1,6.264148E1,3.0493234E2,3.391865E1,2.3354124E1,5.0507283E0,6.143042E1,3.1922115E1,3.0719366E1,1.1073137E1,2.9385922E2,8.639E0,1.4715124E1,4.072018E1,2.071024E1,1.9820673E1,1.2101442E1,1.7071558E1,1.3647806E1,6.445991E1,2.293993E2,2.500673E1,1.5713452E1,6.49321E0,5.6082325E0,1.0329992E1,6.741566E0,3.0170523E1,3.4289387E1,1.3060911E1,2.163384E2,5.4956484E0,1.9511082E1],"tree_param":{"num_deleted":"0","num_feature":"86","num_nodes":"39","size_leaf_vector":"1"}},{"base_weights":[-2.3763144E-1,-1.4950229E-1,-6.558622E-1,-2.3013727E-1,1.0162878E-1,-7.834351E-1,-5.043972E-1,-1.0894701E-1,-6.826901E-1,-1.6201662E-2,-8.372796E-1,-6.371808E-1,-2.049573E-1,-2.4626401E-1,1.0365778E-1,-5.8427936E-1,-4.144199E-2,-4.6923216E-2,-6.4542586E-1,-3.536362E-1,-4.009838E-2,-3.1120813E-2,6.714247E-3,-8.492321E-2,-6.6497034E-1,-3.9719258E-2,-4.3161768E-1,-1.5521503E-2,-3.7867147E-2,-5.702575E-3,-2.830179E-2,-1.4875308E-2,1.0253284E-1,-2.5823219E-2,-4.0821988E-2,-9.095586E-3,-3.2854386E-2],"categories":[],"categories_nodes":[],"categories_segments":[],"categories_sizes":[],"default_left":[0,0,0,0,0,0,0,0,0,0,0,0,0,0,0,0,0,0,0,0,0,0,0,0,0,0,0,0,0,0,0,0,0,0,0,0,0],"id":25,"left_children":[1,3,5,7,-1,9,11,13,15,-1,17,19,21,23,-1,25,-1,-1,27,29,-1,-1,-1,31,33,-1,35,-1,-1,-1,-1,-1,-1,-1,-1,-1,-1],"loss_changes":[1.8833033E1,7.533889E1,1.3264427E0,2.2480896E1,0E0,8.802986E-1,1.6006565E0,9.80662E1,7.6239014E-1,0E0,1.9098091E-1,1.1036949E0,2.1867309E0,2.0695913E1,0E0,1.4272995E0,0E0,0E0,4.1625643E-1,5.8181393E-1,0E0,0E0,0E0,1.0180164E2,1.4970894E0,0E0,1.8033466E0,0E0,0E0,0E0,0E0,0E0,0E0,0E0,0E0,0E0,0E0],"parents":[2147483647,0,0,1,1,2,2,3,3,5,5,6,6,7,7,8,8,10,10,11,11,12,12,13,13,15,15,18,18,19,19,23,23,24,24,26,26],"right_children":[2,4,6,8,-1,10,12,14,16,-1,18,20,22,24,-1,26,-1,-1,28,30,-1,-1,-1,32,34,-1,36,-1,-1,-1,-1,-1,-1,-1,-1,-1,-1],"split_conditions":[1E0,5.234822E-1,5.2206162E-3,5E-1,1.0162878E-1,-2.3382362E-2,4.3431473E-1,6.5051066E-3,2.851729E-1,-1.6201662E-2,7.303064E-7,-7.731338E-2,1.3228813E-2,0E0,1.0365778E-1,-1.25814E-1,-4.144199E-2,-4.6923216E-2,-3.5745806E-1,9.9736786E-1,-4.009838E-2,-3.1120813E-2,6.714247E-3,-4.873748E-1,0E0,-3.9719258E-2,-5.000821E-2,-1.5521503E-2,-3.7867147E-2,-5.702575E-3,-2.830179E-2,-1.4875308E-2,1.0253284E-1,-2.5823219E-2,-4.0821988E-2,-9.095586E-3,-3.2854386E-2],"split_indices":[10,10,71,10,0,41,70,10,69,0,80,20,41,10,0,35,0,0,43,2,0,0,0,10,44,0,73,0,0,0,0,0,0,0,0,0,0],"split_type":[0,0,0,0,0,0,0,0,0,0,0,0,0,0,0,0,0,0,0,0,0,0,0,0,0,0,0,0,0,0,0,0,0,0,0,0,0],"sum_hessian":[5.126176E2,4.2452054E2,8.809707E1,4.1025482E2,1.4265736E1,4.5555294E1,4.2541775E1,3.2457642E2,8.567839E1,5.5154386E0,4.0039856E1,2.8691088E1,1.3850686E1,3.061951E2,1.838133E1,5.4188244E1,3.1490149E1,2.3666477E1,1.6373379E1,1.1701915E1,1.6989172E1,5.835281E0,8.015405E0,2.218948E2,8.430027E1,2.1034811E1,3.315343E1,5.045297E0,1.1328082E1,6.221307E0,5.480608E0,2.025891E2,1.9305721E1,4.4793163E1,3.950711E1,1.6588562E1,1.656487E1],"tree_param":{"num_deleted":"0","num_feature":"86","num_nodes":"37","size_leaf_vector":"1"}},{"base_weights":[-2.3383005E-1,-7.19884E-1,-1.5658937E-1,-4.615227E-1,-7.8355825E-1,9.78708E-2,-2.2017552E-1,6.824903E-3,-3.7366837E-2,-4.2532396E-2,-5.455069E-1,-1.2619977E-1,-6.7304415E-1,-3.7040436E-3,-3.99301E-2,-2.3897658E-1,1.1058494E-1,-5.223359E-1,-4.1182693E-2,-1.1325065E-1,-6.7789024E-1,-4.018652E-2,-3.9069936E-1,-1.4335592E-2,1.11972384E-1,-2.6865352E-2,-4.206435E-2,-7.2078407E-3,-3.0393908E-2],"categories":[],"categories_nodes":[],"categories_segments":[],"categories_sizes":[],"default_left":[0,0,0,0,0,0,0,0,0,0,0,0,0,0,0,0,0,0,0,0,0,0,0,0,0,0,0,0,0],"id":26,"left_children":[1,3,5,7,9,-1,11,-1,-1,-1,13,15,17,-1,-1,19,-1,21,-1,23,25,-1,27,-1,-1,-1,-1,-1,-1],"loss_changes":[1.8827831E1,7.718544E-1,5.911944E1,2.84643E0,3.9590073E-1,0E0,1.7991875E1,0E0,0E0,0E0,1.6859689E0,9.359749E1,1.2213631E0,0E0,0E0,1.8555489E1,0E0,1.1344318E0,0E0,1.08243965E2,1.2703629E0,0E0,1.4430037E0,0E0,0E0,0E0,0E0,0E0,0E0],"parents":[2147483647,0,0,1,1,2,2,3,3,4,4,6,6,10,10,11,11,12,12,15,15,17,17,19,19,20,20,22,22],"right_children":[2,4,6,8,10,-1,12,-1,-1,-1,14,16,18,-1,-1,20,-1,22,-1,24,26,-1,28,-1,-1,-1,-1,-1,-1],"split_conditions":[-9.7801346E-1,-4.8218444E-1,-6.666667E-1,-3.7925813E-1,3.0208714E-3,9.78708E-2,6.666667E-1,6.824903E-3,-3.7366837E-2,-4.2532396E-2,0E0,3.4139988E-1,3.3268575E-2,-3.7040436E-3,-3.99301E-2,3.3333334E-1,1.1058494E-1,-4.13475E-1,-4.1182693E-2,4.9052197E-3,7.2365515E-7,-4.018652E-2,1.7598744E-1,-1.4335592E-2,1.11972384E-1,-2.6865352E-2,-4.206435E-2,-7.2078407E-3,-3.0393908E-2],"split_indices":[11,72,11,36,57,0,11,0,0,0,10,11,66,0,0,11,0,32,0,11,80,0,35,0,0,0,0,0,0],"split_type":[0,0,0,0,0,0,0,0,0,0,0,0,0,0,0,0,0,0,0,0,0,0,0,0,0,0,0,0,0],"sum_hessian":[5.035012E2,6.790076E1,4.3560043E2,1.5056495E1,5.284426E1,1.1849937E1,4.237505E2,5.037903E0,1.0018592E1,3.92181E1,1.362616E1,3.519875E2,7.176302E1,5.211567E0,8.414593E0,3.3664594E2,1.5341527E1,3.8103123E1,3.3659897E1,2.626643E2,7.398163E1,1.0516567E1,2.7586557E1,2.4544604E2,1.7218266E1,4.2072044E1,3.1909586E1,1.3699071E1,1.3887486E1],"tree_param":{"num_deleted":"0","num_feature":"86","num_nodes":"29","size_leaf_vector":"1"}}]},"name":"gbtree"},"learner_model_param":{"base_score":"1.6605246E-1","boost_from_average":"1","num_class":"0","num_feature":"86","num_target":"1"},"objective":{"name":"binary:logistic","reg_loss_param":{"scale_pos_weight":"0.106847696"}}},"version":[3,0,2]}